<?xml version="1.0"?>
<opencv_storage>
<my_svm type_id="opencv-ml-svm">
  <svm_type>C_SVC</svm_type>
  <kernel><type>LINEAR</type></kernel>
  <C>1.</C>
  <term_criteria><epsilon>2.2204460492503131e-16</epsilon>
    <iterations>100</iterations></term_criteria>
  <var_all>3780</var_all>
  <var_count>3780</var_count>
  <class_count>2</class_count>
  <class_labels type_id="opencv-matrix">
    <rows>1</rows>
    <cols>2</cols>
    <dt>i</dt>
    <data>
      -1 1</data></class_labels>
  <sv_total>1</sv_total>
  <support_vectors>
    <_>
      -6.98553175e-02 1.11661339e-02 2.43531819e-02 -2.56785769e-02
      7.15589374e-02 -2.91556753e-02 2.39020158e-02 5.48928827e-02
      -4.19096090e-02 -7.16633201e-02 -3.47074755e-02 9.24563064e-05
      -4.28834632e-02 6.40870184e-02 -2.47900467e-02 1.21196602e-02
      8.50966386e-03 1.79690290e-02 4.58079539e-02 -6.91975374e-03
      -6.07900694e-02 7.92659353e-03 5.76312244e-02 -8.39168672e-03
      -1.97857544e-02 -4.08661924e-02 -3.32069993e-02 2.30900813e-02
      -2.93374453e-02 -2.71624699e-02 1.57476235e-02 7.19179958e-02
      -4.55229580e-02 2.53250240e-03 -3.49818356e-02 -3.35061662e-02
      6.95741083e-03 1.39290355e-02 -4.38577533e-02 7.80936703e-03
      3.89508205e-03 1.24542098e-02 2.01724693e-02 -1.80515368e-02
      3.26406443e-03 -2.26805881e-02 -3.10671329e-02 -2.20650472e-02
      -4.61866753e-03 -2.40495168e-02 -4.92769554e-02 1.02678221e-02
      2.66644098e-02 -1.30879106e-02 -2.41756942e-02 -6.62910640e-02
      -7.84042031e-02 3.48460190e-02 -3.75950267e-03 -2.98142340e-02
      -4.91985469e-04 1.58099830e-02 2.59783734e-02 3.14026214e-02
      -6.78587183e-02 -4.99067530e-02 1.37323374e-02 -9.87872556e-02
      -2.93426178e-02 -2.27419566e-02 -1.87749080e-02 4.48256247e-02
      -4.19584960e-02 -6.56853244e-02 3.59127000e-02 3.10568116e-03
      -8.15433357e-03 -2.04477869e-02 1.41260475e-02 3.15892622e-02
      -1.74183883e-02 -7.78370649e-02 1.92331173e-03 1.03027634e-01
      3.11066285e-02 4.87084426e-02 -5.98735213e-02 -6.99848980e-02
      -3.28967609e-02 -4.32646759e-02 4.39709388e-02 -2.90195663e-02
      -8.72597098e-03 -1.50843393e-02 -4.56416979e-02 -1.01028690e-02
      6.71783239e-02 6.48806477e-03 5.27973808e-02 -8.48997086e-02
      3.82150747e-02 -6.08674157e-03 -2.72671822e-02 6.90420568e-02
      1.04161138e-02 4.24690209e-02 2.87592728e-02 -2.06374675e-02
      -1.91375054e-02 1.30471410e-02 6.57407194e-02 -3.42405364e-02
      4.50822152e-02 -6.95706829e-02 -1.66638140e-02 8.80250800e-03
      -2.99401931e-03 3.95650901e-02 -1.01453736e-02 -1.33662077e-03
      -9.28378925e-02 1.84743144e-02 -2.37106774e-02 1.68867293e-03
      -8.66976846e-03 -1.95072107e-02 -9.98433121e-03 -5.54484921e-03
      1.21810958e-02 -1.01913316e-02 7.50797912e-02 -1.79628078e-02
      1.55814067e-02 3.87648977e-02 1.73042715e-02 4.14195098e-02
      1.15083335e-02 -2.67489124e-02 -6.10249639e-02 -1.98104549e-02
      -9.58274025e-03 2.73089800e-02 6.88424185e-02 -9.59395804e-03
      1.34846531e-02 -3.63385901e-02 2.02276930e-02 -3.59804183e-02
      9.32904780e-02 -1.89582799e-02 1.44183394e-02 -7.00667850e-04
      -3.87303159e-02 4.43347869e-03 -6.89215288e-02 9.42907259e-02
      1.71941947e-02 2.11548228e-02 -8.84117410e-02 -6.79207593e-02
      -1.10810082e-02 -4.29103449e-02 8.54533818e-03 -1.33619951e-02
      -2.41074357e-02 -6.11960217e-02 5.28104715e-02 -3.01955361e-02
      4.97425068e-03 -1.66881997e-02 -2.70133652e-02 2.84493305e-02
      5.09183062e-03 4.73347120e-03 -1.21498602e-02 1.11334827e-02
      -1.87028609e-02 1.21786455e-02 5.25279976e-02 -2.82646026e-02
      -4.07511704e-02 -4.89012189e-02 2.38511674e-02 -1.14882411e-02
      4.05003875e-02 -2.32595485e-02 -1.36059728e-02 -8.74063652e-03
      -3.00893933e-02 -4.51374836e-02 5.25333034e-03 1.82487890e-02
      -1.75907370e-02 8.33237991e-02 -2.06696615e-02 -5.30855358e-03
      5.78391226e-03 -1.38703808e-02 5.75294048e-02 1.81602631e-02
      -3.75175243e-03 -6.20020628e-02 7.31488038e-03 -3.04117203e-02
      2.33563464e-02 3.16825621e-02 -2.44262833e-02 5.33178635e-02
      5.40638389e-03 -7.35561503e-03 -4.48631495e-02 2.67703608e-02
      -3.55522558e-02 -3.40069830e-02 4.01260108e-02 3.44121270e-02
      -2.60914359e-02 1.23027544e-02 6.71445057e-02 1.37681914e-02
      3.79902162e-02 -3.05514093e-02 -3.80500294e-02 -4.72344384e-02
      -4.93151993e-02 -1.30199362e-02 4.47754525e-02 5.09160943e-02
      -2.21888162e-02 2.61115320e-02 3.92524786e-02 -7.54321441e-02
      -1.94923915e-02 -2.86639221e-02 5.75632267e-02 -6.07824884e-03
      7.20750587e-03 -4.89069847e-03 -7.17535289e-03 -3.36592421e-02
      1.37049137e-02 3.17594446e-02 -2.02074647e-03 8.47667903e-02
      9.38404631e-03 -3.82396905e-03 -2.80106012e-02 7.76626691e-02
      4.43893559e-02 6.26351824e-03 1.15289437e-02 -2.59609730e-03
      -4.58175391e-02 2.26138346e-02 6.03396818e-02 7.76671106e-03
      7.40747526e-02 7.80041143e-02 4.68532518e-02 7.90242627e-02
      -4.54917252e-02 -8.84270761e-03 -3.83735821e-02 -1.81698408e-02
      -2.90959924e-02 6.90067485e-02 -2.90902401e-03 3.99316959e-02
      1.51451323e-02 -4.08844203e-02 -2.74274207e-04 1.18106948e-02
      -3.30088958e-02 -3.52235627e-03 4.83462252e-02 1.86098050e-02
      1.36264251e-03 4.94109914e-02 2.33315444e-03 2.97289379e-02
      2.00645346e-02 -5.93892410e-02 7.59397587e-03 2.46334113e-02
      -2.74900217e-02 5.02212085e-02 3.57308798e-02 5.64696500e-03
      -8.15304276e-03 -5.62271364e-02 -3.40620354e-02 -5.04845232e-02
      5.12719154e-02 -4.22756420e-03 -5.69750229e-03 6.54675066e-03
      -6.53776750e-02 -5.04869735e-03 1.48257439e-03 1.49064604e-03
      -4.18976508e-02 5.26260808e-02 8.02355818e-03 2.17127260e-02
      3.54217887e-02 -6.58880025e-02 4.03532796e-02 -3.77400666e-02
      -6.99433163e-02 2.63212202e-03 -2.18723528e-02 -1.06521845e-02
      3.71894017e-02 -5.88669535e-03 -3.46286804e-03 8.27978551e-02
      -3.19445580e-02 -1.07738348e-02 1.19064096e-02 4.45737764e-02
      -4.67379875e-02 -1.98175032e-02 1.02865119e-02 4.78226207e-02
      -9.00014117e-03 -4.02977876e-02 -1.05443420e-02 -5.86714596e-02
      3.00631598e-02 -3.25914100e-02 2.27510557e-02 -4.04125713e-02
      -9.10303369e-02 1.25317108e-02 3.67703801e-03 9.45615862e-03
      1.05131837e-02 3.73363234e-02 2.78543239e-03 -1.64218489e-02
      -7.19555244e-02 -9.38302430e-04 2.60875355e-02 -1.90720726e-02
      3.07209301e-03 -9.64511465e-03 2.27779448e-02 -8.37592706e-02
      -5.67313172e-02 1.00740464e-02 -1.67308412e-02 6.62862659e-02
      4.71122116e-02 8.62455294e-02 2.15967279e-02 3.42788361e-02
      -1.38635971e-02 1.86318886e-02 1.95305869e-02 7.57326260e-02
      -4.24889289e-03 1.85099412e-02 1.88095905e-02 5.16326614e-02
      4.31176610e-02 1.97055694e-02 -3.16044986e-02 3.54561731e-02
      3.49624897e-03 1.17987869e-02 1.57252662e-02 -2.28916295e-02
      -9.44476388e-03 7.49179348e-02 1.60642080e-02 -1.63040566e-03
      6.43026233e-02 4.79126908e-02 5.46443053e-02 7.03657372e-03
      1.83937866e-02 8.29050783e-03 1.96841061e-02 4.81298789e-02
      2.43963152e-02 6.57903180e-02 1.01048023e-01 2.18210556e-02
      -3.21155749e-02 -1.87192820e-02 7.78191863e-03 6.05688468e-02
      -4.71065715e-02 -2.82144807e-02 -1.86384302e-02 3.83820869e-02
      1.54364770e-02 2.96753347e-02 -7.89280329e-03 -9.83988494e-03
      8.90846327e-02 5.10830991e-02 4.69214581e-02 -3.05112731e-02
      4.17430662e-02 7.40212621e-03 -2.21306179e-03 8.54630303e-03
      -2.02321820e-02 8.24699849e-02 5.21777123e-02 1.35996602e-02
      -4.25320342e-02 4.23377044e-02 -2.53278576e-02 -4.81793992e-02
      6.95164362e-03 5.77271497e-03 2.65828390e-02 -5.51346242e-02
      2.75079459e-02 1.90155243e-03 -1.82320699e-02 3.38006318e-02
      -2.81571187e-02 -1.19060492e-02 -4.64692116e-02 -1.35012157e-02
      -3.28195728e-02 -5.57132065e-03 -3.25743444e-02 2.98100896e-02
      -3.64741944e-02 9.95201524e-04 1.44333532e-02 -3.38551998e-02
      6.24732040e-02 -5.40160760e-03 9.66663938e-03 -1.06718149e-02
      -7.87099916e-03 -5.68833016e-02 -1.52211236e-02 2.68615894e-02
      -5.13622761e-02 8.96069184e-02 -4.27006781e-02 -1.89694781e-02
      -1.14463782e-03 -1.91251561e-03 3.58719677e-02 -4.05374765e-02
      -9.15806554e-03 -2.42643654e-02 1.21644447e-02 -1.11305900e-02
      5.01418374e-02 2.63174586e-02 3.89568582e-02 -1.92997809e-02
      -1.54845426e-02 5.33041917e-02 -6.25022268e-03 5.21222912e-02
      -2.42391173e-02 9.45137367e-02 9.52682421e-02 9.88902710e-03
      -7.08863363e-02 -1.62478094e-03 2.74765324e-02 -5.14885224e-02
      3.93933989e-02 -1.27317067e-02 1.21000065e-02 -1.90090574e-02
      -5.68698533e-02 3.50960507e-03 3.09952423e-02 2.61571687e-02
      1.07739531e-02 1.44405901e-01 1.03979185e-02 -6.11515157e-03
      -2.16611456e-02 -3.08780931e-02 -3.29695009e-02 8.34360544e-04
      5.06183952e-02 5.38027799e-03 5.34696095e-02 -2.98651326e-02
      -9.97167663e-04 2.71915123e-02 -3.56480479e-03 4.58837934e-02
      4.64902213e-03 2.38420535e-03 8.75188857e-02 4.58443202e-02
      -9.82042477e-02 -4.96925488e-02 2.37347726e-02 1.13468105e-02
      -1.99947786e-02 -1.12070236e-02 4.26710136e-02 2.76950258e-03
      1.14354111e-01 8.93701334e-03 1.64592601e-02 -1.81035809e-02
      -1.29758129e-02 -3.77931520e-02 -9.53978486e-03 1.64388195e-02
      -1.91904753e-02 5.25975227e-02 -2.58997828e-02 4.43851156e-03
      5.98104112e-02 -2.11790670e-02 3.40847448e-02 -5.64301386e-02
      -3.29553410e-02 6.40435740e-02 -9.40080080e-03 -4.58489023e-02
      -2.15175021e-02 4.20543700e-02 1.29264966e-02 9.58053570e-04
      -1.27654979e-02 1.17670568e-02 1.81572456e-02 1.46301007e-02
      3.80201079e-02 -6.80058554e-04 1.95968617e-02 -5.84751107e-02
      -5.32915583e-03 -2.36125402e-02 -3.10003925e-02 1.74374841e-02
      3.99187803e-02 -3.96666639e-02 -2.64047086e-02 2.26084720e-02
      -6.70511499e-02 -5.05192727e-02 2.43354943e-02 1.25084147e-02
      1.22449473e-02 7.97504634e-02 -1.39863864e-02 -1.65160075e-02
      2.68389788e-02 -3.12194563e-02 1.70030631e-02 9.20663495e-03
      -3.84840765e-03 -1.60583854e-02 1.40950577e-02 -7.81571046e-02
      -3.10821850e-02 -3.68848792e-03 -2.85932701e-03 2.91373371e-03
      -2.88015325e-02 8.18962045e-03 -4.67431806e-02 6.58409372e-02
      -4.96406630e-02 -1.06320363e-02 4.56955321e-02 7.46824604e-04
      -6.20690770e-02 -1.50800726e-04 2.10428750e-03 2.04847809e-02
      2.32925750e-02 -5.20009659e-02 -3.52365486e-02 7.27562606e-03
      -8.26044157e-02 -4.53841574e-02 -4.96811382e-02 2.84523070e-02
      2.32846905e-02 -2.37344089e-03 -6.48913234e-02 -5.24287261e-02
      -7.57654980e-02 -5.40600307e-02 6.58976063e-02 -4.85268515e-03
      1.44616831e-02 -2.93266284e-03 9.84693021e-02 -1.17199938e-03
      9.48757119e-03 4.71703783e-02 8.26732367e-02 -3.52994283e-03
      1.69741865e-02 4.83856872e-02 -3.25271226e-02 8.49158540e-02
      -2.95008440e-02 3.21061313e-02 4.29456495e-02 3.74294259e-02
      -5.68194548e-03 5.28879510e-03 5.29595464e-02 4.15603220e-02
      1.13108754e-02 -6.34345934e-02 1.85842197e-02 -6.51771128e-02
      -3.81565914e-02 -5.79176284e-02 -1.75716374e-02 2.17226278e-02
      4.79623526e-02 6.43607900e-02 1.26247751e-02 6.51578456e-02
      -4.34923079e-03 -3.94553915e-02 -1.23078153e-02 -2.67387535e-02
      7.07922056e-02 3.86827141e-02 5.25043681e-02 -7.88768346e-04
      7.18544945e-02 2.51455214e-02 1.34026017e-02 -9.28883106e-02
      -2.52615325e-02 2.98973266e-02 3.62172909e-02 6.94635976e-03
      6.54737279e-02 5.62612563e-02 1.17117502e-02 -1.17455022e-02
      -4.12389114e-02 -1.03252167e-02 3.99410017e-02 4.02615964e-02
      1.10319994e-01 5.26516512e-02 5.46263270e-02 -2.94477288e-02
      -5.44282608e-02 8.23705457e-03 -1.89684555e-02 -6.43418655e-02
      -1.58271566e-02 3.40732485e-02 -1.11924736e-02 -8.96735210e-03
      1.74709270e-03 1.58211810e-03 -7.21422955e-02 -2.66518313e-02
      -4.22139019e-02 -8.61777365e-03 3.40578780e-02 5.42311072e-02
      3.84897329e-02 -6.78341389e-02 8.49322695e-03 2.61334665e-02
      -2.85420958e-02 -4.07769643e-02 -3.39426403e-03 -2.64656451e-02
      -5.39287739e-02 -7.18156472e-02 -8.43773708e-02 2.14633923e-02
      3.10190432e-02 -3.46669764e-03 -5.81796430e-02 -2.52451338e-02
      7.66065344e-02 -1.34952366e-02 -1.77326482e-02 -2.48446292e-03
      6.12675969e-04 -3.84485512e-03 2.26106681e-02 -2.61887237e-02
      -1.34433834e-02 4.65877354e-02 -1.03913795e-03 -8.06072913e-03
      5.28320037e-02 -3.62365656e-02 -2.47260667e-02 -2.91159991e-02
      -2.68312655e-02 1.31261880e-02 -1.52430162e-02 -5.84494770e-02
      3.10688186e-02 -1.22501757e-02 -3.01609002e-02 1.64007805e-02
      -4.79739606e-02 -1.34902038e-02 -3.77656966e-02 9.69483480e-02
      -2.64899340e-02 3.60148512e-02 -1.89061482e-02 1.64732374e-02
      4.50061373e-02 2.41118725e-02 3.50330286e-02 4.60868934e-03
      -9.91127454e-03 -4.94212029e-04 4.73690853e-02 4.18543294e-02
      -3.32843326e-02 1.86865237e-02 -4.43492122e-02 1.48022361e-02
      1.64268631e-02 -3.14197913e-02 -3.01224589e-02 -1.17866024e-02
      -4.34611226e-04 -3.54119465e-02 3.75170372e-02 -6.43344456e-03
      6.24521896e-02 7.04168947e-03 9.37204957e-02 8.63420218e-03
      -2.94071250e-03 -1.45845106e-02 4.20812629e-02 -5.53420559e-02
      -1.74625907e-02 2.83719674e-02 9.06586647e-03 3.11042145e-02
      1.68124177e-02 -4.40084375e-02 -5.06769978e-02 -3.71282175e-02
      -1.15560656e-02 2.06723250e-02 2.80966610e-02 -4.15475108e-03
      3.29430355e-03 -2.80396156e-02 -1.63781457e-02 -4.79884772e-03
      -2.10046824e-02 2.93934881e-03 1.15239788e-02 1.54722212e-02
      1.67427715e-02 3.55579033e-02 4.49201912e-02 4.44518868e-03
      -5.52372960e-03 2.13900600e-02 -7.17031360e-02 -6.60666870e-03
      4.06582793e-03 1.83132645e-02 3.85704562e-02 -5.13864532e-02
      -1.23152174e-02 -2.93753687e-02 -2.04077158e-02 -1.99742876e-02
      6.92745075e-02 5.03713861e-02 6.73380354e-03 2.63669863e-02
      -4.17957976e-02 3.18004154e-02 -5.36800874e-03 6.30338117e-02
      -5.78996958e-03 6.05253084e-03 -4.07586657e-02 3.96245718e-02
      5.95275350e-02 1.89839229e-02 -3.83203849e-02 -3.29877473e-02
      6.81350986e-03 3.70691642e-02 1.92920491e-02 -6.66579381e-02
      1.56761575e-02 1.00332431e-01 6.26908522e-03 1.15431016e-02
      -2.23446870e-03 1.68645103e-02 -4.90117073e-02 3.74569111e-02
      -1.64072048e-02 -1.16201304e-02 -1.00969244e-02 -3.16140167e-02
      -1.72100458e-02 -2.33137775e-02 2.88078375e-02 3.63710672e-02
      6.63778465e-03 -5.05801663e-02 -1.33677144e-02 3.66634689e-02
      -2.91787665e-02 -5.73247485e-02 -1.49455678e-03 7.09359571e-02
      5.58307618e-02 -1.36990985e-02 -2.73228791e-02 2.51908023e-02
      3.87151800e-02 3.31052430e-02 6.07871916e-03 -3.59770730e-02
      -2.94115883e-03 6.57728687e-02 -3.55462879e-02 -5.26182465e-02
      -1.62425078e-03 3.80156096e-03 -3.49539220e-02 -3.27695869e-02
      -1.45785324e-02 2.06624642e-02 4.70883511e-02 -1.20074674e-02
      4.07774700e-03 -1.74406841e-02 5.93057908e-02 1.62354279e-02
      -1.86254475e-02 -1.00859292e-02 3.83554846e-02 2.08205692e-02
      -4.03560698e-02 -1.26697333e-03 -4.65412624e-02 -2.19094083e-02
      2.79714596e-02 2.42838301e-02 2.90516950e-02 -3.98135744e-03
      5.53689376e-02 3.11428448e-03 1.21811768e-02 3.61893736e-02
      3.07028089e-02 -5.79398945e-02 -2.34138463e-02 -3.51340510e-02
      -1.29138550e-03 4.37536016e-02 -1.56712625e-02 9.06124040e-02
      7.49081448e-02 1.12356720e-02 -1.55524788e-02 7.05566853e-02
      -8.85252282e-03 1.33785428e-02 -9.92626068e-04 -8.41251388e-02
      3.62133468e-03 1.15614766e-02 -9.48879775e-03 -2.47636214e-02
      -4.32634577e-02 -2.60248296e-02 -2.19562668e-02 3.36683057e-02
      3.19893472e-03 4.58188988e-02 5.96879460e-02 -4.70427191e-03
      -3.45332921e-02 -1.34031512e-02 -4.05740887e-02 1.94830168e-02
      -1.04932655e-02 2.61323415e-02 7.49475583e-02 5.02160117e-02
      -8.20002146e-03 3.31763849e-02 2.81650722e-02 -2.99909376e-02
      -1.71118975e-02 2.18861606e-02 1.53318373e-02 3.20540667e-02
      2.67270207e-02 6.28996864e-02 -1.41422888e-02 3.51503026e-03
      -6.17072992e-02 5.61090698e-03 -1.45959351e-02 2.61848178e-02
      9.13010165e-03 5.05543910e-02 5.40425144e-02 2.65444573e-02
      -1.77227762e-02 1.27280131e-02 3.60608026e-02 7.41773658e-03
      4.60593291e-02 -2.92494409e-02 1.13370502e-02 4.23870608e-02
      5.29624615e-03 4.18898985e-02 7.90358037e-02 3.23871300e-02
      -1.93862114e-02 -4.54803668e-02 1.45465527e-02 3.49515080e-02
      2.55827289e-02 -7.84260854e-02 7.35506508e-03 -4.44071330e-02
      -8.18886608e-02 5.09390347e-02 -9.35769547e-03 1.00582289e-02
      -4.84255422e-03 2.30518505e-02 -5.89160211e-02 -2.36187577e-02
      -2.84003876e-02 -6.01522624e-03 1.61502641e-02 1.90028902e-02
      -3.38943526e-02 4.66329791e-02 5.31355254e-02 -3.73031162e-02
      -1.12273153e-02 4.01763134e-02 3.90747041e-02 8.10330138e-02
      5.83649464e-02 3.58979367e-02 4.02848162e-02 3.93973440e-02
      -5.21664321e-02 4.18879949e-02 4.92507033e-02 5.88323958e-02
      -3.29671130e-02 -3.70108671e-02 3.72192450e-02 3.73850856e-03
      -1.51925087e-02 -4.41039652e-02 -4.30256054e-02 -5.62262386e-02
      -1.70183815e-02 1.03512956e-02 -7.46614262e-02 2.59254035e-02
      -1.47246127e-03 2.14270577e-02 -1.60510149e-02 9.62247699e-02
      7.59007633e-02 -3.04926597e-02 -5.73092625e-02 -3.90049405e-02
      4.01456878e-02 8.62320047e-03 -1.87508538e-02 -3.70672382e-02
      1.14506064e-02 6.68912381e-02 3.57662886e-02 2.70785876e-02
      -3.33465473e-03 -2.37634890e-02 -8.84255301e-03 7.91963004e-03
      -6.82204077e-03 1.86527788e-03 4.69579138e-02 -1.69830676e-02
      -2.08060518e-02 -1.80743523e-02 -1.07852621e-02 -4.00541201e-02
      6.74347160e-03 -5.85725605e-02 -3.25220004e-02 -2.00608303e-03
      -1.97095107e-02 6.43958896e-02 -7.40232179e-03 -8.82281270e-03
      2.94720884e-02 2.45687123e-02 -3.44878025e-02 -1.12803601e-01
      -1.04183834e-02 2.93992534e-02 -2.32392529e-04 4.13103588e-02
      2.68275873e-03 -1.10744014e-02 1.75070576e-02 -2.56035198e-02
      -2.68940069e-02 -1.92802190e-03 -3.01696789e-02 -1.64278112e-02
      -1.66280400e-02 -4.65544537e-02 -8.55581928e-03 1.18747419e-02
      -5.13594076e-02 -1.35821989e-02 -2.72232853e-03 1.68197583e-02
      -1.18275881e-02 -1.25335418e-02 -3.43499742e-02 3.57217416e-02
      1.49092581e-02 -6.16838166e-04 -1.12284668e-01 -5.79539463e-02
      6.31329045e-03 2.41477899e-02 4.93403301e-02 -1.61008444e-04
      3.25326994e-02 4.63557318e-02 1.45882601e-02 5.05187688e-03
      -6.45268112e-02 1.01347109e-02 1.36483954e-02 -6.07655756e-02
      -5.77427112e-02 -1.87406726e-02 3.32625490e-03 1.24646192e-02
      -7.72410957e-03 -2.15426050e-02 2.32418329e-02 -3.01577859e-02
      5.61731122e-02 2.16376856e-02 -2.31718607e-02 8.71557090e-03
      -2.64970120e-02 -4.00565006e-03 -3.42581011e-02 4.94014844e-02
      -3.49075794e-02 -6.17328882e-02 -1.78537127e-02 -3.37009318e-02
      4.80401069e-02 -5.38859218e-02 -2.62252726e-02 -5.09189144e-02
      -5.40405512e-02 1.55004701e-02 -8.29458050e-03 1.23373717e-02
      -7.75129488e-03 3.33527513e-02 -4.63592373e-02 -1.28435334e-02
      2.28461605e-02 -2.55170893e-02 -1.27033622e-03 -3.06574777e-02
      4.32244688e-03 -1.29149310e-04 1.00914039e-01 3.65921520e-02
      -8.04703757e-02 -4.07041283e-03 2.53485609e-03 -2.44682617e-02
      -2.75441464e-02 -3.53986546e-02 -1.12891814e-03 3.06858346e-02
      1.38251763e-02 9.50494409e-03 2.99909860e-02 -1.07079057e-03
      -4.74292459e-03 -6.90243160e-03 1.63305067e-02 -2.28137150e-02
      5.01201488e-02 -2.47457600e-03 4.56735417e-02 4.35612760e-02
      1.99394133e-02 -3.70017998e-02 1.19751692e-02 2.03622971e-02
      -5.29151708e-02 -9.04419739e-03 -4.80473973e-02 2.74933223e-02
      8.18755105e-02 2.79157213e-03 -6.95077702e-02 -3.41394101e-04
      -1.35687487e-02 -1.32563217e-02 -1.37527715e-02 1.50280232e-02
      8.12991709e-02 3.59673463e-02 1.20890290e-02 -9.19546485e-02
      -2.82939523e-03 2.62512024e-02 3.85178602e-03 -2.07029432e-02
      -1.35814510e-02 -8.44242983e-03 9.92334709e-02 1.25648836e-02
      -4.86041419e-02 -6.22661225e-02 2.74638534e-02 -1.51483426e-02
      5.38463816e-02 -5.15813241e-03 2.52056625e-02 3.74747030e-02
      -3.10004558e-02 -7.98398852e-02 -6.86309561e-02 -1.76681473e-03
      -2.49839891e-02 -2.13853549e-03 5.78444684e-03 -2.35026330e-02
      -4.06382121e-02 -4.47292514e-02 4.09455746e-02 -4.06507626e-02
      -5.52078635e-02 4.98892590e-02 7.91164041e-02 -6.25160581e-04
      3.52710076e-02 8.57686326e-02 2.48048315e-03 9.08214657e-04
      1.02933608e-02 -1.64978337e-02 3.36503540e-03 5.12218960e-02
      -4.98091616e-02 -2.54471768e-02 -2.41886489e-02 3.04578096e-02
      -7.11915269e-02 -5.73391095e-02 4.71597584e-03 -1.84814241e-02
      3.30606475e-02 3.43067455e-03 6.85100183e-02 -2.39071865e-02
      1.85416583e-02 1.65205542e-02 -2.55270451e-02 -8.99239164e-03
      -2.00385489e-02 -1.11308312e-02 -6.76160604e-02 -1.31166112e-02
      -8.21164548e-02 -1.19144926e-02 -3.22992168e-02 1.81597117e-02
      1.25662098e-02 -1.09712975e-02 4.69863527e-02 -6.33896664e-02
      4.22873534e-02 -5.54297538e-03 7.55728856e-02 4.08802256e-02
      -2.37318594e-03 -3.58591117e-02 -5.45663685e-02 5.67751378e-02
      -6.80841357e-02 2.52491981e-02 -4.74805720e-02 7.40636215e-02
      -5.28617129e-02 -3.88334058e-02 -7.39549194e-03 -1.83903538e-02
      -2.94672995e-04 -3.47837955e-02 2.42688693e-02 -3.66676822e-02
      -4.55235913e-02 -3.79620716e-02 -1.24147117e-01 -3.46158445e-02
      -4.69208397e-02 6.87687472e-02 2.92296205e-02 2.71475818e-02
      4.64726798e-03 1.10732429e-02 7.87736550e-02 -5.64035177e-02
      -3.17073986e-02 -8.29762891e-02 3.85206155e-02 -4.46488261e-02
      -1.62567794e-02 -6.34690374e-02 5.20767123e-02 8.91131982e-02
      -9.22772661e-02 -3.62670235e-02 -5.49427494e-02 3.15061957e-02
      1.62310258e-03 3.21057369e-03 9.45994407e-02 4.08387631e-02
      -3.74175981e-02 -1.16767734e-02 6.68944372e-03 1.66622791e-02
      1.02637783e-01 6.78986609e-02 9.19268467e-03 -3.86280715e-02
      2.63933185e-03 -6.78330436e-02 5.68774901e-03 -5.82985394e-03
      -3.84027734e-02 1.80667825e-02 1.34324702e-02 4.03432269e-03
      -2.24633794e-02 -4.65986803e-02 4.15529795e-02 -2.22216062e-02
      -3.35203041e-03 3.33986580e-02 9.77519974e-02 4.57665958e-02
      1.18732853e-02 4.74223867e-02 -3.15858349e-02 1.32576814e-02
      2.43152753e-02 2.45055147e-02 -2.42462941e-02 -2.84334784e-03
      1.54821323e-02 -8.68248194e-03 5.47854975e-03 -4.72014723e-03
      -6.25137985e-02 -2.38876361e-02 -1.95067879e-02 1.91105399e-02
      5.55605926e-02 -4.45036683e-03 3.78386304e-02 2.52433456e-02
      -1.01133846e-02 -2.95112226e-02 -2.19535027e-02 1.04115363e-02
      2.96413880e-02 3.78965624e-02 -3.17246020e-02 6.71923012e-02
      4.26698402e-02 4.09205351e-03 5.36734350e-02 -3.54324691e-02
      4.28820215e-02 -7.88200647e-03 6.17298577e-03 1.47255240e-02
      1.82857718e-02 5.66001609e-02 4.21447828e-02 4.33638021e-02
      -3.92530859e-02 -2.79116966e-02 1.55624328e-02 1.23041859e-02
      -6.09084517e-02 -5.00742998e-03 3.56628634e-02 3.61931399e-02
      -4.42449898e-02 2.05284785e-02 1.62448063e-02 6.78576082e-02
      3.94432545e-02 1.49565022e-02 4.08912525e-02 3.02052554e-02
      -4.44609970e-02 -8.11282638e-03 2.54318956e-03 -3.49463373e-02
      5.88320801e-03 2.59389151e-02 2.06136797e-02 -5.61181735e-03
      1.44755514e-02 -2.40178704e-02 4.26447913e-02 -4.82115569e-03
      -3.34833525e-02 1.39938165e-02 3.01683415e-02 2.77001094e-02
      -1.05530992e-02 1.29207727e-02 1.63439438e-02 4.01864946e-02
      1.51875205e-02 -6.48388863e-02 -5.61806373e-02 -1.84277073e-02
      6.75646262e-03 4.92320471e-02 6.99813738e-02 -1.64780710e-02
      4.57185060e-02 6.44358760e-03 -2.46882886e-02 -4.88781184e-03
      3.46328914e-02 1.91411767e-02 -4.80987132e-02 6.46208366e-03
      2.66777142e-03 2.30650092e-03 -1.60756558e-02 -1.35066453e-02
      -3.25568840e-02 1.21526746e-02 1.41339507e-02 -9.31707583e-03
      4.76482809e-02 5.88544318e-03 2.88684480e-02 -4.12688777e-02
      -5.23430444e-02 -4.82175983e-02 -3.67524964e-03 -4.78258692e-02
      6.08112942e-03 3.65984216e-02 2.71445001e-03 2.34168041e-02
      8.13489780e-03 -1.05928760e-02 8.70428607e-03 2.29011532e-02
      -6.33457825e-02 -5.32827377e-02 -8.07650015e-03 1.20435851e-02
      7.55528826e-03 -4.55020985e-04 -2.85558160e-02 -8.68857373e-03
      1.60042476e-02 -1.83908995e-02 -3.17488611e-02 -7.64170848e-03
      -3.23270634e-03 1.53997913e-04 5.26559502e-02 3.11857229e-03
      2.87052635e-02 1.89607032e-02 -2.00046822e-02 -2.16692705e-02
      -1.98187605e-02 1.94434170e-02 -4.96328920e-02 -2.57286839e-02
      -4.02874574e-02 4.21615094e-02 2.22067628e-02 -7.43646920e-02
      -5.82723506e-03 6.01370409e-02 3.05069163e-02 1.04956944e-02
      7.29596019e-02 3.07121333e-02 3.31215225e-02 -1.77683439e-02
      2.55737044e-02 7.75989285e-03 2.68775281e-02 7.13885501e-02
      -5.87680005e-02 1.87555570e-02 -2.42747590e-02 9.14327241e-03
      2.55375262e-02 -7.53216038e-04 -5.90431653e-02 3.25620584e-02
      9.72180162e-04 1.45741394e-02 9.65037290e-03 -3.27697545e-02
      3.73480953e-02 -1.74184013e-02 -1.04270142e-03 1.06835933e-02
      4.52496409e-02 4.32832018e-02 1.93743315e-02 5.29544950e-02
      4.25624810e-02 -5.65942936e-02 -7.16656670e-02 -3.26313302e-02
      -2.65778359e-02 1.69313699e-02 3.24575715e-02 2.77873240e-02
      5.61688188e-03 -8.78553558e-03 1.67472661e-02 -2.34124791e-02
      -1.30602136e-01 -2.21903697e-02 4.49261293e-02 6.32095486e-02
      -5.35334162e-02 -5.88994771e-02 -4.40420397e-02 4.79041971e-02
      6.56033009e-02 -3.49505269e-03 -7.92167615e-03 -1.78927053e-02
      -1.80245433e-02 -1.28116244e-02 -1.79912557e-03 5.01244282e-03
      2.65178997e-02 2.85350978e-02 -1.26399826e-02 -2.25808471e-02
      1.46159157e-02 1.67309679e-02 1.68799423e-02 -3.52534242e-02
      -5.67447953e-02 2.80445907e-02 2.39732526e-02 -1.90806612e-02
      -4.24092310e-03 -5.20702153e-02 1.92619450e-02 3.68045680e-02
      4.68679033e-02 4.91251610e-02 3.36115137e-02 3.59153710e-02
      1.81351701e-04 3.67093948e-04 2.25400850e-02 8.04995745e-02
      -9.07897875e-02 -6.59587011e-02 5.11253392e-03 7.58325588e-03
      -1.54331615e-02 -1.68677289e-02 -2.73820013e-02 4.97010984e-02
      -1.83043201e-02 -2.13183444e-02 -4.17705067e-02 -3.01189516e-02
      1.11512793e-02 3.72357629e-02 -2.51453035e-02 -2.69927736e-02
      9.10328515e-03 -2.49498338e-02 -5.56806801e-03 -2.11350434e-02
      5.50420955e-02 -1.92861762e-02 4.29467745e-02 -1.40424082e-02
      -3.70127745e-02 5.49545251e-02 4.83674891e-02 8.04458279e-03
      3.30823138e-02 3.57470252e-02 -1.38547097e-03 5.77892549e-02
      -3.16379182e-02 -3.69893275e-02 5.49328178e-02 5.28025888e-02
      -4.36956137e-02 -2.43770909e-02 -1.57664865e-02 3.54050212e-02
      6.97112083e-02 3.59788211e-03 -6.53038500e-03 -6.15426563e-02
      -4.80157174e-02 -5.70925884e-02 -1.89305451e-02 -3.52116153e-02
      3.59789319e-02 5.17885797e-02 -1.85458474e-02 3.52662988e-02
      -4.25898917e-02 -2.72169616e-02 3.03557254e-02 -1.84074063e-02
      -2.47205589e-02 -5.59370173e-03 5.17774522e-02 -4.73070098e-03
      2.48383805e-02 3.95824574e-03 -1.21198257e-03 -3.54396366e-02
      1.11452630e-03 -3.83501947e-02 -5.16597889e-02 4.05933671e-02
      -1.63599625e-02 -4.15484374e-03 9.94532462e-03 5.86778810e-03
      -4.26964555e-03 6.52883202e-03 -7.87298754e-03 2.72037182e-02
      4.20852490e-02 3.31429392e-02 -2.81095784e-03 1.68680362e-02
      -1.21316547e-02 -1.59404408e-02 1.59926750e-02 -4.37436393e-03
      -3.91527787e-02 2.91717555e-02 1.76954009e-02 -5.26450016e-03
      4.81929854e-02 3.09869200e-02 -3.87586653e-02 8.12579542e-02
      3.94952185e-02 -4.74253222e-02 2.21360382e-02 -2.15650164e-02
      -3.64458375e-02 6.62317649e-02 -2.99719591e-02 -1.42186554e-02
      5.92598990e-02 1.45115517e-02 -1.22801391e-02 4.21416797e-02
      -3.14246379e-02 -2.16917321e-02 3.50165665e-02 6.16979366e-03
      -3.91432829e-02 -1.64658818e-02 -3.29639949e-02 1.41403498e-02
      6.55915961e-02 -1.19744623e-02 -1.17316865e-03 -2.51888186e-02
      -2.40834039e-02 1.67400017e-02 -1.85575411e-02 -4.68100719e-02
      1.25711197e-02 4.02644351e-02 -1.52683379e-02 -2.29251944e-03
      -4.79971096e-02 -5.72348461e-02 6.31591119e-03 -1.33767119e-03
      -2.78772078e-02 2.25043148e-02 -2.19158665e-03 -7.47525766e-02
      1.26944212e-02 -7.43051479e-03 -1.05455145e-01 6.69972450e-02
      -3.81522775e-02 -4.62139770e-02 3.35188285e-02 2.40343474e-02
      -3.38887870e-02 5.60814887e-02 3.25728767e-02 -7.30564892e-02
      1.19821168e-02 2.17042137e-02 7.54446862e-03 -1.09693315e-02
      5.55831939e-02 -1.23842554e-02 2.40913481e-02 -4.80088666e-02
      -3.93694155e-02 -5.42971380e-02 -4.07651141e-02 3.51485028e-03
      3.12575023e-03 3.38860578e-03 -7.90144783e-03 -8.31392482e-02
      -2.53385641e-02 1.73713714e-02 4.39281054e-02 -2.01898757e-02
      1.56267732e-02 -4.96383850e-03 2.42291372e-02 -1.10779293e-02
      5.13877012e-02 2.48165149e-02 1.42862834e-02 2.54958961e-02
      -5.59676029e-02 1.33514069e-02 -2.15257388e-02 -6.95465540e-04
      -1.45037379e-02 -4.45073135e-02 -2.45304089e-02 5.52696474e-02
      -1.78186577e-02 -2.00686567e-02 -8.11066553e-02 4.60504666e-02
      8.30134377e-02 4.06867713e-02 -1.80565622e-02 3.65466028e-02
      1.33904570e-03 -2.56179608e-02 1.66040491e-02 -4.39128913e-02
      2.22612172e-02 3.68731990e-02 -3.63282650e-03 3.10264557e-04
      -3.57887000e-02 -4.77237664e-02 7.61912912e-02 -2.28232555e-02
      8.31342302e-03 -1.87762324e-02 1.83292702e-02 3.43516394e-02
      4.60392050e-02 1.69625785e-02 6.47350699e-02 2.04273798e-02
      -2.01374404e-02 2.26392113e-02 1.43105732e-02 -5.36714355e-03
      2.26795138e-03 1.44628817e-02 -7.13630999e-03 -1.76401495e-03
      -4.40347008e-02 4.15573604e-02 5.81938541e-03 1.30461501e-02
      8.71507376e-02 -1.93388388e-02 2.13746391e-02 -3.55418697e-02
      -4.62127253e-02 -8.40027258e-02 -1.84970517e-02 -7.22820759e-02
      -3.77009921e-02 7.63908327e-02 9.83795151e-03 2.27597225e-02
      -2.99450904e-02 -3.29006948e-02 4.93065417e-02 2.09813919e-02
      3.51002179e-02 1.37088858e-02 1.46141145e-02 -5.04442751e-02
      1.38362646e-02 -7.08946213e-03 1.40940733e-02 1.07260672e-02
      1.50329005e-02 -7.25728553e-03 -7.49666989e-02 1.09606953e-02
      -7.19565258e-04 3.39528807e-02 -2.38691442e-04 4.84904051e-02
      -2.11948361e-02 -2.11228710e-02 -4.96220589e-02 -4.82684337e-02
      1.01969577e-01 2.37783007e-02 7.95913115e-03 -3.21952477e-02
      1.48568507e-02 -5.51827624e-03 -6.83398172e-02 1.35506289e-02
      -1.92826316e-02 3.11058313e-02 -6.65059313e-02 -2.39060745e-02
      1.54447006e-02 -5.39948838e-03 3.91229577e-02 -8.70051386e-04
      -2.59769801e-02 -4.81795333e-02 7.12230876e-02 3.24680619e-02
      2.00806279e-02 -5.97074023e-03 6.69054016e-02 3.41929719e-02
      4.87130955e-02 4.13634852e-02 -8.66892003e-03 3.38245519e-02
      -3.04292627e-02 -4.85245511e-02 3.78798395e-02 3.94498669e-02
      -6.71209767e-02 -1.35240320e-03 6.30194470e-02 1.05846882e-01
      5.82022518e-02 -7.79810920e-03 2.46008877e-02 4.83505391e-02
      -4.56416123e-02 -9.10510570e-02 1.24759157e-03 3.74360979e-02
      5.07616550e-02 -2.55268328e-02 4.89639342e-02 1.29866330e-02
      4.06712852e-02 -6.11312129e-02 -2.52258661e-03 4.15916033e-02
      -6.38172124e-03 3.70084457e-02 4.41962741e-02 -2.61707474e-02
      -2.27840506e-02 7.10583851e-02 2.36880463e-02 1.29680960e-02
      -3.94085437e-05 -5.55075333e-02 1.88964158e-02 5.64074283e-03
      -7.67825358e-03 -1.48975737e-02 6.48259073e-02 3.99372168e-02
      -2.97103659e-03 1.80020034e-02 1.89690627e-02 4.74012159e-02
      2.61990186e-02 4.50834632e-02 -1.05555588e-02 9.10585222e-04
      -4.32031155e-02 1.58479530e-02 4.31671366e-02 -1.05356202e-02
      2.24065538e-02 1.91389378e-02 -3.72397788e-02 -1.81462783e-02
      -8.09870139e-02 -8.87996331e-02 1.91105213e-02 2.49333587e-02
      2.80849673e-02 4.39304672e-02 8.41043293e-02 4.96869907e-03
      -1.20016662e-02 3.06553617e-02 2.89577562e-02 -2.44013593e-02
      -8.59263819e-03 4.04208340e-02 1.95597187e-02 7.01620951e-02
      -6.08699247e-02 5.05325086e-02 -8.69561336e-04 6.92363828e-03
      6.08370593e-03 4.19393405e-02 1.30937370e-02 3.57165858e-02
      8.31021965e-02 3.33797410e-02 -2.74081074e-04 -3.91179807e-02
      5.05453115e-03 2.26492379e-02 5.77931292e-02 -1.94057561e-02
      -2.03769095e-02 7.58959167e-03 -2.88418662e-02 1.72921158e-02
      -3.56907323e-02 8.45016446e-03 -7.06971437e-02 -1.77696312e-03
      2.66478048e-03 -5.92303649e-02 3.04822028e-02 1.22295236e-02
      5.53431697e-02 1.82539632e-03 -3.30408327e-02 -1.95599552e-02
      -3.22481506e-02 6.63178787e-03 -4.56114896e-02 1.84345227e-02
      -3.70732807e-02 1.42086775e-03 2.28408314e-02 -7.97808170e-04
      -1.22490609e-02 2.42481381e-02 1.60284434e-02 2.36664936e-02
      2.81191263e-02 -3.10316179e-02 -1.68192759e-02 -4.56790999e-02
      -5.36021851e-02 9.40815732e-03 5.73762655e-02 3.30265127e-02
      9.41746235e-02 8.74901265e-02 -3.15489769e-02 -5.12748435e-02
      1.57032330e-02 3.19780968e-02 -2.77468022e-02 -5.30589148e-02
      -4.68424009e-03 4.74689854e-03 4.10524942e-02 -2.52923910e-02
      1.62940491e-02 2.09799446e-02 -6.07925281e-02 -3.46215926e-02
      -2.02561758e-04 -4.53086197e-03 5.53545281e-02 1.91013906e-02
      8.02309904e-03 7.56684169e-02 4.85750139e-02 2.02392158e-03
      -7.41339549e-02 -9.89614986e-03 -3.01139951e-02 3.57096829e-02
      3.03738583e-02 -5.26019856e-02 -4.54032011e-02 1.86896157e-02
      -2.57981643e-02 -1.05352275e-01 4.73208502e-02 3.77270207e-02
      7.20566511e-03 5.50085939e-02 4.09993306e-02 -1.36222492e-03
      1.64528918e-02 -2.24690121e-02 -3.27053703e-02 2.56077610e-02
      7.85327237e-03 -2.04492956e-02 3.20130661e-02 -6.44149724e-03
      2.58611683e-02 1.13875875e-02 -4.18398483e-03 -3.05377916e-02
      8.72289687e-02 7.35527128e-02 -2.65049003e-02 9.85973105e-02
      1.92250144e-02 2.24261265e-02 4.71449606e-02 6.39497340e-02
      -9.56239253e-02 6.60666227e-02 5.94369508e-02 -5.92097603e-02
      -1.05541870e-02 1.06319720e-02 -1.68615486e-02 -4.57891971e-02
      -3.23614217e-02 -1.31809211e-04 2.53515653e-02 -1.16280103e-02
      -1.49205755e-02 3.92119810e-02 -6.25322014e-02 -4.33562063e-02
      -4.26100455e-02 2.26659440e-02 -5.64691983e-02 3.25147398e-02
      -6.58517284e-03 -3.42437550e-02 5.69617711e-02 -1.18726734e-02
      -1.58406850e-02 5.53816231e-03 3.15570608e-02 -1.19432602e-02
      5.27235791e-02 8.78310762e-03 -2.86124385e-04 4.59059589e-02
      -2.80098105e-03 -1.38796940e-02 5.67771420e-02 3.40059586e-02
      -2.78112758e-02 -2.79281233e-02 -9.14426986e-03 4.88316119e-02
      5.82159236e-02 3.54399309e-02 -2.58499775e-02 -7.22049028e-02
      1.99406873e-02 1.07486034e-02 -5.64791784e-02 1.49176046e-02
      4.27114889e-02 4.94864322e-02 6.77736327e-02 8.54740944e-03
      -1.83341205e-02 1.59907341e-02 -5.62868118e-02 -1.27443345e-02
      2.50504073e-02 2.66331043e-02 2.54958533e-02 7.30967000e-02
      -1.43894190e-02 4.78814729e-02 1.71753615e-02 -6.85585244e-03
      -5.06094731e-02 -1.93235260e-02 -2.63259858e-02 6.96160644e-02
      -2.40850709e-02 -5.96445799e-02 8.25129263e-03 2.34508850e-02
      4.12591500e-03 -3.91087420e-02 -7.04509206e-03 -8.95129889e-03
      8.71392116e-02 3.73414420e-02 1.31521223e-03 -3.49020259e-03
      -1.40995160e-03 -2.19244007e-02 3.29487212e-02 1.21778613e-02
      2.16440205e-02 3.15605178e-02 -2.45461008e-03 -2.86794771e-02
      5.62839955e-02 -1.47042181e-02 -2.46844776e-02 -7.80180097e-02
      1.42028145e-02 5.97344153e-03 1.04079880e-01 -2.78296992e-02
      3.44296061e-02 1.97812971e-02 -1.01390919e-02 9.92172398e-03
      -2.82651410e-02 2.71540806e-02 3.22387107e-02 1.08862091e-02
      -1.62329022e-02 4.23411001e-03 6.92315996e-02 -1.48297995e-02
      -1.34850601e-02 -2.99006677e-03 -3.10471840e-02 -5.85140195e-03
      -1.91655532e-02 7.37302471e-03 -2.34484524e-02 7.28923595e-03
      -6.20105900e-02 -8.37695319e-03 -2.88499761e-02 -3.84709351e-02
      -3.13739479e-03 -6.01495558e-04 4.34739888e-02 -1.69815253e-02
      3.36003341e-02 -3.85495052e-02 -6.20187540e-03 4.59959842e-02
      2.47785803e-02 3.70252691e-03 1.03831952e-02 4.01156098e-02
      -1.32103944e-02 6.18406795e-02 -3.22858691e-02 2.94980835e-02
      6.17063008e-02 2.84445677e-02 -8.75205919e-03 -2.12862864e-02
      -1.43563645e-02 -2.95612812e-02 6.53320029e-02 3.19032781e-02
      -5.76581545e-02 3.14940549e-02 1.75015517e-02 -4.65266174e-03
      -3.33848931e-02 1.82407945e-02 -4.85853963e-02 4.95991372e-02
      -6.99367151e-02 7.02494057e-03 6.65237531e-02 -4.76325080e-02
      4.04646769e-02 8.57407078e-02 4.12176596e-03 -1.35975303e-02
      8.62228572e-02 2.32421178e-02 -4.08913456e-02 -1.76031236e-02
      -8.27341247e-03 -3.52739692e-02 -3.17652524e-02 -1.79041419e-02
      -4.98304255e-02 2.02597566e-02 5.89918764e-03 7.80777484e-02
      1.16090644e-02 -2.95967478e-02 -2.38397811e-02 8.03873241e-02
      -7.07017491e-03 -2.33359672e-02 3.79503407e-02 8.65352675e-02
      -7.03249127e-03 -2.04774737e-02 -5.17903306e-02 2.47050468e-02
      4.64353450e-02 -1.70285460e-02 2.83056255e-02 -2.08705086e-02
      1.63038578e-02 1.18976710e-02 -1.93137564e-02 -2.43163481e-02
      4.47138846e-02 6.66853562e-02 -1.11214137e-02 6.65092021e-02
      3.89547050e-02 2.75307824e-03 1.18786484e-04 2.58138496e-02
      -4.04059663e-02 -8.08022916e-02 3.31835411e-02 -4.97434810e-02
      -3.33312415e-02 -6.92160428e-02 6.86066747e-02 3.27445418e-02
      4.46643308e-02 4.37799469e-02 -1.34805199e-02 1.68835670e-02
      9.75359604e-03 -4.37164381e-02 4.51222016e-03 -3.83470347e-03
      -7.65226735e-03 -4.64180997e-03 5.49753718e-02 6.44035041e-02
      2.54092142e-02 -2.79137492e-02 6.25853315e-02 2.97334716e-02
      3.12015079e-02 1.76777616e-02 -1.66167654e-02 4.11981530e-02
      4.52553406e-02 1.35391532e-02 -5.97878397e-02 6.13624370e-03
      2.70635099e-03 3.00822202e-02 -2.17825733e-02 -1.32959019e-02
      3.89075354e-02 1.01086665e-02 7.31656402e-02 2.25877669e-02
      -7.90613703e-03 -4.60423157e-02 -6.26265481e-02 2.82646772e-02
      -2.56998334e-02 1.91087481e-02 4.15419042e-02 6.97587878e-02
      -4.10486348e-02 1.90514307e-02 1.34737277e-02 -2.82268841e-02
      6.79497719e-02 -2.47215806e-03 6.31856769e-02 9.09013581e-03
      1.59736574e-02 1.51725567e-03 7.06795976e-02 5.74612133e-02
      8.70574564e-02 -3.03000715e-02 -2.34300438e-02 1.15958545e-02
      2.14622263e-03 -6.56890571e-02 -1.66788138e-02 -3.57423574e-02
      9.51158442e-03 1.77532844e-02 5.88376336e-02 -3.84767987e-02
      1.66811533e-02 9.58856568e-03 9.87493247e-02 -2.54670493e-02
      1.74432732e-02 8.44165683e-02 2.84912530e-02 -2.40940582e-02
      -5.07880189e-03 -1.44578526e-02 -2.64221448e-02 6.54909834e-02
      -5.35678156e-02 -2.77655888e-02 3.49098723e-03 1.94913745e-02
      -1.32097723e-02 -3.11424453e-02 -7.55475974e-03 -2.86021829e-02
      -4.95141596e-02 -3.60748470e-02 -3.51736024e-02 -1.72420871e-02
      2.69953087e-02 2.20385082e-02 -3.68720368e-02 3.59276845e-03
      -9.51473266e-02 -3.39402668e-02 -1.78559907e-02 3.86285856e-02
      2.17269291e-03 8.19318071e-02 7.12596579e-03 -2.97497287e-02
      -8.30869749e-03 -5.67008257e-02 3.48674208e-02 -2.88933981e-02
      4.71703559e-02 -1.26685835e-02 -3.30428816e-02 2.98202112e-02
      -4.62598875e-02 2.74768695e-02 -6.02284670e-02 1.19043030e-02
      -1.29967816e-02 3.33546773e-02 8.25350285e-02 3.77689153e-02
      2.97972932e-03 2.69032028e-02 2.47223061e-02 -1.29658487e-02
      2.02703942e-03 4.76800092e-02 1.71705242e-02 -5.09560145e-02
      4.71617095e-02 -2.38498189e-02 -5.24642393e-02 -3.44458297e-02
      3.84284795e-04 -1.32128317e-03 -1.46526974e-02 -6.01987988e-02
      -4.41892147e-02 2.03049425e-02 -8.31971783e-03 -1.31538073e-02
      2.56653633e-02 2.22820835e-03 4.98340800e-02 -2.81493273e-03
      -3.94361652e-03 1.28395744e-02 -1.63556039e-02 2.57746726e-02
      -7.32306689e-02 -2.34903321e-02 -5.27469255e-02 -1.93225816e-02
      -5.95387071e-02 -3.87546569e-02 -2.96003167e-02 2.52387077e-02
      -2.81310305e-02 -1.70186870e-02 -4.81025018e-02 3.31654027e-02
      6.74584955e-02 -8.85021128e-03 2.69622952e-02 1.69167835e-02
      3.06466743e-02 -3.45868729e-02 -4.40214723e-02 -3.74926180e-02
      6.19687699e-02 1.49397431e-02 -6.48700669e-02 -1.00322198e-02
      5.06188981e-02 -3.38310073e-03 4.68386859e-02 -1.61651317e-02
      1.25128275e-03 2.08851174e-02 1.16730202e-02 8.84541124e-03
      3.42886746e-02 5.21255983e-03 6.37561977e-02 2.84657609e-02
      2.20831092e-02 -5.79675194e-03 4.08122949e-02 -3.74121661e-03
      -4.34186235e-02 -6.04275754e-03 5.28421700e-02 1.40176723e-02
      -2.17583887e-02 -6.19177409e-02 -2.94017256e-04 4.00857441e-02
      1.96135379e-02 -4.95983250e-02 1.19857220e-02 3.42310853e-02
      -1.26013001e-02 -4.74633239e-02 -8.99390727e-02 -3.67273018e-02
      2.24898458e-02 1.55538484e-03 -4.20051999e-02 9.79254022e-03
      -3.57957836e-03 2.56283022e-03 5.04554324e-02 2.03688387e-02
      -1.93568282e-02 1.35468747e-02 2.49611642e-02 6.29341579e-04
      2.18922775e-02 2.27680132e-02 -3.15317116e-03 3.39018404e-02
      5.63891679e-02 -4.87846248e-02 1.14801126e-02 7.47220293e-02
      8.16950649e-02 1.69660468e-02 3.83994468e-02 1.75775327e-02
      -3.38703021e-02 -7.13510811e-02 -2.33514458e-02 -1.86608061e-02
      2.60708071e-02 3.85848843e-02 2.42969282e-02 -3.66867818e-02
      1.50635978e-02 1.59007423e-02 -2.74367835e-02 -2.03364007e-02
      -2.29185335e-02 1.89389754e-02 -2.84776129e-02 -1.72731280e-02
      -1.96698774e-02 -5.76415025e-02 7.31997713e-02 5.69442883e-02
      1.47345131e-02 2.77963746e-03 5.75807095e-02 6.16885088e-02
      -1.68364644e-02 3.53344642e-02 6.88372776e-02 4.59297560e-02
      2.35409345e-02 6.18784456e-03 -1.25628794e-02 6.96313009e-02
      1.54788932e-03 4.41878065e-02 1.74833387e-02 6.75053969e-02
      -6.62129465e-03 1.80718154e-02 2.81972880e-03 -1.19506251e-02
      4.30540070e-02 9.05291829e-03 4.25656047e-03 2.45729908e-02
      -6.57103285e-02 -7.24299103e-02 -4.70311055e-03 5.09695746e-02
      5.88413663e-02 4.47414368e-02 1.58358738e-02 -2.35297047e-02
      -7.99629372e-03 -2.37462502e-02 4.83275391e-02 -1.06030917e-02
      2.99103539e-02 -1.20270308e-02 5.46042770e-02 2.58227363e-02
      2.79563218e-02 -2.06241850e-03 2.95887906e-02 4.04072292e-02
      -1.40789459e-02 3.66408452e-02 6.76984042e-02 8.44933614e-02
      -8.66977125e-03 -5.64047648e-03 -3.28756124e-02 3.99022996e-02
      -5.95660731e-02 -1.17266923e-02 2.88924128e-02 4.60536778e-03
      1.36013338e-02 -1.20549826e-02 2.85367686e-02 -1.06916428e-02
      -3.69415767e-02 -2.52253711e-02 4.08138111e-02 3.62791531e-02
      -2.09410917e-02 8.92146975e-02 -1.39953746e-02 1.76839102e-02
      -9.23036505e-03 2.07550544e-02 1.70853678e-02 1.92348636e-03
      -3.07370052e-02 3.82957719e-02 8.40992853e-02 -2.27269772e-02
      -1.09778000e-02 -4.15079594e-02 9.50744841e-03 3.63326408e-02
      3.03829368e-02 2.57638395e-02 4.10040691e-02 1.12258442e-01
      4.49509127e-03 3.35646421e-02 -1.00247785e-02 4.63275574e-02
      -4.90286648e-02 8.30913335e-03 -2.06203405e-02 2.78406832e-02
      7.84232616e-02 -3.58054899e-02 5.56644145e-03 1.80892088e-02
      2.27483977e-02 -9.30306688e-02 3.56302634e-02 5.68820126e-02
      6.08334169e-02 1.86189152e-02 -6.62551029e-04 -1.76963210e-02
      8.85674544e-03 -1.05658472e-02 2.71355305e-02 9.22393519e-03
      -2.23398786e-02 8.72075837e-03 1.75456461e-02 -2.40002014e-02
      4.01867963e-02 -1.79044381e-02 3.38281356e-02 -7.24308416e-02
      -3.68446447e-02 -1.55748855e-02 4.81465571e-02 -5.60501590e-04
      5.64487930e-03 5.19218482e-02 1.45788481e-02 2.00607274e-02
      -1.01714611e-01 -1.23634869e-02 3.72019447e-02 3.71115878e-02
      2.31365096e-02 6.38010278e-02 7.68878125e-03 -2.37603597e-02
      -5.98952062e-02 -4.50900570e-02 -2.67765056e-02 -5.25585264e-02
      -1.75568219e-02 3.79253663e-02 -1.78522617e-02 -3.30013596e-02
      5.80688519e-03 -1.22492490e-02 1.42210312e-02 -1.66879073e-02
      4.49596485e-03 2.54180674e-02 3.15568061e-03 3.80327664e-02
      6.68620169e-02 1.90086905e-02 3.33584473e-02 3.59754413e-02
      8.92833471e-02 4.42782044e-02 -2.27244524e-03 5.72577454e-02
      3.78793553e-02 -1.06215128e-03 1.96943562e-02 -2.02639773e-02
      -3.60660926e-02 -2.48432420e-02 -9.23120044e-03 2.21733581e-02
      5.93412183e-02 -2.52142511e-02 3.40003916e-03 -3.19546135e-03
      1.23000005e-02 -7.45193288e-02 -6.21608738e-03 -7.30116619e-03
      -4.94218757e-03 -1.39837451e-02 -2.29653511e-02 4.00951244e-02
      2.92252768e-02 1.92606135e-03 1.50209293e-02 9.46819708e-02
      2.32640654e-02 5.08489162e-02 8.42890367e-02 4.12894562e-02
      3.54832076e-02 3.08481529e-02 -3.29521932e-02 1.48499408e-03
      1.98492426e-02 -3.45178321e-02 1.41599271e-02 1.30315842e-02
      -2.44618598e-02 -3.16505805e-02 5.91337718e-02 3.45561542e-02
      -7.00727701e-02 1.06704943e-02 4.82554361e-03 1.39006088e-03
      4.07876186e-02 -8.55202030e-04 3.74786532e-03 7.86943659e-02
      -3.54863741e-02 -2.42100880e-02 -2.50870306e-02 4.67903353e-02
      -9.62094311e-03 2.96486765e-02 -6.12728521e-02 -4.68464978e-02
      2.08953265e-02 -2.36032754e-02 -7.64985904e-02 -4.59775962e-02
      1.20341387e-02 2.92530358e-02 4.82011549e-02 -1.81758441e-02
      -1.04548577e-02 3.75241078e-02 -1.58001631e-02 3.73074524e-02
      -5.09768585e-03 3.19085531e-02 2.04447601e-02 5.64773232e-02
      -5.47064953e-02 6.83167076e-04 -2.52023749e-02 -9.47670639e-03
      -3.60472426e-02 -3.08730584e-02 4.58188578e-02 -1.87920835e-02
      5.74673191e-02 -8.48396774e-03 -5.56240324e-03 -3.67217697e-02
      -2.08675340e-02 1.61426645e-02 1.25260903e-02 2.96651181e-02
      -4.31462366e-04 1.01529300e-01 -3.51151675e-02 4.62445477e-03
      -2.76623443e-02 6.85493872e-02 -2.19626445e-02 -3.87727357e-02
      6.83730841e-02 7.11003598e-03 5.24823815e-02 4.58704792e-02
      1.98045373e-02 -3.38674858e-02 9.75951043e-05 -2.00515408e-02
      -1.53399594e-02 3.60755064e-02 2.72480189e-03 2.87312064e-02
      -4.00019065e-02 2.41342820e-02 -3.19171622e-02 4.42566052e-02
      8.66991095e-03 1.03648305e-01 2.90908776e-02 -1.23061510e-02
      1.57336872e-02 -6.67797402e-02 -3.38409655e-02 -1.46641827e-03
      3.71505469e-02 -7.18534039e-03 6.19884860e-03 1.56109827e-02
      5.37933782e-02 -1.10032689e-02 -6.27857307e-03 -5.38633429e-02
      2.19914746e-02 -5.73875345e-02 6.21662624e-02 9.58394911e-03
      2.38265526e-02 3.40939872e-02 2.11190106e-03 -2.12870631e-02
      3.47637199e-02 5.85886650e-02 7.65124708e-02 1.12852873e-02
      2.57688481e-02 2.21896991e-02 1.26240216e-02 2.87412386e-03
      -4.68748994e-02 -3.64927612e-02 7.36441910e-02 2.44983677e-02
      2.11703032e-02 -1.13774315e-02 1.90535113e-02 4.97078188e-02
      7.17964545e-02 6.95151985e-02 1.58511233e-02 -1.96406920e-03
      -3.85833904e-02 3.33610140e-02 -1.50353368e-03 6.49334863e-02
      6.75618052e-02 6.41435608e-02 3.69109847e-02 2.16929074e-02
      2.86915596e-03 -3.98788415e-02 1.73417926e-02 3.60690877e-02
      2.03322340e-02 1.44194700e-02 -2.36993935e-02 -4.25215345e-03
      -2.02669296e-03 1.58644281e-02 3.74257914e-03 -2.36999728e-02
      -1.01007381e-02 6.46488592e-02 1.07792094e-02 -1.18153943e-02
      -1.37163140e-02 -7.15792878e-03 5.84174180e-03 2.76898779e-02
      -6.85260585e-03 1.46379170e-03 4.68839295e-02 3.10231894e-02
      8.22471231e-02 1.39759034e-02 2.45809332e-02 1.30495168e-02
      -1.26072299e-02 -2.62904838e-02 2.83432566e-03 -2.13576946e-02
      2.76462249e-02 2.85566766e-02 7.47097097e-03 -2.52628531e-02
      -8.40602890e-02 -6.25095963e-02 4.23536114e-02 -8.62176996e-03
      1.71659589e-02 3.60511318e-02 1.99291925e-03 -1.61008704e-02
      5.29534556e-02 3.68429758e-02 6.08093403e-02 2.27090865e-02
      -2.54103937e-03 -3.04095298e-02 2.56138798e-02 2.82098376e-03
      -1.86993331e-02 1.85375139e-02 2.26940587e-02 8.81273225e-02
      1.16980774e-02 1.78513695e-02 -2.33678892e-03 2.43837028e-04
      2.28770208e-02 -1.00044505e-04 2.31339652e-02 -5.04425839e-02
      -6.36425838e-02 5.88309839e-02 -4.01722826e-02 -1.19722972e-03
      -2.98507363e-02 2.19171531e-02 -2.62856800e-02 2.03283131e-02
      8.05762410e-02 4.40727696e-02 2.40506399e-02 7.35890772e-03
      -3.74477282e-02 3.11158020e-02 4.30185534e-02 -3.54082347e-03
      3.94590460e-02 1.82521679e-02 1.87548772e-02 3.16006728e-02
      -5.82551677e-03 2.32864469e-02 -6.31849980e-03 5.02720736e-02
      -6.04334325e-02 -2.62823328e-02 3.39928456e-02 6.07386567e-02
      2.69887745e-02 -3.60637829e-02 4.48892303e-02 5.56000024e-02
      8.43621045e-02 3.39712165e-02 1.78325251e-02 1.69642866e-02
      -4.31805244e-03 3.63733210e-02 -1.29496912e-02 -7.81685952e-03
      2.88952198e-02 4.46049087e-02 -2.66504285e-05 2.85596233e-02
      -1.39780389e-02 4.24144603e-02 -2.24725176e-02 -2.27791760e-02
      4.82839309e-02 1.64714772e-02 5.59588745e-02 -1.00702429e-02
      -1.81841906e-02 3.95134129e-02 8.93588457e-03 4.05878499e-02
      -3.39347385e-02 -5.34663275e-02 1.03939427e-02 3.42658274e-02
      -4.35781144e-02 1.43376342e-03 -1.88725833e-02 5.47315227e-03
      3.88785005e-02 6.07818086e-03 -2.05784440e-02 -1.37639577e-02
      4.33958769e-02 3.41965165e-03 3.44831236e-02 1.69342179e-02
      6.19860999e-02 2.32104678e-02 1.18876584e-02 -4.77778949e-02
      -1.32716401e-02 5.87044507e-02 2.82347593e-02 -9.25499108e-03
      3.83108705e-02 -6.64885482e-03 6.62800968e-02 -2.46815346e-02
      -6.21716976e-02 -2.46341922e-03 3.58354636e-02 -5.66929691e-02
      4.41886336e-02 5.72344661e-03 4.12189700e-02 -5.26213367e-03
      -2.72266623e-02 -5.47982492e-02 1.53076206e-03 1.35926651e-02
      -5.47947071e-04 -4.30606725e-03 2.93339286e-02 3.31069203e-03
      1.04679301e-01 3.11402185e-03 -4.06890810e-02 -3.55888084e-02
      6.72548041e-02 6.48792982e-02 2.39660423e-02 1.45250261e-02
      1.51164755e-02 6.24368936e-02 4.78229262e-02 2.04051612e-04
      -1.45338988e-02 -1.21561894e-02 2.70255357e-02 -1.12298233e-02
      -4.70460616e-02 -3.24736029e-05 2.95838583e-02 -3.25077213e-02
      -1.29213417e-02 -1.96678061e-02 4.26169820e-02 -1.89839322e-02
      -3.05193551e-02 -2.67573502e-02 2.40873685e-03 2.54359785e-02
      1.84988382e-03 5.58429472e-02 2.07110718e-02 1.35786943e-02
      -5.01343645e-02 2.68900637e-02 -1.49037922e-02 3.21445316e-02
      2.79529355e-02 6.11850508e-02 -1.89343914e-02 -9.18371603e-03
      -2.41219974e-03 1.92006212e-03 -1.66830160e-02 -1.22155724e-02
      1.48355169e-02 4.08191159e-02 -6.06238050e-03 -3.27087380e-02
      -6.95691854e-02 4.89802025e-02 4.94740084e-02 7.13211894e-02
      1.32868458e-02 6.60750419e-02 -3.14398333e-02 -2.83340868e-02
      2.11050231e-02 -9.42217093e-03 -3.07682063e-03 -1.03020221e-02
      5.49175404e-02 -2.99018882e-02 -6.18940126e-03 -2.05440503e-02
      -5.53986281e-02 4.89195697e-02 -3.28984968e-02 4.71485443e-02
      1.83732472e-02 -1.84036028e-02 -1.90583360e-03 5.31756170e-02
      -1.21120811e-02 -1.62117891e-02 1.03868395e-02 -3.30732875e-02
      3.89941316e-03 7.22231790e-02 1.18497975e-01 -2.26202258e-03
      1.13087585e-02 -2.84100021e-03 -2.21032612e-02 -6.33451529e-03
      -4.18635970e-03 2.35882085e-02 2.54853666e-02 -1.05515569e-02
      -2.48307362e-02 8.07724427e-04 -4.53238562e-02 -4.37115841e-02
      7.05847368e-02 -5.75147709e-03 5.86174689e-02 3.59334089e-02
      6.60446705e-03 4.86936346e-02 1.90932527e-02 3.46353687e-02
      1.32014286e-02 6.51016533e-02 -1.43812438e-02 3.80287841e-02
      2.14863513e-02 -1.87311042e-02 2.51201857e-02 4.44328524e-02
      1.58777442e-02 -2.20676064e-02 -5.18020950e-02 1.23232184e-02
      2.23945659e-02 -6.65010000e-03 -8.10426250e-02 -3.69969197e-02
      -1.46552697e-02 4.18273956e-02 2.07330193e-03 -2.97124051e-02
      3.38691697e-02 6.03005327e-02 3.78190912e-02 1.83033552e-02
      -2.19933111e-02 3.08462605e-02 6.83842450e-02 2.05119886e-02
      1.10077616e-02 2.34840568e-02 2.69623920e-02 7.09524006e-03
      -5.08755110e-02 2.23317882e-03 -1.92350671e-02 5.89622073e-02
      -1.92336808e-03 -1.58963669e-02 -9.25467722e-03 7.25777671e-02
      3.62890363e-02 -5.57340570e-02 -2.95331050e-02 2.64120549e-02
      1.44540770e-02 3.44740748e-02 -2.09702402e-02 -1.29818339e-02
      3.71981524e-02 1.67866461e-02 1.34002073e-02 -5.09836189e-02
      3.00947167e-02 -1.42738712e-03 -3.53213288e-02 -1.00317217e-01
      1.53297447e-02 1.35622472e-02 -3.32561471e-02 3.37641798e-02
      4.30048890e-02 4.20573577e-02 3.63085642e-02 -2.21094992e-02
      -1.52438367e-02 -3.60548794e-02 2.12994125e-02 6.67843735e-03
      -3.97325531e-02 -7.67021673e-03 4.22286597e-04 4.68046144e-02
      -3.81382182e-02 3.35072204e-02 5.37419543e-02 4.12964337e-02
      1.09915843e-03 1.05741015e-02 9.19856504e-02 7.84885287e-02
      2.22062692e-02 -4.96006198e-02 -8.62821341e-02 -2.74044853e-02
      -1.10323653e-02 -2.25792956e-02 4.80252430e-02 7.61276633e-02
      1.05131911e-02 5.86924925e-02 8.86410549e-02 3.10408277e-03
      4.09413502e-03 5.90055920e-02 -2.60779206e-02 -3.62192988e-02
      4.05961089e-02 -1.81288291e-02 -2.21522991e-02 -7.31015280e-02
      -6.74552172e-02 -2.45908760e-02 7.58931786e-02 2.99859866e-02
      4.11601253e-02 1.15589149e-01 6.06885590e-02 4.30659056e-02
      2.45745871e-02 -6.57007471e-02 -7.79893203e-03 6.28452674e-02
      1.03171105e-02 -1.80741642e-02 4.78912070e-02 6.01066351e-02
      1.83766838e-02 6.75620437e-02 -5.87098254e-03 5.88032715e-02
      6.95356950e-02 3.63806486e-02 2.08792500e-02 -2.01425105e-02
      -4.29113619e-02 1.23555558e-02 -3.26513196e-03 -8.75467667e-04
      2.87989099e-02 4.35146689e-02 1.35900443e-02 -2.24454068e-02
      -1.53138051e-02 -5.28810080e-03 9.42775805e-04 -1.78290764e-03
      -1.21505708e-02 3.96796577e-02 6.20621927e-02 -2.16021277e-02
      -1.76452212e-02 5.56245856e-02 -3.63290943e-02 -1.97555050e-02
      -2.64646970e-02 -8.54861364e-03 2.11214740e-02 7.64837861e-02
      3.06598265e-02 -2.65272558e-02 1.10226147e-01 -3.53735313e-03
      1.69921108e-02 -4.85486984e-02 1.40632559e-02 3.25283259e-02
      2.36361101e-02 -3.21988724e-02 -9.17700008e-02 6.59026206e-04
      3.47213657e-03 2.92391591e-02 -1.43699080e-03 9.75816790e-03
      -1.20684626e-02 1.93322264e-02 -3.59260663e-02 -6.60064816e-02
      7.78582273e-03 -1.50713595e-02 6.17236877e-03 -1.99116729e-02
      -8.64457525e-03 2.99433693e-02 7.39678964e-02 1.13610392e-02
      1.89179368e-02 9.39275846e-02 2.29055770e-02 3.59097049e-02
      1.08822808e-02 9.03027877e-03 -2.98596430e-03 6.07890859e-02
      4.05311259e-03 3.98764350e-02 5.27603254e-02 2.45150980e-02
      8.97461921e-03 5.75673534e-03 1.05668344e-02 1.89948715e-02
      -4.88061644e-03 2.32762806e-02 -6.54513389e-02 7.72501575e-03
      2.87936274e-02 -8.25838465e-03 -3.34112234e-02 -3.10760997e-02
      2.22017355e-02 2.78156195e-02 2.10219137e-02 -1.70155503e-02
      -3.15487944e-03 1.52921332e-02 -1.22681502e-02 2.93134414e-02
      -2.23634522e-02 -1.09605137e-02 5.27755879e-02 3.34942974e-02
      -4.94542196e-02 1.35496547e-02 3.95259336e-02 5.81979007e-02
      -3.18679214e-02 -5.57241142e-02 3.00896894e-02 5.21312542e-02
      2.97765173e-02 -5.66454902e-02 -6.91464692e-02 6.51251227e-02
      4.87565696e-02 4.95918654e-03 1.24488110e-02 -2.04729680e-02
      1.79871917e-02 4.63222563e-02 7.15175346e-02 2.01049484e-02
      6.10289350e-02 -5.03161922e-02 2.14192253e-02 -1.44934170e-02
      -3.93454954e-02 -6.43645832e-03 -8.30774978e-02 -4.95451875e-02
      7.23003745e-02 -2.43865550e-02 8.91848952e-02 -1.97347589e-02
      -1.79551281e-02 1.47971101e-02 4.24127690e-02 4.69027981e-02
      4.33633663e-02 -3.31550837e-02 1.09786607e-01 -7.96729419e-03
      -8.76785517e-02 1.18699279e-02 -2.86056995e-02 9.41855600e-04
      -4.62827571e-02 1.24142179e-02 2.39655413e-02 3.08090616e-02
      4.81394771e-03 4.12119888e-02 8.53238534e-03 1.17016875e-03
      3.29953395e-02 -5.70700318e-02 -4.27656174e-02 -1.96713544e-02
      1.06636360e-02 1.23382444e-02 -2.97259015e-04 2.26546545e-02
      1.29089039e-02 -1.15292035e-02 -5.71454503e-02 -3.67795341e-02
      -1.38459550e-02 -4.13261587e-03 3.99215966e-02 -2.75147017e-02
      1.57095511e-02 6.19065203e-02 6.68733791e-02 -7.41905198e-02
      2.41149347e-02 3.77166681e-02 1.46167655e-03 1.26937211e-01
      3.23124155e-02 3.05504221e-02 5.20325713e-02 4.16009538e-02
      -5.66028766e-02 6.63889106e-03 -6.60162559e-03 -7.99776148e-03
      1.84101090e-02 1.95455290e-02 -1.42227653e-02 4.35210951e-02
      1.36794196e-03 -6.93729445e-02 2.61219032e-02 5.39326817e-02
      -1.08619165e-02 8.79092515e-03 -3.29226553e-02 -1.69454925e-02
      3.80879380e-02 -5.28071355e-03 -4.68027480e-02 -4.37404700e-02
      1.87144484e-02 3.51153575e-02 3.16991359e-02 1.45986937e-02
      1.91678852e-02 5.16229086e-02 8.18454325e-02 -5.94528504e-02
      -3.69561873e-02 -1.33463740e-02 -1.44274570e-02 3.61635089e-02
      -2.42567947e-03 7.69708604e-02 4.11364995e-02 5.57100438e-02
      2.34783739e-02 5.06232902e-02 3.68356630e-02 6.03027605e-02
      -2.25434788e-02 3.30929719e-02 1.55633846e-02 2.15308312e-02
      6.10595150e-03 1.97239816e-02 -1.48476930e-02 4.28317823e-02
      3.79121602e-02 -6.99570263e-03 -8.42861459e-03 1.85155328e-02
      -2.96960119e-02 2.12218296e-02 -9.05801132e-02 -3.19200940e-02
      3.38307135e-02 5.27579430e-03 -8.67214147e-03 -1.04723284e-02
      5.70935495e-02 -9.04889498e-03 3.81938065e-03 2.94856038e-02
      5.23313805e-02 7.69571215e-02 3.00503857e-02 4.79198853e-03
      -1.30811371e-02 3.54151130e-02 3.36935781e-02 1.70436557e-02
      -6.45068958e-02 -2.11538095e-02 7.04185246e-03 5.33691933e-03
      5.61440364e-03 1.83003172e-02 2.61523444e-02 2.64534238e-03
      2.22793892e-02 -8.11973289e-02 -5.11396583e-03 6.87815771e-02
      2.41074339e-02 4.55171503e-02 -2.53052767e-02 -7.96705484e-04
      3.95804048e-02 6.55898452e-03 -5.72886802e-02 -1.54854506e-02
      3.09397671e-02 1.63209043e-03 -4.52354141e-02 -9.35030077e-03
      4.53045079e-03 1.43788867e-02 3.81222107e-02 -4.66100648e-02
      -2.61734575e-02 -1.38391042e-02 1.50940903e-02 2.67993528e-02
      -2.89948005e-02 1.46898115e-02 -1.37591716e-02 5.15455082e-02
      -2.51943916e-02 5.96143445e-03 5.63334152e-02 1.61475353e-02
      7.25258738e-02 -1.28163688e-03 1.43702580e-02 3.06675676e-02
      4.75015901e-02 -5.70232794e-02 -1.00762472e-02 1.11432103e-02
      -9.37974546e-03 5.14883082e-03 -1.17990356e-02 -1.94884203e-02
      2.17384286e-02 4.45441306e-02 -7.48904645e-02 -5.51557913e-02
      -4.51379307e-02 -3.07336710e-02 6.53861091e-02 -1.21848686e-02
      -2.11367067e-02 4.03870307e-02 6.80667609e-02 2.13707238e-02
      2.80033448e-03 -2.52134372e-02 -1.06667913e-03 3.43831070e-02
      2.07270775e-02 -3.52977477e-02 5.20021357e-02 9.66653377e-02
      -5.45048807e-03 2.86239740e-02 -6.84159547e-02 -1.50166331e-02
      6.30022660e-02 1.88094899e-02 3.13183740e-02 1.53746409e-02
      9.39293504e-02 -3.91133130e-02 -2.13844273e-02 -3.14464644e-02
      9.89999436e-03 4.46208529e-02 -1.58407409e-02 8.09146836e-03
      9.36620403e-03 1.62797663e-02 -5.05110584e-02 6.59430623e-02
      -1.56956762e-02 5.29111847e-02 3.24907526e-02 6.65053353e-02
      3.51259001e-02 6.69312403e-02 1.32543921e-01 1.58371888e-02
      3.84940617e-02 3.65612693e-02 -4.28301357e-02 2.77765002e-03
      2.05497555e-02 2.16959696e-02 4.80957143e-02 4.02593575e-02
      -2.62987576e-02 1.16911007e-03 -2.24180017e-02 -5.54275773e-02
      -5.55816386e-03 -2.07403377e-02 -2.90629230e-02 -1.73231848e-02
      3.25388610e-02 -1.10029541e-02 9.26118121e-02 -2.70889001e-03
      3.83019000e-02 1.77627727e-02 -5.74718341e-02 -5.60303731e-03
      -1.59294507e-03 8.98056701e-02 -1.49711675e-03 4.58268374e-02
      -2.99030129e-04 5.79057187e-02 -4.47916146e-03 3.05247749e-03
      -1.94129292e-02 1.98539179e-02 2.98502706e-02 -4.67901677e-02
      3.74837294e-02 1.78891029e-02 -2.83590220e-02 3.84637676e-02
      -9.13901906e-03 -1.68300420e-02 4.87951413e-02 2.62252986e-02
      -2.50272527e-02 1.10377900e-01 8.46211016e-02 9.46502294e-03
      5.45572340e-02 9.78338812e-03 6.76201656e-02 1.40814809e-02
      1.13578074e-01 -2.84357704e-02 -4.82040830e-02 -1.68693904e-02
      4.12585922e-02 8.73530507e-02 -6.76094613e-04 4.26606741e-03
      3.00330184e-02 3.79788838e-02 1.70610088e-03 -4.52965349e-02
      1.29267620e-02 3.70734222e-02 -2.39084605e-02 -1.43904833e-03
      -4.08052914e-02 1.15276836e-02 7.28821158e-02 -3.95422243e-02
      4.34778444e-02 -8.88523587e-04 -8.04525858e-04 4.96811513e-03
      4.74085398e-02 -6.38294965e-02 2.13003829e-02 7.25566447e-02
      -3.60192289e-03 -1.87644493e-02 -5.28234057e-03 9.45999846e-03
      5.77672832e-02 -3.21083479e-02 -2.90249977e-02 2.11825203e-02
      -4.97307256e-03 3.10817137e-02 -3.43533717e-02 2.06399616e-02
      -1.00171482e-02 6.05571717e-02 -3.63059863e-02 -2.08198652e-03
      -7.75231700e-03 -1.36379693e-02 -2.22580284e-02 -5.18014506e-02
      4.81646396e-02 -1.50019098e-02 1.64679158e-02 1.20688537e-02
      -5.06494455e-02 2.29415298e-02 4.00345847e-02 9.22931731e-03
      -1.02249850e-02 2.61411238e-02 3.67961545e-03 -1.64904131e-03
      4.37055044e-02 -2.82950401e-02 -2.06085816e-02 8.58053565e-02
      1.56302918e-02 9.30089429e-02 7.26079792e-02 2.97772139e-02
      5.21020144e-02 -3.52771096e-02 8.40394571e-03 -7.91075826e-03
      1.45725748e-02 -8.01721122e-03 -2.14916803e-02 3.00527122e-02
      -3.92326638e-02 2.52729449e-02 -3.27882580e-02 4.47281711e-02
      6.76269010e-02 4.28519733e-02 2.67028958e-02 3.77078764e-02
      1.71030983e-02 -2.35549491e-02 8.03918112e-03 5.89860156e-02
      7.32709700e-03 -4.79110368e-02 7.65434057e-02 -5.64842252e-04
      1.27827153e-01 8.44273493e-02 -9.05923732e-03 3.05113941e-02
      1.30173536e-02 -6.90829661e-03 -2.93829944e-03 8.15615878e-02
      2.99976077e-02 8.38958770e-02 1.18569387e-02 2.69849245e-02
      -2.57735755e-02 3.54255480e-03 -2.16946434e-02 2.96300203e-02
      4.88212071e-02 6.40228018e-02 1.52524374e-02 2.69069639e-03
      3.01764288e-04 4.13087895e-03 5.98080941e-02 -1.70505941e-02
      -2.67980006e-02 7.97997117e-02 6.16463907e-02 -6.38925005e-03
      3.74865457e-02 3.86272147e-02 2.98344772e-02 1.06655853e-02
      -3.19631621e-02 1.38432728e-02 3.20356600e-02 2.90429182e-02
      -1.17514860e-02 -1.90448295e-02 7.65083637e-03 -9.32611991e-03
      7.11214468e-02 -5.91966091e-03 1.93642192e-02 9.00185555e-02
      4.65960205e-02 -6.68030791e-03 4.76152226e-02 1.87752564e-02
      -1.42467935e-02 3.51497754e-02 -1.16623854e-02 1.63012240e-02
      4.42586020e-02 1.41536901e-02 -2.53412705e-02 1.89490020e-02
      -2.43954454e-03 -1.57104433e-03 1.54498126e-02 -1.76876206e-02
      1.50117110e-02 7.86905959e-02 3.76756303e-02 1.38612222e-02
      8.55366513e-02 -3.01648639e-02 -4.07163724e-02 1.29958894e-02
      -4.55567017e-02 -1.20292315e-02 2.29944903e-02 7.44578168e-02
      3.75058688e-02 4.73117344e-02 1.02252979e-03 7.45922104e-02
      -2.13672388e-02 -5.60451001e-02 -1.57312304e-02 5.86940162e-02
      9.86230150e-02 5.60430251e-02 4.46292646e-02 1.19662413e-03
      1.35754831e-02 3.10129691e-02 -2.30638161e-02 3.80779686e-03
      6.41058758e-02 -1.05911121e-02 6.98886514e-02 7.06666484e-02
      -4.23387922e-02 9.01484210e-03 1.52040273e-02 -1.86522268e-02
      2.58865934e-02 4.92593497e-02 -3.81574663e-03 4.51649837e-02
      8.18180665e-02 -3.06469724e-02 3.04253423e-04 -2.35159136e-02
      -4.46481518e-02 1.72657538e-02 3.71903516e-02 1.58911683e-02
      1.06370404e-01 2.29593404e-02 -6.81671202e-02 -4.26508300e-02
      -4.43965495e-02 2.81518721e-03 9.48808808e-03 5.89928403e-02
      4.42760102e-02 3.66405994e-02 6.51194975e-02 2.57085338e-02
      -1.36995204e-02 1.01798642e-02 -3.01198643e-02 -2.20487881e-02
      7.92403240e-03 1.72621142e-02 3.52838673e-02 2.99311075e-02
      -2.92508435e-02 6.21256158e-02 -5.46837517e-04 -3.18179168e-02
      2.90585235e-02 7.72701297e-03 2.16563903e-02 -5.44389375e-02
      -5.79118952e-02 4.98196483e-02 -6.33394122e-02 -6.36258125e-02
      -7.28681013e-02 -2.25242227e-02 3.48418690e-02 5.76794147e-02
      2.26221513e-02 3.95381302e-02 3.48629081e-03 2.25132145e-02
      4.16829400e-02 -5.26691563e-02 6.80316016e-02 6.03061840e-02
      7.11508319e-02 -2.27819085e-02 -5.00351675e-02 5.71160316e-02</_></support_vectors>
  <decision_functions>
    <_>
      <sv_count>1</sv_count>
      <rho>2.9663084810722884e+00</rho>
      <alpha>
        1.</alpha>
      <index>
        0</index></_></decision_functions></my_svm>
</opencv_storage>
