<?xml version="1.0"?>
<opencv_storage>
<my_svm type_id="opencv-ml-svm">
  <svm_type>C_SVC</svm_type>
  <kernel><type>LINEAR</type></kernel>
  <C>1.</C>
  <term_criteria><epsilon>2.2204460492503131e-16</epsilon>
    <iterations>1000</iterations></term_criteria>
  <var_all>8192</var_all>
  <var_count>8192</var_count>
  <class_count>2</class_count>
  <class_labels type_id="opencv-matrix">
    <rows>1</rows>
    <cols>2</cols>
    <dt>i</dt>
    <data>
      -1 1</data></class_labels>
  <sv_total>1</sv_total>
  <support_vectors>
    <_>
      7.70688206e-02 -2.46190190e-01 0. -8.56937706e-01 0.
      -1.40846685e-01 0. -5.79088867e-01 0. 7.53383636e-01 0.
      -6.17729127e-01 0. 1.65129825e-01 0. -5.70736945e-01 0.
      3.14282805e-01 0. 9.12145376e-02 0. 7.95594230e-02 0.
      -1.19298272e-01 0. 8.41509342e-01 0. 1.34953618e-01 0.
      8.96891356e-02 0. -5.44215918e-01 0. -1.05800223e+00 0.
      -1.03401768e+00 0. 9.03355628e-02 0. 1.73816402e-02 0.
      -1.83616102e-01 0. -3.11027735e-01 0. 2.50124753e-01 0.
      -5.23688316e-01 0. 3.57374787e-01 0. -2.26726919e-01 0.
      -1.33826509e-01 0. -4.81374934e-02 0. 3.25456917e-01 0.
      -1.50148869e-01 0. -1.52014315e-01 0. -5.31521499e-01 0.
      -1.14923390e-02 0. -3.67888212e-01 0. 1.27389207e-01 0.
      3.85348685e-02 0. 1.75250992e-01 0. -1.91325724e-01 0.
      2.68175509e-02 0. -3.14776272e-01 0. 1.48835257e-01 0.
      1.05738938e-01 0. 1.31698269e-02 0. -1.10442284e-02 0.
      7.65276104e-02 0. 1.90385580e-01 0. 7.09271356e-02 0.
      -4.18924689e-01 0. 1.64984867e-01 0. -7.98725113e-02 0.
      -5.27935699e-02 0. -2.50127017e-01 0. 8.39150697e-02 0.
      -5.01052886e-02 0. 1.05834655e-01 0. -1.06845096e-01 0.
      5.02184451e-01 0. 2.66701102e-01 0. 7.88813978e-02 0.
      1.68581814e-01 0. 1.92627892e-01 0. 1.31673440e-01 0.
      1.77686259e-01 0. -4.95494306e-02 0. 6.11463308e-01 0.
      1.63505331e-01 0. -2.09576830e-01 0. 2.88716346e-01 0.
      8.76717195e-02 0. 2.57869810e-02 0. 2.09112108e-01 0.
      -5.63561618e-02 0. 2.16410130e-01 0. 2.38659918e-01 0.
      1.75915852e-01 0. -1.25027806e-01 0. 1.19727135e-01 0.
      9.34156179e-02 0. 1.36944145e-01 0. 3.34828585e-01 0.
      8.94769505e-02 0. 1.72021732e-01 0. -3.14511918e-02 0.
      3.04229036e-02 0. 6.93503022e-02 0. -1.99094694e-02 0.
      6.44882917e-02 0. 2.93443110e-02 0. 8.03203732e-02 0.
      8.61488432e-02 0. -1.77798397e-03 0. 1.98420897e-01 0.
      9.54441205e-02 0. 1.33337706e-01 0. -2.20911667e-01 0.
      4.75558713e-02 0. 7.76707292e-01 0. -2.92139817e-02 0.
      -1.17334552e-01 0. -2.39899054e-01 0. 1.32499442e-01 0.
      -7.58985355e-02 0. 9.51508284e-02 0. -2.36959830e-01 0.
      3.59962881e-02 0. 3.48090120e-02 0. 7.74255618e-02 0.
      -2.10803133e-02 0. 2.49225944e-01 0. 7.14331716e-02 0.
      2.53667921e-01 0. -4.99394275e-02 0. 4.37279195e-01 0.
      1.86414212e-01 0. -2.97618154e-02 0. -4.06629562e-01 0.
      -1.40036866e-01 0. 2.03110594e-02 0. 1.29282519e-01 0.
      -5.73355183e-02 0. 2.97610551e-01 0. 2.46943504e-01 0.
      -1.72908064e-02 0. -3.27751666e-01 0. 6.98653817e-01 0.
      4.43041980e-01 0. -1.23035252e-01 0. 6.71374381e-01 0.
      2.87119001e-01 0. -1.25821963e-01 0. 5.48681140e-01 0.
      -4.68054742e-01 0. 1.26977861e-01 0. -6.48802742e-02 0.
      -4.96041849e-02 0. 8.08829516e-02 0. 2.27395594e-01 0.
      -1.13918096e-01 0. 7.45611042e-02 0. 1.25890970e-01 0.
      9.38613564e-02 0. -2.24856474e-02 0. 1.46277189e-01 0.
      -1.58015504e-01 0. 2.50319541e-01 0. 4.73741582e-03 0.
      4.71684448e-02 0. 8.75251517e-02 0. -1.50256429e-03 0.
      1.07981697e-01 0. 6.59681782e-02 0. -1.64416097e-02 0.
      1.28606737e-01 0. 6.04497455e-02 0. 5.09502217e-02 0.
      -6.31188527e-02 0. 9.15910397e-03 0. 1.71574950e-01 0.
      -1.18296809e-01 0. 5.96257374e-02 0. 2.26637796e-01 0.
      -1.49118543e-01 0. 4.03270647e-02 0. -5.64289652e-03 0.
      1.09559693e-03 0. 6.70034392e-03 0. -8.34496766e-02 0.
      -1.32726222e-01 0. 1.01117000e-01 0. -6.19611777e-02 0.
      9.33911130e-02 0. 6.08198196e-02 0. -2.79006585e-02 0.
      1.87834762e-02 0. -9.33722220e-03 0. -7.64360279e-02 0.
      -9.22977328e-02 0. 8.04949477e-02 0. -3.31784189e-02 0.
      8.44330713e-02 0. -5.45256212e-02 0. 6.31927401e-02 0.
      4.05694246e-02 0. -1.49730086e-01 0. 1.64711788e-01 0.
      7.28138089e-02 0. -2.39220560e-02 0. 9.36399400e-02 0.
      -2.63895164e-03 0. -6.47272840e-02 0. 2.50090629e-01 0.
      -1.49689037e-02 0. -6.18487597e-01 0. 3.23942780e-01 0.
      -8.27037543e-02 0. 7.64207840e-02 0. 1.47315145e-01 0.
      6.80668354e-02 0. 2.17584327e-01 0. 1.77267455e-02 0.
      8.16605403e-04 0. -2.93939829e-01 0. 6.25206381e-02 0.
      -1.99254975e-01 0. 2.94673800e-01 0. -2.52446514e-02 0.
      1.46822006e-01 0. 1.34203568e-01 0. 7.71946227e-03 0.
      -5.03362976e-02 0. -6.44855052e-02 0. 7.27775544e-02 0.
      -5.96725047e-02 0. 1.05990760e-01 0. 1.27667291e-02 0.
      -1.15710989e-01 0. -2.85704397e-02 0. 3.73047739e-02 0.
      3.46918888e-02 0. 5.79190589e-02 0. -2.45205741e-02 0.
      -6.71767443e-02 0. -2.73449887e-02 0. 2.18396381e-01 0.
      1.88307121e-01 0. 1.29389614e-01 0. 1.96502209e-01 0.
      5.66730872e-02 0. 2.25638226e-01 0. 1.31655514e-01 0.
      1.46090304e-02 0. -1.45100266e-01 0. 1.61587372e-02 0.
      7.84980059e-02 0. 1.57925084e-01 0. -1.82668254e-01 0.
      1.32698819e-01 0. -2.36293338e-02 0. 8.84150565e-02 0.
      4.06849235e-02 0. 1.40335280e-02 0. 1.63955554e-01 0.
      3.30873609e-01 0. 2.01758921e-01 0. -2.91933179e-01 0.
      -1.09272920e-01 0. -2.49229386e-01 0. -4.66749579e-01 0.
      3.13404888e-01 0. 6.14205658e-01 0. 1.02636687e-01 0.
      -5.20700775e-02 0. 2.86654025e-01 0. 3.13729972e-01 0.
      2.47005269e-01 0. 3.25062424e-01 0. 1.90786719e-01 0.
      4.43810254e-01 0. -4.11581546e-01 0. 1.62114218e-01 0.
      3.72067183e-01 0. -9.66090113e-02 0. -1.71808526e-01 0.
      -2.73583740e-01 0. 9.24866796e-02 0. 1.69065952e-01 0.
      2.38223404e-01 0. 9.63866934e-02 0. -3.89444590e-01 0.
      5.66737294e-01 0. 6.83552995e-02 0. 2.54978031e-01 0.
      -2.71471739e-01 0. -1.20239280e-01 0. -1.63479634e-02 0.
      -2.49992028e-01 0. 2.95463115e-01 0. 1.68605410e-02 0.
      3.70979868e-02 0. -1.33739918e-01 0. 1.06751040e-01 0.
      6.34134039e-02 0. -2.10977141e-02 0. 1.31378636e-01 0.
      3.55674326e-01 0. 4.00639735e-02 0. 1.74104229e-01 0.
      1.81805104e-01 0. 1.02006599e-01 0. -2.98215616e-02 0.
      1.81448877e-01 0. -6.99994639e-02 0. 2.85311848e-01 0.
      3.01940590e-01 0. 1.73956767e-01 0. 1.40656605e-01 0.
      1.90874457e-01 0. 1.97704718e-01 0. 1.39679089e-01 0.
      -3.20939347e-02 0. 5.68557046e-02 0. 1.55406937e-01 0.
      8.28724578e-02 0. 1.01782337e-01 0. 9.84875932e-02 0.
      2.64095426e-01 0. 2.79631075e-02 0. 7.37842172e-02 0.
      1.89836755e-01 0. -2.81149521e-02 0. 1.02802537e-01 0.
      3.03145587e-01 0. 3.66325796e-01 0. -3.93021712e-03 0.
      -1.33707505e-02 0. 2.19348192e-01 0. 1.47843435e-01 0.
      -5.28149486e-01 0. 3.23338747e-01 0. -2.19240218e-01 0.
      -1.68159679e-01 0. -2.43564427e-01 0. -2.09968179e-01 0.
      -2.06191853e-01 0. 5.21229021e-02 0. -2.41990574e-02 0.
      6.76308200e-02 0. -4.70848203e-01 0. -4.96568950e-03 0.
      2.76651364e-02 0. 7.41728246e-02 0. -2.15614393e-01 0.
      1.64999396e-01 0. -1.00878370e-03 0. 2.64571887e-02 0.
      1.90782502e-01 0. -1.68989912e-01 0. -3.05497609e-02 0.
      -8.51937011e-02 0. -9.04269964e-02 0. -9.18989405e-02 0.
      5.32215647e-02 0. 7.34140398e-03 0. 1.03403315e-01 0.
      1.50746450e-01 0. 1.18622072e-02 0. 4.30927910e-02 0.
      -2.20375404e-01 0. 8.49948376e-02 0. 2.04645041e-02 0.
      -4.74040955e-03 0. 1.30158082e-01 0. 3.10461700e-01 0.
      -7.99534470e-02 0. -8.81159753e-02 0. -9.62935612e-02 0.
      2.31603943e-02 0. -2.15954185e-01 0. 1.26200661e-01 0.
      4.41962071e-02 0. 4.39044721e-02 0. 2.02752769e-01 0.
      1.27919083e-02 0. -1.18142620e-01 0. 1.39414251e-01 0.
      4.71231788e-02 0. -8.93704370e-02 0. 3.70261043e-01 0.
      1.09886497e-01 0. 2.19637789e-02 0. 1.27005965e-01 0.
      -3.01364899e-01 0. 7.69067854e-02 0. -8.92625898e-02 0.
      -5.30544221e-02 0. 1.22043602e-01 0. 3.55692983e-01 0.
      1.66213110e-01 0. 2.01852441e-01 0. 4.91169617e-02 0.
      4.67776656e-01 0. 6.54099464e-01 0. 4.17019092e-02 0.
      2.69857645e-01 0. -8.20921063e-02 0. 6.75437180e-03 0.
      -5.26723325e-01 0. 2.35598087e-01 0. -5.18078923e-01 0.
      -6.54167086e-02 0. -9.18000564e-02 0. -4.16032076e-01 0.
      -7.62493759e-02 0. -3.86443853e-01 0. -3.40489559e-02 0.
      -1.70707673e-01 0. 1.66050583e-01 0. -1.57640189e-01 0.
      1.17205754e-01 0. 8.63068342e-01 0. -1.20586075e-03 0.
      -2.93085668e-02 0. 5.35232723e-02 0. 7.91283697e-02 0.
      -2.85636842e-01 0. 1.78651422e-01 0. -4.93169390e-02 0.
      6.59662709e-02 0. -1.79412756e-02 0. 1.03122458e-01 0.
      -1.30475715e-01 0. 5.61779201e-01 0. -6.25644684e-01 0.
      -2.27213979e-01 0. -4.24206614e-01 0. 7.63717890e-01 0.
      -6.11320555e-01 0. -3.18505019e-01 0. 1.14405341e-02 0.
      -3.23293954e-01 0. -1.18828259e-01 0. -1.65409178e-01 0.
      6.57752752e-02 0. -8.07884559e-02 0. 1.60772413e-01 0.
      1.50176302e-01 0. -4.03025746e-03 0. -6.45619854e-02 0.
      3.87339257e-02 0. -1.30294010e-01 0. 9.28911120e-02 0.
      4.38140213e-01 0. 7.75368437e-02 0. -7.20805814e-03 0.
      8.82248580e-03 0. 1.46572843e-01 0. -7.51225278e-02 0.
      -1.89259145e-02 0. 1.91772934e-02 0. -2.14685470e-01 0.
      3.60987008e-01 0. -2.39057913e-01 0. 5.76444753e-02 0.
      4.67019975e-01 0. 7.92607963e-02 0. -3.51520211e-01 0.
      -3.39362115e-01 0. 5.28013289e-01 0. -1.95647422e-02 0.
      4.72535908e-01 0. -1.12003200e-01 0. 8.25708807e-02 0.
      2.74896659e-02 0. -2.67195135e-01 0. -8.98688659e-02 0.
      6.28370166e-01 0. -2.48565316e-01 0. 3.00471604e-01 0.
      -4.08685207e-02 0. 3.16117436e-01 0. -3.26323807e-01 0.
      -2.12092519e-01 0. -3.50253463e-01 0. 6.03654623e-01 0.
      -5.60988724e-01 0. -6.20192826e-01 0. -2.00900994e-02 0.
      1.75313607e-01 0. -1.23149678e-01 0. -1.81302670e-02 0.
      -2.18912229e-01 0. 1.41596630e-01 0. -3.95741284e-01 0.
      2.89785475e-01 0. -2.37936080e-01 0. 4.86349910e-02 0.
      -3.32699418e-01 0. 1.25221774e-01 0. -8.31532538e-01 0.
      6.76545739e-01 0. -1.13221657e+00 0. 4.59819525e-01 0.
      -1.53719604e-01 0. 3.62725973e-01 0. -4.48939443e-01 0.
      -2.36289293e-01 0. -8.26357454e-02 0. 8.38783324e-01 0.
      9.88011435e-02 0. 5.40205613e-02 0. -1.23608842e-01 0.
      -2.31842622e-01 0. -8.10031369e-02 0. -3.33767563e-01 0.
      -4.93154377e-01 0. 7.10332453e-01 0. -5.62306583e-01 0.
      -3.95422839e-02 0. 1.27756251e-02 0. 6.67691112e-01 0.
      -2.57144749e-01 0. -4.39705968e-01 0. -6.28403053e-02 0.
      4.17688251e-01 0. 3.43831897e-01 0. 5.85119307e-01 0.
      5.91672584e-02 0. 4.53908324e-01 0. 1.04019642e-01 0.
      3.96160603e-01 0. -5.89033365e-01 0. -6.13300383e-01
      -1.94988102e-01 1.08696125e-01 0. -6.89216733e-01 0.
      7.53844455e-02 0. -8.71732712e-01 0. 7.84356177e-01 0.
      2.06701890e-01 0. 2.15308562e-01 0. -1.19035327e+00 0.
      2.55187243e-01 0. -1.09888971e-01 0. -6.58552945e-02 0.
      -3.09452057e-01 0. 4.54167694e-01 0. 5.12532473e-01 0.
      2.19558552e-01 0. -1.09334445e+00 0. -3.98622930e-01 0.
      -8.82112563e-01 0. 2.23422527e-01 0. -1.52114645e-01 0.
      -1.84120178e-01 0. -1.16359815e-01 0. -3.07801425e-01 0.
      -4.33948517e-01 0. 4.64736015e-01 0. -1.33153066e-01 0.
      6.72208145e-02 0. -1.27975881e-01 0. 7.62881935e-02 0.
      -1.05409153e-01 0. -2.21412286e-01 0. -1.04272425e+00 0.
      5.37526198e-02 0. 3.16035971e-02 0. 1.84775572e-02 0.
      -1.27812952e-01 0. 6.75090998e-02 0. 3.19910645e-02 0.
      1.97107434e-01 0. -1.99878141e-01 0. 8.82402584e-02 0.
      -3.70861664e-02 0. 5.83624700e-03 0. -5.19882180e-02 0.
      1.75860614e-01 0. 5.49185602e-03 0. 5.43324649e-02 0.
      1.51035711e-02 0. -4.18741316e-01 0. -2.17385948e-01 0.
      1.15505330e-01 0. -1.11151628e-01 0. 3.06669474e-02 0.
      9.97427255e-02 0. 2.04541348e-02 0. -1.26543283e-01 0.
      2.06003666e-01 0. 4.68638055e-02 0. 3.69311310e-02 0.
      6.17958866e-02 0. 2.14520112e-01 0. -3.46895829e-02 0.
      2.72167951e-01 0. -4.31489617e-01 0. 6.53648555e-01 0.
      3.63718718e-01 0. -1.14727668e-01 0. -5.68880588e-02 0.
      1.55685484e-01 0. 1.48247421e-01 0. -2.78998166e-02 0.
      -3.45823556e-01 0. -2.31949240e-01 0. 3.33867908e-01 0.
      -9.78740752e-02 0. -5.60812838e-02 0. 2.44063795e-01 0.
      2.23602578e-01 0. 4.99773212e-02 0. 7.08891898e-02 0.
      -1.79370537e-01 0. 1.19083382e-01 0. 9.70336422e-03 0.
      -1.31227612e-01 0. 1.37054538e-02 0. 1.08138219e-01 0.
      1.90204717e-02 0. -9.06399041e-02 0. 7.55333751e-02 0.
      1.36151001e-01 0. -7.29543790e-02 0. -5.31736277e-02 0.
      2.21533433e-01 0. 5.71621247e-02 0. -1.05501041e-01 0.
      1.45719677e-01 0. 6.81940973e-01 0. 1.83442868e-02 0.
      -1.26905560e-01 0. 1.47150353e-01 0. 2.98926771e-01 0.
      1.11280195e-01 0. 5.82729727e-02 0. -1.02289073e-01 0.
      6.60582781e-02 0. 6.53306767e-02 0. -7.14213625e-02 0.
      3.98469251e-03 0. 7.30641112e-02 0. 1.39782792e-02 0.
      3.03765893e-01 0. 2.61208057e-01 0. -1.23743892e-01 0.
      2.53793061e-01 0. 2.72780865e-01 0. -1.30620942e-01 0.
      4.52113971e-02 0. 1.00661041e-02 0. -3.52721885e-02 0.
      -1.08020790e-01 0. 2.31328249e-01 0. 9.55871940e-02 0.
      4.75853272e-02 0. 1.27509411e-03 0. 4.68352765e-01 0.
      2.91007668e-01 0. 3.29277784e-01 0. -7.91985989e-02 0.
      7.70392299e-01 0. 5.19702017e-01 0. 4.18081373e-01 0.
      5.11585586e-02 0. 2.06710666e-01 0. 1.28980175e-01 0.
      2.85140932e-01 0. -4.71374571e-01 0. 1.98076040e-01 0.
      2.67526209e-02 0. 6.41129464e-02 0. -2.05504317e-02 0.
      1.30462885e-01 0. 1.31972149e-01 0. 1.28028795e-01 0.
      -9.30027571e-03 0. -2.96147652e-02 0. -2.24328578e-01 0.
      9.65294912e-02 0. -8.33659619e-02 0. -1.02541437e-02 0.
      -8.57995823e-02 0. 5.02902456e-02 0. -1.75251648e-01 0.
      2.06804559e-01 0. 5.41790091e-02 0. 1.11853173e-02 0.
      -5.06799854e-02 0. -2.62080655e-02 0. 1.21906653e-01 0.
      1.16906449e-01 0. 3.06106150e-01 0. 1.14803433e-01 0.
      -1.06011778e-01 0. 4.10071090e-02 0. 2.25768387e-01 0.
      2.70838737e-01 0. -1.65088519e-01 0. 1.34662554e-01 0.
      -3.03720772e-01 0. -2.61543859e-02 0. 1.98255643e-01 0.
      1.39053896e-01 0. 5.93937449e-02 0. 5.39478548e-02 0.
      -1.40270919e-01 0. 2.32148152e-02 0. -1.20527022e-01 0.
      -1.03214569e-01 0. 1.24369331e-01 0. 7.94715434e-02 0.
      -1.69208273e-01 0. 1.10588804e-01 0. -3.43797281e-02 0.
      -7.14477524e-02 0. -2.00591564e-01 0. -8.60475749e-02 0.
      -1.58029143e-02 0. -7.83796385e-02 0. -1.38104543e-01 0.
      9.15518105e-02 0. -2.48178288e-01 0. -1.48715721e-02 0.
      9.68844071e-02 0. 6.18653595e-01 0. 5.59574902e-01 0.
      -9.23494101e-02 0. -3.89041215e-01 0. 1.68522388e-01 0.
      4.19618040e-02 0. 8.94037634e-02 0. -5.65258823e-02 0.
      3.00977491e-02 0. 5.14348671e-02 0. 7.46552348e-02 0.
      -5.19047752e-02 0. 8.12729746e-02 0. -3.04055661e-02 0.
      1.14374973e-01 0. -2.77341735e-02 0. 4.26136190e-03 0.
      -9.66749340e-02 0. 1.06759779e-01 0. -3.40836346e-02 0.
      1.03051543e-01 0. 1.17578302e-02 0. 6.69083670e-02 0.
      -2.27235660e-01 0. 1.13038294e-01 0. -1.00373458e-02 0.
      4.03271653e-02 0. 2.40123961e-02 0. -3.30146067e-02 0.
      1.04430892e-01 0. -2.06905231e-02 0. -4.75614741e-02 0.
      2.66869366e-01 0. 7.43412450e-02 0. 1.57759517e-01 0.
      -2.24129800e-02 0. 1.80599764e-01 0. -1.47425964e-01 0.
      -1.62263550e-02 0. -4.56332803e-01 0. -4.43522334e-02 0.
      1.78221777e-01 0. -2.03977600e-02 0. -7.75014013e-02 0.
      1.31691471e-02 0. 2.07341284e-01 0. 1.31786466e-01 0.
      5.80169298e-02 0. -7.45210722e-02 0. 4.65392657e-02 0.
      2.68972337e-01 0. -1.03977770e-01 0. 3.30589935e-02 0.
      -2.01759879e-02 0. 7.39904940e-02 0. -2.23471224e-01 0.
      -1.11375943e-01 0. 2.10327774e-01 0. 1.75682113e-01 0.
      5.89880571e-02 0. 4.31082726e-01 0. 1.44591063e-01 0.
      8.75811428e-02 0. 1.18698485e-01 0. -1.08103618e-01 0.
      -8.25342476e-01 0. 3.93252015e-01 0. 7.93360695e-02 0.
      2.23791197e-01 0. -3.21568623e-02 0. -1.48657188e-01 0.
      6.73203766e-01 0. 4.05352153e-02 0. 5.29172178e-03 0.
      -1.74778566e-01 0. -3.41956317e-02 0. -6.36179000e-02 0.
      2.47867152e-01 0. 1.92608729e-01 0. 5.60918033e-01 0.
      -1.27535626e-01 0. -4.79259118e-02 0. -1.30424127e-01 0.
      1.28999755e-01 0. 1.51402667e-01 0. -4.87083420e-02 0.
      1.67293623e-01 0. 1.73888400e-01 0. 4.20427740e-01 0.
      1.07621551e-01 0. -3.57909538e-02 0. -2.58669525e-01 0.
      3.60396579e-02 0. -3.29554714e-02 0. 6.13544025e-02 0.
      5.37738860e-01 0. 4.48377728e-01 0. -1.06414452e-01 0.
      1.31482869e-01 0. -2.69224107e-01 0. 8.25851113e-02 0.
      -3.62709090e-02 0. 2.51641899e-01 0. 5.46152331e-02 0.
      8.96106809e-02 0. -3.29177566e-02 0. 3.56524885e-02 0.
      -5.75433597e-02 0. 1.56559143e-02 0. 5.36330603e-02 0.
      5.43838739e-02 0. 2.77407765e-01 0. -1.14710242e-01 0.
      -2.06383783e-02 0. -1.11166015e-03 0. -3.69331315e-02 0.
      -2.52096038e-02 0. 9.01382118e-02 0. 2.41435751e-01 0.
      -1.85789203e-03 0. 8.82466212e-02 0. -1.82015806e-01 0.
      1.52917579e-01 0. 7.26925507e-02 0. 1.81104735e-01 0.
      -4.03230876e-01 0. 5.64348757e-01 0. 3.07251751e-01 0.
      -1.84784070e-01 0. -1.50520310e-01 0. 2.32635841e-01 0.
      2.79557556e-01 0. 1.79721639e-01 0. 2.16523990e-01 0.
      3.27836163e-02 0. -5.63213229e-02 0. 2.18839925e-02 0.
      -4.80807945e-02 0. -1.05307169e-01 0. -2.54592240e-01 0.
      1.03690989e-01 0. 2.27471530e-01 0. -7.41125792e-02 0.
      3.71896058e-01 0. -9.54207778e-02 0. -5.89407831e-02 0.
      6.51611164e-02 0. -9.83682573e-02 0. 3.46377976e-02 0.
      -1.11885734e-01 0. -5.49030602e-02 0. 5.52921668e-02 0.
      -1.17046200e-01 0. 1.24726316e-03 0. -4.83251698e-02 0.
      -2.45308921e-01 0. -2.77522746e-02 0. -3.61763164e-02 0.
      -1.59189269e-01 0. 3.08797687e-01 0. 3.94503653e-01 0.
      -2.30101664e-02 0. -2.45744772e-02 0. 1.49339121e-02 0.
      -5.88754192e-02 0. 1.02612697e-01 0. -5.53051010e-02 0.
      1.82557493e-01 0. -9.88253430e-02 0. 8.38504173e-03 0.
      -9.83113870e-02 0. -2.01847956e-01 0. -1.21450000e-01 0.
      -1.31262705e-01 0. 7.95331076e-02 0. 6.17377982e-02 0.
      3.69435459e-01 0. 1.11843839e-01 0. 1.37156904e-01 0.
      -3.67565066e-01 0. 3.36031839e-02 0. 1.34947225e-01 0.
      -8.79641771e-02 0. 3.05665761e-01 0. -8.65368452e-03 0.
      1.74742475e-01 0. 2.07660228e-01 0. 2.35237435e-01 0.
      2.47392178e-01 0. 3.96515787e-01 0. 3.63251716e-01 0.
      1.36723101e+00 0. -9.53021288e-01 0. -7.28983581e-02 0.
      1.30822172e-03 0. 5.82419276e-01 0. -2.44615838e-01 0.
      -5.92759736e-02 0. -3.11905295e-01 0. 5.71831465e-01 0.
      -1.17913850e-01 0. -2.15103358e-01 0. -1.31352678e-01 0.
      -1.36321768e-01 0. 5.96160777e-02 0. -6.21221177e-02 0.
      -1.49480045e-01 0. -1.27451569e-01 0. -3.00822109e-01 0.
      -2.36438721e-01 0. -3.14197578e-02 0. 2.80092120e-01 0.
      1.03547685e-01 0. -4.35982160e-02 0. 2.50184610e-02 0.
      2.12915257e-01 0. -2.73805913e-02 0. -1.72045067e-01 0.
      -1.22142039e-01 0. 2.31760561e-01 0. -1.23153940e-01 0.
      -3.46132834e-03 0. -3.15635383e-01 0. 4.49804753e-01 0.
      -2.51382053e-01 0. -2.95632482e-01 0. -1.00472063e-01 0.
      2.53866427e-02 0. 1.41386222e-02 0. -1.73990011e-01 0.
      -8.27935562e-02 0. 1.52748466e-01 0. -7.13998452e-02 0.
      -1.61815602e-02 0. 8.66780281e-02 0. 8.06711614e-02 0.
      7.49829262e-02 0. -2.96042085e-01 0. -9.50858667e-02 0.
      4.71858561e-01 0. -2.53256410e-01 0. -1.49199858e-01 0.
      6.65417537e-02 0. 6.22100718e-02 0. 1.25756890e-01 0.
      6.24719746e-02 0. -4.82401699e-02 0. 1.63216308e-01 0.
      2.00950690e-02 0. -1.89158827e-01 0. 1.39597848e-01 0.
      2.21539676e-01 0. -2.36055434e-01 0. 1.05752267e-01 0.
      -2.83966720e-01 0. 7.19005585e-01 0. -1.18826199e+00 0.
      4.32713211e-01 0. -3.64387989e-01 0. 1.09999955e-01 0.
      -2.10756846e-02 0. 1.81210041e-02 0. -1.78538188e-01 0.
      -5.63551672e-02 0. -1.46842033e-01 0. 8.41132253e-02 0.
      -1.70163855e-01 0. 3.64483178e-01 0. 2.53096246e-03 0.
      -4.54677083e-02 0. -8.41790512e-02 0. 4.57978964e-01 0.
      -4.83338296e-01 0. 5.40217087e-02 0. 3.84770930e-02 0.
      5.45781612e-01 0. -4.93844366e-03 0. 1.20831002e-02 0.
      -3.59117776e-01 0. 1.47096351e-01 0. -1.43057182e-01 0.
      2.17706844e-01 0. -1.35455847e-01 0. -5.55487873e-04 0.
      -6.40532613e-01 0. 6.06278419e-01 0. -3.87194127e-01 0.
      1.88982084e-01 0. -1.39212847e+00 0. -1.32021829e-01 0.
      -9.87062082e-02 0. 2.20250875e-01 0. -1.95295081e-01 0.
      4.45253551e-02 0. 4.75873873e-02 0. 8.36170912e-01 0.
      -8.28493088e-02 0. 4.72949892e-01 0. -3.97651503e-03 0.
      2.42346957e-01 0. -2.18555480e-02 0. 4.39778082e-02 0.
      -1.31362557e-01 0. 5.60809374e-01 0. -9.56868351e-01 0.
      -8.46977904e-02 0. 1.77693903e-01 0. 6.21612072e-01 0.
      -1.29427686e-01 0. 9.88365337e-02 0. -2.40381956e-01 0.
      3.40966314e-01 0. -2.50884332e-02 0. 3.80006522e-01 0.
      -1.07063167e-01 0. 1.17266273e+00 0. -2.19400395e-02 0.
      6.18218422e-01 0. 1.10610966e-02 0. -1.27492785e+00 5.19966602e-01
      -2.71525979e-01 0. -5.28130889e-01 0. 2.70647317e-01 0.
      -6.71500802e-01 0. 7.86978841e-01 0. 1.21603839e-01 0.
      9.58363817e-04 0. -6.38142049e-01 0. 4.20932770e-01 0.
      -1.71311066e-01 0. -2.04166379e-02 0. -1.03931576e-01 0.
      9.75842237e-01 0. -5.09424806e-02 0. -6.80085942e-02 0.
      -1.07406509e+00 0. -1.31496441e+00 0. -1.17043006e+00 0.
      -1.02033824e-01 0. -9.50464606e-02 0. 4.75617833e-02 0.
      -6.66177422e-02 0. 1.80236265e-01 0. -3.56011361e-01 0.
      3.29666704e-01 0. -1.77714512e-01 0. -6.40739426e-02 0.
      -1.15700774e-01 0. 4.55368072e-01 0. -1.77487865e-01 0.
      7.65192788e-03 0. -4.40555632e-01 0. -2.66492218e-01 0.
      -4.78115439e-01 0. -1.16445683e-02 0. -9.95719656e-02 0.
      -2.10815623e-01 0. -2.01182544e-01 0. -4.71929796e-02 0.
      -3.07279918e-02 0. 2.24270687e-01 0. 2.12207362e-01 0.
      1.19878203e-01 0. -4.38622758e-02 0. 1.12143703e-01 0.
      9.81343314e-02 0. -1.53048607e-02 0. -1.54597759e-01 0.
      -1.17185362e-01 0. -3.67529064e-01 0. 1.14808962e-01 0.
      2.47811396e-02 0. 3.61011438e-02 0. -1.12880602e-01 0.
      1.10671446e-01 0. -1.22623935e-01 0. 3.17413062e-01 0.
      4.44598556e-01 0. 8.35859850e-02 0. 1.96323365e-01 0.
      4.92207974e-01 0. 1.91913232e-01 0. 1.02142148e-01 0.
      -3.44686359e-01 0. 5.19777954e-01 0. -4.38286394e-01 0.
      1.69594496e-01 0. 2.48650238e-01 0. 3.71369362e-01 0.
      7.52820522e-02 0. -1.36725130e-02 0. -2.86149055e-01 0.
      1.90139353e-01 0. 1.08523846e-01 0. -5.72623406e-03 0.
      -8.98060948e-02 0. 2.52542078e-01 0. 1.85496658e-01 0.
      1.30089941e-02 0. 4.39963162e-01 0. -8.62147957e-02 0.
      -5.04173152e-02 0. -1.20316576e-02 0. -3.20489146e-02 0.
      5.69703914e-02 0. 5.99358715e-02 0. -7.58822113e-02 0.
      -1.18511871e-01 0. 2.75707483e-01 0. 2.10811287e-01 0.
      -1.58168599e-02 0. 1.22688256e-01 0. 1.68570980e-01 0.
      2.15454698e-01 0. -1.72553182e-01 0. -8.42494592e-02 0.
      4.56785113e-01 0. -7.70144939e-01 0. 6.95035756e-02 0.
      -6.78890720e-02 0. 1.72225058e-01 0. 1.60660326e-01 0.
      1.44675136e-01 0. 2.32348502e-01 0. 2.68723369e-02 0.
      1.50808230e-01 0. -4.88548055e-02 0. -9.29367915e-02 0.
      3.83909307e-02 0. 1.48761109e-01 0. 6.71981052e-02 0.
      2.04512142e-02 0. 2.74424821e-01 0. 1.33787349e-01 0.
      -1.23886615e-01 0. -2.08875731e-01 0. -3.99353430e-02 0.
      1.20763958e-01 0. 2.80280322e-01 0. 4.26883936e-01 0.
      9.61638093e-02 0. 2.30699405e-01 0. 1.32935390e-01 0.
      -3.32738906e-01 0. 4.99608546e-01 0. 4.47193712e-01 0.
      1.39491588e-01 0. 6.00487888e-01 0. 1.59875512e-01 0.
      -6.45664990e-01 0. 1.34636924e-01 0. 7.25701451e-02 0.
      1.35029346e-01 0. -7.47255906e-02 0. 1.11192420e-01 0.
      1.22749964e-02 0. 5.24866991e-02 0. -9.83246118e-02 0.
      8.12662020e-02 0. -1.76174752e-02 0. 1.81989625e-01 0.
      -3.69077362e-02 0. 9.07727554e-02 0. 3.20516825e-01 0.
      2.52562910e-01 0. 1.18009448e-01 0. -3.52594862e-03 0.
      4.06379960e-02 0. 1.52797014e-01 0. 6.10224046e-02 0.
      -3.38412053e-03 0. 3.81419621e-02 0. 2.94550747e-01 0.
      7.06476569e-02 0. 9.44391340e-02 0. -2.70179734e-02 0.
      1.21109989e-02 0. 1.51266620e-01 0. -1.01031609e-01 0.
      3.02003294e-01 0. -5.74082173e-02 0. -5.40223233e-02 0.
      2.66593583e-02 0. -1.13688819e-01 0. 7.06710443e-02 0.
      4.56798561e-02 0. 2.55956706e-02 0. -6.73068538e-02 0.
      4.15375791e-02 0. 7.45499833e-03 0. 4.51881848e-02 0.
      2.04148099e-01 0. 8.91143978e-02 0. -7.19680116e-02 0.
      2.99899429e-02 0. -1.01525068e-01 0. -2.58720696e-01 0.
      2.80476697e-02 0. 7.67802969e-02 0. -3.77160795e-02 0.
      -1.86656676e-02 0. -2.77621467e-02 0. 5.57631487e-03 0.
      -1.00061022e-01 0. 1.01654120e-01 0. 3.73340920e-02 0.
      7.67269433e-02 0. -1.52096555e-01 0. 2.35060342e-02 0.
      -1.63241521e-01 0. 6.45437986e-02 0. -1.12016208e-01 0.
      2.30427563e-01 0. 8.85099843e-02 0. 5.12167141e-02 0.
      1.23431586e-01 0. 3.68961096e-01 0. 3.96085978e-02 0.
      6.27428517e-02 0. 1.80220176e-02 0. 1.61619142e-01 0.
      -6.22822046e-02 0. 1.00110635e-01 0. -9.84091535e-02 0.
      9.68457013e-02 0. 3.05909906e-02 0. -1.10574206e-02 0.
      1.19156614e-02 0. -1.45509586e-01 0. 4.16281335e-02 0.
      5.20606190e-02 0. 1.92444324e-02 0. -7.22395852e-02 0.
      -2.98112258e-02 0. -3.37703861e-02 0. -5.94184808e-02 0.
      3.98308933e-02 0. -4.33642790e-02 0. 3.72766815e-02 0.
      -1.05475307e-01 0. 1.66947886e-01 0. 1.83213040e-01 0.
      -7.94456154e-03 0. -5.03467582e-02 0. 4.41834360e-01 0.
      3.15000892e-01 0. 8.84474888e-02 0. 7.07538575e-02 0.
      1.55978784e-01 0. 1.06666155e-01 0. 3.96691971e-02 0.
      -3.16781074e-01 0. 1.54965371e-01 0. 9.19508189e-02 0.
      2.18865231e-01 0. -1.57935068e-01 0. 1.96617037e-01 0.
      1.36851341e-01 0. 1.12991489e-01 0. 1.59412399e-01 0.
      -2.31158197e-01 0. 1.03135325e-01 0. 1.48337558e-01 0.
      1.31139420e-02 0. -3.04151565e-01 0. -8.86475518e-02 0.
      -1.49435192e-01 0. -5.36516607e-01 0. 2.55234927e-01 0.
      4.35371518e-01 0. -7.81404506e-03 0. -1.58042669e-01 0.
      5.40700197e-01 0. 1.35585129e-01 0. 3.16710442e-01 0.
      3.81628394e-01 0. 1.74171217e-02 0. -2.13805452e-01 0.
      -1.02747226e+00 0. -3.37524042e-02 0. -7.79268816e-02 0.
      1.37858301e-01 0. -2.09100306e-01 0. 1.18586998e-02 0.
      -3.43915492e-01 0. 3.31768990e-01 0. -4.24197875e-02 0.
      2.76941538e-01 0. -1.86780065e-01 0. 1.90519512e-01 0.
      2.37538785e-01 0. 3.09566468e-01 0. -1.71045169e-01 0.
      1.89521849e-01 0. -1.13543056e-01 0. -3.00906658e-01 0.
      1.80725977e-01 0. 7.01297000e-02 0. 3.09133958e-02 0.
      3.29149485e-01 0. -1.50365397e-01 0. 7.75312334e-02 0.
      -4.83189933e-02 0. 4.86840457e-02 0. 1.11425564e-01 0.
      6.15553372e-02 0. 2.74438947e-01 0. 3.32390100e-01 0.
      -1.43336147e-01 0. 2.48911679e-02 0. 9.13601741e-02 0.
      6.62902519e-02 0. 7.18348399e-02 0. 2.40767729e-02 0.
      6.80308938e-02 0. 1.96293101e-01 0. 1.16280563e-01 0.
      -9.23215132e-03 0. -2.98936944e-02 0. -8.40859786e-02 0.
      1.26689196e-01 0. 1.86315060e-01 0. 8.40558559e-02 0.
      8.83534178e-02 0. 1.07303157e-01 0. 2.45370150e-01 0.
      2.71584421e-01 0. -1.71641409e-01 0. 1.28856346e-01 0.
      -1.37038797e-01 0. 5.32033332e-02 0. 3.10426176e-01 0.
      1.15951851e-01 0. -7.59109184e-02 0. 2.80136243e-02 0.
      3.11819881e-01 0. -6.13978272e-03 0. -7.68181622e-01 0.
      2.14440972e-01 0. 1.71786696e-01 0. -3.86729538e-01 0.
      -2.21912097e-03 0. -4.03615803e-01 0. -3.01687002e-01 0.
      -1.43788502e-01 0. 2.18958110e-01 0. -9.73849148e-02 0.
      3.60360026e-01 0. 1.34000048e-01 0. 1.15944855e-01 0.
      1.24670215e-01 0. -3.99961174e-02 0. 9.61997211e-02 0.
      9.29552019e-02 0. 1.07593313e-02 0. 2.27259859e-01 0.
      7.51991645e-02 0. 7.02346563e-02 0. -1.75539926e-01 0.
      8.99519771e-03 0. -8.53730291e-02 0. 8.31107050e-02 0.
      2.34302245e-02 0. 3.78636718e-02 0. 2.57887058e-02 0.
      1.45442635e-01 0. 6.28584400e-02 0. -4.50819880e-01 0.
      8.60658139e-02 0. 3.91526744e-02 0. -9.48863849e-02 0.
      2.47625411e-01 0. 2.82789737e-01 0. -1.87082455e-01 0.
      -1.04578361e-01 0. -1.05699793e-01 0. -3.69523019e-02 0.
      -5.04924394e-02 0. 1.45346925e-01 0. -9.63910446e-02 0.
      1.39697284e-01 0. 4.15203813e-03 0. 2.49588694e-02 0.
      -9.69735011e-02 0. 1.27151176e-01 0. 9.09595117e-02 0.
      7.86430091e-02 0. 2.30819002e-01 0. -2.37251371e-02 0.
      8.26432630e-02 0. 3.71559896e-02 0. -4.05266315e-01 0.
      6.52932823e-02 0. 1.29557610e-01 0. -7.67881284e-03 0.
      3.44473630e-01 0. 1.08739033e-01 0. -6.65926263e-02 0.
      2.65848309e-01 0. -4.07100677e-01 0. 4.99621266e-03 0.
      2.62133211e-01 0. 9.28966403e-02 0. 1.10981035e+00 0.
      -9.71505791e-02 0. 8.55583370e-01 0. 1.14974305e-01 0.
      2.94099629e-01 0. -2.12580398e-01 0. 8.05035755e-02 0.
      -1.72148451e-01 0. 2.18787193e-02 0. -2.13700850e-02 0.
      -2.96254903e-01 0. 7.83897117e-02 0. -4.98583704e-01 0.
      3.42839286e-02 0. -7.56759644e-02 0. 6.43720850e-02 0.
      4.15925413e-01 0. -3.72297853e-01 0. -7.78762028e-02 0.
      -1.52858779e-01 0. -9.90545005e-02 0. -1.75394848e-01 0.
      5.20045310e-02 0. -1.24160819e-01 0. -7.07829446e-02 0.
      -9.78833959e-02 0. 2.26764441e-01 0. -7.26276115e-02 0.
      2.21302196e-01 0. -3.70968133e-01 0. 1.07592456e-01 0.
      -7.44671643e-01 0. 1.00921072e-01 0. -5.21454692e-01 0.
      -2.15897113e-01 0. 2.12321505e-01 0. 5.67618273e-02 0.
      6.57105222e-02 0. -1.03471860e-01 0. 1.59264691e-02 0.
      1.82814538e-01 0. 1.20593399e-01 0. 1.28039837e-01 0.
      -1.08088791e-01 0. 1.36268526e-01 0. -5.85743226e-02 0.
      -4.45774674e-01 0. -1.61634237e-01 0. 3.43273669e-01 0.
      2.23523289e-01 0. -5.42339794e-02 0. 1.47990495e-01 0.
      2.35306919e-01 0. -5.58485137e-03 0. -2.21600935e-01 0.
      -3.25805433e-02 0. -1.87435225e-01 0. 2.82690436e-01 0.
      -3.63469005e-01 0. 3.64914723e-02 0. 7.42751598e-01 0.
      1.30793735e-01 0. -2.91538239e-01 0. -3.21190357e-01 0.
      1.71080485e-01 0. -4.39859658e-01 0. 6.72152281e-01 0.
      -1.81528151e-01 0. 6.51797354e-01 0. -2.83984262e-02 0.
      3.05483103e-01 0. -1.94637567e-01 0. 1.48953974e-01 0.
      -3.79577994e-01 0. 4.46766555e-01 0. -1.00795634e-01 0.
      3.85459244e-01 0. -1.52621856e-02 0. 6.71351925e-02 0.
      -7.00073913e-02 0. 9.47788894e-01 0. -5.50465822e-01 0.
      2.16377433e-02 0. -1.58472613e-01 0. 2.87066370e-01 0.
      -1.46107763e-01 0. -9.80723575e-02 0. -4.15797263e-01 0.
      2.39525929e-01 0. -2.60766447e-01 0. 2.23686203e-01 0.
      -1.53824031e-01 0. 1.72501862e-01 0. -4.45699245e-01 0.
      -9.25564393e-02 0. -1.11159945e+00 0. 2.72216320e-01 0.
      -8.51363957e-01 0. 6.03378892e-01 0. -6.42689615e-02 0.
      5.46199262e-01 0. -5.73713303e-01 0. 2.02437758e-01 0.
      -1.50293052e-01 0. 5.16575038e-01 0. 2.05219444e-02 0.
      1.81243658e-01 0. -2.49669969e-01 0. -1.24150716e-01 0.
      -1.01050712e-01 0. -2.09841222e-01 0. -3.44297975e-01 0.
      4.26832527e-01 0. 1.45519022e-02 0. -5.27958423e-02 0.
      4.82504480e-02 0. 7.60516524e-01 0. -3.16701710e-01 0.
      -5.03673732e-01 0. -2.55874962e-01 0. 4.45322275e-01 0.
      3.21477264e-01 0. 8.19377601e-01 0. -5.28190844e-02 0.
      -9.60326120e-02 0. 1.36009455e-01 0. 3.03140432e-01 0.
      -2.16971174e-01 0. -2.20418289e-01 -3.83604355e-02 2.28622034e-01
      0. -9.67626035e-01 0. 2.27372885e-01 0. -1.65226012e-01 0.
      1.06562626e+00 0. 3.04949105e-01 0. 4.15113121e-01 0.
      -1.61195695e+00 0. 1.54047057e-01 0. 1.15330517e-01 0.
      1.70459285e-01 0. -4.16958988e-01 0. 5.10749102e-01 0.
      2.36916348e-01 0. 3.35237533e-01 0. -1.44823480e+00 0.
      -1.00774956e+00 0. -9.19382870e-01 0. -8.25172365e-02 0.
      -3.22868347e-01 0. -1.29488945e-01 0. -2.44266093e-01 0.
      -2.34495681e-02 0. -3.17990243e-01 0. 1.92008249e-03 0.
      -1.80190384e-01 0. -2.54683178e-02 0. -2.10528255e-01 0.
      2.85559207e-01 0. -2.11926043e-01 0. -2.07847223e-01 0.
      -1.51159680e+00 0. 2.30586722e-01 0. -1.02007471e-01 0.
      4.99411337e-02 0. -2.92389095e-01 0. -1.02416031e-01 0.
      -1.65151104e-01 0. 2.19917849e-01 0. -4.58043337e-01 0.
      1.09031405e-02 0. -1.62822008e-01 0. -3.82551327e-02 0.
      -6.21731319e-02 0. 2.68810391e-01 0. 5.56039996e-02 0.
      -8.82497989e-03 0. -3.82688403e-01 0. -2.07961455e-01 0.
      1.12395205e-01 0. -4.84330133e-02 0. 2.79065855e-02 0.
      1.07127376e-01 0. -7.99863264e-02 0. 6.09559081e-02 0.
      -2.99069136e-01 0. 1.62239298e-01 0. 1.03422329e-01 0.
      5.16715944e-02 0. 1.46814227e-01 0. 3.04118484e-01 0.
      1.56335086e-01 0. 1.96188644e-01 0. -4.95771229e-01 0.
      6.83946908e-01 0. 3.17300737e-01 0. 2.24169940e-01 0.
      -2.26378337e-01 0. 2.85167664e-01 0. 2.07493544e-01 0.
      1.93564415e-01 0. -2.33988911e-01 0. 3.07538420e-01 0.
      2.38281161e-01 0. 4.06540558e-02 0. 2.01140903e-03 0.
      2.80294627e-01 0. 1.10883161e-01 0. 8.07037130e-02 0.
      -1.94326401e-01 0. 1.27129816e-02 0. -8.47793445e-02 0.
      1.69264987e-01 0. -1.94439873e-01 0. 1.34866014e-01 0.
      -6.97526634e-02 0. -2.11954713e-02 0. -8.25948361e-03 0.
      2.03419011e-02 0. 5.85723259e-02 0. -1.54601540e-02 0.
      1.36641249e-01 0. 1.80391356e-01 0. 5.50364219e-02 0.
      -5.26422523e-02 0. -1.03586055e-02 0. 6.37247503e-01 0.
      2.89353698e-01 0. 9.79065076e-02 0. 6.07831031e-03 0.
      1.61385670e-01 0. 2.66994070e-02 0. 7.84030259e-02 0.
      -2.30303742e-02 0. 1.20987974e-01 0. 7.43552819e-02 0.
      8.97339918e-03 0. -1.16690241e-01 0. 1.52100772e-01 0.
      2.52798423e-02 0. 1.89395666e-01 0. -1.34826347e-01 0.
      4.13143039e-02 0. 8.86339322e-02 0. 1.25183389e-01 0.
      -2.60825574e-01 0. 1.95993800e-02 0. 1.18755706e-01 0.
      1.02827631e-01 0. -4.70233560e-02 0. 5.21262027e-02 0.
      1.81590751e-01 0. -8.55717286e-02 0. -3.09611447e-02 0.
      1.06606372e-01 0. 6.75939173e-02 0. 2.79215723e-01 0.
      3.37451696e-01 0. 1.03951859e+00 0. 6.70664430e-01 0.
      1.09842844e-01 0. 4.62676704e-01 0. 1.80224955e-01 0.
      4.24161963e-02 0. 2.73583055e-01 0. -4.94645774e-01 0.
      -7.00948760e-02 0. 1.73701689e-01 0. -7.83501193e-03 0.
      1.91626668e-01 0. 5.62202409e-02 0. 6.44000396e-02 0.
      3.04499954e-01 0. -1.23947173e-01 0. -2.32920647e-01 0.
      -6.61547929e-02 0. 6.33819848e-02 0. -1.45070285e-01 0.
      5.64993769e-02 0. 8.13827813e-02 0. 1.49085343e-01 0.
      -8.14871341e-02 0. 2.94026375e-01 0. 1.77746236e-01 0.
      7.60297626e-02 0. -1.16978027e-01 0. -6.75030425e-03 0.
      1.50806248e-01 0. -1.52005464e-01 0. 3.09836622e-02 0.
      1.24063179e-01 0. -4.18928377e-02 0. 1.90433428e-01 0.
      -1.84204802e-01 0. 1.57037020e-01 0. -3.10917869e-02 0.
      1.54436231e-01 0. -2.31579274e-01 0. -9.82509330e-02 0.
      8.92340019e-02 0. 1.46165386e-01 0. -3.38872895e-02 0.
      7.05098882e-02 0. 7.58817326e-03 0. 1.59089323e-02 0.
      -2.52370872e-02 0. -1.65402703e-03 0. 1.15312263e-01 0.
      -8.04300085e-02 0. -6.23106435e-02 0. 5.26420474e-02 0.
      -7.21057579e-02 0. -3.46465074e-02 0. -1.08935207e-01 0.
      -1.45771373e-02 0. -1.23625314e-02 0. -7.47530162e-02 0.
      3.26165780e-02 0. 1.71307981e-01 0. 3.27686928e-02 0.
      1.20208472e-01 0. -3.13456386e-01 0. 7.07441449e-01 0.
      4.62191939e-01 0. -8.03156570e-03 0. 5.96842915e-02 0.
      2.93482631e-01 0. 5.63437305e-02 0. 3.40703428e-02 0.
      -2.26618916e-01 0. -4.06374298e-02 0. -3.61436941e-02 0.
      -4.67976630e-02 0. -3.32033224e-02 0. -9.98198017e-02 0.
      1.35277107e-01 0. 8.39385539e-02 0. 2.27304071e-01 0.
      -5.98507635e-02 0. 6.42415211e-02 0. 7.17310011e-02 0.
      -8.20011497e-02 0. 9.44229439e-02 0. -5.78082688e-02 0.
      1.08534567e-01 0. -3.11716646e-01 0. 4.34986800e-02 0.
      -6.22568317e-02 0. 5.29595762e-02 0. -4.93946150e-02 0.
      5.53878993e-02 0. 2.01176196e-01 0. 1.23287387e-01 0.
      1.16090544e-01 0. 7.76804745e-01 0. 3.17595899e-01 0.
      5.94134629e-02 0. 1.98455065e-01 0. 7.03718141e-02 0.
      9.38754454e-02 0. 9.08970386e-02 0. -1.21800080e-01 0.
      5.71075343e-02 0. 1.61257386e-01 0. 7.21542835e-02 0.
      -1.53311074e-01 0. -9.87846404e-02 0. 2.40599755e-02 0.
      3.11273515e-01 0. 3.43557090e-01 0. -3.58078122e-01 0.
      2.02967495e-01 0. 2.97715336e-01 0. -4.85019423e-02 0.
      1.91732403e-02 0. -7.53711388e-02 0. 1.83287606e-01 0.
      -9.71788824e-01 0. -6.07377589e-02 0. 2.14931488e-01 0.
      3.12459946e-01 0. 3.42310876e-01 0. 4.84250575e-01 0.
      1.39270425e-01 0. 9.90413651e-02 0. -4.97408092e-01 0.
      -3.78515333e-01 0. -2.89837513e-02 0. 8.44729006e-01 0.
      -5.76365232e-01 0. 1.27281144e-01 0. -2.14714222e-02 0.
      1.54804334e-03 0. -7.78121725e-02 0. -4.10173982e-01 0.
      -5.69355860e-02 0. -1.48619905e-01 0. -9.94543433e-02 0.
      -3.22289944e-01 0. 2.14235201e-01 0. 1.20512381e-01 0.
      1.00591254e+00 0. 2.63273239e-01 0. 1.63208947e-01 0.
      6.51652887e-02 0. -9.13638696e-02 0. -1.04101207e-02 0.
      -1.35418206e-01 0. 7.61684924e-02 0. 2.96064347e-01 0.
      -3.03618968e-01 0. 1.42725691e-01 0. 2.37478893e-02 0.
      8.77807811e-02 0. 2.73031145e-02 0. 1.87141031e-01 0.
      5.89037351e-02 0. 8.44802558e-01 0. 2.00745270e-01 0.
      1.36973351e-01 0. 5.43819554e-02 0. -2.41409644e-01 0.
      1.47850171e-01 0. -3.48551571e-01 0. 1.50449099e-02 0.
      4.19809595e-02 0. 8.98821428e-02 0. -5.33408374e-02 0.
      4.95616384e-02 0. -1.21077672e-01 0. 1.56795606e-01 0.
      1.02047957e-01 0. 1.24881625e-01 0. 3.65803182e-01 0.
      -8.21598247e-02 0. 2.07811862e-01 0. 1.31328687e-01 0.
      -4.62012105e-02 0. 7.75625110e-02 0. 4.80866842e-02 0.
      3.75647563e-03 0. 1.70598581e-01 0. 4.46406662e-01 0.
      -1.10304952e-01 0. 1.36822641e-01 0. 3.74556668e-02 0.
      3.34872931e-01 0. -1.64707806e-02 0. 2.92289883e-01 0.
      7.88268566e-01 0. 1.77746221e-01 0. -8.43844097e-03 0.
      8.72690827e-02 0. -1.24886587e-01 0. 1.16794713e-01 0.
      1.09239765e-01 0. -5.30392257e-03 0. -5.80452271e-02 0.
      7.65394345e-02 0. 1.59511834e-01 0. -2.40514148e-02 0.
      1.31930541e-02 0. 1.13874905e-01 0. 1.98704258e-01 0.
      1.60999924e-01 0. 4.68602031e-01 0. 5.05791418e-02 0.
      -1.38334662e-01 0. 1.39800593e-01 0. 4.87399846e-02 0.
      -3.77895795e-02 0. -1.10416345e-01 0. -4.91961204e-02 0.
      3.93103689e-01 0. -1.16035521e-01 0. -1.62844826e-02 0.
      -1.77656218e-01 0. -6.39740601e-02 0. -2.15928648e-02 0.
      6.63060993e-02 0. -1.06980085e-01 0. 1.69321969e-01 0.
      4.13809270e-01 0. 2.75436044e-01 0. -7.94095569e-04 0.
      1.39379323e-01 0. -1.35867774e-01 0. 1.77280959e-02 0.
      3.68517376e-02 0. 1.24087222e-01 0. 1.63263883e-02 0.
      -1.25838384e-01 0. 2.09181774e-02 0. -2.88888365e-01 0.
      1.05447657e-01 0. 1.18470907e-01 0. 1.38675258e-01 0.
      1.35122165e-01 0. 2.51354784e-01 0. 4.01657596e-02 0.
      1.46240741e-01 0. -2.94110060e-01 0. -1.52203199e-02 0.
      9.71893035e-03 0. 9.58073586e-02 0. 2.22933501e-01 0.
      5.57398088e-02 0. 3.05034280e-01 0. 5.32824248e-02 0.
      8.58118832e-02 0. -4.94846404e-02 0. 2.29947865e-01 0.
      2.22843681e-02 0. 1.03546476e+00 0. -1.29305363e+00 0.
      -2.81979926e-02 0. -1.49028882e-01 0. 7.11195827e-01 0.
      -6.07504308e-01 0. -5.87885194e-02 0. -2.73375303e-01 0.
      4.90019798e-01 0. -4.49489862e-01 0. -1.49613217e-01 0.
      -1.56965554e-01 0. 2.54903510e-02 0. -1.34233385e-03 0.
      -2.37615377e-01 0. 1.36117801e-01 0. 5.24630427e-01 0.
      3.00155208e-02 0. -3.63310516e-01 0. -1.90206885e-01 0.
      2.68834502e-01 0. 5.32551855e-02 0. -3.32464308e-01 0.
      1.72189437e-02 0. 1.03252716e-01 0. -2.47722697e-02 0.
      -1.10218011e-01 0. 2.66224295e-02 0. 2.43263900e-01 0.
      -3.96130025e-01 0. -1.59985311e-02 0. -1.90294549e-01 0.
      6.48179471e-01 0. -6.80480838e-01 0. -1.70470625e-01 0.
      -6.02627695e-02 0. 5.98989055e-02 0. 3.18554252e-01 0.
      -2.04645172e-01 0. -1.33151203e-01 0. 2.09938899e-01 0.
      -5.00227232e-03 0. -1.04498282e-01 0. -4.69903555e-03 0.
      4.09533158e-02 0. 6.13863915e-02 0. -5.04306331e-02 0.
      1.04670092e-01 0. 5.36913216e-01 0. -2.23547921e-01 0.
      -4.46832366e-02 0. 1.01951761e-02 0. 3.51033986e-01 0.
      -4.66232821e-02 0. 8.57717991e-02 0. -3.99375968e-02 0.
      1.52204618e-01 0. 7.25030303e-02 0. -1.54445261e-01 0.
      5.47288433e-02 0. 1.05023146e+00 0. -2.90537566e-01 0.
      3.44760597e-01 0. 5.55471182e-02 0. 1.63380787e-01 0.
      -1.54117727e+00 0. 1.01318276e+00 0. -1.06829777e-01 0.
      8.76252234e-01 0. -4.67357606e-01 0. -1.89409807e-01 0.
      -4.29257564e-02 0. 3.46094519e-01 0. -6.18145764e-01 0.
      6.88731074e-02 0. 3.17578614e-02 0. 4.02611017e-01 0.
      -3.39629889e-01 0. 2.87578017e-01 0. -1.45545185e-01 0.
      8.05803239e-01 0. -8.83139491e-01 0. 1.70725845e-02 0.
      -3.77930880e-01 0. 2.80651689e-01 0. -1.20666772e-01 0.
      -9.54282731e-02 0. -3.88978332e-01 0. 2.88123190e-01 0.
      -2.54569411e-01 0. 1.72247052e-01 0. -2.79032439e-01 0.
      -1.05302930e-01 0. -5.06887674e-01 0. 1.64356276e-01 0.
      -1.06160843e+00 0. 1.50535675e-02 0. -1.46561432e+00 0.
      -2.57645100e-01 0. -4.12803650e-01 0. 1.01269901e+00 0.
      -3.30166817e-01 0. 2.00505078e-01 0. -5.93212768e-02 0.
      5.71652234e-01 0. -3.02699000e-01 0. 2.66021460e-01 0.
      -2.24073574e-01 0. -5.60299046e-02 0. -2.96604663e-01 0.
      2.72320062e-01 0. -1.19870240e-02 0. 3.53854299e-01 0.
      -1.03776073e+00 0. -7.95191675e-02 0. 1.80488855e-01 0.
      6.63380086e-01 0. -1.05471820e-01 0. 1.15581304e-01 0.
      -1.56550705e-01 0. 6.30039990e-01 0. -8.48782718e-01 0.
      4.58935380e-01 0. -2.15655603e-02 0. 6.94021106e-01 0.
      -7.75126740e-02 0. 7.48643160e-01 0. -7.39337921e-01 0.
      -6.91061854e-01 2.17692614e-01 -2.86176473e-01 0. -8.86334121e-01
      0. -5.20106032e-02 0. -5.41950703e-01 0. 3.97858977e-01 0.
      6.00275695e-02 0. 4.33284044e-01 0. -2.84199655e-01 0.
      4.43003863e-01 0. 9.86690819e-02 0. 2.75565591e-02 0.
      -1.61531135e-01 0. 6.89390421e-01 0. -3.31556723e-02 0.
      1.77479252e-01 0. -1.36943746e+00 0. -2.01856136e+00 0.
      -5.94881058e-01 0. 3.87761332e-02 0. -1.60827085e-01 0.
      2.34903127e-01 0. -2.11238697e-01 0. -2.21541598e-01 0.
      -6.50687665e-02 0. 2.83114851e-01 0. -7.87774548e-02 0.
      -2.47262660e-02 0. -1.60599217e-01 0. 2.18297392e-01 0.
      -8.54577273e-02 0. 6.21234775e-02 0. -6.60695434e-01 0.
      4.77696694e-02 0. -1.22635543e-01 0. 1.42461598e-01 0.
      5.60715087e-02 0. -7.39775598e-02 0. 1.11837223e-01 0.
      -1.74256098e-02 0. -2.32089356e-01 0. 1.44433424e-01 0.
      -5.50480559e-02 0. 2.31759205e-01 0. 4.91597205e-02 0.
      1.94617182e-01 0. 8.63586143e-02 0. -7.22236335e-02 0.
      -2.44316347e-02 0. -4.09726351e-01 0. -1.67054739e-02 0.
      1.21752866e-01 0. 9.43511054e-02 0. -1.21493079e-01 0.
      -9.13009420e-02 0. 8.03287551e-02 0. -1.29776150e-01 0.
      2.28861138e-01 0. 2.77988642e-01 0. 8.49221200e-02 0.
      1.95278391e-01 0. 3.87007475e-01 0. -6.45466745e-02 0.
      2.08905429e-01 0. -3.93939376e-01 0. 5.48211217e-01 0.
      7.54784793e-02 0. 1.55849814e-01 0. 1.70621186e-01 0.
      4.52157766e-01 0. 2.50787497e-01 0. 2.32728794e-01 0.
      9.70775075e-03 0. 1.86322495e-01 0. 4.72987778e-02 0.
      -5.31830415e-02 0. -3.88992429e-02 0. 2.71535993e-01 0.
      -1.91672649e-02 0. 1.14311174e-01 0. 3.23405355e-01 0.
      1.61770716e-01 0. 1.98454916e-01 0. -3.40536945e-02 0.
      1.47004232e-01 0. 5.62404059e-02 0. 8.23092982e-02 0.
      4.00907546e-02 0. -1.32521018e-01 0. 3.32017988e-02 0.
      1.54002681e-01 0. -2.52683666e-02 0. 1.50499374e-01 0.
      1.17366850e-01 0. 2.18554363e-01 0. -3.78110141e-01 0.
      1.01764716e-01 0. 8.50861073e-02 0. -2.47933492e-01 0.
      2.11692080e-01 0. -1.35985930e-02 0. 4.52254142e-04 0.
      2.12342054e-01 0. 1.09583914e-01 0. 2.74975121e-01 0.
      -1.17951684e-01 0. 3.92781682e-02 0. 7.95440599e-02 0.
      2.73808129e-02 0. -2.78038997e-02 0. 1.27798632e-01 0.
      8.89500231e-03 0. 2.03615174e-01 0. 2.60676503e-01 0.
      1.25717744e-01 0. 6.23721592e-02 0. -2.13252261e-01 0.
      3.33032981e-02 0. 1.47510841e-01 0. 1.99253231e-01 0.
      -3.89259718e-02 0. 4.60456796e-02 0. 2.24123850e-01 0.
      3.58595848e-02 0. -4.96403694e-01 0. 3.53697330e-01 0.
      1.41621768e-01 0. -8.36504176e-02 0. 7.06814408e-01 0.
      -4.17859666e-02 0. -3.05118680e-01 0. 2.61440873e-01 0.
      2.14847103e-01 0. 5.61713316e-02 0. -3.59451175e-01 0.
      8.74071848e-03 0. -2.67762870e-01 0. 6.01130612e-02 0.
      7.48334154e-02 0. 1.36528879e-01 0. 6.94345906e-02 0.
      2.67109331e-02 0. -1.19296484e-01 0. 1.73906311e-01 0.
      2.84531742e-01 0. -7.04706311e-02 0. 1.37781695e-01 0.
      1.53374955e-01 0. 1.02859274e-01 0. 1.32953286e-01 0.
      -1.60246678e-02 0. 1.23493463e-01 0. 1.34160304e-02 0.
      2.06979096e-01 0. 1.25286594e-01 0. 6.42432123e-02 0.
      6.80266768e-02 0. -5.31455204e-02 0. 1.00873195e-01 0.
      2.80857552e-02 0. 4.26744193e-01 0. 1.87184095e-01 0.
      6.67307377e-02 0. -3.09214909e-02 0. -1.10899821e-01 0.
      -1.93920154e-02 0. 1.19771093e-01 0. -1.27253737e-02 0.
      6.83221593e-02 0. 9.33703110e-02 0. 9.38617364e-02 0.
      1.77068040e-01 0. 9.04418826e-02 0. 3.24284583e-02 0.
      -1.03796944e-01 0. 3.91243771e-02 0. 9.00377110e-02 0.
      -7.16460273e-02 0. 1.02369890e-01 0. -1.10885939e-02 0.
      -4.11960849e-04 0. 6.37155399e-02 0. 2.77012270e-02 0.
      1.06404305e-01 0. -3.65264863e-01 0. 1.30389690e-01 0.
      6.55455142e-02 0. 1.72382936e-01 0. -7.03395754e-02 0.
      5.49311228e-02 0. 1.28456160e-01 0. 3.58106434e-01 0.
      -3.06891222e-02 0. -5.27780414e-01 0. 1.62930071e-01 0.
      1.45904228e-01 0. 1.56918570e-01 0. 6.29194230e-02 0.
      1.53293103e-01 0. 7.52050430e-02 0. 5.87607063e-02 0.
      7.35707134e-02 0. 4.22292799e-02 0. 1.86694086e-01 0.
      -5.16747907e-02 0. 1.22270614e-01 0. 1.35678843e-01 0.
      -5.46205882e-03 0. 1.14289545e-01 0. -2.14454591e-01 0.
      -2.21464746e-02 0. 8.92116576e-02 0. 1.28232062e-01 0.
      -2.71340809e-03 0. 1.09565863e-02 0. -3.52615453e-02 0.
      -1.78344548e-01 0. -6.27310500e-02 0. -3.58360708e-02 0.
      4.85303029e-02 0. -1.47308066e-01 0. 7.02669919e-02 0.
      2.76633948e-01 0. 1.42255083e-01 0. 1.09500669e-01 0.
      1.33000001e-01 0. 2.50699908e-01 0. 1.77335799e-01 0.
      9.24664512e-02 0. 1.47561729e-01 0. -8.76342505e-02 0.
      3.92464809e-02 0. -9.10784230e-02 0. -1.60569668e-01 0.
      8.23375210e-03 0. 1.04676537e-01 0. 7.87044764e-02 0.
      2.18535542e-01 0. 1.90642744e-01 0. 2.17827126e-01 0.
      -1.79743305e-01 0. -8.77300575e-02 0. 1.22071744e-03 0.
      1.54512092e-01 0. -1.50649603e-02 0. -1.06803343e-01 0.
      -5.88615239e-02 0. 2.12090433e-01 0. -5.70901752e-01 0.
      7.51587749e-02 0. 3.17771509e-02 0. 1.39931351e-01 0.
      1.19296767e-01 0. 4.43727225e-01 0. 2.06998602e-01 0.
      4.57434058e-01 0. 5.04187107e-01 0. -3.45349386e-02 0.
      1.71126872e-01 0. -7.92484403e-01 0. -2.38114655e-01 0.
      -1.86809391e-01 0. -2.01237887e-01 0. -2.41295636e-01 0.
      1.96505398e-01 0. -3.37669373e-01 0. 2.26438157e-02 0.
      -1.54704794e-01 0. -5.83923638e-01 0. -9.76531506e-02 0.
      7.46768415e-02 0. -4.21736389e-02 0. 6.80459976e-01 0.
      -5.14326215e-01 0. 1.33911118e-01 0. 7.57792816e-02 0.
      1.07379695e-02 0. 1.56174093e-01 0. 1.02932803e-01 0.
      1.18114740e-01 0. 1.57732487e-01 0. -2.49639586e-01 0.
      9.20732319e-02 0. 1.35160238e-01 0. 3.27989832e-02 0.
      1.53711557e-01 0. 1.82869360e-01 0. 4.06544209e-01 0.
      4.00343001e-01 0. 1.20832734e-01 0. 4.06599849e-01 0.
      5.08244410e-02 0. 4.50147212e-01 0. 1.89971507e-01 0.
      -1.00922093e-01 0. -1.50596604e-01 0. 1.47494599e-01 0.
      3.05036217e-01 0. 1.91153809e-02 0. 1.47656836e-02 0.
      1.05273284e-01 0. 2.94588488e-02 0. 6.54072613e-02 0.
      -4.90345582e-02 0. 3.06104332e-01 0. 1.99813038e-01 0.
      3.75759035e-01 0. 4.48537664e-03 0. 5.16427159e-01 0.
      1.34244263e-01 0. 9.24009457e-02 0. 1.54047795e-02 0.
      1.15095980e-01 0. 6.29160255e-02 0. -9.21444818e-02 0.
      9.62653160e-02 0. -2.03097891e-02 0. -2.14699954e-01 0.
      -5.97319126e-01 0. 3.25768515e-02 0. 3.48554313e-01 0.
      -8.71932358e-02 0. 7.31042325e-02 0. -2.86886752e-01 0.
      -2.54788369e-01 0. -4.69090557e-03 0. 2.02877726e-02 0.
      2.55768560e-02 0. 2.62926430e-01 0. 1.69191301e-01 0.
      1.37501195e-01 0. 1.02107093e-01 0. -1.91717789e-01 0.
      9.78591144e-02 0. 1.10194899e-01 0. 4.67559732e-02 0.
      2.98925549e-01 0. 4.39378694e-02 0. -5.13558313e-02 0.
      -6.97204750e-03 0. -1.45704493e-01 0. 3.87490913e-02 0.
      -2.31410246e-02 0. 1.73050612e-02 0. 3.13317150e-01 0.
      3.75831537e-02 0. -1.00463226e-01 0. -7.42342323e-02 0.
      -3.42151314e-01 0. 9.12494808e-02 0. 6.80819480e-03 0.
      -1.11554317e-01 0. 6.46392763e-01 0. 1.82541624e-01 0.
      2.73595572e-01 0. -5.23056313e-02 0. -1.66604325e-01 0.
      -1.65942937e-01 0. -1.68778002e-01 0. 6.14226349e-02 0.
      1.63489357e-01 0. 1.87642515e-01 0. 1.19873866e-01 0.
      1.80654842e-02 0. -8.79184157e-02 0. 1.43673094e-02 0.
      1.00471070e-02 0. 2.08064709e-02 0. 6.45051822e-02 0.
      1.94306970e-01 0. 2.90274143e-01 0. 1.66125759e-01 0.
      -1.58878371e-01 0. -3.79958414e-02 0. -1.67483672e-01 0.
      1.71152920e-01 0. 1.61047027e-01 0. -1.75447926e-01 0.
      6.48074076e-02 0. -1.72324449e-01 0. 2.84094382e-02 0.
      -1.75376117e-01 0. 3.88571113e-01 0. 2.36575976e-01 0.
      2.61979640e-01 0. 1.37048066e-01 0. 1.06417251e+00 0.
      9.61967111e-02 0. 2.11594567e-01 0. -2.74292320e-01 0.
      -2.71386027e-01 0. 5.81331812e-02 0. -3.81683260e-01 0.
      2.76848763e-01 0. -5.02724433e-03 0. 4.18344773e-02 0.
      -3.32568213e-02 0. -7.29851238e-03 0. -2.37300396e-01 0.
      7.76337981e-02 0. 5.74687362e-01 0. -2.13234425e-01 0.
      7.27006495e-02 0. 6.78997189e-02 0. 4.38815802e-01 0.
      -6.83178529e-02 0. -1.73564449e-01 0. -1.78426318e-02 0.
      -1.52382389e-01 0. -4.05136868e-02 0. 3.13265651e-01 0.
      -5.07934019e-02 0. 4.07754093e-01 0. -2.83243448e-01 0.
      -2.75212526e-01 0. -3.21605146e-01 0. 8.69381845e-01 0.
      -2.69844800e-01 0. -3.83816093e-01 0. 1.75983936e-01 0.
      1.86496705e-01 0. -3.06421041e-01 0. -2.55076706e-01 0.
      -3.53134908e-02 0. -9.88104045e-02 0. -1.99966468e-02 0.
      1.77772995e-02 0. 4.27201064e-03 0. -4.76706028e-02 0.
      1.06561683e-01 0. -2.58945912e-01 0. -3.25526968e-02 0.
      2.93519229e-01 0. -5.79399951e-02 0. 1.01458460e-01 0.
      8.94022658e-02 0. 4.10613447e-01 0. 1.14687644e-01 0.
      -6.69666901e-02 0. 9.39052701e-02 0. -8.73917863e-02 0.
      2.65345216e-01 0. -3.15888047e-01 0. 1.09692045e-01 0.
      5.81572890e-01 0. 1.26419395e-01 0. -1.30968824e-01 0.
      1.73654538e-02 0. 4.50819522e-01 0. -3.33226770e-01 0.
      1.58123091e-01 0. -4.47932184e-01 0. 4.59656119e-01 0.
      -1.91443801e-01 0. -3.05620641e-01 0. -3.60591322e-01 0.
      4.13002938e-01 0. -2.82584637e-01 0. 1.71489447e-01 0.
      3.89959142e-02 0. 4.26297247e-01 0. -3.75361204e-01 0.
      -2.05607489e-01 0. -1.67115942e-01 0. 3.00355911e-01 0.
      -5.92972040e-01 0. -7.98389688e-02 0. -2.13900015e-01 0.
      -2.00609878e-01 0. -1.62146851e-01 0. 1.24775596e-01 0.
      -4.47320729e-01 0. 4.47646618e-01 0. -9.14673284e-02 0.
      -1.23011880e-01 0. -2.00987652e-01 0. 1.26594484e-01 0.
      -5.82905710e-01 0. -2.84578353e-01 0. -1.39589095e+00 0.
      4.98627692e-01 0. -1.07434320e+00 0. 2.59398282e-01 0.
      -2.13083968e-01 0. 6.86722577e-01 0. -3.85287851e-01 0.
      -2.83964038e-01 0. -4.88040708e-02 0. 7.96731412e-01 0.
      -5.19036166e-02 0. 2.14780897e-01 0. -2.70094991e-01 0.
      2.74274141e-01 0. -1.23561852e-01 0. -3.48806866e-02 0.
      -5.16281486e-01 0. 6.63657129e-01 0. -7.54327536e-01 0.
      1.57918260e-01 0. -1.28906026e-01 0. 7.15045750e-01 0.
      -4.27804828e-01 0. 1.93676189e-01 0. -2.45771542e-01 0.
      7.91799128e-01 0. 7.34862536e-02 0. 6.80835307e-01 0.
      -1.53477937e-01 0. -5.21818161e-01 0. -6.38387501e-01 0.
      -3.57161850e-01 0. -3.10720295e-01 0. -3.60917211e-01
      -1.91701487e-01 -5.93715906e-03 0. -9.53599751e-01 0.
      5.43491304e-01 0. -1.19757771e+00 0. 1.02014744e+00 0.
      5.64293563e-01 0. 7.27239549e-01 0. -1.56402040e+00 0.
      3.05403143e-01 0. 4.59695548e-01 0. 4.19249982e-01 0.
      -1.98173463e-01 0. 3.14269543e-01 0. 5.71453989e-01 0.
      1.84674680e-01 0. -1.48203254e+00 0. -1.25846851e+00 0.
      -7.69520342e-01 0. 4.32980666e-03 0. -3.55469197e-01 0.
      1.58248655e-02 0. -2.30031505e-01 0. -5.76398969e-02 0.
      -1.05600446e-01 0. 1.46152511e-01 0. -7.62886479e-02 0.
      -1.50154412e-01 0. -3.54639262e-01 0. 1.40471965e-01 0.
      -7.95234442e-02 0. 9.56995264e-02 0. -1.41661966e+00 0.
      3.07117015e-01 0. -7.87788153e-01 0. 8.87617320e-02 0.
      -3.72728795e-01 0. -7.67653435e-02 0. -9.77368876e-02 0.
      1.41052559e-01 0. -3.94982725e-01 0. -1.38897479e-01 0.
      -1.70506448e-01 0. -1.02922730e-01 0. -4.91196215e-02 0.
      4.61014062e-02 0. 1.17656030e-01 0. 3.48166227e-02 0.
      -3.87191661e-02 0. -5.92089236e-01 0. -1.12145282e-01 0.
      1.69019520e-01 0. 9.61825103e-02 0. 3.15326601e-01 0.
      1.35434698e-02 0. -1.66580896e-03 0. -5.68634927e-01 0.
      1.36174515e-01 0. 5.53347915e-02 0. 5.92455156e-02 0.
      -6.03199527e-02 0. 1.70637026e-01 0. -5.92302158e-02 0.
      2.59786487e-01 0. -5.58173954e-01 0. 4.03417289e-01 0.
      -2.05666840e-01 0. 1.41783118e-01 0. -1.80384815e-01 0.
      2.63942182e-01 0. 1.37273297e-01 0. 1.79231480e-01 0.
      -4.41782743e-01 0. 3.91812116e-01 0. 2.19952792e-01 0.
      -8.87661800e-02 0. -1.24176621e-01 0. 4.47638392e-01 0.
      5.82641065e-02 0. 9.29629430e-02 0. -4.17960994e-02 0.
      -1.49688125e-01 0. 4.36945893e-02 0. -2.21651748e-01 0.
      -2.38001928e-01 0. 1.11065365e-01 0. -6.24223500e-02 0.
      4.48499210e-02 0. -2.18915015e-01 0. -5.22281090e-03 0.
      -2.20607873e-02 0. -8.25199559e-02 0. -1.75375029e-01 0.
      2.61355639e-01 0. 1.18371494e-01 0. 1.42279491e-01 0.
      -1.04760388e-02 0. 8.56238604e-02 0. -1.10970579e-01 0.
      -1.02788493e-01 0. -2.68731296e-01 0. 4.85310107e-01 0.
      1.17727324e-01 0. 3.95444781e-03 0. -1.02408990e-01 0.
      2.32268691e-01 0. 7.82484412e-02 0. -3.54515389e-02 0.
      -9.34553742e-02 0. 7.90601075e-02 0. -4.87584155e-03 0.
      -3.89126427e-02 0. 1.44602603e-03 0. 4.73611027e-01 0.
      3.62908207e-02 0. 5.53950593e-02 0. -1.66111827e-01 0.
      -1.80663943e-01 0. -3.88913155e-02 0. 7.51415417e-02 0.
      -8.13562870e-02 0. 1.94011316e-01 0. 2.98128307e-01 0.
      -2.48440052e-03 0. 1.23546615e-01 0. 3.63449812e-01 0.
      5.46185791e-01 0. 4.52089727e-01 0. 2.77334422e-01 0.
      2.22797319e-01 0. 4.13671182e-03 0. 4.04586703e-01 0.
      6.05507493e-01 0. 3.01456690e-01 0. -2.34450445e-01 0.
      1.02962084e-01 0. -4.82997328e-01 0. -7.31952861e-02 0.
      1.35035023e-01 0. 1.73302248e-01 0. -7.03422800e-02 0.
      4.72157449e-02 0. -6.16347603e-02 0. 2.40649208e-01 0.
      1.10759981e-01 0. -1.26453713e-01 0. 3.58503610e-02 0.
      -4.77476269e-02 0. -6.61642253e-02 0. 6.75581992e-02 0.
      6.63862601e-02 0. 8.67886394e-02 0. -6.93356618e-02 0.
      1.02491178e-01 0. 4.53388281e-02 0. -2.01917067e-02 0.
      -1.25463679e-01 0. 4.18987907e-02 0. 8.82908553e-02 0.
      8.09480175e-02 0. 4.61510830e-02 0. 3.39543372e-01 0.
      -1.04637086e-01 0. 1.08094282e-01 0. -5.58434501e-02 0.
      1.94582000e-01 0. -9.13667828e-02 0. 8.40027332e-02 0.
      -2.42828637e-01 0. -4.25319485e-02 0. 5.90244718e-02 0.
      2.11640254e-01 0. -1.45110995e-01 0. 3.13071832e-02 0.
      -1.14008360e-01 0. 9.33729857e-02 0. 4.08306159e-02 0.
      -7.10187713e-03 0. 1.28227711e-01 0. -2.68042069e-02 0.
      -1.51592731e-01 0. 4.06108536e-02 0. 2.20859237e-02 0.
      -4.42758650e-02 0. -1.33411765e-01 0. -7.73520768e-03 0.
      -9.35408622e-02 0. 7.95908421e-02 0. 8.98579508e-03 0.
      -5.63670462e-03 0. 2.91449521e-02 0. 9.51319262e-02 0.
      -3.35501939e-01 0. 1.09338892e+00 0. 4.35050577e-01 0.
      7.57655501e-02 0. 2.40816236e-01 0. -3.39122005e-02 0.
      3.13149914e-02 0. -1.73948484e-03 0. -7.80838449e-03 0.
      5.83537146e-02 0. 2.26839006e-01 0. 2.98934244e-02 0.
      -1.94155518e-03 0. -8.24364945e-02 0. 1.28476083e-01 0.
      8.77681524e-02 0. 2.50437617e-01 0. -1.92523465e-01 0.
      7.57884607e-02 0. -3.26347873e-02 0. 2.61440352e-02 0.
      5.29755205e-02 0. -8.13428164e-02 0. 1.93255007e-01 0.
      -3.05739343e-01 0. 9.87601727e-02 0. -3.90690938e-02 0.
      1.43498518e-02 0. -9.44945589e-02 0. -7.38025606e-02 0.
      9.67981741e-02 0. -1.40977995e-02 0. 2.62421608e-01 0.
      5.69465518e-01 0. 6.31400645e-02 0. 1.26839876e-01 0.
      2.28296533e-01 0. 2.95282811e-01 0. -1.37188137e-01 0.
      1.88547209e-01 0. -3.23453173e-02 0. 1.43988088e-01 0.
      1.98383126e-02 0. 2.64855288e-02 0. -2.21734911e-01 0.
      -3.84070762e-02 0. 1.01543069e-01 0. 3.04532886e-01 0.
      7.31979758e-02 0. 5.36713866e-04 0. 2.22902119e-01 0.
      9.08026472e-02 0. -4.66006733e-02 0. 8.85745808e-02 0.
      -7.75147676e-02 0. 2.67908931e-01 0. -2.30275333e-01 0.
      -7.09858164e-02 0. 3.02840501e-01 0. 2.47130796e-01 0.
      3.27240318e-01 0. 3.87921035e-01 0. -6.28165677e-02 0.
      2.69900262e-01 0. -3.39807987e-01 0. -2.02146083e-01 0.
      -5.86345792e-01 0. 4.62983310e-01 0. -1.82568505e-01 0.
      -8.62201378e-02 0. 2.30507717e-01 0. -8.62058550e-02 0.
      7.65484810e-01 0. -6.25701904e-01 0. -1.11195296e-01 0.
      -1.84781581e-01 0. -4.39290792e-01 0. -8.28918889e-02 0.
      1.33764781e-02 0. 2.95308948e-01 0. 7.90227771e-01 0.
      -5.50369956e-02 0. 6.50006393e-03 0. -9.76721272e-02 0.
      1.34406596e-01 0. 1.04919365e-02 0. 2.09848080e-02 0.
      -3.52667645e-02 0. 1.21506825e-01 0. -1.83192998e-01 0.
      3.65997963e-02 0. 1.88190401e-01 0. -5.89663237e-02 0.
      -5.56437597e-02 0. 3.32268894e-01 0. 1.78483009e-01 0.
      1.21103394e+00 0. -1.15907945e-01 0. -1.10026270e-01 0.
      6.83337916e-03 0. -1.27164692e-01 0. -1.75165571e-02 0.
      2.30984502e-02 0. -6.90406859e-02 0. 2.97824651e-01 0.
      1.41163338e-02 0. -1.22574285e-01 0. 2.86317971e-02 0.
      -9.57691669e-02 0. 1.00919567e-01 0. 9.17958468e-02 0.
      -2.12835476e-01 0. 2.34516844e-01 0. -3.61581415e-01 0.
      3.12034756e-01 0. 6.63521737e-02 0. 1.26689017e-01 0.
      3.21374126e-02 0. -1.04604125e-01 0. -8.40712711e-02 0.
      7.50626028e-02 0. 1.26465112e-01 0. -9.81551334e-02 0.
      -4.21254635e-02 0. 5.22142470e-01 0. 2.51077991e-02 0.
      -6.62437230e-02 0. 5.04634023e-01 0. 1.43133044e+00 0.
      2.45602131e-01 0. -1.03643641e-01 0. 6.12327866e-02 0.
      -3.17604303e-01 0. 1.84456900e-01 0. 1.03735328e-02 0.
      1.11540094e-01 0. 1.89382210e-01 0. 1.63623959e-01 0.
      1.31576717e-01 0. 1.07396655e-01 0. 3.71276736e-02 0.
      1.71355739e-01 0. 1.21816210e-02 0. 1.01985745e-01 0.
      4.10124421e-01 0. -9.61852297e-02 0. 1.12611316e-02 0.
      2.02533081e-02 0. -1.21850096e-01 0. -5.70664555e-02 0.
      5.57677560e-02 0. -1.68332711e-01 0. 2.29863092e-01 0.
      -3.58640775e-02 0. 3.78578864e-02 0. -9.27816778e-02 0.
      1.68583170e-01 0. 6.82578981e-02 0. 2.47676671e-02 0.
      3.56315933e-02 0. 3.95080090e-01 0. 5.80012619e-01 0.
      2.33176634e-01 0. 4.36248519e-02 0. -2.54327543e-02 0.
      1.43430114e-01 0. -7.95469731e-02 0. -6.10538684e-02 0.
      4.51938249e-02 0. -1.48383886e-01 0. -1.54756278e-01 0.
      -1.26419794e-02 0. -1.54479027e-01 0. -1.02343606e-02 0.
      1.53093293e-01 0. -2.22519152e-02 0. 1.01580523e-01 0.
      1.16299905e-01 0. 1.95967451e-01 0. 1.61638230e-01 0.
      2.83208340e-02 0. -5.49267186e-03 0. 2.54360680e-02 0.
      1.57245249e-02 0. 3.37842822e-01 0. -4.11062278e-02 0.
      3.32520187e-01 0. 1.95794463e-01 0. 3.33414614e-01 0.
      3.20835076e-02 0. 5.75514555e-01 0. 1.64575383e-01 0.
      1.33032084e+00 0. -7.44954050e-01 0. -3.11721474e-01 0.
      2.49039337e-01 0. 5.65353394e-01 0. -8.06318104e-01 0.
      4.27514553e-01 0. 8.16724822e-02 0. 1.49663568e-01 0.
      -2.63018459e-01 0. -2.33129427e-01 0. -1.59892544e-01 0.
      -8.64398479e-02 0. -2.40853071e-01 0. -7.86417350e-02 0.
      4.69042845e-02 0. 6.41608387e-02 0. -1.93074331e-01 0.
      -3.03163212e-02 0. -7.30159432e-02 0. 5.17060935e-01 0.
      -9.21797752e-02 0. -2.16476381e-01 0. -1.75677866e-01 0.
      -1.67086944e-01 0. -1.27797723e-01 0. 2.39262395e-02 0.
      -9.88467857e-02 0. 1.64909199e-01 0. -2.97126323e-01 0.
      1.07878102e-02 0. 1.58466380e-02 0. 7.40208149e-01 0.
      -3.89909029e-01 0. -1.86085254e-01 0. -2.07472175e-01 0.
      1.14495404e-01 0. 1.13391161e-01 0. 2.86521763e-01 0.
      -1.03832960e-01 0. 3.69484901e-01 0. -3.11857071e-02 0.
      -5.36365435e-03 0. 1.03427572e-02 0. 2.39629477e-01 0.
      9.47242901e-02 0. 7.62935132e-02 0. -3.72990184e-02 0.
      1.88394740e-01 0. -3.98983240e-01 0. -1.97139122e-02 0.
      -8.62647817e-02 0. 3.62805396e-01 0. 1.43823423e-03 0.
      -2.99572218e-02 0. -5.35327122e-02 0. -1.23333028e-02 0.
      1.02239847e-02 0. 3.00435156e-01 0. 1.61312103e-01 0.
      1.40632677e+00 0. -1.64414093e-01 0. 4.68084127e-01 0.
      2.46055827e-01 0. 1.03509748e+00 0. -1.73001397e+00 0.
      5.93273103e-01 0. -3.82720977e-01 0. 7.56428838e-01 0.
      -4.00474370e-01 0. -2.95844525e-01 0. -2.79992819e-01 0.
      3.10629874e-01 0. -5.90368390e-01 0. 8.16351101e-02 0.
      -2.41124123e-01 0. 2.62276232e-01 0. -2.41995037e-01 0.
      5.06218709e-02 0. -1.20947972e-01 0. 4.33319002e-01 0.
      -1.08589351e+00 0. -2.40557622e-02 0. -1.19149990e-01 0.
      4.03200358e-01 0. -3.77792954e-01 0. -2.03236639e-01 0.
      -3.20635378e-01 0. 7.73204938e-02 0. -1.49364769e-01 0.
      1.20588876e-02 0. -1.07374959e-01 0. 4.06798497e-02 0.
      -3.72737497e-01 0. 1.81161284e-01 0. -7.48426199e-01 0.
      5.67777097e-01 0. -1.09545052e+00 0. 1.31004050e-01 0.
      -1.17386505e-01 0. 5.78323960e-01 0. -2.37642512e-01 0.
      3.10823441e-01 0. -4.48041484e-02 0. 8.34497988e-01 0.
      -2.58254588e-01 0. 1.74372703e-01 0. -3.51563185e-01 0.
      -5.91657758e-01 0. -2.26369619e-01 0. -4.69312161e-01 0.
      -2.03847289e-01 0. 2.35786960e-01 0. -3.34253818e-01 0.
      3.98906350e-01 0. 8.51700380e-02 0. 9.23741043e-01 0.
      -2.86790818e-01 0. 3.53496075e-01 0. -3.63121778e-01 0.
      5.83414376e-01 0. -4.70067948e-01 0. 8.73594105e-01 0.
      -3.55804972e-02 0. 1.16391134e+00 0. -4.75623935e-01 0.
      3.94527137e-01 0. -1.37314272e+00 0. -7.65906274e-01
      4.40523237e-01 -2.71415766e-02 0. -3.38241071e-01 0.
      -9.05483738e-02 0. 4.49104831e-02 0. 3.86587352e-01 0.
      1.99529231e-01 0. 3.30438226e-01 0. -4.72444743e-01 0.
      2.81852603e-01 0. -2.00736821e-01 0. 1.50977939e-01 0.
      8.90807062e-02 0. 3.83610040e-01 0. -6.06268421e-02 0.
      -9.85919833e-02 0. -8.25374126e-01 0. -1.61375904e+00 0.
      -5.51979005e-01 0. 2.50143185e-02 0. -1.30961118e-02 0.
      -1.52516797e-01 0. -1.30534664e-01 0. -3.25453609e-01 0.
      -3.39008331e-01 0. 5.91324642e-02 0. -2.21223030e-02 0.
      -2.52224892e-01 0. -1.30823795e-02 0. 4.07808512e-01 0.
      1.40408576e-01 0. -7.58149028e-02 0. -7.40610003e-01 0.
      -4.39765379e-02 0. 2.46539563e-02 0. 2.12012514e-01 0.
      -1.64125845e-01 0. 5.08803688e-02 0. -2.81196721e-02 0.
      1.96861923e-01 0. -3.46035808e-01 0. 1.87664956e-01 0.
      8.51384774e-02 0. -2.58018321e-04 0. 4.80244085e-02 0.
      -2.83155479e-02 0. 3.01192999e-01 0. 8.64785761e-02 0.
      -1.12802073e-01 0. -2.89652228e-01 0. 2.08524331e-01 0.
      5.21606132e-02 0. -1.44965559e-01 0. -3.70041840e-02 0.
      -3.09499446e-02 0. 2.03128874e-01 0. 7.53785074e-02 0.
      4.30551529e-01 0. 1.73997283e-01 0. -3.33139040e-02 0.
      2.23564375e-02 0. 9.34910253e-02 0. 1.21576719e-01 0.
      7.91035127e-03 0. 3.15439880e-01 0. 4.56978343e-02 0.
      -3.15717608e-02 0. -9.89238843e-02 0. -1.78091347e-01 0.
      -9.46399793e-02 0. 1.77633122e-01 0. -3.00562326e-02 0.
      1.56008959e-01 0. -1.40103474e-01 0. -8.29906911e-02 0.
      -1.28632873e-01 0. 4.21770960e-02 0. -3.95198576e-02 0.
      9.35017243e-02 0. -9.73707885e-02 0. 1.24217369e-01 0.
      -5.77701675e-03 0. 1.41760007e-01 0. -1.69675961e-01 0.
      -6.58934377e-03 0. -8.77059251e-02 0. 2.62321755e-02 0.
      -6.44796193e-02 0. -2.46990640e-02 0. -2.25783680e-02 0.
      7.71546783e-03 0. -5.46038002e-02 0. 8.21719989e-02 0.
      1.72621250e-01 0. 1.22911096e-01 0. -3.86523008e-01 0.
      1.21322647e-01 0. 3.87521029e-01 0. 9.11531374e-02 0.
      1.63493648e-01 0. 5.22404350e-02 0. 1.31996617e-01 0.
      8.15533772e-02 0. 1.37070373e-01 0. 8.27202573e-02 0.
      -1.40174434e-01 0. 3.12315077e-02 0. -2.87257880e-03 0.
      -1.61404780e-03 0. 3.93663943e-02 0. 4.10783142e-02 0.
      2.01667584e-02 0. 7.57726431e-02 0. 2.47870967e-01 0.
      3.06826115e-01 0. -7.81017914e-02 0. -1.53019831e-01 0.
      -7.53391832e-02 0. 1.78235471e-02 0. 1.11032791e-01 0.
      -7.82920271e-02 0. 2.27038842e-02 0. -8.63592327e-02 0.
      -1.05471380e-01 0. -3.72407794e-01 0. 3.85251701e-01 0.
      4.26941663e-01 0. 2.86599179e-03 0. 6.06168389e-01 0.
      -3.59116048e-02 0. 1.22060567e-01 0. 2.02242762e-01 0.
      1.84489787e-01 0. -3.24547201e-01 0. -4.77262348e-01 0.
      6.57222867e-02 0. -2.64242113e-01 0. -1.92655563e-01 0.
      -8.51692110e-02 0. 7.01972768e-02 0. 2.53621101e-01 0.
      -7.68850222e-02 0. -5.19660227e-02 0. 2.40154907e-01 0.
      -1.92980751e-01 0. -8.02662522e-02 0. 1.29736677e-01 0.
      1.71415210e-02 0. -7.30722472e-02 0. -1.43040448e-01 0.
      3.11933551e-02 0. 5.05247191e-02 0. 3.90541181e-02 0.
      5.12523726e-02 0. 9.11119208e-02 0. 8.76067299e-03 0.
      4.35044318e-02 0. -5.00155725e-02 0. 2.55729374e-03 0.
      1.04266883e-06 0. 1.61932826e-01 0. 1.55452453e-02 0.
      -9.80475247e-02 0. -1.15387673e-02 0. -8.95142257e-02 0.
      -5.42845875e-02 0. -4.39325571e-02 0. -9.29647218e-03 0.
      -1.02025241e-01 0. 3.33460979e-02 0. -6.20952137e-02 0.
      -4.23321640e-03 0. 8.05773586e-02 0. -2.70538107e-02 0.
      -1.81060567e-01 0. -8.64841323e-03 0. -3.55352974e-03 0.
      -7.87379295e-02 0. -2.45507732e-02 0. -4.76981886e-02 0.
      3.90459150e-02 0. -4.16783541e-02 0. -2.42200382e-02 0.
      4.47874665e-02 0. -1.50813967e-01 0. -6.38958886e-02 0.
      -6.49475455e-02 0. 1.07692041e-01 0. 1.74853038e-02 0.
      1.22191653e-01 0. -1.82049364e-01 0. 1.50436044e-01 0.
      4.40197363e-02 0. 1.58558227e-02 0. 2.47730151e-01 0.
      2.11665362e-01 0. 1.56614587e-01 0. 1.22741656e-02 0.
      -2.99383681e-02 0. 1.21405937e-01 0. -3.64693720e-03 0.
      6.93065533e-03 0. 1.83356386e-02 0. 4.30920580e-03 0.
      -2.38472689e-02 0. 2.37827867e-01 0. 1.74839310e-02 0.
      -3.24574783e-02 0. -8.60829279e-02 0. -1.89950123e-01 0.
      6.94535151e-02 0. -4.88782860e-02 0. 3.07425372e-02 0.
      -1.49370488e-02 0. -1.76060632e-01 0. 2.39428699e-01 0.
      -1.40634120e-01 0. -3.03527657e-02 0. -5.37329866e-03 0.
      -4.10117880e-02 0. -3.11545711e-02 0. 7.83347338e-02 0.
      4.20265906e-02 0. 8.20923597e-02 0. 1.00766812e-02 0.
      -2.26263016e-01 0. 8.82120878e-02 0. 2.53025055e-01 0.
      -1.31545402e-02 0. 7.87831321e-02 0. -6.81983978e-02 0.
      -3.78763378e-02 0. -1.62538111e-01 0. 1.58707216e-01 0.
      8.38949680e-02 0. 1.20575681e-01 0. -1.87206835e-01 0.
      4.45761420e-02 0. 1.37098491e-01 0. 5.12307994e-02 0.
      -2.74884790e-01 0. -3.55436593e-01 0. 1.60788298e-01 0.
      1.71264544e-01 0. -2.94320397e-02 0. -6.01190068e-02 0.
      -1.16478503e-01 0. 2.33201355e-01 0. -7.52274096e-01 0.
      1.32493004e-01 0. -9.83374268e-02 0. 7.79246688e-02 0.
      7.69455582e-02 0. 3.80119860e-01 0. 3.56136590e-01 0.
      5.11004984e-01 0. 7.11434707e-02 0. 9.35701728e-02 0.
      2.70803422e-01 0. -3.85071874e-01 0. -2.94730254e-02 0.
      2.98836589e-01 0. -6.23621158e-02 0. 4.41723689e-03 0.
      2.09635034e-01 0. -4.66908783e-01 0. 2.20075194e-02 0.
      -1.17029674e-01 0. -4.21543568e-01 0. -3.49795550e-01 0.
      2.09655523e-01 0. 2.29756907e-01 0. 2.83183455e-01 0.
      -1.14714079e-01 0. -1.50364190e-01 0. 4.99369241e-02 0.
      1.11012422e-02 0. 1.78936869e-01 0. 5.21710049e-03 0.
      -7.55100623e-02 0. 1.46390021e-01 0. 7.22869039e-02 0.
      4.25438344e-01 0. -4.78745326e-02 0. 1.91112921e-01 0.
      1.94242582e-01 0. 4.39541698e-01 0. 8.96555036e-02 0.
      8.06533039e-01 0. -2.88712472e-01 0. 7.86871985e-02 0.
      -1.07178435e-01 0. -2.68711913e-02 0. 1.98298216e-01 0.
      -4.16724607e-02 0. -1.54910356e-01 0. 2.60528505e-01 0.
      -1.91069152e-02 0. -7.13009089e-02 0. -1.00248687e-01 0.
      -2.16917042e-02 0. -2.83572078e-02 0. -5.52452728e-02 0.
      8.63686949e-02 0. 1.63063467e-01 0. -3.79601009e-02 0.
      1.06117465e-01 0. 8.70255902e-02 0. -3.47750075e-02 0.
      -4.09250297e-02 0. -2.14631706e-01 0. 2.55139709e-01 0.
      2.47152239e-01 0. 1.05092436e-01 0. -1.55393228e-01 0.
      -8.14144034e-03 0. 4.01766039e-02 0. -1.12590641e-01 0.
      -1.81931630e-01 0. 1.77844197e-01 0. 7.73107469e-01 0.
      -1.17393017e-01 0. 1.20461762e-01 0. -3.93767297e-01 0.
      3.87344025e-02 0. 8.85081217e-02 0. 2.96754539e-01 0.
      -8.37921873e-02 0. 3.20958942e-01 0. 1.72091439e-01 0.
      1.73984673e-02 0. -6.08857460e-02 0. -1.72451615e-01 0.
      2.75296658e-01 0. 9.33942273e-02 0. 1.23589132e-02 0.
      2.98681647e-01 0. 1.48759082e-01 0. 8.94801542e-02 0.
      9.62623954e-03 0. -5.96293844e-02 0. -9.80523676e-02 0.
      -4.84136492e-02 0. 1.25765637e-01 0. 1.59002215e-01 0.
      1.61696881e-01 0. -1.23251984e-02 0. -3.02708354e-02 0.
      -1.12513997e-01 0. 1.55674621e-01 0. -8.38478953e-02 0.
      4.42193002e-02 0. 7.61950672e-01 0. 1.46196246e-01 0.
      1.10000797e-01 0. -6.72422424e-02 0. -8.25264230e-02 0.
      4.88080382e-02 0. 5.84152825e-02 0. 1.10173143e-01 0.
      7.70472586e-02 0. 1.66097462e-01 0. -3.20803002e-02 0.
      1.53906211e-01 0. -1.74980357e-01 0. 9.27279964e-02 0.
      1.16666168e-01 0. 1.17780358e-01 0. 8.25442746e-02 0.
      -1.42345309e-01 0. 2.45727688e-01 0. 1.89528689e-01 0.
      -1.39831990e-01 0. 1.60591006e-01 0. 7.68592432e-02 0.
      1.14978068e-01 0. 5.86912334e-01 0. -2.88640279e-02 0.
      1.11323614e-02 0. 6.32629693e-02 0. -1.98723555e-01 0.
      -5.78296557e-02 0. 6.97254181e-01 0. 5.03723025e-02 0.
      8.40577900e-01 0. 7.20266402e-01 0. 2.98821241e-01 0.
      3.05033661e-02 0. 1.51297450e-01 0. -2.53346473e-01 0.
      -2.04389617e-01 0. 1.97310701e-01 0. -1.34791359e-01 0.
      -1.16775848e-01 0. 1.27588082e-02 0. -5.10120727e-02 0.
      1.47616476e-01 0. 3.76191139e-02 0. -5.42037450e-02 0.
      1.65540561e-01 0. 8.65147233e-01 0. -1.57316789e-01 0.
      -1.85244128e-01 0. -2.94849189e-04 0. 9.19416249e-01 0.
      -1.73217192e-01 0. -1.09346531e-01 0. 4.31564935e-02 0.
      2.08553270e-01 0. -7.05134571e-02 0. 1.01882309e-01 0.
      -9.06845257e-02 0. 3.40245277e-01 0. -3.14003676e-01 0.
      -2.58096516e-01 0. -4.35582250e-01 0. 9.05630171e-01 0.
      -2.51299769e-01 0. -2.14208633e-01 0. 4.86099422e-02 0.
      2.77283788e-01 0. -3.26310903e-01 0. -3.14488322e-01 0.
      -5.12402989e-02 0. 2.07509860e-01 0. 2.12625135e-02 0.
      -1.54992223e-01 0. -8.88280943e-02 0. -4.33855772e-01 0.
      1.27106205e-01 0. -2.59918749e-01 0. -1.91593487e-02 0.
      6.91103578e-01 0. -3.65708210e-02 0. -1.35879740e-01 0.
      -1.53420702e-01 0. 4.38332349e-01 0. 2.00168714e-02 0.
      -2.62963995e-02 0. 4.85697463e-02 0. -8.35429132e-02 0.
      4.38882113e-02 0. -1.44804955e-01 0. -5.95131330e-02 0.
      5.94291568e-01 0. -3.05243492e-01 0. -1.63439810e-01 0.
      1.35629997e-01 0. 6.22415245e-01 0. -3.88852388e-01 0.
      8.07823241e-01 0. -4.10970181e-01 0. -5.68881273e-01 0.
      -1.55817553e-01 0. -2.08663307e-02 0. 2.08331551e-02 0.
      2.76165992e-01 0. -2.01541670e-02 0. 1.31083846e-01 0.
      -1.45374715e-01 0. 3.22186589e-01 0. -4.22969699e-01 0.
      9.24133584e-02 0. -1.38167039e-01 0. 5.50997853e-01 0.
      -5.31296492e-01 0. -1.85112715e-01 0. -1.20468944e-01 0.
      -1.79188892e-01 0. -1.02978736e-01 0. 2.07960745e-03 0.
      -1.14887096e-01 0. 5.23737013e-01 0. 5.57835400e-03 0.
      1.72222823e-01 0. -1.57231018e-01 0. -1.86955258e-01 0.
      -6.34431541e-01 0. -1.54630750e-01 0. -8.29769790e-01 0.
      4.98357117e-02 0. -8.22375238e-01 0. 4.06390041e-01 0.
      -1.37438118e-01 0. 5.25576830e-01 0. -1.63706556e-01 0.
      -2.11689174e-01 0. -2.25708276e-01 0. 5.98354161e-01 0.
      -8.54451433e-02 0. 1.93119988e-01 0. -1.52237907e-01 0.
      1.14481963e-01 0. -1.49524078e-01 0. -1.76313207e-01 0.
      -7.03666866e-01 0. 4.99372244e-01 0. 1.56705931e-01 0.
      5.18852293e-01 0. 4.29369032e-01 0. 6.73696935e-01 0.
      8.08846503e-02 0. 1.07739754e-01 0. -2.38760889e-01 0.
      3.74669999e-01 0. 8.48344922e-01 0. 5.03687620e-01 0.
      -1.84596837e-01 0. 4.67657894e-01 0. -2.23000631e-01 0.
      -3.37411948e-02 0. -8.77297968e-02 0. -1.87465459e-01
      -3.96599084e-01 1.86958820e-01 0. -6.35602713e-01 0.
      6.55624032e-01 0. -9.08270061e-01 0. 2.79849470e-01 0.
      2.87842453e-01 0. 6.42485440e-01 0. -9.51260865e-01 0.
      3.14098656e-01 0. 5.66468835e-01 0. 3.50599229e-01 0.
      8.20119008e-02 0. 8.85121077e-02 0. 3.61358017e-01 0.
      4.59187806e-01 0. -1.07116866e+00 0. 7.76377991e-02 0.
      -1.48095429e-01 0. 2.59647250e-01 0. 2.76074000e-02 0.
      -1.18305877e-01 0. -3.45992357e-01 0. -8.00101310e-02 0.
      -3.58073592e-01 0. 6.87456727e-02 0. 3.50026824e-02 0.
      -2.08876789e-01 0. -1.24287121e-01 0. 3.58289778e-02 0.
      3.25787574e-01 0. -3.37929577e-01 0. -7.34179497e-01 0.
      1.74320564e-01 0. -2.66824186e-01 0. 2.26545662e-01 0.
      -3.19162346e-02 0. -2.30261952e-01 0. -2.12287698e-02 0.
      6.46081492e-02 0. -3.86520356e-01 0. -3.87031466e-01 0.
      -1.12580091e-01 0. -2.96781100e-02 0. 9.17761996e-02 0.
      8.96570459e-02 0. -6.15801923e-02 0. 1.57379452e-02 0.
      -3.09327960e-01 0. -4.57021922e-01 0. -2.41945177e-01 0.
      1.86388835e-01 0. 1.43108621e-01 0. 6.65824190e-02 0.
      -1.70231611e-02 0. 5.23763746e-02 0. -4.95243222e-01 0.
      1.59283549e-01 0. 2.67032862e-01 0. -7.97424614e-02 0.
      -3.67074087e-02 0. 2.11977601e-01 0. 3.62607501e-02 0.
      2.16295078e-01 0. -6.16124153e-01 0. 4.29710448e-01 0.
      3.63850445e-01 0. -4.72485907e-02 0. -1.01831414e-01 0.
      -1.93007954e-03 0. 6.21732809e-02 0. 5.93975261e-02 0.
      -4.48269218e-01 0. -1.52578637e-01 0. 1.18803196e-01 0.
      -1.99697271e-01 0. 5.76588586e-02 0. 1.77794322e-01 0.
      8.37157741e-02 0. -2.90351417e-02 0. -1.30601093e-01 0.
      -1.48235202e-01 0. 7.49421343e-02 0. -9.97655466e-02 0.
      -1.25391454e-01 0. -1.73747450e-01 0. 1.15981735e-01 0.
      2.32991930e-02 0. -1.63720071e-01 0. -7.40606785e-02 0.
      -5.84401824e-02 0. -1.25222132e-01 0. -1.16044983e-01 0.
      2.46049881e-01 0. 1.33619569e-02 0. -8.08407553e-03 0.
      1.65824637e-01 0. 4.20995176e-01 0. 5.36260195e-02 0.
      -1.30502760e-01 0. 4.79898602e-02 0. 1.04557700e-01 0.
      4.99662273e-02 0. 1.08603790e-01 0. -8.11660588e-02 0.
      1.36113958e-02 0. 8.71640444e-02 0. -3.23870331e-02 0.
      7.55010732e-03 0. 1.24850020e-01 0. 3.67513895e-02 0.
      8.37784559e-02 0. -1.77178845e-01 0. 2.94856131e-02 0.
      3.39921378e-02 0. 7.64282718e-02 0. 3.93540785e-02 0.
      3.94675359e-02 0. 2.60993931e-02 0. 8.04868191e-02 0.
      -2.94925226e-03 0. 1.31948190e-02 0. 3.15379128e-02 0.
      -2.78775673e-02 0. -4.35071997e-02 0. 2.59930134e-01 0.
      1.57179013e-01 0. 4.02827233e-01 0. 7.30511546e-02 0.
      1.17797002e-01 0. 3.53796393e-01 0. -1.97284091e-02 0.
      6.10037088e-01 0. 3.59019309e-01 0. -1.81336835e-01 0.
      9.64022651e-02 0. -2.28435606e-01 0. -3.73642653e-01 0.
      -7.69276544e-02 0. 4.17548232e-02 0. -2.38423999e-02 0.
      -6.40172958e-02 0. -9.41546634e-02 0. 8.66448805e-02 0.
      -8.26788396e-02 0. -7.45822936e-02 0. -4.90935482e-02 0.
      3.71166579e-02 0. 2.74661486e-03 0. 7.74652064e-02 0.
      1.66999370e-01 0. -3.07864733e-02 0. -1.45967931e-01 0.
      2.21780799e-02 0. -2.40350328e-02 0. -1.74097791e-01 0.
      -1.08866297e-01 0. 1.00371554e-01 0. 1.60243781e-03 0.
      -1.28664806e-01 0. 2.83931136e-01 0. 3.14114034e-01 0.
      1.22320309e-01 0. 2.58777291e-01 0. -2.83641145e-02 0.
      -1.31568357e-01 0. -6.04011072e-03 0. 8.19844529e-02 0.
      -1.33331358e-01 0. 4.08521332e-02 0. 6.73275441e-02 0.
      8.27246681e-02 0. -1.96091771e-01 0. -7.93736242e-03 0.
      -1.65098682e-01 0. 1.79950312e-01 0. 3.34405154e-03 0.
      -1.03151761e-01 0. -3.03947479e-02 0. -8.90899822e-02 0.
      -9.82151181e-02 0. -1.28621101e-01 0. 1.00287534e-01 0.
      -3.18595059e-02 0. -1.16185203e-01 0. 2.16225702e-02 0.
      -9.01712179e-02 0. -6.24776410e-04 0. -1.01976193e-01 0.
      -6.58520013e-02 0. -1.13409825e-01 0. 2.13932142e-01 0.
      -2.43739441e-01 0. 7.30061889e-01 0. 2.99509943e-01 0.
      8.20501447e-02 0. 5.89980893e-02 0. -3.38512398e-02 0.
      5.57400770e-02 0. 1.95267871e-01 0. 1.21951714e-01 0.
      9.15695801e-02 0. -6.61116838e-02 0. 1.28102034e-01 0.
      -7.30103180e-02 0. 6.48218170e-02 0. -1.07051671e-01 0.
      1.29278809e-01 0. 9.93961617e-02 0. 1.48751393e-01 0.
      1.88601520e-02 0. 3.59819178e-03 0. 8.71512443e-02 0.
      1.29159674e-01 0. -2.21833400e-02 0. 9.06852037e-02 0.
      -2.09978491e-01 0. -1.41293481e-01 0. 7.33379945e-02 0.
      -9.48625356e-02 0. -1.54881477e-01 0. -8.66393745e-03 0.
      -2.40734071e-01 0. -9.40863192e-02 0. 2.32014567e-01 0.
      2.68851459e-01 0. 8.95281285e-02 0. -9.63266790e-02 0.
      5.53213134e-02 0. 2.85003990e-01 0. -3.56251337e-02 0.
      2.13229999e-01 0. 9.05584395e-02 0. 1.51030689e-01 0.
      -1.10399954e-01 0. 3.21015604e-02 0. -4.69478443e-02 0.
      3.35745625e-02 0. 1.02927916e-01 0. 1.98438272e-01 0.
      -2.83478171e-01 0. -2.40733810e-02 0. 1.15829408e-01 0.
      1.23259775e-01 0. 5.39057106e-02 0. 1.33790463e-01 0.
      -2.43948773e-02 0. 2.47158080e-01 0. -2.34365270e-01 0.
      1.62456073e-02 0. 1.53947517e-01 0. 1.02144696e-01 0.
      1.95310622e-01 0. 1.76936358e-01 0. -1.71819311e-02 0.
      8.43088031e-02 0. -2.10532695e-01 0. -2.84821510e-01 0.
      -1.45268232e-01 0. 5.85819125e-01 0. 3.02492678e-01 0.
      -5.35401106e-01 0. 2.19015434e-01 0. 1.95182040e-02 0.
      5.94605625e-01 0. -2.12140471e-01 0. -6.32053018e-02 0.
      6.83294684e-02 0. -5.28317273e-01 0. -2.55050361e-01 0.
      -1.22392230e-01 0. 2.12355882e-01 0. 2.84417003e-01 0.
      -3.23703200e-01 0. 1.41249225e-01 0. -3.02999258e-01 0.
      1.64736196e-01 0. 5.70047759e-02 0. -1.54092768e-02 0.
      -1.25418916e-01 0. 9.19181332e-02 0. -1.03469037e-01 0.
      1.39391944e-01 0. 1.35773167e-01 0. 7.11015090e-02 0.
      6.71966607e-03 0. 3.97015899e-01 0. 2.49296408e-02 0.
      6.23640835e-01 0. -1.95238695e-01 0. 2.55741030e-01 0.
      1.03955574e-01 0. 1.32181138e-01 0. -3.71750966e-02 0.
      -1.26606196e-01 0. 3.52514582e-03 0. 3.96645457e-01 0.
      9.53666717e-02 0. -1.25941202e-01 0. -8.65232795e-02 0.
      1.05111457e-01 0. -1.62976105e-02 0. 4.25627977e-02 0.
      -1.10831223e-01 0. 3.83701742e-01 0. 7.68044889e-02 0.
      4.98165965e-01 0. 2.07387328e-01 0. 1.48184523e-01 0.
      -1.76880155e-02 0. -4.10093777e-02 0. -3.18762325e-02 0.
      1.89762548e-01 0. 4.27991599e-01 0. 1.22947119e-01 0.
      1.78253502e-02 0. 2.84864783e-01 0. -2.79744923e-01 0.
      2.20437258e-01 0. 1.03432119e-01 0. 3.17254990e-01 0.
      1.61455065e-01 0. 1.05353102e-01 0. -9.20559540e-02 0.
      3.92144397e-02 0. 7.90509656e-02 0. 2.04879165e-01 0.
      -7.74780959e-02 0. 2.65698642e-01 0. 1.40952468e-01 0.
      5.82060777e-02 0. 8.85475352e-02 0. 3.32127780e-01 0.
      7.51411766e-02 0. 6.95137382e-02 0. -2.93976832e-02 0.
      2.81369150e-01 0. -2.97640208e-02 0. 1.11420676e-01 0.
      -6.59202412e-03 0. -9.69742797e-03 0. 7.15500442e-03 0.
      -4.82016534e-04 0. -7.04979673e-02 0. 1.06908113e-01 0.
      -1.21816814e-01 0. -3.70185152e-02 0. -4.51105833e-02 0.
      -6.53176680e-02 0. -7.53884166e-02 0. -1.00024089e-01 0.
      -2.65689492e-01 0. 1.67430937e-01 0. 4.16884482e-01 0.
      2.05206886e-01 0. -2.73948815e-02 0. 1.28898278e-01 0.
      -5.53411655e-02 0. -3.33460271e-02 0. 8.14644024e-02 0.
      8.01793039e-02 0. -1.02721220e-02 0. -1.46229714e-01 0.
      -6.76012114e-02 0. -1.76206324e-02 0. 1.48046717e-01 0.
      2.97984689e-01 0. -6.14120178e-02 0. -3.01932037e-01 0.
      2.31779106e-02 0. 2.12628737e-01 0. 8.47385973e-02 0.
      4.08579916e-01 0. 2.59101301e-01 0. -8.29510242e-02 0.
      -1.42548621e-01 0. 1.70435488e-01 0. 4.63159084e-02 0.
      3.53888959e-01 0. 3.63877160e-03 0. 3.62718254e-01 0.
      -1.77113246e-02 0. 5.42014480e-01 0. -4.75839898e-02 0.
      1.06452870e+00 0. -1.13656282e+00 0. -6.71458617e-02 0.
      9.56987217e-02 0. 2.58563310e-01 0. -4.44035590e-01 0.
      -9.15782005e-02 0. -1.45166725e-01 0. -2.39950120e-01 0.
      -1.01694092e-01 0. -5.52955568e-02 0. -1.15927652e-01 0.
      1.10877052e-01 0. 9.11454782e-02 0. -9.93248820e-02 0.
      2.37081096e-01 0. 6.83345556e-01 0. -1.08765066e-01 0.
      -1.15266025e-01 0. -2.61376828e-01 0. 3.54021788e-01 0.
      1.86241157e-02 0. -9.79193747e-02 0. -2.41717454e-02 0.
      3.71263802e-01 0. -3.89751755e-02 0. 3.89802791e-02 0.
      -1.25652254e-01 0. 2.37895384e-01 0. -7.99683407e-02 0.
      2.91033119e-01 0. -2.07187608e-01 0. 2.83780962e-01 0.
      -3.73385578e-01 0. 2.03712359e-01 0. -1.21901734e-02 0.
      5.43381572e-02 0. -4.49869595e-02 0. -3.22232880e-02 0.
      -9.70617030e-03 0. 6.52687550e-02 0. -1.34795800e-01 0.
      2.95144003e-02 0. -5.10585457e-02 0. 3.52631062e-02 0.
      1.23819388e-01 0. -1.72660112e-01 0. 1.66675285e-01 0.
      7.21331388e-02 0. -7.65357539e-02 0. -1.95980091e-02 0.
      -8.10616612e-02 0. 4.44194108e-01 0. -2.73999602e-01 0.
      -1.30442724e-01 0. 3.39219458e-02 0. -1.40566796e-01 0.
      2.73744594e-02 0. 2.24827617e-01 0. 1.12800993e-01 0.
      1.07825804e+00 0. -5.24111651e-03 0. 3.91348541e-01 0.
      2.24124938e-01 0. 9.22956526e-01 0. -1.86548924e+00 0.
      8.09680894e-02 0. -5.46925128e-01 0. 4.83826399e-01 0.
      -4.68109995e-01 0. 1.36349499e-01 0. -6.23362213e-02 0.
      3.19238335e-01 0. -3.83594632e-01 0. 9.24658552e-02 0.
      -6.38277531e-02 0. 9.94766504e-02 0. -2.72352576e-01 0.
      -1.06162474e-01 0. -1.17589943e-01 0. 6.08637512e-01 0.
      -6.92206204e-01 0. -1.82336383e-02 0. -2.68102825e-01 0.
      3.74992430e-01 0. -1.84571356e-01 0. -1.84865892e-01 0.
      -2.22508565e-01 0. -7.46078463e-03 0. -3.38577569e-01 0.
      1.10477351e-01 0. -4.34851311e-02 0. -3.01439255e-01 0.
      -2.96131194e-01 0. 5.91347590e-02 0. -4.31805611e-01 0.
      4.55881953e-01 0. -1.29522681e-01 0. -1.22651597e-02 0.
      -9.47352201e-02 0. 4.38744843e-01 0. -2.93463767e-01 0.
      3.22445244e-01 0. 1.11902073e-01 0. 7.61091530e-01 0.
      -1.79966152e-01 0. 4.12536822e-02 0. -1.02403812e-01 0.
      -3.43083650e-01 0. 2.08615303e-01 0. -1.82395309e-01 0.
      -1.88306838e-01 0. 4.11559790e-01 0. 8.86871144e-02 0.
      4.85767484e-01 0. 3.27056766e-01 0. 6.77219570e-01 0.
      -2.02172413e-01 0. 1.27225548e-01 0. -4.12255265e-02 0.
      1.03660846e+00 0. -8.65967795e-02 0. 1.04933882e+00 0.
      -2.46639192e-01 0. 5.96759796e-01 0. -7.65149891e-01 0.
      3.78167421e-01 0. -9.69954491e-01 0. -8.77382219e-01</_></support_vectors>
  <decision_functions>
    <_>
      <sv_count>1</sv_count>
      <rho>-2.3585212821946140e+00</rho>
      <alpha>
        1.</alpha>
      <index>
        0</index></_></decision_functions></my_svm>
</opencv_storage>
