<?xml version="1.0"?>
<opencv_storage>
<my_svm type_id="opencv-ml-svm">
  <svm_type>C_SVC</svm_type>
  <kernel><type>LINEAR</type></kernel>
  <C>1.</C>
  <term_criteria><epsilon>2.2204460492503131e-16</epsilon>
    <iterations>1000</iterations></term_criteria>
  <var_all>8192</var_all>
  <var_count>8192</var_count>
  <class_count>2</class_count>
  <class_labels type_id="opencv-matrix">
    <rows>1</rows>
    <cols>2</cols>
    <dt>i</dt>
    <data>
      -1 1</data></class_labels>
  <sv_total>1</sv_total>
  <support_vectors>
    <_>
      5.18213451e-01 -4.45567220e-01 0. -6.64419651e-01 0.
      -3.62431169e-01 0. -8.03971291e-02 0. 5.59151053e-01 0.
      -4.69038695e-01 0. -3.94611433e-03 0. -9.77215290e-01 0.
      -2.39850536e-01 0. 4.34239209e-01 0. 3.01280767e-02 0.
      3.58587772e-01 0. 5.07083535e-01 0. -8.59179199e-02 0.
      1.49532378e-01 0. -1.51490283e+00 0. -1.65774107e+00 0.
      -8.32210958e-01 0. -4.98874001e-02 0. 1.96560711e-01 0.
      -1.57892421e-01 0. -4.98432852e-02 0. -5.69615960e-02 0.
      -2.46193498e-01 0. 4.42985028e-01 0. 1.08509198e-01 0.
      -1.66336559e-02 0. 2.14467257e-01 0. 4.75863099e-01 0.
      1.39296666e-01 0. 1.43062219e-01 0. -4.18243200e-01 0.
      -5.95936000e-01 0. -2.50838935e-01 0. 1.74465448e-01 0.
      -1.44845188e-01 0. 1.43893957e-01 0. -1.68659493e-01 0.
      -2.65518967e-02 0. -2.68666357e-01 0. 7.57192895e-02 0.
      1.85792223e-01 0. -3.82857472e-02 0. 1.94680635e-02 0.
      1.22063458e-01 0. -3.29991244e-02 0. 1.00755103e-01 0.
      -2.29480267e-01 0. 1.71937630e-01 0. -3.93051416e-01 0.
      -1.77437328e-02 0. -2.02663913e-01 0. 2.41460338e-01 0.
      1.31477475e-01 0. 1.89049169e-02 0. -3.52942422e-02 0.
      6.21926188e-01 0. 2.12061644e-01 0. 4.93630618e-02 0.
      3.88392285e-02 0. 4.96244967e-01 0. 2.15133622e-01 0.
      2.85442531e-01 0. 2.67558154e-02 0. 4.78123218e-01 0.
      -4.44927737e-02 0. -3.83935899e-01 0. 1.41424254e-01 0.
      -9.09733474e-02 0. 1.06620654e-01 0. 1.70953184e-01 0.
      -5.86297959e-02 0. -1.45842567e-01 0. 5.92831336e-02 0.
      -5.15859090e-02 0. 1.23085780e-03 0. 1.37749046e-01 0.
      1.43860146e-01 0. 1.50769010e-01 0. 3.63847733e-01 0.
      -2.13443041e-01 0. 1.65024579e-01 0. -2.27875978e-01 0.
      2.87937913e-02 0. -5.99512756e-02 0. -4.09152433e-02 0.
      -5.07523455e-02 0. -1.58227161e-01 0. 1.13524981e-01 0.
      2.13713441e-02 0. -8.26139748e-02 0. 1.21313520e-01 0.
      -3.15389037e-02 0. 1.28630936e-01 0. -2.43247747e-01 0.
      -2.92820126e-01 0. 6.77130461e-01 0. -1.73334461e-02 0.
      -6.81774914e-02 0. -1.96028829e-01 0. 2.78903037e-01 0.
      -8.99753720e-02 0. 1.69001386e-01 0. -3.59455556e-01 0.
      -8.06434173e-03 0. 8.55142325e-02 0. 5.06236032e-02 0.
      4.75954488e-02 0. 1.64164811e-01 0. 2.02350952e-02 0.
      1.92776129e-01 0. 9.38034803e-02 0. 6.68818474e-01 0.
      1.96188346e-01 0. -1.08623996e-01 0. -4.29932654e-01 0.
      -9.49804857e-02 0. -4.64214124e-02 0. 1.16746299e-01 0.
      -1.56899597e-02 0. 4.15433437e-01 0. 2.52176523e-01 0.
      1.09888241e-01 0. -4.02538687e-01 0. 7.23114371e-01 0.
      8.46318662e-01 0. -6.89060315e-02 0. 4.04609323e-01 0.
      2.16797993e-01 0. -6.23958051e-01 0. 5.47005050e-02 0.
      -1.53794602e-01 0. -2.22883262e-02 0. -1.90208048e-01 0.
      -9.30754617e-02 0. 5.13694920e-02 0. 2.15182751e-01 0.
      -1.41592056e-01 0. 1.22286581e-01 0. 1.06418796e-01 0.
      1.53544337e-01 0. -3.14038470e-02 0. 9.03912634e-02 0.
      -8.76073018e-02 0. -1.21647365e-01 0. -9.56876948e-02 0.
      9.45180431e-02 0. 1.73107550e-01 0. -1.32303312e-01 0.
      2.00027507e-02 0. -6.99220179e-03 0. -1.21398501e-01 0.
      1.78176194e-01 0. 4.90175709e-02 0. 5.37697524e-02 0.
      1.92869939e-02 0. -3.60744260e-02 0. 9.38215628e-02 0.
      -8.71729851e-02 0. 1.54206410e-01 0. 2.30788603e-01 0.
      -3.55712473e-02 0. 4.85625193e-02 0. -1.70967177e-01 0.
      -8.80941227e-02 0. 3.59105393e-02 0. 3.10402066e-02 0.
      -7.10486546e-02 0. 8.88828095e-03 0. -1.93228796e-02 0.
      6.00543730e-02 0. -7.71206757e-03 0. 9.84656364e-02 0.
      4.79005352e-02 0. 3.94314267e-02 0. -8.14776495e-02 0.
      6.80823997e-02 0. 4.58445586e-02 0. -2.03624740e-02 0.
      -4.22581658e-02 0. -8.45055655e-02 0. -7.07531348e-02 0.
      6.55701831e-02 0. -2.47503892e-01 0. 1.64122880e-01 0.
      1.63159445e-02 0. 3.98807134e-03 0. 2.83484347e-02 0.
      8.46608654e-02 0. -1.32929772e-01 0. 2.17732526e-02 0.
      -1.83268860e-01 0. -3.82618934e-01 0. 9.54749435e-03 0.
      4.29802872e-02 0. 1.03968298e-02 0. -8.33460968e-03 0.
      2.15458982e-02 0. 1.52355194e-01 0. 3.15421186e-02 0.
      3.81602906e-02 0. -1.20654911e-01 0. 9.19975713e-02 0.
      -5.45774214e-02 0. 2.17119485e-01 0. 3.64988968e-02 0.
      1.29227594e-01 0. 6.95249662e-02 0. 2.46387385e-02 0.
      -4.65196110e-02 0. -5.19849844e-02 0. 2.16672242e-01 0.
      -9.16680843e-02 0. 4.06453088e-02 0. -8.15893859e-02 0.
      -7.12114871e-02 0. 5.03874198e-02 0. -2.30748653e-02 0.
      -3.45837846e-02 0. -6.53344914e-02 0. -3.68248895e-02 0.
      -1.75120056e-01 0. -4.86163870e-02 0. 3.95210326e-01 0.
      6.03226602e-01 0. 1.42031208e-01 0. 1.62094861e-01 0.
      2.17459677e-03 0. 1.68069258e-01 0. 7.92809874e-02 0.
      4.15770756e-03 0. -2.68617630e-01 0. 1.37629388e-02 0.
      -4.34602574e-02 0. 1.16624035e-01 0. -1.36240631e-01 0.
      1.95546374e-01 0. -1.08448684e-01 0. -1.14974231e-01 0.
      3.00788507e-02 0. 5.65558016e-01 0. 2.11509436e-01 0.
      1.46149799e-01 0. 2.42379352e-01 0. -6.22027278e-01 0.
      -2.02885568e-01 0. -2.40422100e-01 0. -3.89407277e-02 0.
      3.10706317e-01 0. 4.16505873e-01 0. 1.75199747e-01 0.
      -1.56330824e-01 0. 2.99877018e-01 0. -2.87669580e-02 0.
      3.31992954e-01 0. 2.94937015e-01 0. 3.10852140e-01 0.
      2.28321701e-01 0. -7.57657468e-01 0. -3.39333229e-02 0.
      7.75069147e-02 0. 1.56996667e-01 0. -4.06613261e-01 0.
      3.72286648e-01 0. 2.08945554e-02 0. 4.18478638e-01 0.
      1.55034140e-01 0. -6.25252798e-02 0. -1.64733008e-01 0.
      1.63827270e-01 0. 2.33432606e-01 0. 7.30485141e-01 0.
      -8.78821015e-02 0. -2.19985574e-01 0. -9.53911319e-02 0.
      -2.16549993e-01 0. 1.69152841e-01 0. -1.48738697e-01 0.
      1.39145181e-01 0. -3.49400751e-02 0. -2.84754001e-02 0.
      1.27627805e-01 0. -1.24028906e-01 0. 2.93825090e-01 0.
      1.33470342e-01 0. 1.74347788e-01 0. 5.15497811e-02 0.
      4.59715843e-01 0. -2.67161667e-01 0. 8.59395787e-02 0.
      2.79234290e-01 0. -1.36025071e-01 0. 2.21040666e-01 0.
      2.45096579e-01 0. 1.20127335e-01 0. 5.09515069e-02 0.
      -7.67268836e-02 0. 1.13717131e-01 0. 1.75405256e-02 0.
      -1.62031993e-01 0. 2.37111319e-02 0. 7.92370588e-02 0.
      9.91499200e-02 0. 1.33769810e-01 0. 1.87094688e-01 0.
      -8.62298831e-02 0. 1.85095057e-01 0. -3.54188681e-02 0.
      1.85811400e-01 0. -5.46090789e-02 0. 8.04765373e-02 0.
      4.27073278e-02 0. 2.11827800e-01 0. -2.95916140e-01 0.
      3.36887464e-02 0. -1.02820233e-01 0. 5.22455424e-02 0.
      -4.43740726e-01 0. 4.30949390e-01 0. -6.95045590e-02 0.
      -7.44922519e-01 0. 1.11512028e-01 0. -3.44046772e-01 0.
      7.55674317e-02 0. 4.08969745e-02 0. 9.29411575e-02 0.
      -7.57330209e-02 0. -5.94886988e-02 0. -2.09580243e-01 0.
      6.86823800e-02 0. -8.57785493e-02 0. -2.34808311e-01 0.
      1.05088055e-01 0. 1.81002114e-02 0. -1.05483690e-02 0.
      5.48033826e-02 0. -1.91954404e-01 0. -7.80455321e-02 0.
      -5.34046888e-02 0. -1.63642727e-02 0. -1.44167747e-02 0.
      -6.80080950e-02 0. 6.26432374e-02 0. 7.67069981e-02 0.
      -6.81331009e-02 0. 1.08692348e-01 0. -1.01352312e-01 0.
      -1.84887677e-01 0. 1.61278769e-02 0. -1.32488430e-01 0.
      -9.00597796e-02 0. 3.53007764e-01 0. 2.83424370e-02 0.
      1.39856905e-01 0. 8.54895711e-02 0. -2.21343249e-01 0.
      -1.36779338e-01 0. -2.81782091e-01 0. 1.08026616e-01 0.
      4.33806449e-01 0. 1.82658270e-01 0. -8.19937140e-02 0.
      -1.56188495e-02 0. -3.17312270e-01 0. 8.64688754e-02 0.
      -1.08730525e-01 0. 2.86386404e-02 0. 4.80955303e-01 0.
      2.98015863e-01 0. 2.81555235e-01 0. 1.01029262e-01 0.
      -2.08634734e-01 0. 1.60792440e-01 0. -8.59547406e-02 0.
      4.67318818e-02 0. -1.37707129e-01 0. 1.68436438e-01 0.
      4.67470169e-01 0. 3.43071491e-01 0. -4.74479496e-02 0.
      3.72583985e-01 0. 9.88853164e-03 0. 1.71392530e-01 0.
      -1.05937608e-02 0. -3.46243024e-01 0. 3.48618953e-03 0.
      -6.71351671e-01 0. 6.44222200e-01 0. -3.60645503e-01 0.
      -3.37897956e-01 0. -1.82846069e-01 0. 1.20674245e-01 0.
      -2.93945204e-02 0. -3.64235461e-01 0. 1.03891576e-02 0.
      -1.31930830e-02 0. 1.72537968e-01 0. -1.35466322e-01 0.
      1.02695212e-01 0. 9.57488298e-01 0. -1.83771014e-01 0.
      4.77654114e-02 0. 2.50204280e-02 0. 3.19963008e-01 0.
      -3.43187273e-01 0. -2.26047173e-01 0. -1.37292817e-01 0.
      -2.55970880e-02 0. -9.59713086e-02 0. 2.69411027e-01 0.
      9.16442834e-03 0. 4.31837022e-01 0. -6.26853287e-01 0.
      -2.68145442e-01 0. -3.62646997e-01 0. 5.08421779e-01 0.
      -3.40992481e-01 0. -2.05460459e-01 0. 3.05862399e-03 0.
      -6.80145025e-02 0. -1.09492168e-01 0. -2.36980200e-01 0.
      1.49503753e-01 0. -1.53155446e-01 0. -4.70399670e-03 0.
      1.97746620e-01 0. -3.41300406e-02 0. 2.95320456e-03 0.
      1.38292890e-02 0. -4.87547129e-01 0. 8.70366916e-02 0.
      6.09924309e-02 0. 1.37796804e-01 0. 1.04678228e-01 0.
      9.78354290e-02 0. 3.89209688e-01 0. -1.35260761e-01 0.
      -1.31515101e-01 0. -1.47643626e-01 0. -1.22346006e-01 0.
      1.14596233e-01 0. -1.51438013e-01 0. -1.21171869e-01 0.
      2.58398443e-01 0. -3.91267054e-02 0. -6.48613214e-01 0.
      1.58123195e-01 0. -4.26218927e-01 0. -1.06138635e+00 0.
      7.93135166e-01 0. -5.59290409e-01 0. 5.97938299e-01 0.
      -4.11496729e-01 0. -6.46446124e-02 0. -2.35023394e-01 0.
      6.69649482e-01 0. -2.52090782e-01 0. 3.69091779e-01 0.
      -8.10430571e-02 0. 2.02488676e-01 0. -4.48420733e-01 0.
      -6.42372370e-02 0. -4.19764966e-01 0. 5.03899157e-01 0.
      -5.06332576e-01 0. -1.08399332e-01 0. -3.25169683e-01 0.
      4.00443703e-01 0. -1.91948727e-01 0. -2.56385922e-01 0.
      -1.29331350e-01 0. -3.07861716e-01 0. -1.13864847e-01 0.
      2.78701901e-01 0. -3.05317819e-01 0. 2.28895321e-02 0.
      -5.87622941e-01 0. 9.54466686e-02 0. -1.31219840e+00 0.
      2.31971547e-01 0. -1.77262914e+00 0. 5.05567908e-01 0.
      -3.49030823e-01 0. 7.60203481e-01 0. -2.57752866e-01 0.
      -2.58323010e-02 0. -1.31565839e-01 0. 3.57716233e-01 0.
      1.48070469e-01 0. 1.33125484e-01 0. -2.26567432e-01 0.
      1.18166909e-01 0. 2.67233737e-02 0. -3.65852475e-01 0.
      -2.89768875e-01 0. 2.40946233e-01 0. -4.17819828e-01 0.
      5.17961204e-01 0. 5.90643473e-02 0. 6.54010653e-01 0.
      -2.80213952e-01 0. -7.89651945e-02 0. -3.04559767e-02 0.
      6.58624530e-01 0. 4.87769127e-01 0. 1.06026065e+00 0.
      -1.20436519e-01 0. 1.17535329e+00 0. -6.31147251e-02 0.
      7.57002234e-01 0. -5.50076067e-01 0. -2.72181720e-01
      1.17962852e-01 2.16775328e-01 0. -5.38625419e-01 0.
      -2.82628030e-01 0. -1.34537768e+00 0. 8.00864697e-01 0.
      6.00733578e-01 0. 4.04320866e-01 0. -1.00250602e+00 0.
      3.45033884e-01 0. -8.74082521e-02 0. 4.66820188e-02 0.
      1.08864859e-01 0. 4.23758894e-01 0. 3.62260431e-01 0.
      5.87951303e-01 0. -1.14652956e+00 0. -5.08979931e-02 0.
      -6.71636105e-01 0. 8.25289190e-02 0. -5.36091447e-01 0.
      -2.69794106e-01 0. -8.17807093e-02 0. -7.83388838e-02 0.
      -1.03443392e-01 0. 3.70204866e-01 0. -3.75878125e-01 0.
      3.80726568e-02 0. -1.68567091e-01 0. 3.57825190e-01 0.
      -1.16249792e-01 0. 9.52912048e-02 0. -1.22340703e+00 0.
      1.56281944e-02 0. 2.92011891e-02 0. 1.79824069e-01 0.
      -7.96564966e-02 0. 9.54904631e-02 0. 1.41799808e-01 0.
      1.22283973e-01 0. -2.06013724e-01 0. 3.37943360e-02 0.
      -1.90324828e-01 0. 1.13426425e-01 0. -1.01300463e-01 0.
      -4.51614559e-02 0. 4.91272658e-03 0. 3.56893726e-02 0.
      4.47344668e-02 0. -4.91821676e-01 0. -1.54334009e-01 0.
      1.48300499e-01 0. -1.39634281e-01 0. 2.05085546e-01 0.
      -4.22600023e-02 0. -1.82880629e-02 0. -2.60739714e-01 0.
      1.09074056e-01 0. -1.22319400e-01 0. -4.92023304e-03 0.
      5.59087135e-02 0. 1.83255002e-01 0. -7.69946277e-02 0.
      3.71366650e-01 0. -3.31914783e-01 0. 7.09200919e-01 0.
      2.14512855e-01 0. 2.45742742e-02 0. -9.69800353e-02 0.
      1.22288741e-01 0. 9.99384224e-02 0. 1.35503158e-01 0.
      -1.00400105e-01 0. -2.47734830e-01 0. 2.44137645e-01 0.
      -1.24976106e-01 0. 2.05172580e-02 0. 2.93720543e-01 0.
      2.10780725e-01 0. 4.59797457e-02 0. -1.71904728e-01 0.
      -1.48055390e-01 0. 1.27182826e-01 0. -2.24192023e-01 0.
      -1.16495833e-01 0. -2.89421412e-03 0. 4.37240899e-02 0.
      8.84218737e-02 0. -7.63097778e-02 0. -1.13030355e-02 0.
      -4.83091809e-02 0. -3.93781625e-02 0. -7.97052868e-03 0.
      1.74473897e-01 0. 1.21786565e-01 0. 3.67161334e-02 0.
      5.02760231e-01 0. 5.68849683e-01 0. -9.50982049e-02 0.
      -9.55086797e-02 0. -2.18216237e-02 0. 1.16874591e-01 0.
      1.56085864e-02 0. -2.54731011e-02 0. 5.61359897e-02 0.
      1.57212894e-02 0. -3.45675368e-03 0. 6.43963516e-02 0.
      -1.64362993e-02 0. 1.14389375e-01 0. -7.26420507e-02 0.
      1.70503467e-01 0. 1.50191411e-01 0. 1.41663402e-01 0.
      1.47045299e-01 0. -2.49924790e-02 0. -3.42324853e-01 0.
      1.21348668e-02 0. -1.83177367e-02 0. 1.44150089e-02 0.
      6.55945316e-02 0. 3.55388701e-01 0. 1.28489390e-01 0.
      -1.62886884e-02 0. -1.68731604e-02 0. 9.56675261e-02 0.
      1.44577041e-01 0. 1.63427636e-01 0. -1.10153712e-01 0.
      5.35219491e-01 0. 5.54285824e-01 0. 1.43032283e-01 0.
      -1.27586514e-01 0. 1.83680698e-01 0. 1.27152413e-01 0.
      9.77215637e-03 0. -2.40483671e-01 0. 1.69925973e-01 0.
      -7.53709301e-02 0. 3.90154030e-03 0. 1.76477969e-01 0.
      9.27291885e-02 0. -1.39367655e-02 0. -8.79861563e-02 0.
      1.51656449e-01 0. -3.08572687e-02 0. -1.30904049e-01 0.
      -2.28192657e-02 0. -6.48927614e-02 0. 9.63095650e-02 0.
      -5.59130572e-02 0. -5.84727451e-02 0. -9.14146602e-02 0.
      2.14576602e-01 0. 2.11215746e-02 0. 1.37765124e-01 0.
      8.23040009e-02 0. 5.16211763e-02 0. -4.12682956e-03 0.
      -4.87070009e-02 0. 3.43377218e-02 0. 2.78566331e-01 0.
      -2.59781573e-02 0. -9.31132399e-03 0. 5.91625944e-02 0.
      5.05825132e-02 0. -1.84229165e-01 0. -6.05991669e-02 0.
      -1.76113635e-01 0. -6.08273000e-02 0. 6.43062741e-02 0.
      1.42247118e-02 0. -1.69376004e-02 0. 5.06713837e-02 0.
      -8.59929249e-03 0. 2.61852201e-02 0. -1.86883166e-01 0.
      6.85226023e-02 0. 1.18618906e-01 0. 2.13453081e-02 0.
      -1.52079910e-01 0. 7.44054839e-02 0. -7.06676990e-02 0.
      2.35445704e-02 0. -2.11011812e-01 0. -1.07957926e-02 0.
      -9.00859088e-02 0. 1.64143089e-02 0. -7.97984898e-02 0.
      -9.19691054e-04 0. -3.28785837e-01 0. -7.03443363e-02 0.
      -2.14217231e-01 0. 7.80046165e-01 0. 3.78021598e-01 0.
      -7.15037957e-02 0. -1.48292035e-01 0. 4.02553193e-02 0.
      9.20457840e-02 0. 1.20415300e-01 0. -2.84135699e-01 0.
      2.14520916e-01 0. -9.96568822e-04 0. 8.87892582e-03 0.
      -8.71897340e-02 0. -6.81667635e-03 0. -2.75038071e-02 0.
      3.85601893e-02 0. 3.72592621e-02 0. 2.08212823e-01 0.
      -1.55209258e-01 0. 8.66798833e-02 0. -8.10857341e-02 0.
      -4.85896617e-02 0. 4.78475448e-03 0. -5.81092574e-02 0.
      -2.12382674e-02 0. 1.00063384e-01 0. -8.56431946e-02 0.
      -1.82534996e-02 0. 1.00748293e-01 0. -2.84531340e-02 0.
      2.10959733e-01 0. -4.46470901e-02 0. 8.32052529e-02 0.
      2.37213910e-01 0. 1.63215205e-01 0. 2.18112007e-01 0.
      9.37744901e-02 0. 1.42364919e-01 0. -1.16571307e-01 0.
      -7.69936219e-02 0. -2.73547739e-01 0. -1.26893520e-01 0.
      1.41490266e-01 0. -6.08892180e-02 0. -4.55381572e-02 0.
      -9.85187199e-03 0. 1.13589190e-01 0. 1.48509396e-02 0.
      8.81937444e-02 0. 1.01186119e-01 0. 3.31699699e-01 0.
      2.37476155e-01 0. -1.18137479e-01 0. -2.14751974e-01 0.
      -1.07577868e-01 0. -1.67375784e-02 0. -2.70376921e-01 0.
      3.40686291e-01 0. 2.12339550e-01 0. 2.66796369e-02 0.
      -8.88211802e-02 0. 3.53499502e-01 0. -1.12612657e-02 0.
      -2.08215732e-02 0. -4.09655541e-01 0. 5.38443998e-02 0.
      -1.73898494e+00 0. 4.55103457e-01 0. -2.82705843e-01 0.
      -7.69499689e-02 0. -4.55519319e-01 0. -2.02197805e-02 0.
      6.63875401e-01 0. -4.52445328e-01 0. -2.21704934e-02 0.
      -1.94244966e-01 0. -1.32729888e-01 0. -3.38238925e-01 0.
      2.39566460e-01 0. 1.61939099e-01 0. 5.15821338e-01 0.
      -1.08844832e-01 0. -7.53592327e-02 0. -1.98449031e-01 0.
      1.15742609e-01 0. 9.84261185e-02 0. -1.38174474e-01 0.
      5.14046960e-02 0. -1.20711081e-01 0. -1.44578427e-01 0.
      8.95018354e-02 0. -4.94670793e-02 0. -2.71408975e-01 0.
      -1.07290447e-01 0. -6.69278651e-02 0. -2.14273650e-02 0.
      4.36799705e-01 0. 9.11730751e-02 0. 5.64991543e-03 0.
      1.49758428e-01 0. -4.27528858e-01 0. 3.76277082e-02 0.
      -1.12042136e-01 0. 1.27236634e-01 0. -7.38673508e-02 0.
      6.18941039e-02 0. 1.09438121e-01 0. -1.06692150e-01 0.
      1.58701316e-01 0. -1.27589926e-02 0. -3.40156369e-02 0.
      6.16063476e-02 0. -4.71019596e-02 0. -1.25235602e-01 0.
      -8.19005966e-02 0. 7.07380101e-02 0. -6.88583404e-02 0.
      4.37813140e-02 0. -9.43405330e-02 0. 2.46823624e-01 0.
      7.11746886e-02 0. -1.29095837e-01 0. -7.50332791e-03 0.
      -2.35923417e-02 0. 5.06397747e-02 0. 1.23516768e-01 0.
      4.81095612e-02 0. 3.20307314e-01 0. 7.56524444e-01 0.
      -4.21718299e-01 0. -4.79707271e-01 0. 9.87399220e-02 0.
      4.26867269e-02 0. 1.88642278e-01 0. 1.97939724e-01 0.
      1.91279560e-01 0. -4.14396524e-02 0. -3.55837196e-02 0.
      1.58524543e-01 0. -8.42179209e-02 0. -1.84787765e-01 0.
      3.19433995e-02 0. 1.14155874e-01 0. 1.55247837e-01 0.
      -4.99687903e-02 0. -2.02398211e-01 0. -1.97217464e-01 0.
      1.08037777e-01 0. -1.50732502e-01 0. -1.08016180e-02 0.
      -4.25126553e-02 0. -4.06918041e-02 0. 1.36454925e-01 0.
      -1.50533617e-02 0. 1.10066615e-01 0. -1.09038532e-01 0.
      -3.63627762e-01 0. 7.36294910e-02 0. 6.73331395e-02 0.
      -1.10855073e-01 0. 2.03049690e-01 0. 3.63185674e-01 0.
      1.68672264e-01 0. -5.48095889e-02 0. 4.38230019e-03 0.
      -4.39679660e-02 0. 7.53350705e-02 0. -7.35161081e-02 0.
      1.34490907e-01 0. 2.86500938e-02 0. -8.47776085e-02 0.
      3.19763869e-02 0. -1.30192101e-01 0. -5.11771962e-02 0.
      -1.10349983e-01 0. 1.44478410e-01 0. 1.79669216e-01 0.
      2.58734345e-01 0. 2.82142371e-01 0. 1.46025255e-01 0.
      -2.03964449e-02 0. 1.03615336e-01 0. -1.73491461e-03 0.
      -9.07116830e-02 0. 4.23719317e-01 0. 1.06181897e-01 0.
      2.82203704e-01 0. 7.91758671e-02 0. 3.16870362e-01 0.
      4.40314889e-01 0. 1.03384815e-01 0. 1.82264253e-01 0.
      5.52867353e-01 0. -1.09647310e+00 0. 1.33177221e-01 0.
      4.45794947e-02 0. 3.06870878e-01 0. -2.15877444e-01 0.
      3.30585599e-01 0. -1.96365267e-01 0. 8.34391594e-01 0.
      -2.90861189e-01 0. -1.27100945e-01 0. -1.58524007e-01 0.
      -1.78768262e-01 0. 3.22340615e-02 0. -2.36385930e-02 0.
      -2.28104945e-02 0. -2.24515632e-01 0. -1.68732971e-01 0.
      -1.09510422e-01 0. -1.09803528e-01 0. 6.34222329e-02 0.
      7.70682618e-02 0. -2.78191179e-01 0. 3.92048880e-02 0.
      2.34799013e-01 0. 2.18602955e-01 0. 3.03950012e-02 0.
      -2.16462836e-01 0. 3.44879329e-02 0. -7.81200826e-02 0.
      1.43190682e-01 0. -2.39183560e-01 0. 5.94564080e-01 0.
      -1.19161583e-01 0. -1.30349889e-01 0. 2.43760243e-01 0.
      6.12513065e-01 0. -7.39808986e-03 0. -7.14546517e-02 0.
      -1.42863691e-01 0. 3.35999168e-02 0. -3.61247323e-02 0.
      -1.20952070e-01 0. 7.87245482e-02 0. -8.86662751e-02 0.
      6.58570603e-02 0. -3.78950685e-01 0. -4.11558412e-02 0.
      9.14046392e-02 0. -2.19102874e-01 0. -3.06761172e-02 0.
      3.72386426e-02 0. 8.93014073e-02 0. 1.33579910e-01 0.
      -1.04816474e-01 0. 7.95609877e-02 0. -1.42777294e-01 0.
      -1.41004259e-02 0. -2.97537565e-01 0. -7.96164274e-02 0.
      3.64578009e-01 0. -8.78132507e-02 0. -2.20631119e-02 0.
      -2.10752591e-01 0. 2.36249074e-01 0. -9.12603915e-01 0.
      5.54201484e-01 0. -3.17486793e-01 0. 9.69581425e-01 0.
      -2.39308417e-01 0. 1.13017216e-01 0. 7.46895149e-02 0.
      -1.35428175e-01 0. -1.06297880e-01 0. 2.49449357e-01 0.
      -6.65679723e-02 0. 5.76119304e-01 0. -7.67886937e-02 0.
      2.06718192e-01 0. -1.58314243e-01 0. 3.68808180e-01 0.
      -3.55120093e-01 0. -4.75248694e-02 0. -2.92545170e-01 0.
      1.50517538e-01 0. -2.01464832e-01 0. 1.65504932e-01 0.
      -2.29812130e-01 0. 1.36902019e-01 0. -9.74490717e-02 0.
      1.40916452e-01 0. -1.56519815e-01 0. -1.58371732e-01 0.
      -4.21636581e-01 0. 1.47895366e-01 0. -6.59858465e-01 0.
      2.76949495e-01 0. -2.03954101e+00 0. 4.80032653e-01 0.
      -1.83827057e-01 0. 6.12093985e-01 0. -2.03860477e-01 0.
      1.89992085e-01 0. -1.34456113e-01 0. -6.13757819e-02 0.
      1.80846050e-01 0. 2.89993554e-01 0. -6.19778447e-02 0.
      5.13093889e-01 0. -1.22809142e-01 0. -2.47697100e-01 0.
      -5.25746644e-01 0. 1.57591142e-02 0. -5.89923859e-01 0.
      4.36678290e-01 0. 2.31439471e-01 0. 4.54200536e-01 0.
      -3.11977804e-01 0. 4.16670859e-01 0. -4.04320598e-01 0.
      -9.74056050e-02 0. -1.79296166e-01 0. 6.43042564e-01 0.
      7.41441175e-02 0. 6.70980930e-01 0. -1.97018132e-01 0.
      4.65485185e-01 0. -6.66476488e-02 0. -6.54942811e-01
      7.45574951e-01 -4.57623661e-01 0. -3.07861775e-01 0.
      -6.34562492e-01 0. -8.66044641e-01 0. 2.39596918e-01 0.
      -3.70173961e-01 0. -5.81531525e-02 0. -7.47226417e-01 0.
      4.48703840e-02 0. -8.33603961e-04 0. -1.24300383e-02 0.
      -2.18321547e-01 0. 7.99121439e-01 0. -2.61601776e-01 0.
      9.19585750e-02 0. -1.87713075e+00 0. -1.58438587e+00 0.
      -7.84519553e-01 0. -1.81099549e-01 0. 2.04797179e-01 0.
      -8.58656392e-02 0. -1.14107721e-01 0. 1.88400999e-01 0.
      -4.20969874e-01 0. 5.76463819e-01 0. -4.66087013e-01 0.
      -1.32960692e-01 0. -3.40895983e-03 0. 3.97515267e-01 0.
      -9.62832049e-02 0. 3.24648544e-02 0. -3.75879973e-01 0.
      2.67167479e-01 0. -7.95032382e-01 0. 1.20885976e-01 0.
      7.12969080e-02 0. -8.65193009e-02 0. -8.16559196e-02 0.
      -1.21176407e-01 0. -1.17680274e-01 0. 5.66526502e-02 0.
      2.99751073e-01 0. 4.67900634e-02 0. -1.46760523e-01 0.
      2.15887353e-01 0. -8.55964422e-02 0. 4.70032208e-02 0.
      -6.89613894e-02 0. 4.03643250e-02 0. -3.02159816e-01 0.
      2.31137108e-02 0. 2.76143905e-02 0. -2.18565203e-02 0.
      -2.74014063e-02 0. 1.30538553e-01 0. -3.17521840e-02 0.
      3.27156037e-01 0. 3.39482993e-01 0. 6.57263994e-02 0.
      1.85211897e-01 0. 7.06110954e-01 0. 4.73446041e-01 0.
      -3.88708264e-02 0. -4.87341672e-01 0. 3.78723890e-01 0.
      -2.92419136e-01 0. 7.84483552e-02 0. 2.42546946e-01 0.
      4.78200018e-02 0. -9.85491797e-02 0. 1.54350579e-01 0.
      7.48261288e-02 0. 5.34990653e-02 0. 5.45041002e-02 0.
      -4.73217666e-03 0. -1.78642781e-03 0. 9.00787264e-02 0.
      2.33571008e-02 0. -4.54321876e-03 0. -1.47945341e-03 0.
      3.19231078e-02 0. 5.92130758e-02 0. -1.66690126e-01 0.
      -1.29659399e-02 0. 3.29403095e-02 0. 1.34872615e-01 0.
      -9.07839686e-02 0. -1.78824529e-01 0. 2.84413081e-02 0.
      2.16897234e-01 0. -7.04757273e-02 0. 1.47107378e-01 0.
      2.74459571e-01 0. 5.94357811e-02 0. -2.09499031e-01 0.
      -2.67080456e-01 0. 8.48006248e-01 0. -6.19270861e-01 0.
      1.66694522e-01 0. -2.03745097e-01 0. 1.33282483e-01 0.
      -7.53285438e-02 0. 1.68832406e-01 0. 2.83702821e-01 0.
      1.57673150e-01 0. 2.01373510e-02 0. -9.96328611e-03 0.
      -6.91377819e-02 0. 1.39338076e-01 0. 1.54022828e-01 0.
      -6.66240156e-02 0. -4.25593965e-02 0. 6.24183476e-01 0.
      1.87800974e-01 0. -1.44082889e-01 0. -2.63513923e-01 0.
      1.09535269e-01 0. 3.64199355e-02 0. 1.09803006e-01 0.
      1.64078340e-01 0. 4.25853193e-01 0. 3.90213542e-02 0.
      2.34499365e-01 0. -3.98477197e-01 0. 7.07570493e-01 0.
      7.46719778e-01 0. 2.22462267e-01 0. 4.25700873e-01 0.
      4.15740401e-01 0. -7.84584701e-01 0. 1.80425365e-02 0.
      -1.32663444e-01 0. 2.60013431e-01 0. 2.06361879e-02 0.
      1.02064997e-01 0. 4.57444377e-02 0. 1.11153707e-01 0.
      -3.10195535e-01 0. -3.46483923e-02 0. -8.32752213e-02 0.
      1.74573600e-01 0. -1.33624181e-01 0. 2.09157854e-01 0.
      -3.04183997e-02 0. 1.48741826e-01 0. 7.87976459e-02 0.
      -4.41073664e-02 0. -7.84925818e-02 0. -5.13434261e-02 0.
      3.89129706e-02 0. 4.95249517e-02 0. -8.43417868e-02 0.
      1.68199033e-01 0. -2.55555082e-02 0. 2.15870794e-02 0.
      -6.24308065e-02 0. 3.04636676e-02 0. 3.76222096e-02 0.
      9.22819674e-02 0. 1.45685434e-01 0. -1.02680087e-01 0.
      -7.20819384e-02 0. -6.91945776e-02 0. -2.15922967e-01 0.
      6.27021343e-02 0. -4.03599516e-02 0. -6.33588135e-02 0.
      1.36081800e-02 0. 1.73047464e-02 0. 3.70836817e-02 0.
      -2.04646811e-02 0. -4.64154333e-02 0. 1.09603040e-01 0.
      -1.52574703e-02 0. -4.02784348e-03 0. -1.60921253e-02 0.
      -4.66935299e-02 0. 1.25863925e-01 0. 1.81609895e-02 0.
      -1.15012275e-02 0. -5.22853024e-02 0. -6.07646704e-02 0.
      -3.37032927e-03 0. -1.50542736e-01 0. 1.81066781e-01 0.
      -6.67460114e-02 0. 8.43199044e-02 0. -1.14611447e-01 0.
      1.59884036e-01 0. -9.59471464e-02 0. 2.72789598e-02 0.
      -2.49170750e-01 0. -8.16682056e-02 0. -1.96497947e-01 0.
      -1.05216533e-01 0. -1.77937925e-01 0. 1.35906786e-01 0.
      -9.04753506e-02 0. -5.51350452e-02 0. 2.78913736e-01 0.
      1.23053104e-01 0. -2.89407074e-02 0. 1.29626632e-01 0.
      -2.31683962e-02 0. -2.23810431e-02 0. -1.00350522e-01 0.
      -1.05131790e-01 0. -4.54026386e-02 0. 7.43773580e-02 0.
      4.72295098e-02 0. -3.19501869e-02 0. 1.65075406e-01 0.
      -2.01020300e-01 0. -4.09815274e-03 0. -1.76153839e-01 0.
      -9.20885354e-02 0. 1.00708440e-01 0. 5.23868166e-02 0.
      -5.99144250e-02 0. -1.54258415e-01 0. 1.22427419e-01 0.
      1.50746927e-01 0. 3.26053686e-02 0. -2.77581140e-02 0.
      3.08649242e-01 0. 5.59727967e-01 0. 2.13470072e-01 0.
      9.98465866e-02 0. 2.43125439e-01 0. 4.98495921e-02 0.
      -1.40776798e-01 0. -4.35115635e-01 0. 5.49988411e-02 0.
      2.57055312e-01 0. 4.03062142e-02 0. -1.69151887e-01 0.
      1.54817224e-01 0. -1.03278033e-01 0. 9.98987779e-02 0.
      -2.33176783e-01 0. 2.80977488e-01 0. 2.34685600e-01 0.
      2.66941845e-01 0. 1.23617910e-02 0. -2.61156946e-01 0.
      -8.12252834e-02 0. -5.90561777e-02 0. -4.83126193e-01 0.
      1.78849846e-01 0. 3.77180398e-01 0. 1.40569001e-01 0.
      -1.26896650e-01 0. 6.19639456e-01 0. 3.40331495e-01 0.
      2.22531378e-01 0. -4.97558825e-02 0. 3.80516052e-02 0.
      -2.08257839e-01 0. -9.78840232e-01 0. 2.32543617e-01 0.
      1.37885481e-01 0. -7.24311965e-03 0. -4.34057981e-01 0.
      6.00658357e-02 0. -9.18734521e-02 0. 3.96893978e-01 0.
      -3.39508243e-02 0. 2.86534160e-01 0. -2.15201288e-01 0.
      1.81303680e-01 0. 5.19775860e-02 0. 7.45919526e-01 0.
      -1.42085001e-01 0. 1.82250321e-01 0. -2.14755274e-02 0.
      -5.09907119e-02 0. 2.08985627e-01 0. -5.84907420e-02 0.
      1.10817455e-01 0. -5.32964729e-02 0. -4.94416878e-02 0.
      2.67893910e-01 0. -3.13689187e-02 0. -6.53155819e-02 0.
      1.44373536e-01 0. 1.12382367e-01 0. 2.99761772e-01 0.
      9.40489173e-01 0. -1.27892062e-01 0. 5.11012040e-02 0.
      1.25579759e-01 0. 1.25796739e-02 0. -3.15468051e-02 0.
      -4.35520262e-02 0. -2.07539737e-01 0. 3.54742438e-01 0.
      1.64412946e-01 0. -8.73638913e-02 0. 1.52380392e-02 0.
      -1.81610659e-01 0. -1.18765347e-02 0. 8.41641203e-02 0.
      5.76889589e-02 0. 4.06215996e-01 0. 8.05495530e-02 0.
      9.57117379e-02 0. 1.93732694e-01 0. 6.02459870e-02 0.
      2.13962331e-01 0. -1.53461928e-02 0. -2.25405376e-02 0.
      1.95225507e-01 0. 1.03687584e-01 0. -3.00188661e-01 0.
      1.41948879e-01 0. 2.41881177e-01 0. 2.49145314e-01 0.
      -3.72243494e-01 0. 4.71946567e-01 0. 4.29698676e-01 0.
      -8.95943046e-01 0. -4.61001843e-02 0. -1.33194193e-01 0.
      -3.15244198e-01 0. -1.76186427e-01 0. 4.15686630e-02 0.
      8.68426040e-02 0. 8.10094699e-02 0. 1.40586078e-01 0.
      -3.75766680e-02 0. -1.88510679e-02 0. -6.00418486e-02 0.
      3.07242721e-02 0. -3.08890245e-03 0. 9.02682245e-02 0.
      4.24170226e-01 0. 2.04258740e-01 0. -1.63118728e-02 0.
      -6.19835146e-02 0. 1.16018534e-01 0. 5.21680750e-02 0.
      -2.27680616e-02 0. 3.31074707e-02 0. 3.42715420e-02 0.
      9.92702693e-02 0. 7.88764954e-02 0. -1.71762072e-02 0.
      -2.18974963e-01 0. -3.51720043e-02 0. -2.63115782e-02 0.
      -1.70454398e-01 0. -4.84827487e-03 0. 1.89237401e-01 0.
      4.53270180e-03 0. -5.38979582e-02 0. -1.78075522e-01 0.
      -3.44276056e-02 0. -1.65637985e-01 0. 1.91442773e-03 0.
      2.34277070e-01 0. 5.85407950e-02 0. 1.39234783e-02 0.
      5.20678237e-03 0. -1.62666187e-01 0. 5.86730726e-02 0.
      -1.43379822e-01 0. 1.16706870e-01 0. -6.76015615e-02 0.
      5.34026437e-02 0. 6.18622154e-02 0. -5.90271838e-02 0.
      -2.93252677e-01 0. 3.75791527e-02 0. -5.64243309e-02 0.
      -3.62026170e-02 0. 2.34858036e-01 0. 1.11725569e-01 0.
      -4.04213648e-03 0. 2.34576643e-01 0. -7.79398680e-01 0.
      6.81910068e-02 0. 6.40250206e-01 0. 2.92598248e-01 0.
      2.24199802e-01 0. -5.91653764e-01 0. 3.22724462e-01 0.
      3.89904082e-02 0. 9.55595374e-01 0. 4.16837692e-01 0.
      1.81380250e-02 0. -1.80151924e-01 0. 1.49988100e-01 0.
      3.13310176e-01 0. -1.82510227e-01 0. -5.76490499e-02 0.
      2.84838621e-02 0. 1.58160537e-01 0. -5.77065945e-02 0.
      1.50943980e-01 0. 4.67214912e-01 0. -9.32885110e-02 0.
      1.78238645e-01 0. -5.02704866e-02 0. 3.95634681e-01 0.
      -1.24202855e-01 0. -7.43332952e-02 0. -4.33304161e-02 0.
      -2.05286399e-01 0. 2.21548378e-02 0. 5.79213239e-02 0.
      -1.19794589e-02 0. 5.34094423e-02 0. -6.23592615e-01 0.
      -8.92331228e-02 0. -4.92072821e-01 0. 3.57458830e-01 0.
      -3.12051326e-01 0. -4.83460933e-01 0. 4.60902080e-02 0.
      -3.46407920e-01 0. -6.39084578e-02 0. -1.96078643e-02 0.
      -1.66161694e-02 0. -6.41882792e-02 0. -1.91397555e-02 0.
      -6.48759976e-02 0. -1.89650327e-01 0. -1.15134092e-02 0.
      1.21564083e-02 0. -6.27389252e-01 0. -3.42603773e-02 0.
      2.18052063e-02 0. -2.06238255e-02 0. -1.75740030e-02 0.
      1.26186311e-01 0. 4.06428277e-01 0. 1.36558274e-02 0.
      -2.64056958e-02 0. -1.45097926e-01 0. 9.73267853e-02 0.
      1.93216488e-01 0. -4.36148554e-01 0. -1.56958938e-01 0.
      2.96472222e-01 0. -1.86855733e-01 0. -7.15751767e-01 0.
      -1.55809358e-01 0. -2.35744417e-01 0. -1.35704827e+00 0.
      6.87810600e-01 0. -7.09298849e-01 0. 8.32684100e-01 0.
      -2.56197274e-01 0. -1.46478340e-01 0. -2.02398282e-02 0.
      6.60361707e-01 0. -2.77125448e-01 0. 1.10143617e-01 0.
      -2.74347931e-01 0. 3.06207627e-01 0. 1.16940878e-01 0.
      7.52690211e-02 0. -1.99645936e-01 0. 4.92086411e-01 0.
      -2.68101633e-01 0. 2.94065565e-01 0. -2.95323312e-01 0.
      3.45265538e-01 0. -6.78595155e-02 0. -9.26960036e-02 0.
      -4.17194694e-01 0. 8.58934522e-02 0. -1.27899960e-01 0.
      4.41920787e-01 0. -2.09612608e-01 0. -7.59414583e-03 0.
      -4.09107983e-01 0. 5.22775315e-02 0. -8.32911074e-01 0.
      2.37005465e-02 0. -1.49083185e+00 0. 9.77615654e-01 0.
      -1.40981004e-01 0. 4.57332611e-01 0. -2.13079572e-01 0.
      -1.09386489e-01 0. -8.00780952e-02 0. 2.16327101e-01 0.
      6.61968663e-02 0. 1.04459077e-01 0. -1.72899991e-01 0.
      2.65116841e-01 0. 2.82399148e-01 0. -9.97584499e-03 0.
      -3.02965581e-01 0. 2.33160004e-01 0. -1.74298272e-01 0.
      2.17601478e-01 0. 1.67852012e-03 0. 1.00678682e+00 0.
      -6.81343153e-02 0. -2.63193458e-01 0. -2.28688210e-01 0.
      4.05944139e-01 0. 3.10576588e-01 0. 4.41286683e-01 0.
      2.62800753e-01 0. -1.42058998e-01 0. -2.17539653e-01 0.
      -2.39104435e-01 0. -1.54412970e-01 0. -6.14839010e-02
      -1.02654353e-01 -1.37750478e-02 0. -1.46045053e+00 0.
      6.82724178e-01 0. -4.03969169e-01 0. 6.38479114e-01 0.
      1.12084575e-01 0. 4.63166773e-01 0. -1.18719745e+00 0.
      4.31175083e-01 0. 8.41278359e-02 0. 1.32621735e-01 0.
      -1.40344441e-01 0. 2.40652502e-01 0. 3.12338740e-01 0.
      3.75714749e-01 0. -1.79803705e+00 0. -1.11661816e+00 0.
      -4.93918478e-01 0. -1.45637453e-01 0. -7.86165297e-02 0.
      -3.53077501e-02 0. -5.79038747e-02 0. 1.30797952e-01 0.
      -2.15761989e-01 0. 3.21462750e-01 0. -7.17200488e-02 0.
      -1.26637846e-01 0. -2.24079192e-01 0. 1.40108690e-01 0.
      -6.00336492e-02 0. -2.39504501e-02 0. -1.32498157e+00 0.
      2.36389890e-01 0. -3.19339968e-02 0. 4.83026914e-02 0.
      -2.17112541e-01 0. 2.01587752e-02 0. -1.06846601e-01 0.
      2.94127464e-01 0. -6.01903126e-02 0. -2.30339587e-01 0.
      -3.10529739e-01 0. 1.34753093e-01 0. -9.58778411e-02 0.
      1.27075508e-01 0. 7.19484240e-02 0. 8.75022449e-03 0.
      6.89336509e-02 0. -3.59761268e-01 0. -1.61394954e-01 0.
      4.08292189e-02 0. 5.06997965e-02 0. -4.62607779e-02 0.
      -7.00392276e-02 0. 1.34577090e-02 0. -2.74690002e-01 0.
      1.03226908e-01 0. 2.29708105e-01 0. 8.75991210e-02 0.
      2.28535309e-01 0. 3.96310240e-01 0. 2.80913621e-01 0.
      3.15237612e-01 0. -4.09870863e-01 0. 2.73064375e-01 0.
      3.48198205e-01 0. 3.22100297e-02 0. -2.34853238e-01 0.
      2.84294158e-01 0. 1.86945215e-01 0. -2.54523903e-02 0.
      3.85180637e-02 0. -1.41346380e-01 0. 1.49014160e-01 0.
      -7.37898126e-02 0. -1.05159208e-01 0. 5.10048680e-02 0.
      4.43139300e-02 0. 5.38624004e-02 0. 3.55715342e-02 0.
      -8.22888762e-02 0. -4.15589735e-02 0. -3.65138836e-02 0.
      -1.81779742e-01 0. 4.22584005e-02 0. -1.32079527e-01 0.
      -8.97963867e-02 0. -1.20952785e-01 0. -7.16114417e-02 0.
      4.32725362e-02 0. -7.56040886e-02 0. -7.57114217e-02 0.
      1.28093781e-02 0. -1.58846155e-01 0. -1.60358712e-01 0.
      -9.34811160e-02 0. 4.34122384e-01 0. 1.17531419e-01 0.
      -9.26252641e-03 0. -4.24512178e-02 0. 7.52964169e-02 0.
      -4.84437728e-03 0. 1.24191932e-01 0. 2.78398730e-02 0.
      5.43433018e-02 0. 1.03997208e-01 0. 1.28892912e-02 0.
      -1.28276125e-01 0. -2.55282931e-02 0. 4.15747315e-02 0.
      -8.03589122e-04 0. -4.64525670e-02 0. 6.47548810e-02 0.
      1.89943060e-01 0. 5.20613045e-02 0. -2.53936827e-01 0.
      7.19172657e-02 0. 1.03023715e-01 0. -8.52042995e-03 0.
      -4.90000211e-02 0. 2.17203751e-01 0. 1.66386440e-01 0.
      -2.18920205e-02 0. -6.91650510e-02 0. 3.19482446e-01 0.
      -1.11057222e-01 0. 1.71423003e-01 0. -4.89079058e-01 0.
      2.40075752e-01 0. 3.62156808e-01 0. 1.22655995e-01 0.
      4.68161583e-01 0. 4.07666266e-02 0. 9.69132558e-02 0.
      7.90130198e-02 0. -8.80575851e-02 0. 1.20191179e-01 0.
      -6.50572106e-02 0. 4.77576703e-02 0. 1.46562725e-01 0.
      -1.07923977e-01 0. -1.28369639e-02 0. 2.18753293e-01 0.
      2.65932381e-01 0. -1.05192736e-01 0. 1.76869351e-02 0.
      -1.45588052e-02 0. -5.88515475e-02 0. 7.50712827e-02 0.
      -1.35042546e-02 0. 4.63078059e-02 0. -1.22985385e-01 0.
      1.63909853e-01 0. 1.14195906e-01 0. 4.52211034e-03 0.
      -8.09903741e-02 0. 2.25783959e-02 0. -7.00310245e-02 0.
      4.29789387e-02 0. -5.15693910e-02 0. 1.72917366e-01 0.
      -7.89383873e-02 0. 1.72615081e-01 0. -2.63348278e-02 0.
      1.52879462e-01 0. -1.26644656e-01 0. 5.02409264e-02 0.
      -2.46139139e-01 0. -1.29520923e-01 0. -4.75207251e-03 0.
      4.83657122e-02 0. -2.05900259e-02 0. 2.45025810e-02 0.
      -1.04764886e-01 0. 1.61269624e-02 0. -1.05448328e-01 0.
      4.64507565e-02 0. 4.74494398e-02 0. -2.61851605e-02 0.
      -9.05121192e-02 0. -5.46544194e-02 0. -1.55326203e-02 0.
      -1.28129870e-02 0. -2.07949221e-01 0. 4.28124927e-02 0.
      1.42335847e-01 0. -4.10620905e-02 0. 1.03470437e-01 0.
      1.62445739e-01 0. -2.05564737e-01 0. 1.34769604e-01 0.
      -3.05802494e-01 0. 5.97800136e-01 0. 3.48502368e-01 0.
      -1.11495726e-01 0. 2.30448231e-01 0. 1.19663425e-01 0.
      2.67652087e-02 0. -2.26358371e-03 0. -1.73728675e-01 0.
      1.03736803e-01 0. -7.33927414e-02 0. 3.62081118e-02 0.
      -4.43500094e-02 0. 8.61681178e-02 0. 2.27047503e-01 0.
      1.57511264e-01 0. 1.87816247e-01 0. 1.77253723e-01 0.
      -8.91606063e-02 0. 1.36501510e-02 0. 1.18530624e-01 0.
      -3.54120731e-02 0. -7.11668953e-02 0. 9.60924849e-02 0.
      -2.36821339e-01 0. 8.82468149e-02 0. -7.48705864e-02 0.
      -5.03543764e-02 0. 6.72432184e-02 0. -1.23672457e-02 0.
      3.47928377e-03 0. -1.81415752e-02 0. 3.02259177e-01 0.
      6.12865746e-01 0. 3.14454287e-01 0. 9.11061689e-02 0.
      -5.05034672e-03 0. 1.03891253e-01 0. 4.41158656e-03 0.
      4.22619060e-02 0. -3.04904103e-01 0. -1.03749640e-01 0.
      4.54762019e-02 0. -5.04888222e-02 0. -1.19286902e-01 0.
      -4.03320938e-02 0. -5.44318296e-02 0. 3.04436743e-01 0.
      -7.50899920e-03 0. 2.51201630e-01 0. 2.24678069e-01 0.
      8.02506879e-02 0. -1.88868865e-02 0. -1.60007440e-02 0.
      7.10212346e-03 0. 1.03532217e-01 0. -6.73280716e-01 0.
      3.76588672e-01 0. 9.89492834e-02 0. 1.34898961e-01 0.
      7.06094457e-03 0. 2.46731520e-01 0. -3.21557492e-01 0.
      3.08606215e-02 0. -1.08671367e+00 0. -6.35354936e-01 0.
      -8.24731588e-01 0. 4.60737884e-01 0. -3.00277948e-01 0.
      -3.99629846e-02 0. 1.12904564e-01 0. 3.81830662e-01 0.
      3.04297477e-01 0. -1.78589806e-01 0. -1.57354504e-01 0.
      6.55190051e-02 0. 1.21395886e-01 0. -2.83358216e-01 0.
      1.20595083e-01 0. 1.98959664e-01 0. 6.30669236e-01 0.
      -3.56807917e-01 0. 3.50520350e-02 0. 1.25455379e-01 0.
      1.40106037e-01 0. -1.74561813e-02 0. -3.83017063e-02 0.
      -5.03044948e-02 0. 2.78815657e-01 0. -1.20833881e-01 0.
      -2.22940370e-02 0. 1.53093338e-02 0. -1.21581897e-01 0.
      -6.60111159e-02 0. -1.58320725e-01 0. 1.28907666e-01 0.
      7.02986598e-01 0. -9.02475491e-02 0. -2.49441266e-01 0.
      1.45354301e-01 0. 1.47561565e-01 0. 5.60274608e-02 0.
      -2.02193484e-01 0. -1.31894931e-01 0. 2.29518026e-01 0.
      3.12236007e-02 0. -2.65001655e-01 0. -8.25649244e-04 0.
      -4.88713160e-02 0. 4.36821543e-02 0. 1.15930162e-01 0.
      2.91881654e-02 0. 3.31233680e-01 0. -1.44493401e-01 0.
      1.92581758e-01 0. 7.68923983e-02 0. -7.83169940e-02 0.
      1.09840065e-01 0. 6.65479060e-03 0. 7.40261078e-02 0.
      -8.48454684e-02 0. 1.23781674e-01 0. -1.68275923e-01 0.
      1.92239270e-01 0. 2.64766604e-01 0. 1.23052686e-01 0.
      4.93594166e-03 0. 5.58188617e-01 0. 7.79695332e-01 0.
      3.18658918e-01 0. 1.31003723e-01 0. -6.20473176e-03 0.
      -1.14198491e-01 0. 2.06402317e-01 0. 1.74995169e-01 0.
      -1.55286910e-02 0. 1.76659271e-01 0. -1.24446094e-01 0.
      1.15040122e-02 0. -9.02774855e-02 0. 6.63361475e-02 0.
      1.98345464e-02 0. 1.10938400e-01 0. 1.87865198e-01 0.
      6.98330879e-01 0. 1.21504553e-02 0. -2.45196149e-01 0.
      8.36145431e-02 0. 1.91284105e-01 0. -8.27101544e-02 0.
      5.73817901e-02 0. -2.17443943e-01 0. 1.11354157e-01 0.
      -8.70889723e-02 0. -6.24601543e-03 0. -1.67377070e-01 0.
      -9.30721536e-02 0. -4.36793827e-02 0. 1.23193808e-01 0.
      -7.13952854e-02 0. 1.70333326e-01 0. 4.12397236e-01 0.
      1.88161448e-01 0. 5.36289439e-02 0. 1.98563680e-01 0.
      6.39805347e-02 0. 3.65591496e-02 0. 4.64696996e-02 0.
      1.30584478e-01 0. 3.33672725e-02 0. -1.69441313e-01 0.
      -2.52287369e-02 0. -3.10489863e-01 0. 1.49091497e-01 0.
      3.44733112e-02 0. 1.96939364e-01 0. -8.62983465e-02 0.
      2.30732918e-01 0. 2.82922119e-01 0. 1.37733892e-01 0.
      -9.98517498e-02 0. 1.56909093e-01 0. 1.66027308e-01 0.
      1.78474057e-02 0. 6.64580166e-02 0. -3.43910493e-02 0.
      1.45941243e-01 0. -1.10978700e-01 0. -5.51650152e-02 0.
      3.57324272e-01 0. 3.52616489e-01 0. 2.82145530e-01 0.
      2.27022916e-01 0. -1.74072170e+00 0. -7.81300306e-01 0.
      -2.19918385e-01 0. 5.23874879e-01 0. -4.20123428e-01 0.
      -1.05598733e-01 0. -2.34737605e-01 0. 1.16467965e+00 0.
      -2.92437613e-01 0. -8.09086040e-02 0. -1.66456416e-01 0.
      1.37312114e-01 0. 1.20209590e-01 0. -3.00590664e-01 0.
      4.17572036e-02 0. 3.18490952e-01 0. -2.96843275e-02 0.
      -4.30442065e-01 0. -1.22701317e-01 0. 6.31856620e-02 0.
      -8.21733624e-02 0. -2.53738314e-01 0. -1.27064988e-01 0.
      6.03735030e-01 0. 1.62103251e-01 0. 2.91302651e-01 0.
      -7.23801628e-02 0. 1.82732776e-01 0. -2.33716831e-01 0.
      1.39350235e-01 0. -1.96169004e-01 0. 9.16199327e-01 0.
      -4.39095855e-01 0. 4.81271476e-01 0. -5.30832894e-02 0.
      2.67774850e-01 0. 3.51369344e-02 0. -2.40367457e-01 0.
      -1.13549322e-01 0. 3.64584804e-01 0. 7.58118629e-02 0.
      -9.60346460e-02 0. 1.52898543e-02 0. 5.41281421e-03 0.
      -5.04737832e-02 0. -2.26699084e-01 0. -7.22890869e-02 0.
      5.02493918e-01 0. -4.87908483e-01 0. -2.06076697e-01 0.
      -1.48011446e-01 0. 3.26673351e-02 0. -3.44809368e-02 0.
      1.86839346e-02 0. 5.94017431e-02 0. 2.56460235e-02 0.
      -5.13535105e-02 0. 1.04870319e-01 0. -1.48408171e-02 0.
      6.04558706e-01 0. -9.60613266e-02 0. 2.15268120e-01 0.
      1.15101092e-01 0. 3.12578768e-01 0. -1.82154787e+00 0.
      6.90828383e-01 0. -6.02634177e-02 0. 4.84951854e-01 0.
      -1.83539331e-01 0. 4.59375465e-03 0. 3.00463028e-02 0.
      6.01178527e-01 0. -1.64485469e-01 0. 2.42801029e-02 0.
      -1.89643279e-01 0. 3.84630352e-01 0. -2.98712522e-01 0.
      5.70741072e-02 0. -3.63810509e-02 0. 6.59098983e-01 0.
      -3.90999794e-01 0. -1.39563099e-01 0. -1.84247956e-01 0.
      2.32440099e-01 0. -1.45591265e-02 0. 2.83131629e-01 0.
      -3.76356333e-01 0. 4.93844748e-02 0. -2.08044071e-02 0.
      3.44438761e-01 0. -1.88619435e-01 0. -1.83621094e-01 0.
      -5.18733263e-01 0. 4.24513191e-01 0. -1.07816052e+00 0.
      -1.74564525e-01 0. -1.98001766e+00 0. 1.20350242e-01 0.
      -1.68909594e-01 0. 6.97148740e-01 0. -1.98204726e-01 0.
      1.48744911e-01 0. 9.03573185e-02 0. 5.49944043e-01 0.
      -5.62905557e-02 0. 3.07887107e-01 0. -1.34698153e-01 0.
      -6.02234416e-02 0. -3.48437846e-01 0. 4.10238385e-01 0.
      2.12850541e-01 0. 4.86025661e-01 0. -1.15414822e+00 0.
      -2.50152200e-01 0. -2.68496871e-02 0. 7.56865367e-02 0.
      -3.93440336e-01 0. 3.53057146e-01 0. -2.22329319e-01 0.
      7.47940242e-01 0. -5.29470921e-01 0. 7.43971944e-01 0.
      -1.34433001e-01 0. 4.32628423e-01 0. -3.84948075e-01 0.
      5.16564071e-01 0. -1.21532488e+00 0. -4.46038395e-01
      4.27392066e-01 -5.44524848e-01 0. -1.02116883e+00 0.
      7.60222971e-02 0. -5.99943161e-01 0. 5.84168196e-01 0.
      3.55293423e-01 0. 5.25255919e-01 0. -7.60858655e-01 0.
      5.01885414e-01 0. -5.27231656e-02 0. -1.62878990e-01 0.
      2.14972332e-01 0. 4.39084083e-01 0. -1.43143445e-01 0.
      4.91333574e-01 0. -1.46306264e+00 0. -1.74643755e+00 0.
      -3.22019011e-01 0. 1.70782596e-01 0. 2.42897093e-01 0.
      1.74694926e-01 0. -2.00365126e-01 0. -1.92837536e-01 0.
      -1.90718547e-01 0. 1.96370497e-01 0. -1.48633510e-01 0.
      -1.53103024e-01 0. -3.84366809e-04 0. 2.35865235e-01 0.
      6.83942884e-02 0. 6.26834705e-02 0. -5.41231632e-01 0.
      -8.38839933e-02 0. -6.47780299e-01 0. -3.04009765e-02 0.
      -1.40551463e-01 0. -2.54955530e-01 0. 1.22563252e-02 0.
      3.92319746e-02 0. -3.18768948e-01 0. 3.07829566e-02 0.
      -1.38206676e-01 0. 6.42909259e-02 0. 1.07892334e-01 0.
      1.43035129e-01 0. 3.23405415e-02 0. 1.13480926e-01 0.
      1.41857073e-01 0. -1.27279192e-01 0. -1.47569835e-01 0.
      1.30772799e-01 0. 5.90853617e-02 0. -7.70913512e-02 0.
      -6.33096248e-02 0. 1.43285528e-01 0. -1.24610460e-03 0.
      2.25415111e-01 0. 9.45969205e-03 0. 4.77098711e-02 0.
      5.27303070e-02 0. 5.27543783e-01 0. 1.13726892e-01 0.
      4.56389368e-01 0. -3.03405941e-01 0. 4.04517800e-01 0.
      1.88623413e-01 0. -7.51893148e-02 0. 2.18364909e-01 0.
      6.85876086e-02 0. 9.97455567e-02 0. 1.53954744e-01 0.
      -4.23298441e-02 0. -6.80098981e-02 0. 2.17023134e-01 0.
      -8.29715207e-02 0. -6.70669740e-03 0. 1.48929045e-01 0.
      1.35660032e-03 0. 6.30518720e-02 0. 2.49330938e-01 0.
      2.47663006e-01 0. 1.35227099e-01 0. -9.87598598e-02 0.
      1.26972497e-01 0. -3.06828972e-02 0. -1.22126125e-01 0.
      -6.87782019e-02 0. -4.09708135e-02 0. 1.34720743e-01 0.
      8.33826512e-02 0. -9.82504860e-02 0. 2.72287011e-01 0.
      9.07684416e-02 0. 2.58624941e-01 0. -1.21284075e-01 0.
      2.82820091e-02 0. 3.24792452e-02 0. -1.79448217e-01 0.
      1.79795191e-01 0. 3.85399759e-02 0. -3.00901458e-02 0.
      1.14432067e-01 0. 1.91253796e-01 0. 2.50694394e-01 0.
      -1.41953483e-01 0. 8.00841004e-02 0. -6.39699399e-02 0.
      -2.12672036e-02 0. 6.24528565e-02 0. 1.64818630e-01 0.
      5.52502163e-02 0. 8.85067433e-02 0. 5.22276402e-01 0.
      9.65774134e-02 0. -1.19364731e-01 0. -3.64017636e-01 0.
      1.44945756e-01 0. 1.49797380e-01 0. 7.15096965e-02 0.
      -2.63578612e-02 0. 4.23347682e-01 0. 2.79969424e-01 0.
      1.38126805e-01 0. -1.21386334e-01 0. 4.68535960e-01 0.
      4.64990228e-01 0. 7.63576180e-02 0. 7.71185398e-01 0.
      2.28769511e-01 0. 1.48417771e-01 0. 5.26347719e-02 0.
      1.85352966e-01 0. 2.48670414e-01 0. -5.75368702e-02 0.
      3.91534492e-02 0. -2.27548927e-01 0. -1.46119907e-01 0.
      3.92640941e-02 0. -9.70355868e-02 0. -1.00104660e-02 0.
      8.48313272e-02 0. -1.22549325e-01 0. 8.36458355e-02 0.
      3.69221210e-01 0. 3.44091356e-01 0. 3.39763686e-02 0.
      5.54352738e-02 0. -8.60805586e-02 0. -2.97044050e-02 0.
      1.02179080e-01 0. 2.89714709e-02 0. -2.97209527e-02 0.
      9.64368209e-02 0. 1.11212365e-01 0. -6.44737706e-02 0.
      -1.02459956e-02 0. 1.51704550e-01 0. 7.72191137e-02 0.
      1.15189239e-01 0. 4.36482817e-01 0. 9.22966152e-02 0.
      -2.85895646e-01 0. -7.25522935e-02 0. -1.73673272e-01 0.
      6.78098053e-02 0. -7.54333213e-02 0. -1.17113930e-03 0.
      1.19090259e-01 0. -2.61708349e-02 0. 4.17242236e-02 0.
      -8.28289762e-02 0. 3.66622070e-03 0. -4.20735925e-02 0.
      -2.21920505e-01 0. -5.42745180e-02 0. 2.27005035e-02 0.
      1.16681539e-01 0. 1.03552110e-01 0. -1.45840198e-02 0.
      -2.11691037e-02 0. 3.97903807e-02 0. -3.47254705e-03 0.
      -1.11404862e-02 0. -6.63261339e-02 0. 1.95192754e-01 0.
      3.09333224e-02 0. -5.60450293e-02 0. -1.32597134e-01 0.
      -5.21791400e-03 0. -4.16287631e-02 0. 1.93725571e-01 0.
      3.97711515e-01 0. -2.80357659e-01 0. -2.67937295e-02 0.
      -3.79104950e-02 0. -1.51096448e-01 0. -5.03016487e-02 0.
      1.17252506e-01 0. -4.03973162e-02 0. 1.05070598e-01 0.
      5.01098633e-02 0. 9.16763470e-02 0. 5.90971559e-02 0.
      -1.77940771e-01 0. 1.61067814e-01 0. 1.58554465e-01 0.
      -9.53290798e-03 0. 1.70209885e-01 0. -9.72037762e-02 0.
      -5.99914754e-04 0. 5.29362410e-02 0. 2.04386741e-01 0.
      1.57722589e-02 0. -1.33992881e-01 0. -1.46608397e-01 0.
      -2.53140539e-01 0. 6.88683316e-02 0. -3.64191942e-02 0.
      6.33485094e-02 0. -1.34900883e-01 0. -3.92822586e-02 0.
      -6.19793544e-03 0. 6.04324639e-02 0. 1.50201872e-01 0.
      1.07757695e-01 0. 8.38778913e-02 0. 1.26971275e-01 0.
      3.02010234e-02 0. 2.56008834e-01 0. -9.58317239e-03 0.
      9.02602449e-03 0. 3.04960879e-03 0. -1.01231888e-01 0.
      -6.88073188e-02 0. -6.48067445e-02 0. -5.25252447e-02 0.
      7.79262036e-02 0. -1.29152676e-02 0. 4.37027067e-02 0.
      -5.16913831e-01 0. 6.05368853e-01 0. -2.68859100e-02 0.
      1.69245481e-01 0. -1.52951563e-02 0. -2.10910141e-01 0.
      6.07338808e-02 0. -5.93292154e-02 0. -1.85141206e-01 0.
      5.43639004e-01 0. 4.11767215e-01 0. -5.63172027e-02 0.
      5.75918332e-02 0. 3.13845634e-01 0. 2.20847338e-01 0.
      4.40263242e-01 0. -1.29206419e-01 0. 1.73280969e-01 0.
      -2.41991416e-01 0. -8.46615434e-01 0. 3.37329686e-01 0.
      -1.43224984e-01 0. -5.37685119e-02 0. -2.82334566e-01 0.
      2.50991642e-01 0. 7.17431912e-03 0. 9.95445475e-02 0.
      -2.49002352e-01 0. -6.64079785e-01 0. 2.66809762e-01 0.
      6.11556545e-02 0. 1.23734400e-01 0. 1.06476355e+00 0.
      -4.79108602e-01 0. -2.13040620e-01 0. -2.09480553e-04 0.
      -5.23888655e-02 0. 4.16833647e-02 0. -9.77676585e-02 0.
      9.44596231e-02 0. -1.33099616e-01 0. -2.33776376e-01 0.
      4.02864933e-01 0. -2.06698421e-02 0. 3.96206938e-02 0.
      2.36117870e-01 0. 1.20427489e-01 0. 2.94984072e-01 0.
      3.91739309e-01 0. -1.54423133e-01 0. 1.62163332e-01 0.
      1.12251535e-01 0. 1.87504113e-01 0. 1.90678552e-01 0.
      6.39915317e-02 0. -1.78680688e-01 0. 1.99958265e-01 0.
      -4.05641971e-03 0. -6.96756691e-02 0. 4.01272327e-02 0.
      3.91654059e-04 0. 7.06532076e-02 0. 8.05885196e-02 0.
      -7.21085146e-02 0. 4.61252332e-01 0. 4.75812614e-01 0.
      3.22705269e-01 0. 1.33432895e-01 0. 1.12423182e-01 0.
      3.15694720e-01 0. 6.95406571e-02 0. 1.01619713e-01 0.
      2.35640511e-01 0. 9.28679183e-02 0. -4.30710584e-01 0.
      1.34141400e-01 0. -2.11114585e-01 0. 3.84024344e-03 0.
      -4.16557193e-01 0. 2.72099614e-01 0. 4.30157900e-01 0.
      -3.23836029e-01 0. -1.22383557e-01 0. -3.91100556e-01 0.
      3.36936824e-02 0. -2.72551328e-02 0. 3.97510268e-02 0.
      1.31669203e-02 0. 2.89000809e-01 0. 1.28829896e-01 0.
      1.20923154e-01 0. 6.58113733e-02 0. 1.34625554e-01 0.
      3.42077278e-02 0. -1.43481329e-01 0. -2.00657267e-02 0.
      7.26885438e-01 0. -8.80127847e-02 0. -1.39228925e-01 0.
      -7.75819495e-02 0. -2.44667530e-02 0. -3.00159398e-02 0.
      -6.30243728e-03 0. -9.60854515e-02 0. 2.29143389e-02 0.
      -4.62050661e-02 0. -2.71499343e-02 0. -1.08595796e-01 0.
      -1.50984362e-01 0. 8.40856507e-02 0. -3.32239009e-02 0.
      -2.19679937e-01 0. 7.60444760e-01 0. -1.95159271e-01 0.
      -9.83783603e-02 0. -9.93628502e-02 0. 5.95060959e-02 0.
      -5.98292276e-02 0. -1.09293416e-01 0. 1.33351550e-01 0.
      1.08276337e-01 0. 1.91040382e-01 0. 1.39053330e-01 0.
      -1.20654032e-02 0. -3.06212418e-02 0. 8.55568573e-02 0.
      -1.58689663e-01 0. 1.52121773e-02 0. 1.38387218e-01 0.
      9.56960469e-02 0. 2.19054118e-01 0. 2.01599449e-01 0.
      -3.41830075e-01 0. 1.79686956e-02 0. -1.67903990e-01 0.
      9.78888869e-02 0. -1.51972502e-01 0. 8.43713433e-03 0.
      -4.98411879e-02 0. -1.35425359e-01 0. -1.20481864e-01 0.
      1.16339296e-01 0. 4.25809473e-01 0. 2.95214593e-01 0.
      3.81086558e-01 0. -6.46354437e-01 0. 5.59097886e-01 0.
      1.51425242e-01 0. 9.01384354e-01 0. 2.97311954e-02 0.
      -2.75033951e-01 0. -3.04899197e-02 0. 2.33032778e-01 0.
      1.18012480e-01 0. 4.69561405e-02 0. -1.45768091e-01 0.
      2.72954077e-01 0. 6.20016716e-02 0. -1.70160472e-01 0.
      1.03288375e-01 0. 1.03403747e+00 0. -1.01535968e-01 0.
      -6.83337450e-02 0. 1.69381931e-01 0. 5.83414175e-02 0.
      -1.45980150e-01 0. -1.52567118e-01 0. 1.08717782e-02 0.
      -2.77365565e-01 0. -1.38535038e-01 0. -4.82613221e-02 0.
      -1.85775682e-02 0. 3.52439314e-01 0. -3.65882695e-01 0.
      -2.25434020e-01 0. -3.39386672e-01 0. 1.09079409e+00 0.
      -2.65169680e-01 0. -4.84951526e-01 0. -1.04909815e-01 0.
      1.09614126e-01 0. -3.31538737e-01 0. -6.94124028e-02 0.
      -6.38791770e-02 0. -3.22097600e-01 0. -1.06983259e-01 0.
      -1.32677674e-01 0. -7.55228773e-02 0. -1.35281250e-01 0.
      -2.88344361e-03 0. -2.33210266e-01 0. -9.21324492e-02 0.
      5.46149790e-01 0. -9.53495577e-02 0. -2.90513523e-02 0.
      1.56858750e-02 0. 1.51304990e-01 0. -6.21654391e-02 0.
      3.43950614e-02 0. -4.18298729e-02 0. 4.59447466e-02 0.
      1.18180722e-01 0. -4.93752390e-01 0. 1.43943101e-01 0.
      -1.11445241e-01 0. -8.24863315e-02 0. -1.20337911e-01 0.
      -3.75561774e-01 0. 3.60369325e-01 0. -1.81501830e+00 0.
      3.62053126e-01 0. -2.66694933e-01 0. 4.10263211e-01 0.
      -3.73340398e-01 0. 1.64318785e-01 0. -3.56319219e-01 0.
      7.07390189e-01 0. -3.17470223e-01 0. 1.66652650e-01 0.
      -9.24938694e-02 0. 3.26118439e-01 0. -1.54458120e-01 0.
      -1.03512891e-01 0. -4.40541714e-01 0. 5.44806302e-01 0.
      -1.27325058e-01 0. 1.02422848e-01 0. -2.18565226e-01 0.
      3.41184169e-01 0. -2.78447002e-01 0. -1.81632135e-02 0.
      -2.95997500e-01 0. 3.96609604e-01 0. -1.09860608e-02 0.
      -7.28642344e-02 0. -1.66525647e-01 0. 4.85764332e-02 0.
      -6.31400466e-01 0. -9.53111053e-02 0. -1.46354973e+00 0.
      -2.31444165e-01 0. -1.60738897e+00 0. 1.67121902e-01 0.
      -3.59618276e-01 0. 6.00069582e-01 0. -3.62806708e-01 0.
      -2.44441424e-02 0. -2.66458690e-01 0. 5.54912210e-01 0.
      -2.32974663e-01 0. 2.12571770e-01 0. -3.97150397e-01 0.
      2.64590770e-01 0. -1.63716450e-01 0. -4.79611233e-02 0.
      -4.94443268e-01 0. 9.25377756e-02 0. -5.52302539e-01 0.
      4.18022335e-01 0. 2.20542923e-01 0. 6.58180714e-01 0.
      -3.65650505e-01 0. 2.47274071e-01 0. -3.40014666e-01 0.
      3.41034919e-01 0. 3.45217943e-01 0. 5.31693399e-01 0.
      -2.32364848e-01 0. -7.84694970e-01 0. -7.66091645e-01 0.
      -5.57964087e-01 0. -9.58253324e-01 0. -9.90572199e-02
      -3.18728626e-01 1.67499647e-01 0. -1.01727831e+00 0.
      5.50750732e-01 0. -7.29030013e-01 0. 8.02055061e-01 0.
      5.05195618e-01 0. 3.74904305e-01 0. -1.43500674e+00 0.
      4.92287278e-01 0. 9.30697843e-02 0. 2.90884346e-01 0.
      -2.09538341e-02 0. 6.74208462e-01 0. 1.28112048e-01 0.
      4.83770132e-01 0. -1.76540565e+00 0. -1.05162621e+00 0.
      -7.06139624e-01 0. 2.68088967e-01 0. -2.77405530e-01 0.
      5.95722608e-02 0. -1.80033162e-01 0. 9.20889527e-02 0.
      -3.56788069e-01 0. 1.26802191e-01 0. -1.45192072e-01 0.
      -7.81163126e-02 0. -8.83397460e-02 0. 2.26324692e-01 0.
      -2.54231602e-01 0. 3.58280659e-01 0. -1.05574238e+00 0.
      7.18830433e-03 0. -7.66635954e-01 0. 8.15754011e-02 0.
      -3.15335780e-01 0. -8.92099962e-02 0. -3.47500473e-01 0.
      1.36253148e-01 0. -3.96721303e-01 0. 6.41652942e-02 0.
      -5.71280606e-02 0. 1.68996245e-01 0. -1.46365371e-02 0.
      -7.30531476e-03 0. -5.15874326e-02 0. -1.25545606e-01 0.
      1.46466359e-01 0. -4.02140804e-02 0. -1.55443192e-01 0.
      8.55685398e-02 0. -1.56890266e-02 0. 1.60320640e-01 0.
      8.67642239e-02 0. 1.29724726e-01 0. -3.06595564e-01 0.
      3.27481568e-01 0. 5.17488681e-02 0. 2.75220387e-02 0.
      -1.69237107e-01 0. 3.09952527e-01 0. -8.57510269e-02 0.
      3.03803295e-01 0. -6.00375414e-01 0. 7.74156349e-03 0.
      3.89302343e-01 0. 1.31055832e-01 0. -6.31019622e-02 0.
      2.09620357e-01 0. 1.98792219e-01 0. -5.96393868e-02 0.
      -2.98770905e-01 0. 1.84653550e-01 0. 3.78942192e-02 0.
      -9.42942351e-02 0. -1.84435293e-01 0. 1.78010076e-01 0.
      1.76423639e-02 0. 5.07801138e-02 0. -9.38704833e-02 0.
      2.57723518e-02 0. 1.00832842e-01 0. -3.22486311e-01 0.
      -2.38111466e-01 0. 7.04978555e-02 0. -1.18276076e-02 0.
      -4.42659892e-02 0. -3.20627481e-01 0. 1.30476160e-02 0.
      -2.31014550e-01 0. 5.96860833e-02 0. -1.44854382e-01 0.
      1.45511001e-01 0. 8.29403922e-02 0. 1.21053465e-01 0.
      -3.98560554e-01 0. 1.96844310e-01 0. 3.62052292e-01 0.
      -8.12045932e-02 0. -1.50897205e-01 0. 8.15862566e-02 0.
      -9.21064764e-02 0. -1.28444638e-02 0. 1.02630481e-01 0.
      3.16836610e-02 0. 1.57506198e-01 0. -4.79546823e-02 0.
      1.47637710e-01 0. 2.58155144e-03 0. -7.61508048e-02 0.
      1.58914581e-01 0. -1.38185754e-01 0. 3.33106101e-01 0.
      1.73682630e-01 0. 2.64566913e-02 0. -8.30774531e-02 0.
      -1.25517622e-01 0. 1.44516498e-01 0. 9.77113917e-02 0.
      -2.06148601e-03 0. 6.21953122e-02 0. -1.44806867e-02 0.
      2.86854412e-02 0. -1.54901762e-04 0. 1.90064937e-01 0.
      1.61639750e-01 0. 2.82171726e-01 0. -3.24492931e-01 0.
      4.26319391e-01 0. 1.71034396e-01 0. 2.58632362e-01 0.
      1.65527865e-01 0. 3.82342577e-01 0. 6.92729428e-02 0.
      9.19561684e-02 0. -1.89122006e-01 0. -2.28001833e-01 0.
      -1.06332771e-01 0. 1.68067828e-01 0. 2.69726180e-02 0.
      1.70419782e-01 0. -1.87480301e-02 0. 1.95836604e-01 0.
      2.11923867e-01 0. 1.51821464e-01 0. 1.32967263e-01 0.
      -5.64682810e-03 0. 1.96561757e-02 0. -1.10075720e-01 0.
      -6.12362735e-02 0. -3.27485576e-02 0. -1.06056482e-01 0.
      1.09271251e-01 0. 1.43849999e-01 0. -8.23500454e-02 0.
      2.65950821e-02 0. 8.32699463e-02 0. 2.49288082e-01 0.
      1.15289792e-01 0. 2.92416871e-01 0. 2.94824988e-01 0.
      1.10757098e-01 0. 8.76607150e-02 0. 4.25432138e-02 0.
      1.57701135e-01 0. 3.30424085e-02 0. 6.35990547e-03 0.
      -1.53541341e-01 0. -1.73636332e-01 0. -1.01326853e-02 0.
      1.48599908e-01 0. -1.14815876e-01 0. -2.80486494e-02 0.
      -8.53768960e-02 0. -2.85022217e-03 0. -9.23888832e-02 0.
      1.55330256e-01 0. 1.34818144e-02 0. -3.71737778e-02 0.
      -2.54758410e-02 0. 1.31697223e-01 0. 1.14117689e-01 0.
      -9.01503786e-02 0. -2.33031288e-01 0. 5.98599054e-02 0.
      7.88197219e-02 0. 1.01581730e-01 0. 1.39443390e-02 0.
      -1.38796754e-02 0. -1.17352761e-01 0. 1.27053440e-01 0.
      -2.02850938e-01 0. 9.08341467e-01 0. 5.43841124e-01 0.
      1.88162271e-02 0. 3.18349659e-01 0. -1.01782992e-01 0.
      8.21101107e-03 0. 7.46204099e-03 0. 7.96113536e-02 0.
      2.99639016e-01 0. 1.24974348e-01 0. 6.48820922e-02 0.
      -2.48733182e-02 0. -1.94987375e-02 0. 1.32773831e-01 0.
      4.84317802e-02 0. 2.41561890e-01 0. 1.80976242e-01 0.
      6.44770339e-02 0. -1.65689383e-02 0. 6.11226782e-02 0.
      -2.10620567e-01 0. -6.01000972e-02 0. 6.47119731e-02 0.
      2.15040334e-02 0. 1.14860661e-01 0. 6.09665038e-03 0.
      -1.51161745e-01 0. 1.05640821e-01 0. -5.92431724e-02 0.
      5.91915771e-02 0. -1.37952685e-01 0. 3.03207248e-01 0.
      2.90037632e-01 0. 2.78535187e-01 0. 6.58404902e-02 0.
      2.66772598e-01 0. 1.17417350e-01 0. 7.98592567e-02 0.
      2.74123102e-01 0. -9.11190659e-02 0. -2.38018800e-02 0.
      -9.82257202e-02 0. 8.88217166e-02 0. -3.49311471e-01 0.
      -6.99177980e-02 0. -2.01317891e-02 0. 2.23067865e-01 0.
      -2.82761782e-01 0. 2.25246072e-01 0. 4.05137479e-01 0.
      -7.12647513e-02 0. 1.71315268e-01 0. 1.80496514e-01 0.
      9.75589603e-02 0. 1.01100206e-01 0. -4.45303649e-01 0.
      2.19940513e-01 0. 7.05834711e-03 0. -6.85602799e-03 0.
      -1.26430750e-01 0. 2.72593290e-01 0. -2.85349786e-01 0.
      -4.57627065e-02 0. -9.94969845e-01 0. -4.26901817e-01 0.
      -5.85410953e-01 0. 5.22622883e-01 0. 2.60530889e-01 0.
      6.88327849e-02 0. -1.21085547e-01 0. -1.54133499e-01 0.
      3.22444558e-01 0. -6.22906350e-02 0. -1.07890017e-01 0.
      1.04052514e-01 0. -1.14416458e-01 0. 4.82792147e-02 0.
      1.38148636e-01 0. 3.15960735e-01 0. 1.16242468e+00 0.
      -2.92758524e-01 0. -1.00979790e-01 0. -6.38459390e-03 0.
      -7.60811791e-02 0. -8.68045837e-02 0. 1.40532210e-01 0.
      -1.07571343e-02 0. -1.11861624e-01 0. -2.48813659e-01 0.
      5.01524359e-02 0. 8.36899132e-02 0. -2.11922415e-02 0.
      -1.87622219e-01 0. 1.92492917e-01 0. 3.04680973e-01 0.
      8.62994790e-01 0. 1.48484737e-01 0. -3.97317261e-02 0.
      6.31009638e-02 0. -3.20744999e-02 0. -2.42983401e-02 0.
      -1.96303472e-01 0. -1.97110087e-01 0. 3.55180770e-01 0.
      1.43638805e-01 0. -2.74520397e-01 0. 2.56034881e-02 0.
      -5.39407060e-02 0. -4.45138216e-02 0. 3.30276005e-02 0.
      2.63741612e-02 0. 4.40556318e-01 0. -2.95672864e-01 0.
      2.68918991e-01 0. 1.85416058e-01 0. 2.11504802e-01 0.
      4.07204255e-02 0. 4.40988764e-02 0. -5.32970019e-02 0.
      1.41156763e-01 0. 4.47387956e-02 0. -8.40826258e-02 0.
      -4.53158282e-02 0. 2.20313445e-01 0. 7.65868649e-02 0.
      2.06128269e-01 0. 5.48526049e-01 0. 1.05584025e+00 0.
      4.98971939e-01 0. -3.94735299e-02 0. 3.58317375e-01 0.
      2.77081221e-01 0. 2.26855353e-01 0. -1.71561971e-01 0.
      4.26896699e-02 0. -3.98157500e-02 0. -6.99551553e-02 0.
      1.42406911e-01 0. 7.53022358e-02 0. 1.89673901e-01 0.
      3.96321528e-03 0. 1.28135920e-01 0. 1.68036260e-02 0.
      1.96038648e-01 0. -7.74359927e-02 0. -6.14643991e-02 0.
      9.96513292e-02 0. 1.30456820e-01 0. 7.40300864e-02 0.
      -9.88666713e-02 0. -2.84821451e-01 0. 8.37247223e-02 0.
      -1.52686864e-01 0. 9.41337496e-02 0. -1.94623582e-02 0.
      -9.70290601e-02 0. -7.70580322e-02 0. -1.22826740e-01 0.
      -1.91123307e-01 0. 3.48111391e-01 0. 2.74513125e-01 0.
      5.95822930e-01 0. 1.03692897e-01 0. -2.42556222e-02 0.
      6.71210140e-02 0. -7.88365304e-02 0. -1.76157817e-01 0.
      -2.08590224e-01 0. -1.46998867e-01 0. -1.98136941e-01 0.
      -1.55229405e-01 0. -1.97331518e-01 0. 1.01574391e-01 0.
      1.12998560e-01 0. -1.42625988e-01 0. -1.90171808e-01 0.
      4.73289676e-02 0. 9.06202942e-02 0. 1.36894081e-02 0.
      -9.09147859e-02 0. -1.92336142e-02 0. -1.03018820e-01 0.
      -1.49050385e-01 0. -1.81505859e-01 0. 3.66234034e-02 0.
      -9.67505649e-02 0. 2.02349544e-01 0. 2.41320521e-01 0.
      6.47638589e-02 0. 5.15886962e-01 0. 3.16010237e-01 0.
      5.23058355e-01 0. -1.83361876e+00 0. -3.40492189e-01 0.
      3.99506271e-01 0. 5.20562530e-01 0. -5.19760609e-01 0.
      3.81087452e-01 0. -1.00787051e-01 0. 4.17476207e-01 0.
      -2.76165307e-01 0. -2.22662210e-01 0. -1.23445369e-01 0.
      1.60374269e-01 0. -2.07746878e-01 0. -2.04901353e-01 0.
      -9.83460397e-02 0. 2.15701610e-02 0. -2.59086132e-01 0.
      -3.01293544e-02 0. -1.62665725e-01 0. 2.41924569e-01 0.
      1.04733206e-01 0. -1.50245667e-01 0. -1.40717506e-01 0.
      4.27096218e-01 0. -1.80984601e-01 0. 2.30874956e-01 0.
      -1.06500447e-01 0. 1.81156516e-01 0. -3.95671368e-01 0.
      1.06388770e-01 0. 6.07747249e-02 0. 5.88692665e-01 0.
      -5.65362394e-01 0. -2.18376681e-01 0. 1.87222869e-03 0.
      4.88646895e-01 0. 3.00952699e-02 0. 2.50600100e-01 0.
      -1.20371148e-01 0. 3.68279845e-01 0. -4.91398573e-02 0.
      -8.15674365e-02 0. 1.29092231e-01 0. 1.65148988e-01 0.
      -6.50896579e-02 0. -1.30792558e-01 0. -8.24934915e-02 0.
      3.85486275e-01 0. -1.83631435e-01 0. 1.86886057e-01 0.
      -1.34277776e-01 0. 2.26769447e-01 0. -1.33463621e-01 0.
      -8.83335993e-02 0. -1.86279431e-01 0. -1.41926035e-01 0.
      -2.58401632e-01 0. 2.98919648e-01 0. 1.41798452e-01 0.
      3.61212164e-01 0. -2.43203983e-01 0. 4.59032476e-01 0.
      -3.17984909e-01 0. 3.94020319e-01 0. -2.24675417e+00 0.
      8.81759048e-01 0. -1.07575484e-01 0. 1.22168767e+00 0.
      -2.23671973e-01 0. 2.41608303e-02 0. 2.16622669e-02 0.
      2.30741873e-01 0. -3.69782507e-01 0. -1.83591649e-01 0.
      -1.73694342e-01 0. 5.22504807e-01 0. -2.33749092e-01 0.
      5.22707924e-02 0. -2.18778208e-01 0. 3.40674788e-01 0.
      -5.97579896e-01 0. -1.89193130e-01 0. -1.87827647e-01 0.
      4.41205591e-01 0. -2.68290609e-01 0. -9.05179903e-02 0.
      -1.86352059e-01 0. 2.97836345e-02 0. -1.83018237e-01 0.
      -1.45105615e-01 0. -6.52773902e-02 0. 9.83574092e-02 0.
      -4.51991975e-01 0. 1.70495108e-01 0. -8.83441865e-01 0.
      6.03457749e-01 0. -2.38233852e+00 0. -1.06203310e-01 0.
      -2.02867702e-01 0. 5.50420880e-01 0. -4.90804791e-01 0.
      1.56332046e-01 0. -2.66479969e-01 0. 9.66889620e-01 0.
      -5.27890682e-01 0. -4.35775518e-02 0. -3.30209583e-01 0.
      -2.96164513e-01 0. -2.77306557e-01 0. 2.12561086e-01 0.
      -5.28325379e-01 0. 2.73021072e-01 0. -7.17896402e-01 0.
      4.18542296e-01 0. -1.45305932e-01 0. 6.43583655e-01 0.
      -1.35027003e-02 0. 7.45374337e-02 0. -4.60784733e-01 0.
      2.68807024e-01 0. -5.62094510e-01 0. 3.94024134e-01 0.
      1.36618197e-01 0. 1.09342384e+00 0. -2.42804244e-01 0.
      3.34360868e-01 0. -1.22672772e+00 0. -3.37731212e-01
      2.53957063e-01 -1.41264170e-01 0. -3.61224979e-01 0.
      -2.37637907e-01 0. 4.68249887e-01 0. 9.60154235e-02 0.
      -1.79587416e-02 0. 1.87233150e-01 0. -6.15567505e-01 0.
      -2.63678953e-02 0. 8.84620994e-02 0. 1.25877028e-02 0.
      9.97008011e-02 0. 2.41508707e-01 0. -2.52268434e-01 0.
      -1.50882542e-01 0. -1.37636936e+00 0. -1.64783776e+00 0.
      -1.80466741e-01 0. 9.74873826e-02 0. 1.36869088e-01 0.
      -1.06317692e-01 0. -1.01461634e-01 0. -3.66745830e-01 0.
      -3.45756173e-01 0. 6.28032610e-02 0. -5.97017966e-02 0.
      -2.18585342e-01 0. -1.34799615e-01 0. 2.57097930e-01 0.
      5.90963662e-02 0. 1.30227223e-01 0. -2.95827299e-01 0.
      3.56596947e-01 0. -5.05696595e-01 0. 7.28041306e-02 0.
      -9.49538648e-02 0. 5.92863597e-02 0. 1.16137370e-01 0.
      4.75720270e-03 0. -1.52848735e-01 0. -1.02663860e-01 0.
      -3.74694392e-02 0. 5.60904201e-03 0. 1.63244113e-01 0.
      -6.34314343e-02 0. 2.95114189e-01 0. -2.76580993e-02 0.
      9.87018808e-04 0. -1.39565855e-01 0. -2.91879952e-01 0.
      -6.62066450e-04 0. 5.89606650e-02 0. -1.80990830e-01 0.
      -4.14189622e-02 0. 2.28403077e-01 0. 7.15398863e-02 0.
      1.86148390e-01 0. 1.21391125e-01 0. 4.77827974e-02 0.
      1.88848779e-01 0. 5.05466640e-01 0. 8.48489329e-02 0.
      5.34522951e-01 0. 4.44891453e-01 0. -3.53025734e-01 0.
      -1.32150710e-01 0. -2.50168443e-01 0. 1.67856529e-01 0.
      -1.93522409e-01 0. 1.72570586e-01 0. 9.22788959e-03 0.
      -5.94726950e-02 0. -1.18950091e-01 0. -2.19297722e-01 0.
      -5.64807244e-02 0. 1.57509986e-02 0. -1.30969062e-01 0.
      3.25121135e-02 0. -2.20248491e-01 0. 1.87762484e-01 0.
      4.59530279e-02 0. -2.70781629e-02 0. -9.87042636e-02 0.
      7.90654644e-02 0. -4.74201664e-02 0. -1.86444279e-02 0.
      5.27115092e-02 0. 1.79297496e-02 0. 4.51448467e-03 0.
      -1.42706692e-01 0. -6.86932802e-02 0. 2.11059004e-01 0.
      4.49559912e-02 0. 5.65420426e-02 0. -2.56304026e-01 0.
      -4.20854762e-02 0. 5.80061853e-01 0. -8.81460309e-02 0.
      1.40056670e-01 0. 7.30637684e-02 0. -1.29977852e-01 0.
      2.09532194e-02 0. 1.55260727e-01 0. 2.68318117e-01 0.
      -1.46032095e-01 0. 7.99883809e-03 0. -8.61506051e-05 0.
      -6.03939556e-02 0. -8.17115232e-02 0. 5.84934093e-02 0.
      -3.90616469e-02 0. 2.74620444e-01 0. 5.94513081e-02 0.
      1.16654664e-01 0. -2.45302450e-02 0. -3.59988868e-01 0.
      -5.96324094e-02 0. -6.95485473e-02 0. 2.59447277e-01 0.
      -4.59903888e-02 0. 1.62558988e-01 0. 2.47624815e-01 0.
      -3.39371227e-02 0. -6.87441006e-02 0. 5.36945105e-01 0.
      5.81610680e-01 0. 1.71318114e-01 0. 2.35082239e-01 0.
      2.98377663e-01 0. 1.02998607e-01 0. -9.51281339e-02 0.
      -3.62433821e-01 0. -3.33502412e-01 0. -1.26206979e-01 0.
      6.24657981e-02 0. -2.83217818e-01 0. -5.11785457e-03 0.
      -9.38114747e-02 0. -9.03745834e-03 0. 3.14380042e-02 0.
      -8.93147364e-02 0. 7.45963752e-02 0. 1.32950932e-01 0.
      1.90893456e-01 0. 2.89545029e-01 0. 1.87287107e-01 0.
      4.17411607e-03 0. -1.52992047e-02 0. 1.00486903e-02 0.
      -2.39078188e-04 0. 6.98572323e-02 0. 9.99253243e-02 0.
      1.66842759e-01 0. 1.72212288e-01 0. 7.40830004e-02 0.
      -7.66703188e-02 0. -7.26190535e-03 0. 7.04227462e-02 0.
      1.50709495e-01 0. 3.27494949e-01 0. 3.80311199e-02 0.
      -1.06206900e-02 0. -1.15506113e-01 0. 9.15872981e-04 0.
      2.77341194e-02 0. 7.49697387e-02 0. -8.08546096e-02 0.
      -1.83030916e-03 0. -2.37909257e-01 0. -5.34559302e-02 0.
      -4.96362038e-02 0. -1.94474421e-02 0. -8.29387456e-02 0.
      -8.71013999e-02 0. -8.28740746e-02 0. -1.78636000e-01 0.
      3.72266173e-02 0. -8.42263550e-02 0. -9.99795943e-02 0.
      -3.58187743e-02 0. -1.06279716e-01 0. -3.34748290e-02 0.
      3.47213745e-02 0. -4.69137840e-02 0. -8.54881108e-02 0.
      1.04419317e-03 0. 1.00544922e-01 0. -1.78044401e-02 0.
      8.49872530e-02 0. -1.65569544e-01 0. 2.43366882e-02 0.
      -1.76592976e-01 0. -6.63952172e-01 0. -3.22391205e-02 0.
      2.14395881e-01 0. 1.52553678e-01 0. -4.43831505e-03 0.
      2.08363563e-01 0. -4.51277196e-02 0. -1.22718833e-01 0.
      -1.18782371e-01 0. -2.97193951e-03 0. 3.36561240e-02 0.
      1.99105497e-02 0. 7.46936873e-02 0. -6.99085789e-03 0.
      -6.63423818e-03 0. 1.21582961e-02 0. -1.57432050e-01 0.
      -1.40694216e-01 0. -3.41083631e-02 0. -2.05676258e-02 0.
      -6.90868348e-02 0. -1.90293908e-01 0. -4.04489785e-02 0.
      -1.92873552e-01 0. 7.38187581e-02 0. -2.83358190e-02 0.
      -3.47249396e-02 0. 2.22175308e-02 0. -4.45275120e-02 0.
      -6.21587224e-03 0. 1.92729220e-01 0. 1.99707821e-01 0.
      3.32931638e-01 0. 1.19199231e-01 0. 8.35400522e-02 0.
      -3.01084537e-02 0. 7.30181560e-02 0. -5.23806922e-03 0.
      -1.49497032e-01 0. -8.28143582e-02 0. -9.70281437e-02 0.
      7.14322776e-02 0. -9.86906439e-02 0. -3.26122761e-01 0.
      5.65084033e-02 0. -1.24475835e-02 0. -1.50656521e-01 0.
      -4.96990830e-01 0. 5.38413048e-01 0. 1.85246512e-01 0.
      3.36194150e-02 0. 1.44733042e-01 0. -9.91140082e-02 0.
      1.80744100e-02 0. 7.57828504e-02 0. -5.97177148e-01 0.
      3.67460787e-01 0. 1.72696099e-01 0. 3.42307426e-02 0.
      -6.38800114e-02 0. 3.72615121e-02 0. 3.68526965e-01 0.
      2.63799459e-01 0. -3.05302233e-01 0. 4.21241015e-01 0.
      4.63801980e-01 0. -6.89283907e-01 0. 2.83929855e-01 0.
      7.82659575e-02 0. 1.63795054e-01 0. 2.30578542e-01 0.
      -2.59076864e-01 0. -3.36611062e-01 0. 3.39132071e-01 0.
      -3.47427838e-03 0. -8.27712789e-02 0. -6.57658651e-02 0.
      2.14198112e-01 0. 5.63164148e-03 0. 2.29885221e-01 0.
      -2.86092609e-01 0. 4.81332354e-02 0. 3.88857462e-02 0.
      7.87713453e-02 0. 2.06550792e-01 0. -2.53123075e-01 0.
      6.26184642e-02 0. 1.32631034e-01 0. -8.59325007e-02 0.
      2.68023878e-01 0. -1.08809024e-01 0. 1.92117631e-01 0.
      1.02885596e-01 0. 1.97229788e-01 0. 7.75060430e-02 0.
      8.92991841e-01 0. -4.77270424e-01 0. 1.66067883e-01 0.
      -1.54991150e-02 0. -3.84913608e-02 0. 1.83020681e-01 0.
      -1.01138994e-01 0. -7.49380141e-02 0. 2.95242339e-01 0.
      -1.91135138e-01 0. -3.93986553e-02 0. -2.19695717e-02 0.
      -1.18480828e-02 0. 3.50788725e-03 0. -3.25204097e-02 0.
      2.22339168e-01 0. 2.17614621e-01 0. 1.59213021e-02 0.
      1.62895784e-01 0. 1.58048376e-01 0. 5.94703816e-02 0.
      4.52094413e-02 0. -2.09299158e-02 0. 1.79841563e-01 0.
      3.27118263e-02 0. 1.29698729e-02 0. -3.48878741e-01 0.
      -1.87220156e-01 0. 9.30441841e-02 0. -3.60469371e-02 0.
      -2.75513947e-01 0. 3.02896321e-01 0. 4.28394496e-01 0.
      -2.78521448e-01 0. -3.28078750e-03 0. -7.61539415e-02 0.
      -6.18781941e-03 0. -1.34152651e-01 0. -1.14256561e-01 0.
      -1.00783437e-01 0. 1.88574299e-01 0. 2.03857765e-01 0.
      4.56533507e-02 0. -1.20601833e-01 0. 1.30477086e-01 0.
      3.02390724e-01 0. 8.90337210e-03 0. 1.25180110e-01 0.
      3.20937663e-01 0. 1.44996360e-01 0. -1.42237470e-02 0.
      -1.05146796e-01 0. -2.54036095e-02 0. -1.68422908e-01 0.
      -6.21337518e-02 0. 9.24503803e-02 0. 2.56602079e-01 0.
      -1.94056928e-02 0. 7.47792050e-02 0. -1.27677411e-01 0.
      -1.03774279e-01 0. 1.96724772e-01 0. -5.14621362e-02 0.
      -7.33948201e-02 0. 7.39708543e-01 0. -4.75883693e-01 0.
      9.43372846e-02 0. 7.00368062e-02 0. 2.08987594e-01 0.
      -1.02784641e-01 0. -5.83213530e-02 0. 1.11960350e-02 0.
      -7.93005992e-03 0. 1.62365913e-01 0. 1.16742373e-01 0.
      -2.76906155e-02 0. -2.32757464e-01 0. -9.27594528e-02 0.
      -1.19618408e-01 0. -1.75366793e-02 0. 1.28697798e-01 0.
      6.94623142e-02 0. 1.33625448e-01 0. 5.55420369e-02 0.
      -1.52299374e-01 0. 2.32019965e-02 0. 1.98756922e-02 0.
      7.19971061e-02 0. 2.01567784e-01 0. -2.01826766e-01 0.
      -1.61703184e-01 0. -9.89598110e-02 0. 8.02382305e-02 0.
      2.36174911e-01 0. -4.12777215e-02 0. 6.25286624e-02 0.
      5.09887993e-01 0. 2.30813459e-01 0. 4.47945833e-01 0.
      -9.07975882e-02 0. 7.74214685e-01 0. -2.26505116e-01 0.
      -2.21832976e-01 0. 1.97163299e-02 0. 4.03321773e-01 0.
      -8.73344094e-02 0. 1.12455953e-02 0. -5.38472272e-02 0.
      9.00794342e-02 0. 3.68902683e-02 0. -4.21075337e-03 0.
      -3.58900279e-02 0. 3.88799399e-01 0. -5.50672151e-02 0.
      -9.89716649e-02 0. 7.93946534e-02 0. 4.03248847e-01 0.
      -9.31542665e-02 0. -5.23092523e-02 0. 4.13938239e-02 0.
      3.50184113e-01 0. -5.82177825e-02 0. 2.13407129e-01 0.
      -3.84446569e-02 0. 2.88359135e-01 0. -3.25486839e-01 0.
      -1.66611001e-01 0. -4.26434278e-01 0. 6.36238933e-01 0.
      -2.88831830e-01 0. 1.66215807e-01 0. 8.69400352e-02 0.
      2.65937150e-01 0. -3.17426443e-01 0. -6.96710199e-02 0.
      3.28030512e-02 0. 2.33656511e-01 0. -2.52794921e-01 0.
      -1.42220967e-02 0. -1.30851716e-01 0. -3.81360412e-01 0.
      8.97440091e-02 0. -2.65023261e-01 0. -1.32340565e-01 0.
      5.14334857e-01 0. 1.91097125e-01 0. 5.53718172e-02 0.
      -1.21037088e-01 0. 4.23612833e-01 0. -1.48457348e-01 0.
      -1.00879908e-01 0. 2.41181161e-02 0. -2.29367703e-01 0.
      8.62873439e-03 0. -4.15312350e-01 0. -2.09385037e-01 0.
      -3.78773063e-01 0. -2.46068954e-01 0. -1.05241828e-01 0.
      -1.36344120e-01 0. 4.32074010e-01 0. -8.73385489e-01 0.
      1.78293228e-01 0. -4.87791032e-01 0. 8.72332454e-01 0.
      -3.21393430e-01 0. -2.56006360e-01 0. -4.28714731e-04 0.
      1.49994805e-01 0. 1.31409287e-01 0. -3.84793617e-02 0.
      -2.26008922e-01 0. 3.30434710e-01 0. 5.50750867e-02 0.
      8.00248086e-02 0. -3.21744412e-01 0. 1.13216721e-01 0.
      -2.36294091e-01 0. -2.43157800e-03 0. -2.51797646e-01 0.
      3.77025694e-01 0. -2.15746686e-01 0. 1.10910602e-01 0.
      -1.25614956e-01 0. 2.70269275e-01 0. -1.35496184e-01 0.
      2.31435448e-01 0. -1.36495098e-01 0. 7.39758238e-02 0.
      -5.16447127e-01 0. -2.60858089e-01 0. -1.13535619e+00 0.
      -3.43783647e-01 0. -1.44077420e+00 0. 3.89913857e-01 0.
      1.30064517e-01 0. 6.07337177e-01 0. -1.08694963e-01 0.
      2.16307901e-02 0. -1.26761973e-01 0. 4.55447406e-01 0.
      -3.04887116e-01 0. 2.41432890e-01 0. -1.49833113e-01 0.
      1.34002373e-01 0. -1.17521528e-02 0. -2.95410794e-03 0.
      -2.96533018e-01 0. 4.82726932e-01 0. 3.38498086e-01 0.
      9.37103510e-01 0. 3.69169086e-01 0. 5.79178214e-01 0.
      -5.99796548e-02 0. 2.79728413e-01 0. -3.94159406e-01 0.
      4.07501608e-01 0. 3.89355212e-01 0. 3.19166005e-01 0.
      -2.46581540e-01 0. 2.41604686e-01 0. -2.08761215e-01 0.
      -6.17516220e-01 0. -3.53871822e-01 0. -4.35547493e-02
      -4.40155059e-01 4.90805179e-01 0. -3.50576252e-01 0.
      2.74766535e-01 0. -1.05285156e+00 0. 7.07306564e-01 0.
      4.45024639e-01 0. 5.13173521e-01 0. -8.95998538e-01 0.
      -1.19843997e-01 0. 1.36064902e-01 0. 1.71437860e-01 0.
      -3.85753959e-02 0. 3.07471994e-02 0. 1.76979110e-01 0.
      4.46525276e-01 0. -9.77434456e-01 0. -5.15913516e-02 0.
      -2.28682667e-01 0. 1.85278922e-01 0. -1.69491589e-01 0.
      -3.77774030e-01 0. -1.14123270e-01 0. 5.83840422e-02 0.
      -2.53185064e-01 0. 2.71464288e-01 0. -3.03969920e-01 0.
      -1.95506305e-01 0. 2.54938155e-01 0. 1.92889795e-01 0.
      1.54580772e-01 0. -9.18181799e-03 0. -3.87673050e-01 0.
      2.12250024e-01 0. -4.44431335e-01 0. 9.33716912e-03 0.
      -1.84102982e-01 0. -4.14732322e-02 0. 4.03195806e-02 0.
      1.23217227e-02 0. -2.89546341e-01 0. -4.24275070e-01 0.
      -2.28292316e-01 0. -1.86751917e-01 0. -4.01174985e-02 0.
      -1.42609894e-01 0. -2.14273766e-01 0. -6.49985000e-02 0.
      -2.50382155e-01 0. -1.00992605e-01 0. 1.04151279e-01 0.
      8.04021582e-02 0. 3.09021156e-02 0. 2.05829591e-01 0.
      -2.50245124e-01 0. -4.24861759e-02 0. -5.03781796e-01 0.
      1.62722245e-01 0. 1.56555429e-01 0. -1.34764090e-02 0.
      -2.01139510e-01 0. 2.16270879e-01 0. 3.05844750e-02 0.
      3.16905528e-01 0. -2.76489139e-01 0. 2.83988744e-01 0.
      2.18597919e-01 0. 9.75533053e-02 0. -1.29537687e-01 0.
      -6.16961457e-02 0. 2.45859385e-01 0. -2.75807530e-02 0.
      -4.15128946e-01 0. -3.23613554e-01 0. -1.38025666e-02 0.
      -2.18976542e-01 0. -1.07333520e-02 0. 6.16425201e-02 0.
      5.57956174e-02 0. -2.01497212e-01 0. 1.63553958e-03 0.
      2.34079827e-02 0. 2.54372001e-01 0. -6.23348309e-03 0.
      -1.34890348e-01 0. 8.47286582e-02 0. -7.37038702e-02 0.
      -2.89510898e-02 0. -4.30262655e-01 0. -9.51978862e-02 0.
      -5.31901941e-02 0. -2.40519624e-02 0. -3.01779602e-02 0.
      1.12773851e-01 0. 3.86483297e-02 0. 3.99205163e-02 0.
      3.65571342e-02 0. 3.85461867e-01 0. 7.09541291e-02 0.
      1.20057620e-01 0. 9.89494547e-02 0. -1.78551570e-01 0.
      1.92121975e-02 0. -2.69357301e-02 0. -5.63506708e-02 0.
      -6.95602372e-02 0. 7.12864920e-02 0. -4.56806421e-02 0.
      2.07058713e-02 0. 1.52892964e-02 0. -1.31094873e-01 0.
      9.82944891e-02 0. -1.26616314e-01 0. 8.60391706e-02 0.
      1.19177833e-01 0. 1.17814638e-01 0. 2.48850837e-01 0.
      9.43928584e-02 0. 1.30802505e-02 0. 6.42353147e-02 0.
      6.37871176e-02 0. -1.98613927e-02 0. 1.72719330e-01 0.
      -9.19405594e-02 0. 3.00314948e-02 0. 1.56977654e-01 0.
      -9.97682735e-02 0. 3.31810534e-01 0. 2.87433825e-02 0.
      6.26301110e-01 0. 7.33774364e-01 0. 9.43488535e-03 0.
      3.24137658e-01 0. 1.53809860e-01 0. -1.89839661e-01 0.
      -7.79607669e-02 0. 1.53011577e-02 0. -4.49522734e-02 0.
      -5.86295053e-02 0. 9.34072137e-02 0. 1.22627411e-02 0.
      -1.21002533e-01 0. -7.82584175e-02 0. 5.43799698e-02 0.
      1.48833588e-01 0. -1.63290501e-02 0. -1.34410113e-01 0.
      4.16379347e-02 0. 1.50162235e-01 0. -2.38579810e-01 0.
      1.97046533e-01 0. -4.88542989e-02 0. -1.82514340e-02 0.
      9.53586474e-02 0. -9.53775644e-02 0. -1.23474032e-01 0.
      -1.88362867e-01 0. 2.05504987e-02 0. 4.81669791e-03 0.
      -4.02851328e-02 0. 2.45327711e-01 0. 2.26011947e-01 0.
      -2.07937099e-02 0. 1.66204646e-01 0. -9.92050543e-02 0.
      -5.12898713e-02 0. -2.21643113e-02 0. -2.42789779e-02 0.
      -2.07634047e-01 0. -6.58146515e-02 0. -1.04809165e-01 0.
      7.38985017e-02 0. -2.68821895e-01 0. -6.61289841e-02 0.
      -1.72882780e-01 0. 9.74249318e-02 0. -1.27847448e-01 0.
      3.14124413e-02 0. -6.34533167e-02 0. -3.82297523e-02 0.
      -2.56350841e-02 0. -4.46768105e-02 0. 5.26505597e-02 0.
      -1.89028427e-01 0. -2.46160533e-02 0. -3.93709689e-02 0.
      -1.28714263e-01 0. 2.66223922e-02 0. -8.09681565e-02 0.
      -1.83483392e-01 0. -9.41346437e-02 0. 1.52462646e-01 0.
      -4.57293354e-03 0. 7.45340765e-01 0. 1.06656082e-01 0.
      1.81615427e-01 0. -9.60871205e-03 0. 2.98764016e-02 0.
      1.42122120e-01 0. -5.68854846e-02 0. 3.37923616e-01 0.
      2.53253788e-01 0. -6.95765298e-03 0. -1.21604942e-01 0.
      2.45963763e-02 0. 7.24451989e-02 0. -7.46697336e-02 0.
      8.41613263e-02 0. 8.49613771e-02 0. 1.32034734e-01 0.
      -7.47540146e-02 0. -1.48059251e-02 0. 3.12719122e-02 0.
      -5.80226779e-02 0. 1.08731817e-02 0. -5.98337036e-03 0.
      -1.63370669e-01 0. -7.77851567e-02 0. 4.62777279e-02 0.
      -4.86332104e-02 0. -1.09269835e-01 0. 2.75144856e-02 0.
      -9.99441519e-02 0. -2.06929967e-01 0. 1.98063552e-01 0.
      3.03335965e-01 0. 1.32413104e-01 0. -3.74543406e-02 0.
      1.30387217e-01 0. 1.47289768e-01 0. 4.07761075e-02 0.
      1.03187844e-01 0. -2.51162469e-01 0. -2.51703095e-02 0.
      1.07507445e-01 0. -4.57381122e-02 0. -2.39670828e-01 0.
      7.60220108e-04 0. -1.93470474e-02 0. 9.59233344e-02 0.
      -5.91059566e-01 0. 2.44456828e-01 0. 2.99092770e-01 0.
      2.63710003e-02 0. 6.44573495e-02 0. 1.04549326e-01 0.
      -1.67398721e-01 0. 7.21790344e-02 0. -3.36385727e-01 0.
      1.40608713e-01 0. 1.62801981e-01 0. 9.53852460e-02 0.
      -3.25453371e-01 0. 2.21310005e-01 0. 1.21285170e-01 0.
      9.56354067e-02 0. -8.13912392e-01 0. -1.56332061e-01 0.
      -5.86646616e-01 0. 5.98701239e-01 0. 4.84764308e-01 0.
      -1.32661551e-01 0. 4.61190581e-01 0. 5.75430915e-02 0.
      1.92123681e-01 0. 1.42673478e-02 0. -8.64339471e-02 0.
      -1.02171727e-01 0. 6.93779811e-02 0. -1.44962296e-01 0.
      8.67279619e-03 0. 2.59508938e-01 0. 3.61407101e-01 0.
      7.50324130e-02 0. 1.71614513e-01 0. -1.54923394e-01 0.
      6.52518123e-03 0. 8.30095112e-02 0. -1.30822053e-02 0.
      -1.38537124e-01 0. 1.09800361e-01 0. -4.38554548e-02 0.
      4.33905646e-02 0. -1.66408986e-01 0. -1.14218339e-01 0.
      9.72438380e-02 0. 9.97760370e-02 0. 1.71881933e-02 0.
      8.54910374e-01 0. 1.09244741e-01 0. -8.26180875e-02 0.
      2.18896404e-01 0. 3.72160897e-02 0. -1.77406102e-01 0.
      -2.73136109e-01 0. -1.23738661e-01 0. 4.41513091e-01 0.
      4.94420156e-03 0. -1.34018004e-01 0. -4.35302034e-02 0.
      -7.86974356e-02 0. -3.05233281e-02 0. 4.97594997e-02 0.
      -2.68365920e-01 0. 3.46459478e-01 0. -1.53431833e-01 0.
      3.62618387e-01 0. 2.23646104e-01 0. 3.61656606e-01 0.
      4.09494936e-02 0. 8.03282931e-02 0. 2.76614409e-02 0.
      1.02698117e-01 0. 5.39378710e-02 0. 2.96053320e-01 0.
      9.38544869e-02 0. 4.20662314e-01 0. 1.12208642e-01 0.
      3.69501531e-01 0. 3.10304999e-01 0. 5.07263243e-01 0.
      1.48712873e-01 0. 6.98749572e-02 0. -2.08667922e-03 0.
      6.20793944e-05 0. -3.49940583e-02 0. 6.60711825e-02 0.
      -9.93009098e-03 0. 5.71380891e-02 0. 4.47470210e-02 0.
      5.47928410e-03 0. 1.38546396e-02 0. 2.24191651e-01 0.
      7.44531006e-02 0. 1.42211437e-01 0. 4.59123440e-02 0.
      5.36632955e-01 0. -1.19720455e-02 0. 3.44295651e-02 0.
      4.10025008e-03 0. 3.20087783e-02 0. -4.77143228e-02 0.
      -4.09049243e-02 0. -2.00413674e-01 0. 5.10828979e-02 0.
      -1.61240652e-01 0. -7.50500262e-02 0. 2.84840297e-02 0.
      -2.46594136e-04 0. -1.16705962e-01 0. -1.34891853e-01 0.
      -1.73064813e-01 0. -3.00926100e-02 0. 3.25052083e-01 0.
      2.93784767e-01 0. 8.48400220e-02 0. 9.79829431e-02 0.
      -1.71565697e-01 0. -6.46769926e-02 0. -2.36708801e-02 0.
      -5.27630672e-02 0. -1.55475274e-01 0. -1.76946536e-01 0.
      -4.43420261e-02 0. -6.85612112e-02 0. -6.97039766e-03 0.
      3.83805893e-02 0. -1.24268815e-01 0. -4.76969928e-01 0.
      2.05741674e-01 0. 4.03917640e-01 0. 2.75492948e-02 0.
      2.70404875e-01 0. 5.64415157e-02 0. -1.03293648e-02 0.
      -1.37817025e-01 0. 1.06158733e-01 0. 4.30637985e-01 0.
      7.16767758e-02 0. -1.26101732e-01 0. 3.67457330e-01 0.
      -2.77736653e-02 0. 3.26164126e-01 0. 1.07597589e-01 0.
      1.26589191e+00 0. -1.14326060e+00 0. 3.85218635e-02 0.
      4.78411950e-02 0. 2.56694049e-01 0. -3.33850026e-01 0.
      -1.32409455e-02 0. 8.48142207e-02 0. -1.01792030e-01 0.
      1.37879521e-01 0. -1.94058061e-01 0. -2.19876066e-01 0.
      2.37999082e-01 0. -2.46147826e-01 0. 6.26661181e-02 0.
      4.48748879e-02 0. 7.85477281e-01 0. -1.13635309e-01 0.
      -1.42899543e-01 0. -1.49547830e-01 0. 4.21336889e-01 0.
      -4.67766374e-02 0. 1.51958317e-02 0. -1.16434112e-01 0.
      2.86070138e-01 0. 6.26416206e-02 0. -1.42911505e-02 0.
      -1.67172238e-01 0. 2.32487857e-01 0. -1.08470254e-01 0.
      9.70067605e-02 0. 9.36861988e-03 0. 2.64823049e-01 0.
      -2.14145839e-01 0. 4.70752157e-02 0. -4.51879464e-02 0.
      3.11369181e-01 0. 9.10235792e-02 0. 5.06723626e-03 0.
      3.80512550e-02 0. -3.94676812e-02 0. -1.60673350e-01 0.
      -4.98878658e-02 0. -1.57370880e-01 0. -1.01825851e-03 0.
      7.66840428e-02 0. -3.64513576e-01 0. -1.09007910e-01 0.
      -2.97347158e-01 0. -1.57728605e-02 0. -5.54479994e-02 0.
      -1.95001632e-01 0. 2.31185794e-01 0. -1.21510774e-01 0.
      -1.09956995e-01 0. -8.47532880e-04 0. -1.89918414e-01 0.
      -6.92176400e-03 0. 1.27669260e-01 0. 8.38103965e-02 0.
      6.45469725e-01 0. -1.30200431e-01 0. 2.39470288e-01 0.
      -2.39421546e-01 0. 5.79548240e-01 0. -1.38702047e+00 0.
      2.91177053e-02 0. -1.77511364e-01 0. 3.52188885e-01 0.
      -3.92218292e-01 0. 2.39945143e-01 0. -4.78325710e-02 0.
      3.61469341e-03 0. -3.42308939e-01 0. 2.34515026e-01 0.
      -1.27635866e-01 0. -4.59473096e-02 0. -1.62333310e-01 0.
      1.16149550e-02 0. -3.14449102e-01 0. 4.66296911e-01 0.
      -2.36900598e-01 0. -2.14441985e-01 0. -2.66039401e-01 0.
      2.89958447e-01 0. -2.92131215e-01 0. -3.68617065e-02 0.
      -6.69967309e-02 0. 6.02231584e-02 0. -1.15848027e-01 0.
      -5.85105196e-02 0. -1.10792778e-01 0. 8.40946063e-02 0.
      -4.13343310e-01 0. 1.41559653e-02 0. -3.16795468e-01 0.
      -6.08218133e-01 0. -1.01773214e+00 0. 1.18770450e-01 0.
      1.81149662e-01 0. 5.37976265e-01 0. -3.29436094e-01 0.
      1.34144172e-01 0. -2.00323164e-02 0. 7.79794455e-01 0.
      7.71398693e-02 0. -9.89016220e-02 0. -1.52618304e-01 0.
      -2.82221377e-01 0. 2.43055187e-02 0. -1.43022388e-01 0.
      -2.23828048e-01 0. 4.49477077e-01 0. -2.22797543e-01 0.
      4.17545706e-01 0. 2.60222346e-01 0. 3.58893514e-01 0.
      -2.78146893e-01 0. 3.60840052e-01 0. 6.12663664e-02 0.
      2.83938795e-01 0. 6.70212582e-02 0. 4.07449991e-01 0.
      1.56490959e-03 0. 3.96429487e-02 0. -6.34514034e-01 0.
      8.43534842e-02 0. -1.46073210e+00 0. 1.32159978e-01</_></support_vectors>
  <decision_functions>
    <_>
      <sv_count>1</sv_count>
      <rho>-1.9709680241810461e+00</rho>
      <alpha>
        1.</alpha>
      <index>
        0</index></_></decision_functions></my_svm>
</opencv_storage>
