<?xml version="1.0"?>
<opencv_storage>
<my_svm type_id="opencv-ml-svm">
  <svm_type>C_SVC</svm_type>
  <kernel><type>LINEAR</type></kernel>
  <C>1.</C>
  <term_criteria><epsilon>2.2204460492503131e-16</epsilon>
    <iterations>1000</iterations></term_criteria>
  <var_all>8192</var_all>
  <var_count>8192</var_count>
  <class_count>2</class_count>
  <class_labels type_id="opencv-matrix">
    <rows>1</rows>
    <cols>2</cols>
    <dt>i</dt>
    <data>
      -1 1</data></class_labels>
  <sv_total>1</sv_total>
  <support_vectors>
    <_>
      2.02937946e-02 -1.06093772e-01 0. -8.80254388e-01 0.
      4.62124776e-03 0. -1.26189068e-01 0. 1.01625764e+00 0.
      -4.53988403e-01 0. 3.97046566e-01 0. -1.11945426e+00 0.
      -5.38879968e-02 0. 4.30655539e-01 0. 2.56713871e-02 0.
      -4.36687842e-02 0. 7.32531071e-01 0. 4.22937274e-02 0.
      1.53584078e-01 0. -9.00563896e-01 0. -1.26080453e+00 0.
      -1.10514688e+00 0. 1.05441675e-01 0. 1.92207485e-01 0.
      -1.36155048e-02 0. -1.18085772e-01 0. 2.17351556e-01 0.
      -4.79828328e-01 0. 2.11437196e-01 0. 2.46042162e-02 0.
      -7.35095069e-02 0. 9.86420214e-02 0. 5.57965577e-01 0.
      3.07558253e-02 0. -3.62139717e-02 0. -3.02675605e-01 0.
      -3.36807460e-01 0. -1.78580537e-01 0. 1.52896643e-01 0.
      -2.73925029e-02 0. 4.39716764e-02 0. -2.46043339e-01 0.
      4.57806922e-02 0. -3.63767385e-01 0. 9.24898982e-02 0.
      9.59333107e-02 0. -1.72804371e-02 0. 1.26619503e-01 0.
      1.45532012e-01 0. 8.73630941e-02 0. 1.17209740e-01 0.
      -2.61371583e-01 0. 1.34339646e-01 0. -4.00679350e-01 0.
      7.52509162e-02 0. -1.66397989e-01 0. 1.21589109e-01 0.
      1.42123044e-01 0. 1.88049629e-01 0. -1.08372241e-01 0.
      5.29196620e-01 0. 2.54726201e-01 0. 4.17709686e-02 0.
      1.45348892e-01 0. 3.90403479e-01 0. 2.40253016e-01 0.
      3.43004882e-01 0. -1.32131562e-01 0. 6.65840805e-01 0.
      1.36756435e-01 0. -6.83074147e-02 0. 6.46907911e-02 0.
      2.35877737e-01 0. 1.01402670e-01 0. 6.56081438e-02 0.
      8.51441622e-02 0. -1.15947239e-01 0. 1.48265481e-01 0.
      1.02015086e-01 0. -8.75407085e-02 0. 2.86703914e-01 0.
      2.08299071e-01 0. 1.89579785e-01 0. 3.82575333e-01 0.
      -1.57758385e-01 0. 2.46101499e-01 0. 1.69533100e-02 0.
      1.51624056e-02 0. -1.25384163e-02 0. -3.60302278e-03 0.
      1.16116211e-01 0. -1.32573843e-01 0. 1.12208642e-01 0.
      -1.89492218e-02 0. -6.31008446e-02 0. 2.50266790e-01 0.
      1.01750448e-01 0. 2.61741072e-01 0. -2.59289533e-01 0.
      -1.82076722e-01 0. 6.08342886e-01 0. -1.61384251e-02 0.
      -3.89522389e-02 0. -1.89090729e-01 0. 3.89569402e-01 0.
      -7.06635565e-02 0. 1.27430886e-01 0. -1.98939189e-01 0.
      1.61113758e-02 0. 1.72398806e-01 0. 3.02196890e-02 0.
      3.98300476e-02 0. 2.91808069e-01 0. 3.01334485e-02 0.
      2.80760735e-01 0. 1.88489169e-01 0. 3.58406126e-01 0.
      3.48813593e-01 0. -2.06050798e-02 0. -1.28404051e-01 0.
      -1.05326049e-01 0. -9.07849595e-02 0. 8.91944915e-02 0.
      3.24582234e-02 0. 2.75428414e-01 0. 3.40464979e-01 0.
      -4.26902771e-02 0. -1.81692854e-01 0. 6.55204713e-01 0.
      7.23597288e-01 0. -1.48000851e-01 0. 6.94864452e-01 0.
      2.10764855e-01 0. -3.82126182e-01 0. 3.89165610e-01 0.
      -1.97426289e-01 0. 9.51583385e-02 0. -2.08601415e-01 0.
      -6.98779076e-02 0. -8.49811509e-02 0. 3.06455404e-01 0.
      -1.37278840e-01 0. 1.01492271e-01 0. 1.71629444e-01 0.
      1.05586141e-01 0. 1.69925811e-03 0. 1.97037309e-01 0.
      1.83826815e-02 0. 1.90791488e-01 0. -5.73469847e-02 0.
      9.79178175e-02 0. 1.74099177e-01 0. -2.82956827e-02 0.
      3.68501456e-03 0. -3.57884578e-02 0. -1.20324448e-01 0.
      3.24243456e-01 0. 4.29461673e-02 0. 4.76487316e-02 0.
      -9.93848220e-02 0. -8.35082307e-02 0. 4.74577956e-02 0.
      -1.93749145e-01 0. 3.24768126e-01 0. 1.50720134e-01 0.
      -2.00705379e-02 0. 2.73287725e-02 0. -1.30693138e-01 0.
      -8.33882689e-02 0. 3.37537564e-02 0. -3.81516777e-02 0.
      -4.73229140e-02 0. 4.73733693e-02 0. -4.24913969e-03 0.
      9.23749804e-02 0. 7.50893429e-02 0. 3.48773301e-02 0.
      1.64604560e-02 0. 1.06496021e-01 0. 1.94043834e-02 0.
      7.32251480e-02 0. 1.18345628e-02 0. -9.42151994e-03 0.
      7.72114173e-02 0. -1.15217648e-01 0. -1.73789710e-02 0.
      3.06077264e-02 0. -2.74223417e-01 0. 2.32617915e-01 0.
      -9.09838080e-03 0. 1.66528355e-02 0. 2.67644655e-02 0.
      -4.76432815e-02 0. -8.37832689e-02 0. 1.18108317e-02 0.
      3.23943421e-02 0. -7.19060600e-01 0. 4.41037625e-01 0.
      -4.41780277e-02 0. -6.48518652e-03 0. 9.40087438e-02 0.
      3.93281691e-02 0. 2.06942216e-01 0. 1.70818958e-02 0.
      1.13114886e-01 0. -6.73916489e-02 0. 9.68359560e-02 0.
      -1.51239544e-01 0. 2.95414716e-01 0. 1.48410024e-03 0.
      1.19014040e-01 0. 1.35807738e-01 0. 4.32012752e-02 0.
      -1.13041863e-01 0. -4.33050916e-02 0. 2.88367718e-01 0.
      -1.10124737e-01 0. 9.91648808e-02 0. -4.08562347e-02 0.
      -4.85544465e-02 0. 3.42819728e-02 0. -4.12493050e-02 0.
      4.60416861e-02 0. -5.87379113e-02 0. -2.46677902e-02 0.
      -4.01292071e-02 0. -6.12084605e-02 0. 4.49202955e-01 0.
      2.80506164e-01 0. 1.14648864e-01 0. 6.03625923e-02 0.
      8.14357549e-02 0. 1.81957483e-01 0. 1.64252724e-02 0.
      5.66301607e-02 0. -2.46401727e-01 0. 5.07860333e-02 0.
      -2.90183965e-02 0. 1.41867042e-01 0. -1.76658794e-01 0.
      2.45632544e-01 0. -1.41432092e-01 0. -3.51328366e-02 0.
      3.53807141e-03 0. 2.23339632e-01 0. 1.04106002e-01 0.
      1.98544726e-01 0. 2.45336011e-01 0. -4.52353120e-01 0.
      -1.62887260e-01 0. -2.58830905e-01 0. -1.27159730e-01 0.
      3.27892274e-01 0. 4.36035961e-01 0. 3.84869501e-02 0.
      -3.02101284e-01 0. 3.50634784e-01 0. 8.92419070e-02 0.
      2.54264653e-01 0. 5.35548031e-01 0. 2.54649401e-01 0.
      2.77740866e-01 0. -2.02208787e-01 0. 1.61120445e-01 0.
      3.11417878e-01 0. 1.04272373e-01 0. -3.49468410e-01 0.
      4.00280058e-01 0. 5.26625440e-02 0. 1.87634110e-01 0.
      1.99982554e-01 0. -1.42748922e-01 0. -9.20064747e-02 0.
      3.88755530e-01 0. 2.14542374e-02 0. 3.30792159e-01 0.
      -1.95340261e-01 0. -1.99853256e-01 0. -8.23205411e-02 0.
      -3.94896209e-01 0. 2.66680628e-01 0. -1.58982307e-01 0.
      2.93814205e-02 0. -1.08981676e-01 0. 1.61542416e-01 0.
      1.96156092e-02 0. -3.52529809e-02 0. 1.74315244e-01 0.
      5.05398437e-02 0. 2.23795667e-01 0. -1.80310179e-02 0.
      4.09234524e-01 0. 8.66558477e-02 0. -1.81924865e-01 0.
      2.49565601e-01 0. -2.87970841e-01 0. 4.67571497e-01 0.
      1.70354843e-01 0. 1.45615011e-01 0. 4.15966772e-02 0.
      1.03937522e-01 0. 2.28584521e-02 0. -1.79362204e-02 0.
      -1.70138180e-01 0. 4.49332222e-02 0. 2.24338353e-01 0.
      -3.88310589e-02 0. -5.98922884e-03 0. 2.05738530e-01 0.
      -5.31718805e-02 0. 1.84234306e-01 0. -1.76127180e-01 0.
      1.97862163e-01 0. -1.03434280e-01 0. 1.04624540e-01 0.
      3.07871073e-01 0. 3.38744581e-01 0. -2.00203080e-02 0.
      -7.51547962e-02 0. -2.83024032e-02 0. 1.58116698e-01 0.
      -5.33191264e-01 0. 4.51240450e-01 0. -2.69104034e-01 0.
      -2.67985761e-01 0. -4.18702699e-03 0. -1.84836566e-01 0.
      -8.45194757e-02 0. -4.97328863e-02 0. 1.08039230e-01 0.
      9.13614687e-03 0. -3.10982436e-01 0. -1.50800392e-01 0.
      -9.76726413e-02 0. 1.63551029e-02 0. -1.73607171e-01 0.
      4.71139364e-02 0. 7.21751302e-02 0. -3.46330889e-02 0.
      2.99835354e-02 0. -2.10031331e-01 0. -1.66021466e-01 0.
      -3.61557230e-02 0. 1.45599172e-01 0. -5.04960753e-02 0.
      -6.19760603e-02 0. 3.33566684e-03 0. 1.40855864e-01 0.
      6.12032525e-02 0. 2.76835673e-02 0. -9.88826454e-02 0.
      -2.50043452e-01 0. 4.41086963e-02 0. -1.52544379e-01 0.
      -5.98826073e-02 0. 9.74489972e-02 0. 1.82536483e-01 0.
      4.19418477e-02 0. 3.93623859e-02 0. -2.84534723e-01 0.
      -1.80809684e-02 0. -2.18696177e-01 0. 5.98689504e-02 0.
      1.58491835e-01 0. 6.17626384e-02 0. 3.84025313e-02 0.
      1.18492600e-02 0. -1.89625457e-01 0. 1.49574339e-01 0.
      2.96157785e-02 0. -1.01405978e-01 0. 4.71011072e-01 0.
      3.66082698e-01 0. 2.86963314e-01 0. 2.38793511e-02 0.
      -2.28841260e-01 0. 9.81351435e-02 0. -1.54188722e-01 0.
      9.65514407e-02 0. 2.06592172e-01 0. 8.37127939e-02 0.
      3.95843655e-01 0. 2.06589133e-01 0. -5.59491105e-02 0.
      3.78144413e-01 0. 1.69220775e-01 0. 1.89258918e-01 0.
      3.56629312e-01 0. -1.05638333e-01 0. -6.29893690e-02 0.
      -4.87925321e-01 0. 4.05002475e-01 0. -3.30128193e-01 0.
      -3.27829003e-01 0. -1.85102671e-01 0. -2.05942005e-01 0.
      -6.76589310e-02 0. -8.85437071e-01 0. 1.48532018e-01 0.
      -4.51546013e-01 0. 2.78329998e-01 0. -1.56175390e-01 0.
      1.25260994e-01 0. 6.23119056e-01 0. -5.07738739e-02 0.
      -1.69276819e-01 0. 1.19066477e-01 0. 3.65346730e-01 0.
      -2.26776466e-01 0. -2.16220804e-02 0. -6.75825477e-02 0.
      -1.89334050e-01 0. -5.93834417e-03 0. 5.37788756e-02 0.
      -3.12986895e-02 0. 3.06927204e-01 0. -4.95335937e-01 0.
      -2.81731576e-01 0. -5.31632304e-01 0. 5.65484643e-01 0.
      -3.34262282e-01 0. -6.49897039e-01 0. 1.05843758e-02 0.
      -1.69977814e-01 0. -9.95013490e-02 0. -3.58208418e-01 0.
      4.10706028e-02 0. -1.72749951e-01 0. 2.63095461e-02 0.
      3.39811862e-01 0. -5.42089753e-02 0. 5.86485714e-02 0.
      8.95257145e-02 0. -4.64330286e-01 0. 8.97061452e-02 0.
      7.00859502e-02 0. 8.73584598e-02 0. 7.36052841e-02 0.
      7.80317858e-02 0. 3.75194997e-01 0. -1.44316971e-01 0.
      -1.21988624e-01 0. -3.30981091e-02 0. -3.79043967e-01 0.
      2.50906378e-01 0. -1.22887544e-01 0. -5.79563864e-02 0.
      5.04242539e-01 0. 1.26312330e-01 0. -3.69784206e-01 0.
      -2.39293888e-01 0. -1.16508104e-01 0. -4.13442552e-01 0.
      3.98774356e-01 0. -3.26735437e-01 0. 5.19673884e-01 0.
      -3.25195968e-01 0. -2.21139252e-01 0. -1.92021906e-01 0.
      4.23473358e-01 0. -1.89513847e-01 0. 2.57250845e-01 0.
      -6.53373376e-02 0. 3.93463820e-02 0. -5.73135018e-01 0.
      -3.89571898e-02 0. -3.98662359e-01 0. 6.93295538e-01 0.
      -7.20786273e-01 0. -2.87774742e-01 0. -1.35456756e-01 0.
      2.29954451e-01 0. -1.04317799e-01 0. 1.28041133e-02 0.
      -1.99283928e-01 0. -2.45089546e-01 0. -3.29585075e-01 0.
      1.56311840e-01 0. -2.19126448e-01 0. 4.66770818e-03 0.
      -4.28326309e-01 0. 1.28819555e-01 0. -1.02233005e+00 0.
      4.82199013e-01 0. -1.17649329e+00 0. 3.03480208e-01 0.
      -3.59398454e-01 0. 1.42840073e-01 0. -2.43218541e-01 0.
      -1.98456869e-01 0. -3.30372512e-01 0. 6.32586062e-01 0.
      -5.98355867e-02 0. 1.52776673e-01 0. -5.94430305e-02 0.
      -1.46882281e-01 0. 1.85743719e-02 0. -4.03156012e-01 0.
      -3.95204067e-01 0. 6.16730750e-01 0. -4.83635783e-01 0.
      3.78225654e-01 0. 1.42528474e-01 0. 7.34109521e-01 0.
      -2.26062506e-01 0. -3.13063264e-01 0. 4.28713253e-03 0.
      5.82930386e-01 0. 3.40575725e-01 0. 8.14127028e-01 0.
      -1.50319129e-01 0. 7.54282951e-01 0. 2.46798843e-01 0.
      7.44440675e-01 0. -5.24016500e-01 0. -3.00886929e-01
      -9.59483683e-02 1.35077655e-01 0. -5.16247272e-01 0.
      4.32537310e-02 0. -1.01279116e+00 0. 7.89749444e-01 0.
      4.92094666e-01 0. 5.44403732e-01 0. -1.01725852e+00 0.
      4.50660646e-01 0. -3.54966432e-01 0. 3.75536419e-02 0.
      -1.15152575e-01 0. 2.64176279e-01 0. 5.41369438e-01 0.
      4.66978788e-01 0. -9.40266907e-01 0. -3.64742726e-02 0.
      -6.40113950e-01 0. 4.63574752e-02 0. -4.95439917e-01 0.
      -1.27367467e-01 0. -6.20179847e-02 0. -2.92006899e-02 0.
      -9.39637125e-02 0. 2.93356776e-01 0. -4.13361222e-01 0.
      1.51821971e-01 0. -4.00558829e-01 0. 1.70294821e-01 0.
      2.89008580e-02 0. -1.72648638e-01 0. -1.25855052e+00 0.
      4.20600235e-01 0. -2.44301856e-01 0. 7.91812241e-02 0.
      -2.13258624e-01 0. 4.68045883e-02 0. 5.54206260e-02 0.
      1.41250283e-01 0. -1.30655691e-01 0. 9.12344381e-02 0.
      -1.93549186e-01 0. 6.63532317e-02 0. -1.54531255e-01 0.
      4.30161729e-02 0. 1.98980756e-02 0. -5.87697104e-02 0.
      1.50139749e-01 0. -8.47986341e-01 0. -1.81135023e-03 0.
      1.09156385e-01 0. -1.78404599e-01 0. 8.52711499e-02 0.
      -6.09542839e-02 0. -2.60880310e-02 0. -2.48562947e-01 0.
      8.71940851e-02 0. -1.65885314e-02 0. -3.93820778e-02 0.
      2.21242011e-01 0. 2.23149225e-01 0. 6.64381534e-02 0.
      3.72983456e-01 0. -3.13534617e-01 0. 7.52993286e-01 0.
      -7.33473338e-03 0. 1.87161844e-02 0. -2.57211924e-01 0.
      4.82583493e-02 0. 1.58832058e-01 0. -1.94824934e-02 0.
      -3.42418432e-01 0. -1.32232696e-01 0. 2.41672605e-01 0.
      5.75636234e-03 0. 3.01630795e-02 0. 1.83071509e-01 0.
      2.36204475e-01 0. 4.48430516e-02 0. 1.58675052e-02 0.
      -1.82629656e-03 0. 5.69391809e-02 0. -9.44736823e-02 0.
      -1.92540944e-01 0. -9.55422595e-03 0. 1.12651177e-01 0.
      1.20073155e-01 0. -9.22516827e-03 0. 8.29493031e-02 0.
      9.81057808e-02 0. -2.93401685e-02 0. -1.11876503e-01 0.
      2.79073656e-01 0. 1.89590141e-01 0. -3.82865481e-02 0.
      2.06976563e-01 0. 2.72452146e-01 0. -2.18532026e-01 0.
      -1.87505469e-01 0. 9.08608437e-02 0. 3.01745653e-01 0.
      4.08022068e-02 0. -1.46079836e-02 0. -8.70546997e-02 0.
      3.00083887e-02 0. 4.01789434e-02 0. -6.62236363e-02 0.
      2.13513058e-02 0. -3.63454744e-02 0. 6.19968846e-02 0.
      1.92599103e-01 0. 3.47173601e-01 0. -2.04242721e-01 0.
      1.85857177e-01 0. 5.76064661e-02 0. -3.67020100e-01 0.
      5.59271760e-02 0. 7.27308616e-02 0. 9.67990533e-02 0.
      -1.53523926e-02 0. 2.15774938e-01 0. 2.12082282e-01 0.
      6.82136463e-03 0. 2.33029544e-01 0. 1.47260815e-01 0.
      2.18051314e-01 0. 1.28407761e-01 0. 8.13857540e-02 0.
      7.48846352e-01 0. 5.18849850e-01 0. 2.84811974e-01 0.
      -1.03192432e-02 0. 4.17031318e-01 0. 1.64572001e-01 0.
      2.69106209e-01 0. -1.42072856e-01 0. 2.27025270e-01 0.
      -1.16577558e-02 0. -7.13206157e-02 0. 6.38600290e-02 0.
      1.15055911e-01 0. 2.33701319e-02 0. 1.27675980e-01 0.
      1.16971157e-01 0. 7.30906129e-02 0. -1.36911616e-01 0.
      8.38340893e-02 0. 2.36044470e-02 0. 1.05419815e-01 0.
      -9.90061238e-02 0. -6.38898164e-02 0. -9.86876264e-02 0.
      3.39634955e-01 0. 5.25769666e-02 0. 1.02289028e-01 0.
      1.62388608e-02 0. -7.94586167e-03 0. -4.38684449e-02 0.
      -5.64623298e-03 0. 2.48822063e-01 0. 2.29080409e-01 0.
      -2.91302670e-02 0. 1.48013933e-02 0. 2.53939955e-03 0.
      1.64950773e-01 0. -1.71894506e-01 0. 5.32072298e-02 0.
      -2.38683745e-01 0. -4.13635299e-02 0. 1.33315623e-01 0.
      1.33714881e-02 0. 4.21590507e-02 0. 7.01047853e-02 0.
      -4.35860921e-03 0. 6.21551946e-02 0. -1.15106478e-01 0.
      -3.05821802e-02 0. 1.13873258e-01 0. 2.30964608e-02 0.
      -1.97809055e-01 0. 9.62678194e-02 0. -5.40533438e-02 0.
      2.75610890e-02 0. -3.28419358e-01 0. 5.44641307e-03 0.
      1.20467991e-02 0. -7.74872527e-02 0. -1.05607919e-01 0.
      -6.05345815e-02 0. -1.93738684e-01 0. -1.32509023e-02 0.
      -7.25518391e-02 0. 8.70391667e-01 0. 3.88212651e-01 0.
      -1.30269632e-01 0. -3.71835440e-01 0. 1.85699448e-01 0.
      9.63858981e-03 0. 5.38836606e-02 0. -2.25403741e-01 0.
      1.70398608e-01 0. 1.31666526e-01 0. -8.93725082e-03 0.
      -3.82248797e-02 0. -6.95191249e-02 0. 5.94619289e-03 0.
      1.09366901e-01 0. 2.70505380e-02 0. 1.97166830e-01 0.
      -4.81299199e-02 0. 1.47002548e-01 0. -5.47040701e-02 0.
      -7.92892650e-02 0. 7.04788417e-02 0. 2.24236771e-02 0.
      -7.49639645e-02 0. 2.24110752e-01 0. -5.07210419e-02 0.
      4.55156788e-02 0. 2.40843706e-02 0. -5.08904345e-02 0.
      1.98223993e-01 0. 3.17146108e-02 0. 3.77967358e-02 0.
      2.27768838e-01 0. 1.94155470e-01 0. 2.59609878e-01 0.
      5.70166185e-02 0. 1.82071164e-01 0. -1.42140061e-01 0.
      -1.08642191e-01 0. -4.58329886e-01 0. -7.25515485e-02 0.
      1.30756289e-01 0. 3.46143991e-02 0. -1.27785116e-01 0.
      -3.11249457e-02 0. 7.30181262e-02 0. 9.99503285e-02 0.
      1.66164801e-01 0. 8.12212974e-02 0. 1.52003080e-01 0.
      2.35189974e-01 0. -2.86475331e-01 0. -1.67692438e-01 0.
      -1.09478302e-01 0. -6.29820228e-02 0. -1.05926745e-01 0.
      5.66937514e-02 0. 3.80645134e-02 0. 2.56315973e-02 0.
      -1.86404482e-01 0. 2.82337844e-01 0. -4.36887294e-02 0.
      -1.11946434e-01 0. -2.30151922e-01 0. -1.41296536e-01 0.
      -1.09595728e+00 0. 3.23709488e-01 0. -2.58394610e-02 0.
      1.41029526e-02 0. -2.59159505e-01 0. -1.02340188e-02 0.
      5.72225153e-01 0. -2.29617551e-01 0. -1.22767285e-01 0.
      -1.70435324e-01 0. -1.85237020e-01 0. -4.64314312e-01 0.
      1.89489976e-01 0. 3.06388050e-01 0. 3.16457748e-01 0.
      -3.42415497e-02 0. -2.60273546e-01 0. -3.58764008e-02 0.
      -8.57272521e-02 0. -3.62509340e-02 0. -5.56184277e-02 0.
      1.32682949e-01 0. 7.71451965e-02 0. -9.80601385e-02 0.
      -1.48294523e-01 0. -1.08506843e-01 0. -3.11440527e-01 0.
      -1.78413093e-01 0. 1.48316016e-02 0. -1.66041963e-02 0.
      3.97060215e-01 0. 2.84430921e-01 0. -1.95813835e-01 0.
      -8.41198303e-03 0. -5.36299109e-01 0. 5.35936281e-02 0.
      4.63041775e-02 0. 1.65758371e-01 0. -8.01651403e-02 0.
      2.49779508e-01 0. 5.35721965e-02 0. -5.92047870e-02 0.
      -1.72737818e-02 0. -2.54830681e-02 0. -3.36813517e-02 0.
      4.82871719e-02 0. 1.02942333e-01 0. -7.25577027e-02 0.
      4.82358523e-02 0. -2.83453781e-02 0. -1.42525891e-02 0.
      -2.48360522e-02 0. 5.86390086e-02 0. 3.44675213e-01 0.
      -7.25763664e-02 0. -5.18542193e-02 0. -1.22760005e-01 0.
      6.39737621e-02 0. -3.28622870e-02 0. 5.17287478e-02 0.
      2.15303786e-02 0. 4.29527193e-01 0. 5.09128749e-01 0.
      1.26391247e-01 0. -4.75523025e-01 0. 2.17253983e-01 0.
      2.34852225e-01 0. 5.42140305e-02 0. 3.00412863e-01 0.
      5.10443151e-02 0. 1.03691429e-01 0. -1.17908344e-01 0.
      1.51781946e-01 0. -1.12296648e-01 0. -2.18550190e-01 0.
      4.60935757e-03 0. 1.15927301e-01 0. 5.77951819e-02 0.
      1.69726700e-01 0. -7.41589144e-02 0. -2.37719432e-01 0.
      2.76580825e-02 0. -3.24032992e-01 0. 5.48475496e-02 0.
      -1.35349333e-01 0. 5.58928819e-03 0. -3.04246526e-02 0.
      -2.10994124e-01 0. 1.44991249e-01 0. -1.09404102e-01 0.
      -2.97097117e-01 0. 4.53086942e-02 0. 8.00619349e-02 0.
      -1.62814900e-01 0. 3.76901239e-01 0. 2.36948207e-01 0.
      2.35593945e-01 0. -6.30654767e-02 0. -1.65608853e-01 0.
      -1.02703134e-02 0. 6.53290972e-02 0. -5.41239306e-02 0.
      -6.12055324e-02 0. 1.42167858e-03 0. -7.18000680e-02 0.
      -2.61393376e-02 0. -1.71197280e-01 0. -2.81862747e-02 0.
      -1.99603632e-01 0. 3.34280543e-02 0. 2.72889167e-01 0.
      3.60426009e-01 0. 2.50744075e-01 0. 1.41694084e-01 0.
      -2.25362346e-01 0. 2.20107049e-01 0. 1.09739557e-01 0.
      -1.56063348e-01 0. 8.30903471e-01 0. 1.67091101e-01 0.
      2.71954685e-01 0. 1.41771063e-01 0. 1.44945815e-01 0.
      1.59424439e-01 0. 2.14449521e-02 0. 2.31614202e-01 0.
      1.15827882e+00 0. -1.22748423e+00 0. -7.61086568e-02 0.
      2.09627803e-02 0. 2.81625897e-01 0. -2.53172994e-01 0.
      1.30623370e-01 0. -2.82163233e-01 0. 7.16278255e-01 0.
      -1.46188244e-01 0. -3.50644052e-01 0. -1.41920790e-01 0.
      -4.92069758e-02 0. 9.74430740e-02 0. -1.48910806e-01 0.
      -1.52586149e-02 0. 1.68205649e-02 0. -2.41227597e-01 0.
      -4.46307987e-01 0. -1.31170914e-01 0. 3.83946560e-02 0.
      5.74426204e-02 0. -3.59457642e-01 0. 7.20524639e-02 0.
      2.06740215e-01 0. 7.03231841e-02 0. -1.54733151e-01 0.
      -3.07366580e-01 0. 2.10419521e-01 0. -7.19150901e-02 0.
      5.88177592e-02 0. -2.23895282e-01 0. 4.58490163e-01 0.
      1.79888800e-01 0. -2.54502416e-01 0. 2.54283170e-03 0.
      3.01735371e-01 0. 1.93278445e-03 0. -1.17851466e-01 0.
      -1.70062676e-01 0. 3.43740791e-01 0. 7.79584721e-02 0.
      -2.42010057e-02 0. 6.57822639e-02 0. 2.47540399e-01 0.
      7.88405910e-02 0. -4.49611574e-01 0. -6.84725419e-02 0.
      3.79647642e-01 0. -2.42147386e-01 0. 9.05340712e-05 0.
      5.48737198e-02 0. 9.44707319e-02 0. 1.24895141e-01 0.
      4.76808436e-02 0. -4.41066064e-02 0. -3.48690897e-01 0.
      1.28191426e-01 0. -3.37824851e-01 0. 3.37646604e-02 0.
      1.11865163e+00 0. -9.74112004e-02 0. 2.34794065e-01 0.
      -2.61587501e-01 0. 8.01563919e-01 0. -8.63685131e-01 0.
      4.29426044e-01 0. -2.76805758e-01 0. 3.60729784e-01 0.
      -3.05313081e-01 0. 3.48691523e-01 0. -7.31965378e-02 0.
      -2.82330424e-01 0. -1.02000341e-01 0. 3.02758574e-01 0.
      -1.31332487e-01 0. 5.07377505e-01 0. -1.89158037e-01 0.
      2.55841017e-02 0. -7.14485571e-02 0. 5.62189341e-01 0.
      -4.29737568e-01 0. 8.41833204e-02 0. -9.77434143e-02 0.
      4.23162937e-01 0. -1.83473229e-01 0. 2.92426609e-02 0.
      -2.19076023e-01 0. 5.19450068e-01 0. -1.49546072e-01 0.
      -1.43994773e-02 0. -1.34040892e-01 0. -1.25351116e-01 0.
      -5.46630740e-01 0. 2.93100685e-01 0. -6.44184470e-01 0.
      4.55744267e-01 0. -1.55104089e+00 0. 4.90034133e-01 0.
      -8.23737383e-02 0. 5.96732080e-01 0. -8.84810239e-02 0.
      2.35563591e-01 0. 9.42321643e-02 0. 3.13444048e-01 0.
      -1.17794587e-03 0. 5.94432354e-01 0. -2.99855862e-02 0.
      5.04462004e-01 0. -3.26542169e-01 0. -1.18394144e-01 0.
      -2.41248384e-01 0. 3.20860952e-01 0. -5.94026327e-01 0.
      5.46268702e-01 0. 3.13148171e-01 0. 4.91920412e-01 0.
      -2.00565502e-01 0. 4.01325256e-01 0. -2.71945715e-01 0.
      2.45744243e-01 0. -3.25752720e-02 0. 3.19264293e-01 0.
      2.75597245e-01 0. 9.01964486e-01 0. -2.52199143e-01 0.
      4.96455610e-01 0. -2.17533447e-02 0. -9.48732257e-01
      4.84723061e-01 -4.18287456e-01 0. -4.39476311e-01 0.
      -1.07086308e-01 0. -6.20446384e-01 0. 8.15127313e-01 0.
      1.08221687e-01 0. 1.96700618e-01 0. -7.07127154e-01 0.
      2.81987004e-02 0. -3.14148992e-01 0. -5.16052470e-02 0.
      -2.13302560e-02 0. 8.31297815e-01 0. -1.84202909e-01 0.
      2.24582687e-01 0. -1.59477639e+00 0. -1.08089876e+00 0.
      -8.64649236e-01 0. -4.62562181e-02 0. 2.42267083e-02 0.
      1.72870997e-02 0. -8.11614841e-02 0. 2.56783098e-01 0.
      -4.10538912e-01 0. 5.64815402e-01 0. -2.33198926e-01 0.
      -1.08713306e-01 0. -3.38823870e-02 0. 3.33988577e-01 0.
      4.29238938e-03 0. -1.40422666e-02 0. -5.49778879e-01 0.
      -3.77315171e-02 0. -6.19890392e-01 0. 1.62966922e-01 0.
      -1.59976453e-01 0. -8.56732875e-02 0. -1.52138785e-01 0.
      -8.36929157e-02 0. -3.39237183e-01 0. 4.55822758e-02 0.
      2.57495403e-01 0. 1.21985644e-01 0. 1.37911073e-03 0.
      2.92187959e-01 0. 1.38763124e-02 0. 1.09387599e-02 0.
      -2.36865669e-01 0. -1.84729755e-01 0. -2.33345807e-01 0.
      1.96406007e-01 0. 1.84463114e-01 0. -5.70910051e-02 0.
      -4.71611433e-02 0. 2.78232634e-01 0. -7.60981068e-02 0.
      4.55467165e-01 0. 2.83397734e-01 0. 1.00858003e-01 0.
      3.21623623e-01 0. 7.08518386e-01 0. 3.86590123e-01 0.
      8.44942331e-02 0. -1.59321323e-01 0. 3.85395616e-01 0.
      -3.05128485e-01 0. 1.88907579e-01 0. 1.11829542e-01 0.
      3.08646113e-01 0. 4.74265702e-02 0. 1.02476873e-01 0.
      -3.37760746e-02 0. 4.50234525e-02 0. 2.33794034e-01 0.
      7.95695260e-02 0. -1.58144459e-02 0. 1.90805063e-01 0.
      1.41028062e-01 0. 1.19619370e-01 0. 2.50436902e-01 0.
      -2.93274298e-02 0. -5.39175048e-03 0. -1.56237870e-01 0.
      2.19632518e-02 0. 4.03313078e-02 0. 1.13792516e-01 0.
      -7.33174235e-02 0. -2.11072206e-01 0. 1.61455944e-01 0.
      2.11119086e-01 0. -1.07130352e-02 0. 7.96238631e-02 0.
      2.42813855e-01 0. 9.47722793e-02 0. -1.95041731e-01 0.
      -1.28300533e-01 0. 3.79820794e-01 0. -5.68333209e-01 0.
      2.44773217e-02 0. -1.91482514e-01 0. 2.41196781e-01 0.
      6.15523905e-02 0. 1.65900007e-01 0. 2.92387575e-01 0.
      3.04021955e-01 0. 1.79680526e-01 0. -5.93275502e-02 0.
      -2.52257347e-01 0. 1.89195737e-01 0. 1.82390898e-01 0.
      2.83322409e-02 0. 4.20085251e-01 0. 3.35056514e-01 0.
      1.56979755e-01 0. -8.02085698e-02 0. -1.86977252e-01 0.
      5.38356043e-02 0. 4.06103022e-02 0. 7.29959384e-02 0.
      2.33121559e-01 0. 3.30578148e-01 0. 2.13967696e-01 0.
      1.42767787e-01 0. -4.08178717e-01 0. 5.38637578e-01 0.
      7.55235672e-01 0. 4.63527828e-01 0. 6.05056047e-01 0.
      4.53400403e-01 0. -4.47142750e-01 0. -1.40887415e-02 0.
      9.55487229e-03 0. 2.00537100e-01 0. -1.00872956e-01 0.
      1.56087294e-01 0. 1.38988316e-01 0. 1.35790989e-01 0.
      -7.45406076e-02 0. 1.96281578e-02 0. -6.02522604e-02 0.
      1.85947970e-01 0. -1.01888090e-01 0. 1.76837698e-01 0.
      2.08260566e-01 0. 2.46655066e-02 0. 1.85667858e-01 0.
      -1.90709624e-02 0. 2.29318403e-02 0. 3.99524197e-02 0.
      9.11761895e-02 0. 8.00393000e-02 0. 2.11326927e-02 0.
      1.55155495e-01 0. 4.96863574e-02 0. 3.98859046e-02 0.
      -4.62232204e-03 0. 5.14395423e-02 0. 1.55046374e-01 0.
      7.84272235e-03 0. 2.77936667e-01 0. -4.90134731e-02 0.
      -2.55304068e-01 0. -3.43401022e-02 0. -1.88921064e-01 0.
      1.75404355e-01 0. -5.17161004e-02 0. 4.48011197e-02 0.
      5.94505630e-02 0. 3.93003821e-02 0. 8.90956726e-03 0.
      2.91570602e-03 0. 7.59604946e-02 0. 1.04527220e-01 0.
      -5.87313436e-02 0. 6.47950247e-02 0. -5.63529357e-02 0.
      -1.52284145e-01 0. 4.04513208e-03 0. 1.01290427e-01 0.
      -6.43930286e-02 0. -1.84761435e-02 0. -6.22670874e-02 0.
      -3.05787437e-02 0. -2.73221046e-01 0. 1.23579435e-01 0.
      -6.31821230e-02 0. 8.37249756e-02 0. -1.23576507e-01 0.
      9.76970196e-02 0. -1.01440020e-01 0. -4.02463004e-02 0.
      -3.04441452e-01 0. -2.28611492e-02 0. 1.13565713e-01 0.
      -4.61045699e-03 0. 1.72007047e-02 0. 2.48296991e-01 0.
      -1.80425540e-01 0. -3.28131430e-02 0. 9.52103063e-02 0.
      1.76095411e-01 0. -4.03786041e-02 0. 6.09247796e-02 0.
      -1.58096030e-01 0. 9.60725769e-02 0. 1.73216057e-03 0.
      3.93677689e-02 0. -1.36482656e-01 0. 6.05832506e-03 0.
      3.49672846e-02 0. 2.58302763e-02 0. 1.63938031e-01 0.
      -2.08923593e-01 0. -6.11109845e-03 0. -1.70021698e-01 0.
      -1.21834345e-01 0. 4.98351976e-02 0. 7.86308423e-02 0.
      8.97064712e-03 0. -1.52383983e-01 0. 1.78721189e-01 0.
      2.76102155e-01 0. 2.42487574e-03 0. 8.98691937e-02 0.
      4.99336362e-01 0. 2.34676331e-01 0. 1.44564942e-01 0.
      1.09507456e-01 0. 1.77783281e-01 0. 3.74981426e-02 0.
      -6.36739880e-02 0. -4.60321218e-01 0. 6.96470439e-02 0.
      3.45977664e-01 0. 1.14713281e-01 0. -1.32769972e-01 0.
      2.34896272e-01 0. -8.63795206e-02 0. 9.05616134e-02 0.
      -1.06756128e-01 0. 2.61295527e-01 0. 1.44479930e-01 0.
      8.39886069e-02 0. -9.24522877e-02 0. -2.80163050e-01 0.
      -2.07871392e-01 0. -1.47779852e-01 0. -5.40771127e-01 0.
      1.17743433e-01 0. 5.69086075e-01 0. 3.94053049e-02 0.
      -3.85935873e-01 0. 8.27472866e-01 0. 2.30431020e-01 0.
      2.56878644e-01 0. -7.99287185e-02 0. 8.08898285e-02 0.
      -1.42064253e-02 0. -8.87062371e-01 0. 6.35491759e-02 0.
      5.85512742e-02 0. 4.82854456e-01 0. -6.05725169e-01 0.
      -1.37304245e-02 0. -5.13078347e-02 0. 2.82021075e-01 0.
      -1.36108845e-01 0. 1.93361714e-01 0. -1.58624332e-02 0.
      1.71528250e-01 0. 2.29107767e-01 0. 4.52041358e-01 0.
      -2.33650863e-01 0. -9.89417136e-02 0. -1.00472912e-01 0.
      -1.61249712e-01 0. 1.81074366e-01 0. -2.41100583e-02 0.
      5.11631668e-02 0. -6.21972196e-02 0. -9.95760262e-02 0.
      2.81571805e-01 0. -9.40215960e-02 0. -8.36781636e-02 0.
      3.32405753e-02 0. 1.52807206e-01 0. 1.52780324e-01 0.
      5.26311398e-01 0. -7.09998682e-02 0. -1.58133004e-02 0.
      7.21677393e-02 0. 6.52931035e-02 0. 1.86614156e-01 0.
      -2.30199061e-02 0. -8.83776471e-02 0. 4.41620052e-01 0.
      2.85460174e-01 0. -1.35121837e-01 0. 6.59643412e-02 0.
      -1.80624008e-01 0. 1.45459414e-01 0. 1.31145373e-01 0.
      2.48750746e-02 0. 1.41379863e-01 0. 2.05123663e-01 0.
      1.14663251e-01 0. 3.08170110e-01 0. -6.02907650e-02 0.
      1.93718206e-02 0. -3.52930874e-02 0. 7.36811236e-02 0.
      3.67441863e-01 0. 1.68516904e-01 0. -3.01160753e-01 0.
      8.83444995e-02 0. 1.05206728e-01 0. 2.00934932e-01 0.
      -4.89212364e-01 0. 4.09310967e-01 0. 3.25385451e-01 0.
      -4.85409707e-01 0. 6.90625375e-03 0. -6.25298917e-02 0.
      -4.21991557e-01 0. -2.00977489e-01 0. 3.28592449e-01 0.
      -4.74004745e-02 0. 1.25995442e-01 0. 1.68065533e-01 0.
      -1.76918313e-01 0. -2.84551699e-02 0. -9.94140357e-02 0.
      3.75914685e-02 0. 8.71395618e-02 0. 2.69266143e-02 0.
      4.05661494e-01 0. 1.10076338e-01 0. -1.14571974e-02 0.
      -1.35915816e-01 0. 1.03031024e-01 0. -1.01856412e-02 0.
      -7.96989072e-03 0. 6.20000847e-02 0. 9.95588303e-03 0.
      5.98551594e-02 0. 7.87893981e-02 0. -1.44394301e-02 0.
      -5.31595528e-01 0. -1.89330298e-02 0. 3.20644714e-02 0.
      -1.54457033e-01 0. 2.95197129e-01 0. 1.38803095e-01 0.
      -8.79937410e-02 0. -2.03858301e-01 0. -2.25480303e-01 0.
      4.89259958e-02 0. -9.33459997e-02 0. 9.74031836e-02 0.
      1.04582667e-01 0. 1.19692594e-01 0. 3.34930979e-02 0.
      3.85320038e-02 0. -1.46494478e-01 0. 6.05081245e-02 0.
      3.66683230e-02 0. -1.94377266e-02 0. 1.49063036e-01 0.
      -3.31405960e-02 0. -5.14215268e-02 0. -8.45474564e-03 0.
      -3.17500323e-01 0. 4.68908660e-02 0. -1.23853788e-01 0.
      -1.33678377e-01 0. 2.42100388e-01 0. 1.94742456e-01 0.
      -1.04749441e-01 0. 2.76074529e-01 0. -5.98891318e-01 0.
      1.40227452e-01 0. 5.49697638e-01 0. 1.99372202e-01 0.
      4.68217969e-01 0. -9.81217995e-02 0. 8.26006234e-01 0.
      -2.64674753e-01 0. 8.04450810e-01 0. 1.54075503e-01 0.
      -2.24151030e-01 0. -2.70206541e-01 0. 5.34815975e-02 0.
      -2.18312405e-02 0. -3.86803925e-01 0. 2.63336189e-02 0.
      -3.33572716e-01 0. 6.47580847e-02 0. -9.42217186e-02 0.
      1.46807685e-01 0. 1.82799667e-01 0. -4.31905895e-01 0.
      5.05026020e-02 0. -1.47362605e-01 0. 3.26722354e-01 0.
      -1.41630962e-01 0. 2.46055108e-02 0. -1.17780581e-01 0.
      -3.66890788e-01 0. -2.37504050e-01 0. -5.31075597e-02 0.
      -1.28700063e-01 0. 1.95043400e-01 0. -5.57351351e-01 0.
      -2.30220377e-01 0. -5.27487457e-01 0. 1.23556495e-01 0.
      -4.24820840e-01 0. -5.93443036e-01 0. 2.53621668e-01 0.
      -1.57209441e-01 0. -7.84643739e-02 0. -1.06414631e-01 0.
      5.92480078e-02 0. -3.02982070e-02 0. 4.14868481e-02 0.
      -1.01494575e-02 0. -1.91834927e-01 0. -3.99485901e-02 0.
      -1.18410224e-02 0. -5.61852574e-01 0. -6.88730478e-02 0.
      1.69282615e-01 0. -1.17267489e-01 0. -1.17560543e-01 0.
      1.28972888e-01 0. 5.22155941e-01 0. 1.04458481e-02 0.
      -6.68190494e-02 0. -7.73004219e-02 0. -1.29862025e-01 0.
      2.01758832e-01 0. -4.91871774e-01 0. -5.45729883e-02 0.
      7.01537073e-01 0. -1.22548416e-01 0. -4.59121019e-01 0.
      -1.74349159e-01 0. 3.04662049e-01 0. -5.92743456e-01 0.
      7.51475573e-01 0. -4.37575638e-01 0. 4.32152987e-01 0.
      -1.98948741e-01 0. -9.17565599e-02 0. -3.08657289e-01 0.
      3.32694203e-01 0. -2.73314893e-01 0. 4.04879451e-02 0.
      -2.88313389e-01 0. 1.95053309e-01 0. 2.54275799e-02 0.
      -3.22017446e-02 0. -2.33121455e-01 0. 8.79370809e-01 0.
      -4.78505373e-01 0. 2.22682178e-01 0. -3.44153494e-02 0.
      2.08549440e-01 0. -1.01459520e-02 0. -1.92737542e-02 0.
      -3.57213348e-01 0. 3.37369069e-02 0. -4.65236038e-01 0.
      3.45736563e-01 0. -3.08269352e-01 0. 8.95117074e-02 0.
      -4.00272995e-01 0. -3.33639294e-01 0. -9.50175345e-01 0.
      4.47151482e-01 0. -7.10439920e-01 0. 6.90053225e-01 0.
      -1.46782771e-01 0. 5.36666632e-01 0. -2.92692274e-01 0.
      -4.13964167e-02 0. 6.14322759e-02 0. 1.98274612e-01 0.
      3.17978352e-01 0. 3.71175148e-02 0. -2.22860619e-01 0.
      -3.75228003e-02 0. 2.26870194e-01 0. -1.95541844e-01 0.
      -3.76601011e-01 0. 5.69273055e-01 0. 1.18343428e-01 0.
      -2.52619177e-01 0. 2.17270985e-01 0. 8.02176893e-01 0.
      -9.60220546e-02 0. -4.55508620e-01 0. -4.16437179e-01 0.
      4.26099479e-01 0. 5.91906846e-01 0. 6.64706290e-01 0.
      1.05277471e-01 0. 9.56846625e-02 0. 2.85545051e-01 0.
      1.24058694e-01 0. -6.67232974e-03 0. -1.96597837e-02
      -8.09073225e-02 6.61854073e-02 0. -1.02806306e+00 0.
      9.67948437e-01 0. -3.97084802e-01 0. 1.04105473e+00 0.
      3.26389700e-01 0. 4.77947950e-01 0. -1.62731111e+00 0.
      4.52804208e-01 0. 2.69591480e-01 0. 1.33211613e-01 0.
      -3.77066582e-01 0. 3.02592069e-01 0. 3.65568042e-01 0.
      3.06605756e-01 0. -1.07643092e+00 0. -1.27043986e+00 0.
      -7.76675642e-01 0. -1.62709370e-01 0. -1.66583925e-01 0.
      -1.76533833e-02 0. -1.58162951e-01 0. -4.75768708e-02 0.
      -7.95411244e-02 0. 1.38154179e-01 0. -3.91099572e-01 0.
      4.53755371e-02 0. -2.79033601e-01 0. 1.28585964e-01 0.
      -1.09340928e-01 0. -6.74678683e-02 0. -1.52522123e+00 0.
      9.48035717e-01 0. 1.50173455e-01 0. 1.41049415e-01 0.
      -3.11221808e-01 0. 6.16477914e-02 0. -2.68320478e-02 0.
      3.73248845e-01 0. -3.82551551e-01 0. 1.23841763e-02 0.
      -1.39013797e-01 0. 6.10101328e-04 0. 2.01883796e-03 0.
      2.11466387e-01 0. 1.25114366e-01 0. -1.76094975e-02 0.
      -9.35218558e-02 0. -5.06671667e-01 0. 7.99631774e-02 0.
      5.44326752e-02 0. 2.39353776e-01 0. 1.04986951e-02 0.
      -4.56298552e-02 0. 6.86151385e-02 0. -3.47270668e-01 0.
      1.81329399e-01 0. 2.28938639e-01 0. 2.27378309e-02 0.
      3.19248676e-01 0. 4.80304092e-01 0. 3.79730731e-01 0.
      5.15929878e-01 0. -3.49635214e-01 0. 4.76854056e-01 0.
      3.15715581e-01 0. 4.91916090e-01 0. -2.21073747e-01 0.
      3.18183601e-01 0. 5.61468713e-02 0. 1.22480534e-01 0.
      -3.03927585e-02 0. -2.37112888e-03 0. 2.08396435e-01 0.
      -3.00887376e-02 0. -1.02652006e-01 0. 1.09930947e-01 0.
      9.08553526e-02 0. 9.17103142e-02 0. -1.35243222e-01 0.
      7.42204115e-02 0. -3.52402888e-02 0. 2.42289424e-01 0.
      -1.42761692e-01 0. 1.49588123e-01 0. -1.22218393e-01 0.
      -3.83945704e-02 0. -8.76582116e-02 0. -1.38021857e-01 0.
      1.68547094e-01 0. -5.57589624e-03 0. -1.95576642e-02 0.
      1.49368599e-01 0. 3.31599489e-02 0. -5.51843308e-02 0.
      -3.30680646e-02 0. 6.06105089e-01 0. -4.10663784e-02 0.
      -2.32541040e-02 0. -7.27944449e-02 0. 1.95900500e-01 0.
      3.67470868e-02 0. 9.35718194e-02 0. -1.11660557e-02 0.
      1.85690299e-01 0. 1.37362301e-01 0. -3.89812812e-02 0.
      -1.17783919e-01 0. -1.99293322e-03 0. 1.84101686e-01 0.
      1.49965838e-01 0. -8.23763162e-02 0. -1.37781218e-01 0.
      1.73723355e-01 0. 2.12415949e-01 0. -1.89819157e-01 0.
      2.91147083e-02 0. 1.05078891e-01 0. 1.07819900e-01 0.
      -1.25328712e-02 0. 1.66858077e-01 0. 1.88604027e-01 0.
      3.17406356e-02 0. 7.49365315e-02 0. 1.50402158e-01 0.
      1.12518288e-01 0. 3.00613821e-01 0. -2.16239154e-01 0.
      5.27002275e-01 0. 4.13153529e-01 0. 1.98838860e-01 0.
      5.47575951e-01 0. 2.05155879e-01 0. 2.40662873e-01 0.
      2.23190784e-01 0. -2.11415410e-01 0. 1.88830569e-01 0.
      1.61916301e-01 0. -5.91672305e-03 0. 3.18752348e-01 0.
      3.41008157e-02 0. 4.73832674e-02 0. 3.36808115e-01 0.
      -5.08600473e-02 0. -5.60555384e-02 0. -2.26226002e-02 0.
      3.09148524e-02 0. -8.39687586e-02 0. 1.19791061e-01 0.
      3.41221839e-02 0. 5.27491495e-02 0. -6.99063465e-02 0.
      2.68308133e-01 0. 1.65156513e-01 0. 5.07298559e-02 0.
      -1.03925802e-01 0. 1.31487012e-01 0. -6.95143864e-02 0.
      -2.52942909e-02 0. 1.12872981e-01 0. 8.27120990e-02 0.
      -2.90717892e-02 0. 9.97161865e-02 0. -5.97941279e-02 0.
      2.10587516e-01 0. -1.36676878e-01 0. 9.85712633e-02 0.
      -1.81419939e-01 0. -1.34132817e-01 0. 1.38467131e-02 0.
      7.94020519e-02 0. 7.64415413e-03 0. 9.35213864e-02 0.
      -1.32763267e-01 0. 8.41911808e-02 0. -3.51653248e-02 0.
      3.09263915e-02 0. 1.56495675e-01 0. -2.90171877e-02 0.
      -7.22275823e-02 0. -5.18741347e-02 0. 4.21512723e-02 0.
      9.39028803e-03 0. -9.19074416e-02 0. 3.47420648e-02 0.
      1.20588027e-01 0. -1.06925286e-01 0. 7.49130398e-02 0.
      1.25048310e-01 0. -1.16500765e-01 0. 7.10817426e-02 0.
      -1.24059893e-01 0. 7.28675246e-01 0. 4.39176321e-01 0.
      -7.19695315e-02 0. 2.35227883e-01 0. 1.49247497e-01 0.
      -4.43660170e-02 0. -5.09799225e-03 0. -2.13520139e-01 0.
      1.42552391e-01 0. 4.04928736e-02 0. -3.05936392e-02 0.
      -8.57077837e-02 0. 5.95251918e-02 0. 9.99930874e-02 0.
      1.51666388e-01 0. 1.16964407e-01 0. 2.19886839e-01 0.
      6.72025532e-02 0. 2.64086932e-01 0. 5.95756918e-02 0.
      3.21924947e-02 0. -4.63049039e-02 0. 7.61273578e-02 0.
      -3.80332202e-01 0. 8.73468295e-02 0. -3.26294601e-02 0.
      -1.28330700e-02 0. -9.14847013e-03 0. -5.64450100e-02 0.
      1.14398807e-01 0. -8.42926055e-02 0. 2.87037551e-01 0.
      5.78264058e-01 0. 2.69201189e-01 0. 5.24975099e-02 0.
      1.11083016e-01 0. 1.48519173e-01 0. 1.03477292e-01 0.
      6.77389577e-02 0. -2.75768578e-01 0. -1.88559052e-02 0.
      1.06813416e-01 0. 5.01101613e-02 0. -2.08388120e-01 0.
      -3.62303630e-02 0. -2.59863213e-02 0. 4.51253355e-01 0.
      2.81971157e-01 0. -2.68875733e-02 0. 2.77041763e-01 0.
      1.88727587e-01 0. -1.54502550e-02 0. 1.35121802e-02 0.
      3.13628055e-02 0. 2.43928879e-01 0. -8.57452214e-01 0.
      2.19224483e-01 0. 1.46775588e-01 0. 1.28651336e-01 0.
      -5.43698901e-03 0. 3.48707676e-01 0. -1.68975204e-01 0.
      -8.36832821e-02 0. -1.36175191e+00 0. -5.93684852e-01 0.
      -3.68590027e-01 0. 6.22701943e-01 0. -6.58740878e-01 0.
      1.88154280e-01 0. 1.49754420e-01 0. -4.34839986e-02 0.
      1.33449450e-01 0. -6.60165250e-02 0. -1.96457535e-01 0.
      6.84105698e-03 0. -2.32311338e-01 0. -3.79638225e-01 0.
      -1.24980971e-01 0. 1.92291617e-01 0. 7.82903850e-01 0.
      -4.41795588e-01 0. 3.82177234e-02 0. 3.37032452e-02 0.
      2.11243518e-02 0. -6.18609823e-02 0. -2.75387410e-02 0.
      6.90146238e-02 0. 2.29343161e-01 0. -1.65996373e-01 0.
      -7.38215148e-02 0. -1.14549384e-01 0. -3.63989770e-01 0.
      -8.97323638e-02 0. -1.11906752e-02 0. -1.56725030e-02 0.
      6.59467876e-01 0. -1.72576293e-01 0. -3.24001849e-01 0.
      1.24972053e-01 0. 6.79883808e-02 0. 6.27671182e-02 0.
      -3.02964389e-01 0. -1.78699687e-01 0. 9.80013311e-02 0.
      1.32378235e-01 0. -2.53198534e-01 0. -6.96408823e-02 0.
      -8.55341777e-02 0. 6.84872493e-02 0. -2.31113117e-02 0.
      1.50639281e-01 0. 2.54764527e-01 0. -8.06798860e-02 0.
      2.00016305e-01 0. 1.09078951e-01 0. -1.64843127e-01 0.
      1.19522281e-01 0. -1.98009405e-02 0. 6.78869262e-02 0.
      1.46386951e-01 0. 2.87331045e-01 0. -1.90630138e-01 0.
      2.02619135e-01 0. 1.92034513e-01 0. 2.77346998e-01 0.
      2.50910781e-03 0. 3.25282514e-01 0. 5.66731989e-01 0.
      2.60288358e-01 0. -3.23295981e-01 0. 1.64834797e-01 0.
      -4.88443524e-01 0. 1.90000296e-01 0. 1.93606511e-01 0.
      -5.06259426e-02 0. 9.26877707e-02 0. -8.58767256e-02 0.
      1.08873695e-01 0. -2.09122077e-01 0. 3.65321562e-02 0.
      4.32410873e-02 0. 1.54088408e-01 0. 1.73581809e-01 0.
      6.64432585e-01 0. 1.11654297e-01 0. -2.26140186e-01 0.
      1.35743469e-01 0. 5.90652088e-03 0. -6.98274970e-02 0.
      -6.71618283e-02 0. -9.57109556e-02 0. 2.74073750e-01 0.
      -5.55704087e-02 0. -4.10343185e-02 0. -2.17146352e-01 0.
      -1.40269682e-01 0. -7.79938400e-02 0. 1.13187544e-01 0.
      -8.92198756e-02 0. 1.46459699e-01 0. 3.65803361e-01 0.
      1.48328587e-01 0. -1.00055657e-01 0. 2.25853864e-02 0.
      1.18673883e-01 0. -8.73013958e-03 0. 3.36503983e-02 0.
      2.06058353e-01 0. 2.09401529e-02 0. -2.07322091e-01 0.
      8.71334318e-03 0. -2.98736393e-01 0. 1.71959490e-01 0.
      -5.40259806e-03 0. 8.72808024e-02 0. -1.53731748e-01 0.
      1.57264769e-01 0. 7.84212723e-02 0. 1.24671631e-01 0.
      -2.23648429e-01 0. 7.49462247e-02 0. 1.16820320e-01 0.
      6.96263984e-02 0. 2.00441808e-01 0. 2.28162184e-02 0.
      3.43696445e-01 0. -6.34879917e-02 0. -2.16730498e-02 0.
      2.27929398e-01 0. 3.04172128e-01 0. 3.85027230e-01 0.
      7.40094543e-01 0. -1.28077352e+00 0. -6.29314423e-01 0.
      4.43018228e-02 0. 5.65416515e-01 0. -7.70492315e-01 0.
      -2.44039029e-01 0. -2.79826224e-01 0. 5.07877171e-01 0.
      -2.95312881e-01 0. -3.66715342e-01 0. -1.94753543e-01 0.
      -9.16767213e-03 0. 1.26532152e-01 0. -3.67736369e-01 0.
      6.42959625e-02 0. 4.04196918e-01 0. -1.73731908e-01 0.
      -6.25455081e-01 0. -9.87061262e-02 0. -6.92038760e-02 0.
      5.87145239e-02 0. -3.92640114e-01 0. -1.23397410e-01 0.
      2.57574350e-01 0. 1.97450165e-02 0. -2.28023514e-01 0.
      -4.81483042e-02 0. 3.90191942e-01 0. -1.94585189e-01 0.
      1.68933287e-01 0. -3.51635098e-01 0. 8.74826968e-01 0.
      -6.42213225e-01 0. 1.00385807e-01 0. -2.79648118e-02 0.
      5.80807310e-03 0. 3.60625423e-02 0. -8.92262608e-02 0.
      -8.99342820e-02 0. 2.72512078e-01 0. -2.30350178e-02 0.
      -1.75934225e-01 0. -7.86832720e-02 0. 7.22162947e-02 0.
      7.96415061e-02 0. 1.92672703e-02 0. 1.51055217e-01 0.
      3.50295544e-01 0. -3.17902774e-01 0. -1.82895571e-01 0.
      -1.04997955e-01 0. 9.54835489e-02 0. 4.39146794e-02 0.
      -7.01725334e-02 0. 1.04320109e-01 0. 1.56120166e-01 0.
      4.81480919e-02 0. -1.11953355e-01 0. -2.72866599e-02 0.
      8.94472718e-01 0. -1.78389922e-01 0. 3.53993565e-01 0.
      2.70953119e-01 0. 8.63812789e-02 0. -1.42492294e+00 0.
      7.23587632e-01 0. 5.76887801e-02 0. 1.02503347e+00 0.
      -2.59605736e-01 0. -2.10532248e-01 0. 4.88928445e-02 0.
      6.99142873e-01 0. -5.14158368e-01 0. 6.38263673e-02 0.
      -1.17652580e-01 0. 6.33065343e-01 0. -4.05202568e-01 0.
      2.23490298e-01 0. -1.14541054e-01 0. 6.09405577e-01 0.
      -7.01576948e-01 0. -1.85461920e-02 0. -1.75430998e-01 0.
      2.09095925e-01 0. -1.26461938e-01 0. 1.21287160e-01 0.
      -2.03263313e-01 0. 2.29957074e-01 0. -1.62749156e-01 0.
      2.04925954e-01 0. -2.42715657e-01 0. 8.20584744e-02 0.
      -4.37295526e-01 0. 2.37548470e-01 0. -8.65297616e-01 0.
      -1.52010322e-01 0. -1.34602380e+00 0. -2.05518708e-01 0.
      -5.79729639e-02 0. 9.69021201e-01 0. -3.13769341e-01 0.
      1.57106683e-01 0. -1.06846048e-02 0. 7.81706870e-01 0.
      -4.85851355e-02 0. 3.10307413e-01 0. -2.42499009e-01 0.
      -2.82759398e-01 0. -3.42662841e-01 0. 1.65739536e-01 0.
      3.62707227e-01 0. 1.44397005e-01 0. -1.21683049e+00 0.
      -4.42490876e-01 0. 8.24717209e-02 0. 4.97246414e-01 0.
      -1.90213084e-01 0. 1.50951698e-01 0. -1.99010059e-01 0.
      7.25108624e-01 0. -8.10622633e-01 0. 5.42959869e-01 0.
      7.00657219e-02 0. 5.85861385e-01 0. -2.04958171e-01 0.
      6.40644729e-01 0. -7.85797000e-01 0. -3.98403406e-01
      2.03054711e-01 -3.21323812e-01 0. -1.03781712e+00 0.
      1.68646418e-03 0. -5.56948125e-01 0. 3.61067176e-01 0.
      -2.93529760e-02 0. 3.75484109e-01 0. -7.43099630e-01 0.
      3.46131146e-01 0. 2.12453511e-02 0. -4.09456529e-02 0.
      1.56020939e-01 0. 5.28764069e-01 0. -1.50573388e-01 0.
      3.30800921e-01 0. -1.24941695e+00 0. -1.73672020e+00 0.
      -4.96807724e-01 0. 1.12242125e-01 0. 3.07038546e-01 0.
      2.01399907e-01 0. -3.02587479e-01 0. -3.03131461e-01 0.
      -2.22664118e-01 0. 3.81669074e-01 0. -2.38784671e-01 0.
      -2.00731173e-01 0. 1.09062130e-02 0. 3.08932096e-01 0.
      -1.79720316e-02 0. 1.23004615e-01 0. -3.85834426e-01 0.
      -1.82336107e-01 0. -4.39096957e-01 0. 1.22760899e-01 0.
      2.32284945e-02 0. -2.34577179e-01 0. 1.63019836e-01 0.
      1.40587628e-01 0. -3.59191984e-01 0. 6.50876090e-02 0.
      -1.27417341e-01 0. 1.44494087e-01 0. 2.00167730e-01 0.
      7.84018114e-02 0. 4.98790853e-02 0. 5.88624105e-02 0.
      2.63195455e-01 0. 8.25405493e-02 0. 1.41383514e-01 0.
      1.55285940e-01 0. 9.59613323e-02 0. 6.39796853e-02 0.
      -1.07206911e-01 0. 1.61675811e-01 0. -2.62155104e-02 0.
      2.90810078e-01 0. 2.68710703e-01 0. 1.25620559e-01 0.
      1.44769117e-01 0. 4.53165174e-01 0. 2.24293157e-01 0.
      3.20187539e-01 0. -6.04794696e-02 0. 4.00721848e-01 0.
      1.44858032e-01 0. 2.14222223e-01 0. 3.89096774e-02 0.
      2.41495669e-01 0. 1.96046963e-01 0. 2.50846773e-01 0.
      1.12019703e-01 0. 1.46610186e-01 0. 3.25717211e-01 0.
      -4.02557664e-02 0. -3.24622430e-02 0. 2.18902767e-01 0.
      7.69943669e-02 0. 3.46379988e-02 0. 2.59479314e-01 0.
      1.39865339e-01 0. -1.13373756e-01 0. 3.70060490e-03 0.
      9.67947766e-02 0. -7.54406005e-02 0. 2.85617216e-03 0.
      -2.47567110e-02 0. -1.40007511e-01 0. 1.60154372e-01 0.
      1.36211202e-01 0. -8.29046816e-02 0. 1.86526731e-01 0.
      5.78786954e-02 0. 2.18255609e-01 0. -2.94442147e-01 0.
      1.14811689e-01 0. 2.24254280e-01 0. -1.78380623e-01 0.
      3.31938833e-01 0. 1.32938862e-01 0. 1.54435962e-01 0.
      1.99142724e-01 0. 1.48894891e-01 0. 2.96691447e-01 0.
      -1.39462441e-01 0. 6.63491562e-02 0. 9.22960136e-03 0.
      -6.37146160e-02 0. 9.15324092e-02 0. 3.01296175e-01 0.
      8.88436511e-02 0. 2.69283444e-01 0. 2.85974145e-01 0.
      2.13137865e-01 0. -5.48028573e-02 0. -3.59266967e-01 0.
      1.00777067e-01 0. 7.45975375e-02 0. 1.17248781e-01 0.
      -1.23590522e-01 0. 2.91469008e-01 0. 2.65358984e-01 0.
      1.86530426e-01 0. -2.85186052e-01 0. 4.08981532e-01 0.
      2.48885885e-01 0. 9.90807787e-02 0. 8.59029710e-01 0.
      7.97765180e-02 0. -6.48427871e-04 0. -2.65430156e-02 0.
      2.48436600e-01 0. 2.08568275e-02 0. -1.99162796e-01 0.
      3.94182540e-02 0. -3.82596314e-01 0. 1.98069420e-02 0.
      1.31726027e-01 0. -4.15533409e-02 0. -5.74143603e-04 0.
      3.98024134e-02 0. -1.49255961e-01 0. 1.44259408e-01 0.
      3.11486870e-01 0. 2.73552954e-01 0. 3.16204503e-02 0.
      7.91966692e-02 0. -7.66647980e-03 0. 1.33568108e-01 0.
      1.27301365e-01 0. 9.30250138e-02 0. -1.64129183e-01 0.
      2.32762307e-01 0. 1.47068232e-01 0. 1.29211613e-03 0.
      3.21718585e-03 0. -2.19589770e-02 0. 1.52604774e-01 0.
      5.29286079e-02 0. 4.90246743e-01 0. 1.13527186e-01 0.
      -2.08737090e-01 0. -3.17119211e-02 0. -2.35590741e-01 0.
      -5.38270548e-02 0. -5.21433204e-02 0. 7.50716589e-03 0.
      1.29459277e-01 0. 7.95753747e-02 0. 1.28879756e-01 0.
      -5.54808276e-03 0. 6.37856647e-02 0. -1.46289030e-02 0.
      -2.50660032e-01 0. -4.39012423e-02 0. 4.78709936e-02 0.
      1.34504005e-01 0. 1.23128630e-01 0. 1.42377708e-02 0.
      2.17818730e-02 0. 7.55696222e-02 0. 1.76299624e-02 0.
      1.24474615e-01 0. -2.33935818e-01 0. 1.35172859e-01 0.
      -6.44684955e-02 0. 5.32448106e-02 0. 1.83046479e-02 0.
      4.52386327e-02 0. -1.66179258e-02 0. 1.60279527e-01 0.
      3.73805821e-01 0. -5.52894771e-01 0. 5.37177660e-02 0.
      7.41394237e-02 0. -2.22935975e-02 0. 5.19220904e-03 0.
      1.82575196e-01 0. -5.39253540e-02 0. -1.25310659e-01 0.
      3.10784988e-02 0. 1.44638747e-01 0. 2.14699313e-01 0.
      -1.50334775e-01 0. 7.92810917e-02 0. 2.02951387e-01 0.
      9.13256928e-02 0. -2.95187347e-02 0. -2.15800673e-01 0.
      -1.29189938e-01 0. 1.27242908e-01 0. 1.24064997e-01 0.
      -1.24922181e-02 0. -8.83855447e-02 0. -7.04020634e-02 0.
      -2.81948805e-01 0. 2.04740241e-02 0. -6.16169535e-02 0.
      6.17567897e-02 0. -5.34997247e-02 0. 3.00293826e-02 0.
      1.90771431e-01 0. -9.13167894e-02 0. 9.36930925e-02 0.
      -6.51795715e-02 0. 1.79761574e-01 0. 1.60662755e-01 0.
      1.91231564e-01 0. 2.47412607e-01 0. -3.54717970e-02 0.
      1.05849519e-01 0. 4.23241928e-02 0. -3.08063030e-01 0.
      6.19718730e-02 0. 3.50188650e-02 0. -1.14743330e-01 0.
      1.13776304e-01 0. 6.59843534e-02 0. 9.65970531e-02 0.
      -5.94942153e-01 0. 4.22830641e-01 0. -8.17037821e-02 0.
      1.84613377e-01 0. -1.08599089e-01 0. -1.79866850e-01 0.
      2.73909178e-02 0. 2.55636638e-03 0. -4.99853253e-01 0.
      2.93198228e-01 0. 3.07201415e-01 0. -4.19560671e-02 0.
      3.43593163e-03 0. 4.30352330e-01 0. 4.03725058e-02 0.
      4.36917275e-01 0. 5.36693223e-02 0. 2.50999957e-01 0.
      -1.38433710e-01 0. -7.55701959e-01 0. 5.52879050e-02 0.
      -2.25048393e-01 0. -1.02358155e-01 0. -3.79946381e-01 0.
      6.45895749e-02 0. -1.47177875e-01 0. 1.36902660e-01 0.
      -3.37849051e-01 0. -4.74319488e-01 0. 2.13003188e-01 0.
      -3.30088735e-02 0. -1.84620917e-01 0. 9.48717654e-01 0.
      -3.99841607e-01 0. -3.35190073e-02 0. 1.01987131e-01 0.
      -2.04746351e-01 0. 1.82249725e-01 0. -3.02032344e-02 0.
      2.40695983e-01 0. 1.41696617e-01 0. -2.13840529e-01 0.
      2.62791783e-01 0. 1.23400405e-01 0. -5.17593361e-02 0.
      1.21824779e-01 0. 1.73503429e-01 0. 1.89137146e-01 0.
      2.96336055e-01 0. -1.51334658e-01 0. 1.26649588e-01 0.
      1.55308351e-01 0. 1.78266287e-01 0. 3.30366820e-01 0.
      3.76909152e-02 0. -1.04340412e-01 0. 1.38809770e-01 0.
      1.91442505e-01 0. 1.84010563e-03 0. 3.47278714e-02 0.
      3.01418989e-03 0. 1.99330002e-02 0. 3.27719450e-02 0.
      -4.59039360e-02 0. 3.15169156e-01 0. 3.80599767e-01 0.
      3.25826734e-01 0. 2.15188302e-02 0. 1.96483225e-01 0.
      2.80896872e-01 0. 1.74557239e-01 0. 1.13021694e-01 0.
      3.05900216e-01 0. 1.21418469e-01 0. -4.73651320e-01 0.
      1.06281623e-01 0. -1.57228634e-01 0. -5.55266142e-02 0.
      -2.18747959e-01 0. 1.20763749e-01 0. 3.96133184e-01 0.
      -1.97746247e-01 0. -1.12805061e-01 0. -1.74283817e-01 0.
      -2.36128956e-01 0. -1.16462991e-01 0. 8.29216614e-02 0.
      -7.37217590e-02 0. 2.86536425e-01 0. 2.23460153e-01 0.
      1.56432807e-01 0. 1.10115826e-01 0. -2.11876363e-01 0.
      -1.15489950e-02 0. 4.20155860e-02 0. -9.95350070e-03 0.
      8.47173333e-01 0. 3.65616605e-02 0. -1.56856716e-01 0.
      3.40061379e-03 0. -1.29649073e-01 0. -4.98427935e-02 0.
      -1.69169866e-02 0. -4.42428626e-02 0. 2.41251454e-01 0.
      -6.67610839e-02 0. -3.25343832e-02 0. -1.50291741e-01 0.
      -1.82049572e-01 0. 6.51933551e-02 0. -3.36239822e-02 0.
      -1.55394480e-01 0. 8.68240356e-01 0. -1.23543255e-01 0.
      2.77152518e-03 0. -7.30872899e-02 0. -2.36788869e-01 0.
      1.08261734e-01 0. -1.07692331e-01 0. 9.82332081e-02 0.
      1.17482007e-01 0. 2.76102692e-01 0. 1.99105859e-01 0.
      -7.50762001e-02 0. 2.89535709e-02 0. 1.07381672e-01 0.
      4.42741252e-02 0. -5.15050441e-02 0. 1.58667803e-01 0.
      1.89915150e-01 0. 1.59003690e-01 0. 1.16909750e-01 0.
      -4.06083643e-01 0. 1.08455289e-02 0. -8.08451101e-02 0.
      6.70906827e-02 0. 3.60938050e-02 0. -4.92710285e-02 0.
      8.76678433e-03 0. -1.89630419e-01 0. -2.42074057e-01 0.
      -1.07341655e-01 0. 6.78443491e-01 0. 1.69677719e-01 0.
      3.08708221e-01 0. -1.95218936e-01 0. 9.75065053e-01 0.
      8.05806965e-02 0. 5.93732953e-01 0. -2.00351000e-01 0.
      -5.90262823e-02 0. 1.52421445e-01 0. -2.14994058e-01 0.
      2.30098531e-01 0. -1.32972211e-01 0. -9.64151621e-02 0.
      1.44393519e-01 0. 2.20660120e-01 0. -3.73296410e-01 0.
      1.61492079e-01 0. 5.72258472e-01 0. -8.55365917e-02 0.
      -1.33210393e-02 0. 1.91012681e-01 0. 2.70663530e-01 0.
      -5.36965169e-02 0. -1.77568093e-01 0. 2.90834364e-02 0.
      -4.03008498e-02 0. -2.38509357e-01 0. 1.76147558e-02 0.
      -7.62088001e-02 0. 5.23762345e-01 0. -4.67920631e-01 0.
      -4.88099456e-01 0. -2.68890709e-01 0. 9.22892272e-01 0.
      -3.92323136e-01 0. -7.06839561e-01 0. 8.43508542e-03 0.
      2.51076594e-02 0. -3.06662381e-01 0. -1.83930025e-01 0.
      1.04623146e-01 0. -2.51238286e-01 0. -8.00325647e-02 0.
      -2.20235847e-02 0. -1.82038080e-02 0. -1.51851714e-01 0.
      -3.40365954e-02 0. -4.05054152e-01 0. -1.85043737e-01 0.
      4.61175293e-01 0. -1.75119992e-02 0. -9.34140980e-02 0.
      3.07399244e-03 0. 4.21043307e-01 0. 8.45518261e-02 0.
      5.83730824e-02 0. 6.79098815e-02 0. -1.74664184e-01 0.
      3.00790161e-01 0. -5.66710591e-01 0. 1.77818179e-01 0.
      3.46767157e-01 0. -1.29983813e-01 0. -5.09233810e-02 0.
      -5.33356182e-02 0. 3.44136924e-01 0. -8.70799184e-01 0.
      4.42420006e-01 0. -3.90168399e-01 0. 1.37388319e-01 0.
      -1.73544183e-01 0. -4.48034666e-02 0. -3.42185110e-01 0.
      5.13298929e-01 0. -3.11093092e-01 0. 7.30889738e-02 0.
      -1.17995106e-01 0. 3.23525816e-01 0. -1.87976062e-01 0.
      -4.89518717e-02 0. -4.03390437e-01 0. 3.90354007e-01 0.
      -2.82062262e-01 0. 1.76829562e-01 0. -4.91919070e-02 0.
      2.51518190e-01 0. -1.78063720e-01 0. 2.48160884e-01 0.
      -3.72994810e-01 0. 6.47546828e-01 0. 4.09004837e-02 0.
      -1.30144462e-01 0. -3.09730202e-01 0. 1.09621145e-01 0.
      -5.65154552e-01 0. 1.40422191e-02 0. -1.50170684e+00 0.
      1.04941972e-01 0. -1.29947591e+00 0. -1.23630501e-01 0.
      -1.43745586e-01 0. 5.71402729e-01 0. -3.82809192e-01 0.
      -1.65449083e-01 0. -1.76057816e-01 0. 5.88062406e-01 0.
      -1.63517371e-01 0. 2.19701558e-01 0. -3.58369142e-01 0.
      1.74154654e-01 0. -2.04679504e-01 0. -1.95346415e-01 0.
      -6.64190292e-01 0. 4.13345903e-01 0. -4.58027422e-01 0.
      8.55333954e-02 0. 3.61277312e-01 0. 5.70432961e-01 0.
      -4.30369943e-01 0. 8.07805061e-02 0. -3.82867068e-01 0.
      7.39418447e-01 0. 4.97735292e-01 0. 6.41602457e-01 0.
      -2.14974061e-01 0. -6.68062866e-01 0. -4.37762201e-01 0.
      -1.52268171e-01 0. -6.51001930e-01 0. -4.10997607e-02
      -1.65134475e-01 -4.46265303e-02 0. -1.20182228e+00 0.
      6.95987701e-01 0. -6.65504813e-01 0. 5.95633090e-01 0.
      4.70299780e-01 0. 5.96729815e-01 0. -1.44528306e+00 0.
      5.10187924e-01 0. 2.81941593e-01 0. 2.47198910e-01 0.
      4.07556929e-02 0. 5.17146409e-01 0. -5.65233342e-02 0.
      3.66611391e-01 0. -1.76157129e+00 0. -1.17053425e+00 0.
      -1.10233402e+00 0. 2.29451627e-01 0. -4.18482363e-01 0.
      -1.14848036e-02 0. -3.26083630e-01 0. 4.28469665e-02 0.
      -1.41440049e-01 0. 1.58519998e-01 0. -3.70134115e-01 0.
      -1.07350990e-01 0. -4.00557101e-01 0. 1.28375083e-01 0.
      -1.15372702e-01 0. 1.63502291e-01 0. -1.60325837e+00 0.
      4.70769942e-01 0. -7.72035420e-01 0. 2.23871708e-01 0.
      -4.52693373e-01 0. 2.28783321e-02 0. -2.16508746e-01 0.
      1.84692383e-01 0. -3.74533296e-01 0. -1.30177382e-03 0.
      8.41036960e-02 0. 2.61230953e-03 0. -1.91609949e-01 0.
      5.31813018e-02 0. 1.79152824e-02 0. -1.13862440e-01 0.
      1.06592909e-01 0. -2.72843093e-01 0. -5.23796342e-02 0.
      2.01069295e-01 0. -8.51328075e-02 0. 3.31775218e-01 0.
      1.41227216e-01 0. 1.25570223e-01 0. -4.42862242e-01 0.
      1.62090778e-01 0. 2.03726497e-02 0. -9.47444001e-04 0.
      -1.56862468e-01 0. 2.46464238e-01 0. -6.26834258e-02 0.
      3.38327289e-01 0. -4.27277327e-01 0. 2.14313209e-01 0.
      -3.16973031e-02 0. 9.33987573e-02 0. 7.30991364e-02 0.
      1.53472289e-01 0. 1.24682955e-01 0. 1.50088757e-01 0.
      -3.71835649e-01 0. 1.43403634e-01 0. 1.22566730e-01 0.
      -8.53583217e-02 0. -2.00734377e-01 0. 3.27105701e-01 0.
      -4.41593118e-02 0. -1.88181326e-02 0. -1.59290150e-01 0.
      -8.56563915e-04 0. 5.63869886e-02 0. -1.50241107e-01 0.
      -3.04519683e-01 0. 4.72443253e-02 0. -3.79982069e-02 0.
      1.27488926e-01 0. -2.65342504e-01 0. 1.21934682e-01 0.
      -1.39864504e-01 0. -4.48530652e-02 0. -1.34224579e-01 0.
      1.82404101e-01 0. 1.08016700e-01 0. 1.28482550e-01 0.
      -8.90941396e-02 0. 1.17579922e-01 0. -4.82469127e-02 0.
      -8.75114575e-02 0. -3.01625371e-01 0. 3.13586593e-01 0.
      -1.29344491e-02 0. 4.90673184e-02 0. -8.79029930e-02 0.
      1.60516724e-01 0. 8.84675980e-03 0. 7.81853274e-02 0.
      -1.41879078e-02 0. 7.85132647e-02 0. -4.64999638e-02 0.
      2.38556057e-01 0. -3.47269289e-02 0. 3.28500509e-01 0.
      1.12801388e-01 0. 1.27686962e-01 0. -8.85065719e-02 0.
      -2.03979060e-01 0. 2.21580323e-02 0. 1.36922106e-01 0.
      -1.10618725e-01 0. 3.09820808e-02 0. 1.58489868e-01 0.
      2.24028248e-02 0. -1.70777794e-02 0. 1.30418554e-01 0.
      4.07311112e-01 0. 4.94063377e-01 0. 1.24806948e-02 0.
      1.09160282e-01 0. 1.22942314e-01 0. 4.37918276e-01 0.
      2.73420006e-01 0. 5.23719132e-01 0. -5.16147073e-03 0.
      1.65144473e-01 0. -2.43506730e-01 0. -1.13281287e-01 0.
      -6.05944134e-02 0. 2.60662168e-01 0. 5.16138859e-02 0.
      2.11736307e-01 0. -2.46884637e-02 0. 2.84153253e-01 0.
      -1.11455314e-01 0. 1.13602251e-01 0. 1.64142653e-01 0.
      1.20404512e-01 0. -2.52732877e-02 0. -2.37963516e-02 0.
      -2.23146025e-02 0. -7.36121833e-03 0. -1.62968993e-01 0.
      -1.11747114e-02 0. 1.24096684e-01 0. -9.77156311e-02 0.
      -2.61000823e-03 0. 1.35765925e-01 0. 2.46084303e-01 0.
      3.97186652e-02 0. 3.52589816e-01 0. 2.24249721e-01 0.
      -6.75553689e-03 0. 1.24483697e-01 0. -5.77681512e-03 0.
      2.27065295e-01 0. -1.08669646e-01 0. 7.12971464e-02 0.
      -2.47471765e-01 0. -1.02153011e-01 0. 1.27788156e-03 0.
      1.81121588e-01 0. -1.07241027e-01 0. -2.85067167e-02 0.
      -1.00352280e-01 0. 3.39117646e-02 0. 1.70561709e-02 0.
      5.46003357e-02 0. 4.79560792e-02 0. -7.47296065e-02 0.
      -2.41541173e-02 0. 9.07166004e-02 0. 1.10057876e-01 0.
      -6.03874400e-02 0. -1.43896610e-01 0. 1.06694616e-01 0.
      1.27188742e-01 0. 9.28650424e-02 0. -6.90131588e-03 0.
      -7.30399117e-02 0. -1.92332882e-02 0. 2.36342743e-01 0.
      -3.64707440e-01 0. 1.16357851e+00 0. 5.82663000e-01 0.
      1.47634596e-01 0. 1.09827332e-01 0. -1.83419138e-02 0.
      3.29442210e-02 0. 2.72503239e-03 0. 1.21384650e-01 0.
      2.67294705e-01 0. 2.20858991e-01 0. 4.00645062e-02 0.
      -4.27206792e-02 0. -9.79418010e-02 0. 1.52179152e-01 0.
      7.88736120e-02 0. 2.43255198e-01 0. 5.04629873e-02 0.
      2.53506582e-02 0. 3.32310982e-02 0. 8.71143490e-02 0.
      -1.18680581e-01 0. -1.14508070e-01 0. 1.33197591e-01 0.
      -1.12969153e-01 0. 1.48748368e-01 0. -5.65456189e-02 0.
      -1.02075011e-01 0. 1.67026743e-02 0. -7.99607337e-02 0.
      1.74900353e-01 0. -7.38772824e-02 0. 4.00300950e-01 0.
      6.52366340e-01 0. 2.87091345e-01 0. 1.12170525e-01 0.
      2.57667035e-01 0. 7.46386945e-02 0. -1.49401287e-02 0.
      1.60688072e-01 0. -1.47348493e-01 0. -4.81773727e-02 0.
      1.09854685e-02 0. 9.48899388e-02 0. -4.22870666e-01 0.
      -9.00975540e-02 0. -4.09925968e-04 0. 2.31198013e-01 0.
      -1.89665556e-01 0. 1.02130011e-01 0. 2.53158122e-01 0.
      -5.09657664e-03 0. 2.02681008e-03 0. 2.43808314e-01 0.
      1.04748718e-01 0. 2.16111258e-01 0. -4.43966240e-01 0.
      2.12841202e-02 0. 2.68219620e-01 0. 5.17241210e-02 0.
      -1.63960367e-01 0. 2.18229979e-01 0. -2.02091798e-01 0.
      -1.33198336e-01 0. -6.96533978e-01 0. -4.15158898e-01 0.
      -7.92367816e-01 0. 3.06618869e-01 0. -3.11185122e-01 0.
      -3.92924063e-02 0. 4.97016236e-02 0. 9.50767174e-02 0.
      5.99931777e-02 0. -1.75457075e-01 0. -1.40510172e-01 0.
      -1.02687299e-01 0. -6.10253274e-01 0. 1.21259645e-01 0.
      8.33129138e-02 0. 2.45591849e-01 0. 9.36900675e-01 0.
      5.99350259e-02 0. -4.44131017e-01 0. 1.80807691e-02 0.
      -2.28462696e-01 0. -1.69770628e-01 0. -8.26206654e-02 0.
      4.09140028e-02 0. 1.37080237e-01 0. -2.14405395e-02 0.
      -2.12406535e-02 0. 6.35682791e-02 0. -6.67542219e-02 0.
      -7.41811842e-02 0. 3.24842423e-01 0. 3.49093616e-01 0.
      9.20290828e-01 0. 2.88909465e-01 0. -2.34984860e-01 0.
      2.79459745e-01 0. -5.00104874e-02 0. 1.35121979e-02 0.
      -6.35863915e-02 0. -1.61569655e-01 0. 1.90364763e-01 0.
      1.29192099e-01 0. -8.21567401e-02 0. 4.57180552e-02 0.
      -8.82186145e-02 0. 9.63658988e-02 0. 3.47660817e-02 0.
      -3.32777388e-02 0. 5.13679147e-01 0. -2.68436223e-01 0.
      3.61263275e-01 0. 1.25243664e-01 0. 5.93152270e-02 0.
      4.33360972e-02 0. -4.34364192e-02 0. 9.84495692e-03 0.
      2.58928183e-02 0. 1.55177517e-02 0. 5.44414520e-02 0.
      4.54835705e-02 0. 2.92422205e-01 0. -4.61798459e-02 0.
      1.14039622e-01 0. 5.04592896e-01 0. 1.10072458e+00 0.
      4.33702826e-01 0. 1.02636982e-02 0. 2.76916534e-01 0.
      -1.56629056e-01 0. 3.34381640e-01 0. -2.65460849e-01 0.
      1.05685242e-01 0. 1.12952672e-01 0. 1.07852422e-01 0.
      1.87598139e-01 0. 9.11124647e-02 0. 8.39440804e-03 0.
      8.84994566e-02 0. 2.13303611e-01 0. 6.37515485e-02 0.
      3.47099751e-01 0. -8.90656039e-02 0. -1.89191505e-01 0.
      1.40808940e-01 0. -1.16515774e-02 0. 6.04611896e-02 0.
      9.16151404e-02 0. -2.46303916e-01 0. 1.77302882e-01 0.
      -5.91663197e-02 0. 1.95442680e-02 0. -3.25898267e-02 0.
      -3.89350951e-02 0. -1.01371706e-02 0. -1.13334805e-01 0.
      -2.19680443e-01 0. 5.68671167e-01 0. 6.13749087e-01 0.
      3.49936187e-01 0. 1.58364013e-01 0. -4.19953093e-02 0.
      2.68730909e-01 0. -2.07428992e-01 0. -1.87349617e-01 0.
      4.61189076e-02 0. -8.00939649e-02 0. -1.10453904e-01 0.
      -1.24273539e-01 0. -3.29403207e-02 0. 4.56389645e-03 0.
      1.38286099e-01 0. -1.62315354e-01 0. -3.27023268e-02 0.
      5.99166006e-02 0. 1.83103800e-01 0. 1.27827659e-01 0.
      -1.34398431e-01 0. 8.41152444e-02 0. 2.21924130e-02 0.
      -1.90226510e-02 0. 6.50205910e-02 0. -6.93365117e-04 0.
      2.54635096e-01 0. 2.18358845e-01 0. 2.71989673e-01 0.
      1.33265685e-02 0. 4.87278342e-01 0. 4.04654235e-01 0.
      1.24607921e+00 0. -9.31420386e-01 0. -1.83541492e-01 0.
      2.12597996e-01 0. 5.14605939e-01 0. -6.63789034e-01 0.
      5.59839964e-01 0. -6.37650043e-02 0. 1.55439615e-01 0.
      -1.84975907e-01 0. -3.34139794e-01 0. -2.78865159e-01 0.
      1.29196197e-01 0. -2.66136140e-01 0. -3.12066644e-01 0.
      -7.61306658e-02 0. -3.14210504e-02 0. -3.31201464e-01 0.
      -8.88197944e-02 0. -1.69463500e-01 0. 6.58122152e-02 0.
      1.25404626e-01 0. -1.77270174e-01 0. -1.47127777e-01 0.
      7.26574212e-02 0. -1.69018865e-01 0. 8.24207366e-02 0.
      -1.61730424e-01 0. 4.97172512e-02 0. -3.93083394e-01 0.
      5.24143055e-02 0. -2.61430405e-02 0. 5.07058680e-01 0.
      -3.24241847e-01 0. -5.11447668e-01 0. -4.34325039e-02 0.
      3.35792214e-01 0. 1.69559345e-01 0. 2.08405450e-01 0.
      -1.23395836e-02 0. 5.12753546e-01 0. -9.38519090e-02 0.
      -8.59394595e-02 0. 1.86123773e-01 0. 1.32485613e-01 0.
      4.64840718e-02 0. 2.01794272e-03 0. -2.09237747e-02 0.
      4.38758940e-01 0. -1.90971524e-01 0. 7.51624480e-02 0.
      -8.54693428e-02 0. 2.73796469e-01 0. -4.73269299e-02 0.
      -1.77735612e-01 0. -1.11296788e-01 0. -1.13829121e-01 0.
      -6.11459911e-02 0. 2.99130857e-01 0. 1.99483167e-02 0.
      9.04794216e-01 0. -3.62243116e-01 0. 4.21358496e-01 0.
      1.54352084e-01 0. 8.86935651e-01 0. -1.62623703e+00 0.
      1.09311306e+00 0. -1.52477264e-01 0. 7.07913280e-01 0.
      -1.60893828e-01 0. 2.24650614e-02 0. -1.09387867e-01 0.
      2.90709883e-01 0. -4.54270750e-01 0. -9.37737152e-02 0.
      -1.97921187e-01 0. 8.14983189e-01 0. -2.88829803e-01 0.
      -1.59523398e-01 0. -3.03670228e-01 0. 2.76835948e-01 0.
      -7.98207581e-01 0. 3.22114713e-02 0. 1.12987943e-02 0.
      3.90669972e-01 0. -2.23843127e-01 0. -5.09950891e-02 0.
      -2.65051782e-01 0. 1.82558671e-01 0. -1.33822232e-01 0.
      -1.00284167e-01 0. -2.37327039e-01 0. 1.04156137e-01 0.
      -3.11454296e-01 0. 1.30409792e-01 0. -8.67983699e-01 0.
      7.44095266e-01 0. -1.70483267e+00 0. 3.02485544e-02 0.
      -1.42021865e-01 0. 6.02279782e-01 0. -1.58896640e-01 0.
      4.22235221e-01 0. -2.03829184e-01 0. 7.63952255e-01 0.
      -4.05847609e-01 0. 1.34473592e-01 0. -2.75744796e-01 0.
      -4.91479605e-01 0. -2.08640277e-01 0. -8.25401023e-02 0.
      -3.63192290e-01 0. 4.92995143e-01 0. -3.55084270e-01 0.
      7.61623606e-02 0. 9.57670286e-02 0. 7.05289185e-01 0.
      -1.33261904e-01 0. 2.43880555e-01 0. -3.01666051e-01 0.
      7.69609749e-01 0. -6.02320433e-01 0. 6.02174759e-01 0.
      4.60176505e-02 0. 9.36404705e-01 0. -3.46711010e-01 0.
      3.62137705e-01 0. -1.22107267e+00 0. -6.37653828e-01
      3.36081028e-01 9.24746171e-02 0. -3.27216744e-01 0.
      -3.44331078e-02 0. 5.87753594e-01 0. 6.16787672e-02 0.
      -4.05832589e-01 0. 1.84346169e-01 0. -7.07731664e-01 0.
      1.74796030e-01 0. -1.23061337e-01 0. 6.48691952e-02 0.
      -6.39164969e-02 0. 1.97073564e-01 0. -2.22759008e-01 0.
      -2.16300771e-01 0. -9.07820940e-01 0. -1.36398733e+00 0.
      -2.72398800e-01 0. 5.78991584e-02 0. -9.39548761e-03 0.
      -1.48642808e-01 0. -6.09389096e-02 0. -4.16350573e-01 0.
      -3.78346831e-01 0. 2.44472176e-02 0. -9.43732336e-02 0.
      -2.30989397e-01 0. -1.01985380e-01 0. 3.81126672e-01 0.
      -2.37770583e-02 0. 2.74211634e-02 0. 2.32852139e-02 0.
      3.65284503e-01 0. -2.71478832e-01 0. -3.88250165e-02 0.
      -1.21882573e-01 0. 1.43950656e-02 0. 1.06509119e-01 0.
      1.43761247e-01 0. -1.99795842e-01 0. -1.37587497e-02 0.
      1.23362914e-02 0. 1.01562947e-01 0. 1.77607000e-01 0.
      1.23029267e-02 0. 3.93771082e-01 0. 1.55925944e-01 0.
      6.17465936e-02 0. -9.70604345e-02 0. 2.88980067e-01 0.
      2.87481793e-03 0. 1.00860320e-01 0. -1.23959757e-01 0.
      -1.26883632e-03 0. 1.87478960e-01 0. 2.01373354e-01 0.
      3.10880333e-01 0. 7.77350664e-02 0. -3.66018228e-02 0.
      4.81714047e-02 0. 3.34624439e-01 0. 2.74960935e-01 0.
      2.98109055e-01 0. 6.31040931e-01 0. 1.24290653e-01 0.
      -4.32844639e-01 0. -3.17319930e-01 0. 1.59750059e-01 0.
      -1.68847635e-01 0. 9.36761498e-02 0. -3.26699913e-02 0.
      -6.81679174e-02 0. -2.58780271e-01 0. -1.73194222e-02 0.
      -9.42514241e-02 0. 6.84153438e-02 0. -1.53668836e-01 0.
      9.27205607e-02 0. -1.47878185e-01 0. 1.46358296e-01 0.
      8.99297893e-02 0. -5.55173540e-03 0. -1.30772084e-01 0.
      2.81931348e-02 0. -9.88704711e-02 0. -1.56293325e-02 0.
      1.10867560e-01 0. -1.18303441e-01 0. 2.68973522e-02 0.
      -3.48646455e-02 0. -1.34673357e-01 0. 1.23002909e-01 0.
      2.64561027e-01 0. 1.07198663e-01 0. -1.92394942e-01 0.
      1.83175616e-02 0. 4.09757853e-01 0. 5.39195724e-03 0.
      1.04501829e-01 0. 6.46539032e-02 0. 9.24748406e-02 0.
      7.62561113e-02 0. 1.46934479e-01 0. 3.46276522e-01 0.
      -3.61910045e-01 0. -5.80600314e-02 0. -4.46816795e-02 0.
      -5.17890565e-02 0. 9.27239135e-02 0. 9.68338549e-02 0.
      5.74630052e-02 0. 3.94062340e-01 0. -1.22057296e-01 0.
      3.06921005e-01 0. -4.91435789e-02 0. -3.24654937e-01 0.
      -8.46247673e-02 0. -5.37107624e-02 0. 1.60526097e-01 0.
      1.59149952e-02 0. 9.83013585e-02 0. 1.57606885e-01 0.
      -1.33746490e-01 0. -3.74721289e-01 0. 6.32388830e-01 0.
      3.70539546e-01 0. 1.48659408e-01 0. 3.25751066e-01 0.
      -4.76120681e-01 0. 4.24507827e-01 0. 1.51260020e-02 0.
      -2.52011925e-01 0. -2.01829121e-01 0. -2.36194894e-01 0.
      -3.14181745e-02 0. -2.27270588e-01 0. -1.71774998e-01 0.
      -1.70876250e-01 0. 7.72980899e-02 0. 2.08481312e-01 0.
      -1.25117615e-01 0. 6.12813747e-04 0. 2.14801922e-01 0.
      8.68308768e-02 0. 1.04964696e-01 0. 2.08418176e-01 0.
      4.26761173e-02 0. 4.91502322e-02 0. -1.30185187e-01 0.
      9.20362845e-02 0. -9.87281310e-05 0. 4.78415862e-02 0.
      1.13265164e-01 0. 1.87271386e-01 0. 2.24061739e-02 0.
      1.21156238e-02 0. -8.86997730e-02 0. 6.85335174e-02 0.
      1.01146780e-01 0. 2.63557762e-01 0. -6.02889843e-02 0.
      -1.00679537e-02 0. -9.39642489e-02 0. 1.91792920e-02 0.
      -7.29613304e-02 0. 3.97702530e-02 0. -4.44589294e-02 0.
      -1.38398796e-01 0. -1.41074881e-01 0. -2.59228218e-02 0.
      -1.33488164e-03 0. -3.75607051e-02 0. -2.44855862e-02 0.
      -1.85930431e-01 0. -2.94727664e-02 0. -1.39291644e-01 0.
      3.65047306e-02 0. 2.64146626e-02 0. -9.64644477e-02 0.
      2.01321803e-02 0. -3.99936773e-02 0. -2.23871320e-02 0.
      6.25663996e-02 0. -7.03826398e-02 0. -1.52581837e-02 0.
      -5.47435246e-02 0. 1.09870866e-01 0. -4.98318230e-04 0.
      4.97440982e-04 0. -9.03403983e-02 0. 1.34529486e-01 0.
      9.51540396e-02 0. -2.25057170e-01 0. 2.08991706e-01 0.
      2.86026955e-01 0. 1.30625844e-01 0. 5.22606783e-02 0.
      8.27420875e-02 0. 7.24910125e-02 0. -1.54209182e-01 0.
      -8.69077817e-02 0. 4.99918833e-02 0. 5.74913546e-02 0.
      -4.64072675e-02 0. 1.68790519e-01 0. 3.72104309e-02 0.
      3.60817253e-03 0. -1.18842229e-01 0. -2.06678703e-01 0.
      -8.72943476e-02 0. 5.96182533e-02 0. 1.03240222e-01 0.
      -9.34661552e-03 0. -1.70058176e-01 0. 5.48323505e-02 0.
      -1.88000694e-01 0. 7.95044675e-02 0. -5.42752407e-02 0.
      2.68457606e-02 0. -8.33182409e-03 0. -1.43893594e-02 0.
      1.63285330e-01 0. 1.80731952e-01 0. 1.96707785e-01 0.
      1.77559331e-01 0. 2.24925831e-01 0. 1.82818040e-01 0.
      -9.42012966e-02 0. 7.82939792e-02 0. -1.46624148e-01 0.
      -1.18390106e-01 0. 4.41242047e-02 0. -3.22301611e-02 0.
      5.66620231e-02 0. 3.04443520e-02 0. -2.97211409e-01 0.
      1.21958412e-01 0. 1.87202215e-01 0. -8.66698250e-02 0.
      -3.37578297e-01 0. 3.23357135e-01 0. 1.33485034e-01 0.
      2.69374698e-02 0. -1.33433463e-02 0. -2.45054215e-01 0.
      -6.83131889e-02 0. 1.91881433e-01 0. -6.72116399e-01 0.
      9.06076729e-02 0. 2.13278338e-01 0. -8.90710875e-02 0.
      2.10016266e-01 0. 4.16152626e-01 0. 3.61205965e-01 0.
      2.04196140e-01 0. -3.22384566e-01 0. 1.96274877e-01 0.
      6.41913354e-01 0. -7.47602522e-01 0. -1.38331518e-01 0.
      1.96404457e-01 0. -1.72981277e-01 0. 1.37617299e-02 0.
      -1.61752671e-01 0. -2.35678077e-01 0. 2.34964371e-01 0.
      -1.51204303e-01 0. -2.00938031e-01 0. -2.57502794e-01 0.
      2.27433547e-01 0. -1.35919675e-01 0. 1.86375782e-01 0.
      -2.30450422e-01 0. 9.88186523e-02 0. 1.86233684e-01 0.
      -1.08581707e-01 0. 1.70044526e-01 0. -1.22910134e-01 0.
      -7.33932182e-02 0. 2.88340002e-02 0. 4.49241884e-02 0.
      3.81486565e-01 0. -2.91834213e-02 0. 1.04440272e-01 0.
      2.12912798e-01 0. 3.80678117e-01 0. 3.04532107e-02 0.
      7.24872172e-01 0. -4.50654775e-01 0. 3.99948023e-02 0.
      -4.48003830e-03 0. -1.14878699e-01 0. 7.52111450e-02 0.
      -7.57232308e-04 0. -1.06157899e-01 0. 2.24563882e-01 0.
      -7.55290687e-02 0. 7.95722082e-02 0. -4.27955091e-02 0.
      9.80421063e-03 0. 8.19217712e-02 0. -3.69046405e-02 0.
      2.20897943e-01 0. 5.11972345e-02 0. -1.56508237e-01 0.
      2.49915093e-01 0. 3.70707586e-02 0. -1.74777061e-01 0.
      -1.82572217e-03 0. -1.04790315e-01 0. 1.71386376e-01 0.
      2.03694493e-01 0. 3.14603448e-02 0. -4.32213336e-01 0.
      -1.60150483e-01 0. -2.52397180e-01 0. -3.51181589e-02 0.
      -1.70853302e-01 0. 1.53871000e-01 0. 8.03472519e-01 0.
      -1.46913826e-01 0. 5.16845770e-02 0. -2.81827182e-01 0.
      -1.53150350e-01 0. 3.60509544e-03 0. 1.12584777e-01 0.
      -3.09943348e-01 0. 1.47988379e-01 0. 7.98151344e-02 0.
      -5.52926883e-02 0. -2.31494363e-02 0. -8.95379707e-02 0.
      2.21376657e-01 0. 8.21573511e-02 0. -4.46371967e-03 0.
      5.07079601e-01 0. 3.61353785e-01 0. -3.00120115e-02 0.
      -4.28815139e-03 0. -1.01374209e-01 0. -1.48708135e-01 0.
      4.13908362e-02 0. 7.14981854e-02 0. 2.99127907e-01 0.
      8.70803818e-02 0. -8.42127390e-03 0. -6.44772276e-02 0.
      -5.53295910e-02 0. 1.53212339e-01 0. 2.03900225e-02 0.
      9.20270905e-02 0. 8.27826917e-01 0. -3.93473834e-01 0.
      6.15482926e-02 0. 1.26979798e-01 0. 1.60363302e-01 0.
      7.02058012e-03 0. 6.90410882e-02 0. 1.03801072e-01 0.
      -1.30444150e-02 0. 7.90116563e-02 0. 1.48438647e-01 0.
      1.73867047e-01 0. -6.93494827e-02 0. 6.85413331e-02 0.
      1.22612566e-02 0. 4.91358824e-02 0. 4.40957576e-01 0.
      9.92907062e-02 0. 1.76257178e-01 0. 1.82015419e-01 0.
      -1.40250593e-01 0. 2.10914269e-01 0. 4.16616499e-02 0.
      7.45852962e-02 0. 5.56373894e-01 0. -2.11749271e-01 0.
      -1.26056269e-01 0. -4.01669443e-02 0. -2.49552038e-02 0.
      1.14176497e-01 0. 5.63404500e-01 0. -7.43663758e-02 0.
      3.69999528e-01 0. 2.47942075e-01 0. 4.17696923e-01 0.
      -1.91550553e-01 0. 6.03737891e-01 0. -2.83824950e-01 0.
      -4.36634511e-01 0. 2.36244291e-01 0. 2.23946467e-01 0.
      -2.12422356e-01 0. -4.42192927e-02 0. 7.45413601e-02 0.
      1.96302626e-02 0. 6.84929043e-02 0. 5.39688580e-02 0.
      5.42941019e-02 0. 6.32065952e-01 0. -7.05649331e-02 0.
      -5.13801612e-02 0. 1.53781489e-01 0. 5.44721365e-01 0.
      -9.20258686e-02 0. -9.56105888e-02 0. 5.39350361e-02 0.
      -5.63152321e-02 0. -3.19728523e-01 0. 1.06025510e-01 0.
      -2.45153401e-02 0. 3.62213671e-01 0. -3.41601729e-01 0.
      -4.12659049e-01 0. -4.01038170e-01 0. 8.65549862e-01 0.
      -1.95642292e-01 0. -2.71510094e-01 0. 2.83343673e-01 0.
      3.24597538e-01 0. -3.37129861e-01 0. -2.31659129e-01 0.
      6.14829175e-02 0. 1.04088306e-01 0. -9.71385911e-02 0.
      -1.31680042e-01 0. -1.90856516e-01 0. -5.42217612e-01 0.
      1.87742949e-01 0. -3.07424963e-01 0. 1.25220165e-01 0.
      4.51167762e-01 0. -7.99175501e-02 0. -1.02275558e-01 0.
      -1.30110979e-01 0. 2.81405628e-01 0. -5.91596924e-02 0.
      3.57735495e-04 0. 1.25756115e-01 0. -2.17868686e-01 0.
      -3.37777510e-02 0. -3.50376666e-01 0. -1.12314858e-01 0.
      2.62986273e-01 0. -3.85213017e-01 0. 1.06009981e-02 0.
      1.86872706e-01 0. 2.91746706e-01 0. -2.26168945e-01 0.
      1.02829129e-01 0. -1.50547042e-01 0. 2.69047469e-01 0.
      -1.11982673e-01 0. -2.05634031e-02 0. 4.47407067e-02 0.
      7.34022707e-02 0. 9.57321450e-02 0. 1.87865257e-01 0.
      -1.90408513e-01 0. 4.16467965e-01 0. -1.21138722e-01 0.
      3.31003219e-01 0. -3.39958280e-01 0. 2.97318518e-01 0.
      -3.62997353e-01 0. -8.19975212e-02 0. 4.92694899e-02 0.
      1.64908469e-01 0. -9.19430330e-02 0. 1.52344748e-01 0.
      -2.48510428e-02 0. 4.76800561e-01 0. -1.76787198e-01 0.
      1.47915095e-01 0. -8.98422599e-02 0. 1.81168306e-03 0.
      -6.42587900e-01 0. -1.08491123e-01 0. -8.98230314e-01 0.
      2.11475655e-01 0. -1.47919917e+00 0. -9.35709998e-02 0.
      8.34954903e-02 0. 5.53851426e-01 0. -8.12530518e-02 0.
      -1.27216242e-02 0. -6.28803372e-02 0. 4.61985648e-01 0.
      -1.51546031e-01 0. 2.92799652e-01 0. -1.93772942e-01 0.
      -7.07919598e-02 0. -1.15029439e-01 0. -2.12609679e-01 0.
      -4.79870379e-01 0. 7.93956816e-02 0. 1.51860133e-01 0.
      7.51011550e-01 0. 6.63076818e-01 0. 4.77229774e-01 0.
      1.96058378e-01 0. 6.80407658e-02 0. -3.41329128e-01 0.
      4.47159529e-01 0. 5.79778433e-01 0. 4.71369252e-02 0.
      -1.24670148e-01 0. 6.39909148e-01 0. 5.93407676e-02 0.
      -3.70410234e-01 0. -2.09439054e-01 0. -1.88406900e-01
      -4.58539844e-01 3.40361536e-01 0. -1.01156242e-01 0.
      2.30610475e-01 0. -9.49224949e-01 0. 2.07820401e-01 0.
      6.81974366e-02 0. 3.97510827e-01 0. -1.09281909e+00 0.
      3.17608595e-01 0. 4.82406884e-01 0. 2.53166676e-01 0.
      2.77008582e-02 0. 6.90688342e-02 0. 2.56668597e-01 0.
      3.35202128e-01 0. -9.43705201e-01 0. -3.82810831e-01 0.
      -2.88094610e-01 0. 2.91011930e-01 0. -6.48343116e-02 0.
      -2.61373609e-01 0. -9.46638733e-02 0. -1.64197579e-01 0.
      -5.57888746e-01 0. 1.89508408e-01 0. -7.58861527e-02 0.
      -2.73697495e-01 0. -1.46704882e-01 0. -2.02712733e-02 0.
      1.60627276e-01 0. -1.80616871e-01 0. -4.78585899e-01 0.
      2.16498807e-01 0. -5.16626179e-01 0. 1.25801921e-01 0.
      7.69413412e-02 0. -5.47287725e-02 0. 4.65575978e-02 0.
      1.28898859e-01 0. -3.58181983e-01 0. -3.74954402e-01 0.
      -1.92532852e-01 0. -1.26469195e-01 0. -7.48776048e-02 0.
      -1.52504146e-01 0. -1.29624054e-01 0. -9.77880284e-02 0.
      -1.87063605e-01 0. -4.63685930e-01 0. 2.16914430e-01 0.
      8.29015076e-02 0. 6.58007860e-02 0. 1.93431169e-01 0.
      -1.93746805e-01 0. 8.18553790e-02 0. -5.65613985e-01 0.
      3.64521444e-02 0. 2.11869016e-01 0. -1.00633809e-02 0.
      -1.81063473e-01 0. 2.11839840e-01 0. 1.01758741e-01 0.
      2.83221960e-01 0. -5.40459692e-01 0. 6.65025055e-01 0.
      1.05952822e-01 0. -6.47928715e-02 0. -2.33220682e-01 0.
      1.14067616e-02 0. 3.16520661e-01 0. -5.70659861e-02 0.
      -3.73696864e-01 0. -2.04115644e-01 0. 1.75683424e-01 0.
      -2.83405900e-01 0. 8.61636177e-02 0. 1.04658641e-01 0.
      -2.22460483e-03 0. -1.87993526e-01 0. 6.65776059e-02 0.
      -3.87646146e-02 0. 1.22519039e-01 0. -4.64078039e-02 0.
      -2.18543768e-01 0. -5.44132292e-02 0. -2.47448329e-02 0.
      1.01330169e-01 0. -3.36933047e-01 0. -5.41432686e-02 0.
      -1.54784620e-02 0. -6.05923980e-02 0. -1.57624200e-01 0.
      1.72174230e-01 0. -4.59015649e-03 0. 3.75539511e-02 0.
      1.62018001e-01 0. 6.54134274e-01 0. 1.31075054e-01 0.
      -8.03186670e-02 0. 1.48234800e-01 0. -3.89697403e-02 0.
      -6.62093796e-03 0. 7.73556307e-02 0. -3.57207693e-02 0.
      -9.13187340e-02 0. 6.84223995e-02 0. -6.11103661e-02 0.
      -2.76720989e-02 0. 7.04332516e-02 0. 1.00996085e-02 0.
      1.45079836e-01 0. -9.91307795e-02 0. 5.15937842e-02 0.
      -7.77993649e-02 0. 6.73671067e-02 0. 1.54174194e-01 0.
      9.67728496e-02 0. -5.94888665e-02 0. 7.56008849e-02 0.
      -2.72654220e-02 0. 5.05024977e-02 0. 1.55098401e-02 0.
      -3.84432971e-02 0. 4.36137319e-02 0. 1.92539230e-01 0.
      1.46881819e-01 0. 2.46175408e-01 0. 3.52211446e-01 0.
      6.04069591e-01 0. 4.49843109e-01 0. -8.76220502e-03 0.
      4.45159644e-01 0. 2.87339628e-01 0. -8.16482380e-02 0.
      -2.14373961e-01 0. -1.29506022e-01 0. -2.80250043e-01 0.
      -3.45929116e-02 0. 2.42921039e-02 0. 1.90038830e-02 0.
      3.85320783e-02 0. -9.07795578e-02 0. -2.16417364e-03 0.
      -5.84728532e-02 0. -2.77682506e-02 0. -1.06500193e-01 0.
      1.10939443e-01 0. 1.59076080e-01 0. -1.82727352e-01 0.
      2.33050957e-01 0. -3.70768756e-02 0. -1.34653583e-01 0.
      1.29705638e-01 0. -6.13412447e-02 0. -7.66507760e-02 0.
      -2.32827097e-01 0. -2.14372817e-02 0. -3.83514762e-02 0.
      -1.21448584e-01 0. 7.91209191e-02 0. 1.81474999e-01 0.
      -5.08063622e-02 0. 2.48800814e-01 0. -1.57013997e-01 0.
      -5.36988042e-02 0. -4.18143347e-02 0. 8.12790468e-02 0.
      -1.16701022e-01 0. 1.90940946e-02 0. 4.68655415e-02 0.
      8.38180333e-02 0. -1.94044068e-01 0. -8.66040587e-02 0.
      -1.18194722e-01 0. 1.53990984e-01 0. -8.45590681e-02 0.
      -6.76207542e-02 0. -2.72671096e-02 0. -7.13403150e-02 0.
      -5.73579781e-02 0. -3.01247463e-02 0. 3.81103456e-02 0.
      -1.48587748e-01 0. -1.31345272e-01 0. 7.80860782e-02 0.
      -4.97925133e-02 0. -1.51700713e-02 0. -7.15050548e-02 0.
      -2.22214580e-01 0. -1.25802398e-01 0. 4.17990275e-02 0.
      -3.28160673e-01 0. 7.97547460e-01 0. 3.55618477e-01 0.
      1.45825744e-01 0. 1.83701143e-03 0. 4.75688092e-02 0.
      1.47500888e-01 0. 1.03415176e-02 0. 1.98574081e-01 0.
      2.40916863e-01 0. 4.21019644e-03 0. -1.07449889e-01 0.
      -1.17139950e-01 0. 6.62334412e-02 0. 5.94235770e-03 0.
      -5.54495258e-03 0. 1.30188838e-01 0. 1.98777556e-01 0.
      -5.39944880e-02 0. -1.10842902e-02 0. 3.51910144e-02 0.
      1.84440019e-03 0. 1.76754035e-02 0. 6.60158023e-02 0.
      -2.51277626e-01 0. -5.87316640e-02 0. 1.85135603e-02 0.
      -1.07473932e-01 0. -1.17802517e-02 0. -3.66473123e-02 0.
      -1.20702736e-01 0. -2.08134755e-01 0. 4.21023488e-01 0.
      3.12000364e-01 0. 1.52227476e-01 0. -5.88510856e-02 0.
      -5.28360195e-02 0. 2.91801840e-01 0. -1.99849159e-03 0.
      2.10300863e-01 0. -1.99080054e-02 0. 1.96943227e-02 0.
      7.20275491e-02 0. 7.26807415e-02 0. -1.68384239e-01 0.
      1.00593995e-02 0. 6.43567787e-03 0. -1.84479598e-02 0.
      -4.99730945e-01 0. 3.14205825e-01 0. 1.84552535e-01 0.
      4.75769229e-02 0. 6.37953877e-02 0. 6.81712031e-02 0.
      -1.38414964e-01 0. 2.48806104e-01 0. -4.34321851e-01 0.
      9.18125659e-02 0. 1.27842635e-01 0. -5.32147214e-02 0.
      -6.87015280e-02 0. 3.26527327e-01 0. -4.52603474e-02 0.
      -5.30552305e-02 0. -4.52332228e-01 0. -7.17494413e-02 0.
      -4.31580245e-01 0. 4.94664371e-01 0. 6.49453640e-01 0.
      -2.95761555e-01 0. 4.21073139e-01 0. -3.66480500e-02 0.
      6.83916092e-01 0. -3.00327968e-02 0. -1.68859273e-01 0.
      -1.71033755e-01 0. -4.35625345e-01 0. -7.88834840e-02 0.
      -3.84586630e-03 0. 1.53460488e-01 0. 3.13207030e-01 0.
      -6.62742704e-02 0. 2.99294405e-02 0. -2.52860129e-01 0.
      9.30047184e-02 0. 8.80685821e-02 0. -9.34818015e-03 0.
      -3.97531390e-02 0. 1.61400810e-01 0. 9.96411219e-02 0.
      1.74359996e-02 0. -7.12814108e-02 0. -2.75363356e-01 0.
      1.21853910e-01 0. 2.54103392e-01 0. 6.18850254e-02 0.
      9.78228986e-01 0. 9.41744968e-02 0. 7.41570676e-03 0.
      1.70069531e-01 0. -3.14114355e-02 0. -6.49644360e-02 0.
      -1.39107525e-01 0. -4.97721210e-02 0. 6.66258395e-01 0.
      2.51733046e-02 0. -6.35494292e-02 0. -2.06906617e-01 0.
      1.37099531e-02 0. 6.60934150e-02 0. 6.21728189e-02 0.
      -2.32203931e-01 0. 1.65318966e-01 0. -5.87055571e-02 0.
      2.68877894e-01 0. 2.56914020e-01 0. 2.77304798e-01 0.
      5.01939356e-02 0. 5.32679409e-02 0. 6.62362725e-02 0.
      7.44029582e-02 0. 1.87403619e-01 0. 2.53893822e-01 0.
      1.39143348e-01 0. 2.83732742e-01 0. -5.26604466e-02 0.
      4.31425661e-01 0. 2.82068551e-01 0. 4.52208221e-01 0.
      2.70689249e-01 0. 8.83605704e-02 0. -7.96679482e-02 0.
      -7.39117095e-04 0. 1.74369350e-01 0. 1.49341986e-01 0.
      5.41527346e-02 0. 2.15675116e-01 0. 4.95319590e-02 0.
      -7.70000368e-02 0. 1.49564698e-01 0. 3.51590991e-01 0.
      1.53053328e-02 0. 8.47190171e-02 0. 4.20373455e-02 0.
      6.90088272e-01 0. -6.63359184e-03 0. 9.62757766e-02 0.
      7.75864646e-02 0. -9.58157629e-02 0. -5.27177788e-02 0.
      -2.03012731e-02 0. -1.73562393e-01 0. 1.67525746e-02 0.
      -2.08491147e-01 0. -4.30262089e-02 0. 5.44046052e-02 0.
      -1.34653479e-01 0. -7.19082505e-02 0. -1.32461131e-01 0.
      -2.39622340e-01 0. 1.10216653e-02 0. 5.08572161e-01 0.
      3.56838733e-01 0. -1.38408974e-01 0. -1.58818737e-02 0.
      -1.21786192e-01 0. 4.97358199e-03 0. 1.07564420e-01 0.
      1.92184485e-02 0. -8.95784721e-02 0. -1.18406788e-01 0.
      -9.12941024e-02 0. -4.00728174e-02 0. 1.39557585e-01 0.
      1.81357682e-01 0. 2.52513010e-02 0. -5.54675519e-01 0.
      5.78005165e-02 0. 2.64022410e-01 0. 9.82789248e-02 0.
      2.72183627e-01 0. 2.61170983e-01 0. -8.46301615e-02 0.
      -2.21032992e-01 0. -5.81023879e-02 0. 2.82857448e-01 0.
      3.59022081e-01 0. -2.13706307e-02 0. 3.08782160e-01 0.
      -3.93915735e-03 0. 6.33810341e-01 0. -6.15682006e-02 0.
      1.35063362e+00 0. -7.65958250e-01 0. -2.51788974e-01 0.
      -2.11665183e-02 0. 2.76431054e-01 0. -4.62621152e-01 0.
      -3.74336898e-01 0. -3.78322639e-02 0. -4.03706133e-01 0.
      1.58858150e-01 0. -8.87155533e-02 0. -2.30373859e-01 0.
      4.38057154e-01 0. -1.45083740e-01 0. -1.46871030e-01 0.
      1.10354714e-01 0. 6.58485591e-01 0. -8.18693787e-02 0.
      1.58423305e-01 0. -1.72540426e-01 0. 3.05904716e-01 0.
      3.24867107e-02 0. -1.09521471e-01 0. -2.51941048e-02 0.
      3.04685056e-01 0. -5.71331196e-02 0. 6.29149228e-02 0.
      -1.98087290e-01 0. 2.11379334e-01 0. -1.43100247e-01 0.
      2.05836222e-01 0. -1.66575938e-01 0. 5.62589586e-01 0.
      -2.43169188e-01 0. 1.07745841e-01 0. 4.46339361e-02 0.
      1.06824972e-01 0. 8.72694850e-02 0. -1.41689144e-02 0.
      1.42802909e-01 0. 1.43928051e-01 0. -1.62497848e-01 0.
      -5.76433651e-02 0. -6.49356097e-02 0. 4.92716692e-02 0.
      1.24011524e-01 0. -2.47759193e-01 0. 4.13636044e-02 0.
      -2.50847250e-01 0. -9.28316116e-02 0. 1.27855077e-01 0.
      -5.80469705e-02 0. 4.14992571e-01 0. -1.93472385e-01 0.
      -6.20943382e-02 0. 1.54609168e-02 0. -2.17887551e-01 0.
      1.33473650e-01 0. 3.07825238e-01 0. 2.46226639e-02 0.
      9.75313544e-01 0. -4.24557142e-02 0. 3.96651685e-01 0.
      1.82575118e-02 0. 8.40306699e-01 0. -1.42176127e+00 0.
      -1.40099615e-01 0. -4.46760118e-01 0. 1.48309782e-01 0.
      -5.29990792e-01 0. 8.74600336e-02 0. -1.22942887e-01 0.
      2.27559313e-01 0. -3.38167489e-01 0. 2.14810029e-01 0.
      -2.58615643e-01 0. -3.89356017e-02 0. -1.92485318e-01 0.
      -2.02247892e-02 0. -2.86007762e-01 0. 4.30425644e-01 0.
      -4.44059283e-01 0. -2.58158237e-01 0. -2.31647819e-01 0.
      4.29028183e-01 0. -3.81536961e-01 0. -8.22218880e-02 0.
      -7.68140107e-02 0. 4.43444550e-02 0. -8.32170099e-02 0.
      6.77971020e-02 0. -8.82289633e-02 0. -1.60614058e-01 0.
      -4.94431764e-01 0. 6.62262589e-02 0. -4.49433327e-01 0.
      -6.65814653e-02 0. 1.62966475e-01 0. 2.31584743e-01 0.
      -5.57638854e-02 0. 6.83928609e-01 0. -3.02775770e-01 0.
      3.41736712e-02 0. -2.70296708e-02 0. 8.54100227e-01 0.
      1.10920034e-02 0. 1.15830176e-01 0. -1.93383738e-01 0.
      -4.37723190e-01 0. 9.32366922e-02 0. 7.58247226e-02 0.
      -2.62500465e-01 0. 3.64731759e-01 0. 2.54813850e-01 0.
      4.29367036e-01 0. 2.98199862e-01 0. 5.33719420e-01 0.
      -9.58611295e-02 0. 3.37470233e-01 0. -1.07513875e-01 0.
      7.22994268e-01 0. -1.51627678e-02 0. 7.91273475e-01 0.
      -2.77264833e-01 0. 2.42626458e-01 0. -4.39271301e-01 0.
      4.18348968e-01 0. -1.46571028e+00 0. -1.34644762e-01</_></support_vectors>
  <decision_functions>
    <_>
      <sv_count>1</sv_count>
      <rho>-1.4832077498752221e+00</rho>
      <alpha>
        1.</alpha>
      <index>
        0</index></_></decision_functions></my_svm>
</opencv_storage>
