<?xml version="1.0"?>
<opencv_storage>
<my_svm type_id="opencv-ml-svm">
  <svm_type>C_SVC</svm_type>
  <kernel><type>LINEAR</type></kernel>
  <C>1.</C>
  <term_criteria><epsilon>2.2204460492503131e-16</epsilon>
    <iterations>100</iterations></term_criteria>
  <var_all>34020</var_all>
  <var_count>34020</var_count>
  <class_count>2</class_count>
  <class_labels type_id="opencv-matrix">
    <rows>1</rows>
    <cols>2</cols>
    <dt>i</dt>
    <data>
      -1 1</data></class_labels>
  <sv_total>1</sv_total>
  <support_vectors>
    <_>
      4.50135395e-03 1.21298886e-03 -4.14470769e-03 -5.85971074e-03
      -1.93585493e-02 -1.11246528e-02 2.36842968e-03 -6.91688666e-03
      5.20636747e-03 1.23148039e-03 -4.27052053e-03 -9.63077648e-04
      -1.73972137e-02 -1.38846710e-02 -1.54374037e-02 3.49097047e-03
      -1.56912729e-02 3.47210490e-03 5.22057852e-03 4.63089626e-03
      -1.32016581e-03 -1.95698417e-03 -7.78990146e-03 -2.47108610e-03
      1.03521030e-02 -4.09840187e-03 1.14009073e-02 4.34154086e-03
      2.30684085e-03 1.00010447e-02 -1.35196829e-02 -2.60755653e-03
      -1.08220358e-03 1.40796192e-02 -4.55744145e-03 8.87438376e-03
      1.44101516e-03 -1.13435397e-02 -7.34263659e-03 -2.03836486e-02
      -1.39942970e-02 -1.08083170e-02 5.69737342e-04 -6.56714942e-03
      4.55373619e-03 8.39843322e-03 -7.51659600e-03 -6.64885563e-04
      -8.42980016e-03 -3.42231640e-03 -3.69556574e-03 7.63157383e-03
      8.85154307e-03 1.36817908e-02 5.91735635e-03 3.45835026e-04
      -1.39062502e-03 -1.84222348e-02 -1.20535381e-02 -3.49190878e-03
      6.62662229e-03 3.48411733e-03 1.12383766e-02 5.19994879e-03
      -3.65217566e-03 -8.75669718e-03 -6.77471934e-03 -1.55388156e-03
      4.73319786e-03 8.39381479e-03 1.33700920e-02 9.58986953e-03
      9.92318708e-03 2.54814979e-03 5.27861109e-03 1.83516834e-03
      -6.46693585e-03 -4.01364407e-03 3.65165784e-03 -1.37326145e-03
      6.68838527e-03 9.79970209e-03 1.10332016e-02 1.11801252e-02
      -1.10798655e-02 -6.37446996e-03 -7.48041831e-03 -4.92870575e-04
      -1.00030880e-02 -2.10703537e-03 4.97585954e-03 -2.79467407e-04
      7.41784042e-03 5.79124549e-04 -9.86984116e-04 -1.19381084e-03
      5.73020382e-03 2.95980135e-03 2.72054481e-03 9.87460278e-03
      5.91675844e-03 1.14787631e-02 -2.26808805e-03 -3.43638938e-04
      -6.59880741e-03 2.18958315e-03 -3.91282560e-03 3.28407506e-03
      4.37024562e-03 7.22370250e-03 1.07020214e-02 2.79040891e-03
      -5.15997130e-03 -8.65068194e-03 7.50625040e-04 -1.46245654e-03
      -2.12469627e-03 -5.11714257e-03 -4.52182908e-03 1.10220467e-03
      2.80391518e-03 -1.52045535e-03 -1.35665270e-03 5.60403569e-03
      7.29953684e-03 -2.60205613e-03 2.66563357e-03 2.75980472e-03
      9.98570118e-03 7.90339988e-03 -9.46695078e-03 -1.04701929e-02
      3.24915163e-04 -1.54298765e-03 -5.82630764e-06 -2.39584502e-03
      -1.02903787e-02 -7.83547701e-04 6.53130095e-03 -5.93150081e-03
      -4.65139095e-03 2.39989138e-03 5.20610064e-03 3.28299752e-03
      5.88693842e-03 -3.72333312e-03 -7.17363693e-03 -8.20428226e-03
      -7.95980822e-03 -1.73434895e-03 -1.15618692e-03 2.10786937e-03
      1.83598616e-03 6.88845292e-03 -5.21444250e-03 1.36002444e-03
      5.33585250e-03 4.66381432e-03 4.67089284e-03 3.13310209e-03
      1.09139550e-03 9.06476378e-03 2.62107723e-03 -1.20297782e-02
      -3.94835463e-03 -4.72474564e-03 -1.30210891e-02 -7.42094638e-03
      -8.44526850e-03 2.65303708e-04 5.99857233e-03 -3.23696132e-03
      -9.36518330e-03 -3.42319184e-03 -6.27641566e-03 -1.08048238e-03
      1.42895686e-03 -8.21527001e-03 -4.50033136e-03 9.09089576e-03
      4.04523499e-03 -6.02639932e-03 -5.89418749e-04 3.84853617e-03
      3.97323957e-03 1.04497361e-03 2.19375174e-03 -5.46901196e-04
      1.04906876e-02 -3.41131142e-03 -7.85471685e-03 -6.58474443e-03
      -4.28805128e-03 -1.05712879e-02 -6.36897166e-04 2.24251091e-03
      1.44528935e-03 3.47718294e-03 -3.50295892e-03 -1.14849368e-02
      -4.12374921e-03 -5.55531448e-03 -8.54431186e-03 -6.81753783e-03
      -3.76131758e-03 -2.22128816e-03 5.25506074e-03 3.04561853e-03
      -5.79020754e-03 3.32253892e-03 -6.61466387e-04 -8.94225203e-03
      -9.76918172e-03 -2.78059888e-04 2.08082935e-03 5.03354194e-03
      5.00323426e-04 -4.87111555e-03 -3.88836279e-03 -2.16272520e-03
      -7.49064330e-03 -1.18191878e-03 -8.70495685e-04 -2.31537363e-03
      3.20989848e-03 -2.38051824e-03 -1.72703099e-02 -6.93895109e-03
      -1.16818212e-03 7.24878442e-03 1.15013600e-03 1.65375869e-03
      -6.01475500e-03 3.61743011e-03 5.70936641e-03 -3.53663019e-03
      3.63645772e-03 3.17198993e-03 3.08468961e-03 -4.58896207e-03
      -7.92405976e-04 -9.88643966e-04 8.33301339e-03 -6.34975219e-03
      -1.21156275e-02 -9.35262442e-03 1.29281962e-02 5.18037239e-03
      -4.81040124e-03 1.10073911e-03 -6.05445681e-03 6.65088138e-03
      -4.53591859e-03 -1.20773558e-02 -4.52107197e-04 1.30883895e-03
      -5.29442448e-04 8.86383117e-04 4.14882880e-03 1.92131184e-03
      2.00291118e-03 -1.11440960e-02 -1.12545779e-02 -2.25327932e-03
      -4.97201970e-03 -9.97124123e-04 -6.25216868e-03 6.37457124e-04
      4.66285594e-04 1.74562470e-03 -1.69147574e-03 -7.76291313e-03
      3.43010070e-05 1.02775805e-02 -3.37619893e-03 -5.78692043e-03
      5.97552024e-03 6.56134076e-03 1.20112533e-02 -6.10822579e-03
      -2.82593141e-03 1.80465064e-03 3.70610831e-03 6.57809339e-03
      5.25192451e-03 9.92770959e-03 -3.87292239e-03 5.86309005e-03
      -5.34187444e-03 -7.66448723e-03 -1.35884446e-03 -4.07509087e-03
      -2.94253160e-03 -1.37724280e-02 -1.04790637e-02 -5.00626862e-03
      9.60750040e-04 -7.20550679e-03 -8.04813392e-03 3.73094808e-03
      5.04141441e-03 1.14353625e-02 2.01438088e-03 -4.34715766e-03
      -9.84530430e-03 3.43353976e-03 3.34559614e-03 1.31294457e-03
      5.59370592e-03 6.84217317e-03 3.12408269e-03 1.48625800e-03
      7.07591607e-06 -7.67837837e-03 6.07161038e-03 9.88021400e-03
      7.53759305e-05 9.65516549e-03 8.54386576e-03 1.28620612e-02
      1.25757745e-02 -4.21941746e-03 -7.02361297e-03 1.20663820e-02
      -1.11402925e-02 -1.17908157e-02 7.71887018e-04 4.05531330e-03
      1.09643908e-02 1.26360229e-03 -8.42993055e-03 -1.04756318e-02
      -2.84223701e-03 -4.45346022e-03 -1.18580516e-02 9.03632143e-04
      3.12228221e-03 5.74162276e-03 4.75242618e-04 2.86276243e-03
      -1.93820777e-03 3.91857792e-03 6.10047765e-03 -5.28480345e-03
      7.48858904e-04 9.88455582e-03 1.09602250e-02 -2.64641060e-03
      -9.65177268e-03 -1.36323376e-02 6.93220738e-03 3.57330311e-03
      -9.12968256e-03 -2.95139570e-03 5.24973636e-03 8.90157651e-03
      1.50590925e-03 -5.73069043e-03 -4.53243172e-03 7.45753990e-03
      2.02393159e-03 -6.85920101e-03 -4.50034742e-04 2.45288876e-03
      6.83628628e-03 1.82838272e-03 3.77914938e-03 7.26163853e-04
      6.82462612e-03 8.37867614e-03 -1.11851273e-02 -1.95963751e-03
      1.27251749e-03 2.63747370e-05 -3.22583853e-03 3.84868751e-03
      5.59658464e-03 1.58730038e-02 7.20778044e-05 -1.91002560e-03
      -3.37312394e-03 6.30039535e-03 8.84261448e-03 2.98502995e-03
      1.13844220e-03 -2.60321121e-03 2.01257807e-03 1.33938354e-03
      -5.12881251e-03 6.08354015e-03 9.51019581e-03 -7.16909972e-06
      3.29020619e-03 -3.66239366e-03 -3.38902231e-03 7.17653334e-03
      6.90630917e-03 -2.16056872e-03 3.78996949e-03 5.56990365e-03
      -5.50651457e-03 2.43316568e-03 2.57725525e-03 8.07069056e-03
      1.49528729e-02 3.01407021e-03 -9.22849867e-03 -7.69957202e-03
      -5.12275705e-03 -1.24497032e-02 9.79898730e-04 -6.51967432e-03
      -2.26806826e-03 6.97729131e-03 1.01420039e-03 5.41104004e-03
      1.12177087e-02 1.65308043e-02 -8.02067947e-03 5.20149525e-03
      -6.01065578e-03 -2.67605437e-03 1.12448493e-02 -1.14512874e-03
      -2.06163316e-03 2.68466049e-03 3.12234857e-03 -1.17024565e-02
      -2.54362763e-04 -5.52706700e-03 -8.54639709e-03 -3.78467987e-04
      6.96140341e-03 -1.51795291e-04 -5.81600005e-03 -7.65131379e-04
      -2.96961889e-03 5.77193219e-03 -8.63285270e-04 -4.08677524e-03
      1.07280537e-02 1.03459274e-03 1.06483297e-02 7.87296519e-03
      6.33647712e-03 -9.55358788e-04 -4.17548057e-04 5.93321957e-03
      2.15963065e-03 4.83841309e-03 1.01724975e-02 -3.66105605e-03
      2.51190667e-03 2.20019696e-03 1.34218222e-04 4.03346634e-03
      -5.73166506e-03 -8.14336725e-03 6.84735598e-03 1.63933309e-03
      5.98606071e-04 2.41411920e-03 1.14365546e-02 5.63108735e-03
      5.79594960e-03 2.80007580e-03 -1.48262538e-03 7.14214379e-03
      -4.17141942e-03 5.84903313e-03 4.29171184e-03 7.36807007e-03
      2.07683630e-03 -2.22635019e-04 -5.39578637e-03 -1.84872682e-04
      3.07190721e-03 -2.91421963e-03 7.25268805e-03 5.17477235e-03
      4.07428341e-03 -1.83222059e-03 -3.01249069e-03 -3.49285058e-03
      -1.53037719e-03 5.63713722e-03 -5.31724887e-03 4.84184158e-04
      -1.57565018e-03 1.26714427e-02 5.44337975e-03 -2.44908524e-03
      -4.98106179e-04 -3.75810731e-03 6.78293640e-04 -2.48148711e-03
      2.94902292e-03 5.65966417e-04 1.42017361e-02 2.60689203e-03
      -5.45092998e-03 -2.49402341e-03 -8.94520897e-03 -5.24188392e-03
      -5.00649679e-03 8.49253440e-04 -3.84169095e-03 -1.95760070e-03
      -3.00588232e-04 -3.39179509e-03 1.11194709e-02 3.46691953e-03
      8.81046057e-03 1.64993122e-04 -3.30367149e-03 -3.41506256e-03
      -6.87028468e-03 -1.33264728e-03 2.10922468e-03 3.32029420e-03
      -4.58287448e-03 8.17696564e-03 6.34687301e-03 -4.35029535e-04
      -4.47157351e-03 1.06372610e-02 9.68313217e-03 1.87954574e-03
      2.56040948e-03 5.16398170e-04 5.90532320e-03 1.50929866e-02
      -1.33149687e-03 2.73023988e-03 5.89417107e-03 6.13218918e-03
      6.17604749e-03 -1.11325178e-02 -3.56932008e-03 1.23282857e-02
      -3.99724068e-03 -1.80201454e-03 -4.26116306e-03 -2.18544225e-03
      -9.14699025e-03 -2.04299274e-03 1.00968331e-02 -3.41654359e-03
      5.56830131e-03 -1.00513585e-02 1.89109868e-03 3.89868999e-03
      -1.52168665e-02 -1.06914598e-03 -5.10746427e-03 6.92687230e-03
      -1.43930940e-02 -2.89040431e-03 1.22346357e-03 2.03980342e-03
      2.07895157e-03 5.96850412e-03 -1.84651086e-04 -1.70401274e-03
      5.00410469e-03 8.31690617e-04 5.71753364e-03 -3.13226879e-03
      7.94759206e-03 1.36257876e-02 -1.96349761e-03 9.64852422e-03
      -8.80840607e-03 1.40172880e-04 -9.91665013e-03 3.53610190e-03
      -1.02037913e-04 4.33028117e-03 1.93470810e-03 -1.41942855e-02
      -7.28597166e-03 -5.71708614e-03 4.23929095e-03 -4.11148882e-03
      1.97394961e-03 -2.98401527e-03 -6.58034347e-03 -1.16305090e-02
      -1.08150989e-02 -2.40630796e-03 7.05993688e-03 9.68749076e-03
      5.18955244e-03 -1.45319314e-03 3.85309872e-03 6.51871879e-03
      7.31519563e-03 -7.72140548e-03 1.66904018e-03 -5.96207613e-03
      9.84175224e-03 5.78586652e-04 7.47375377e-03 -8.29889148e-04
      -4.00523655e-03 -3.30993277e-03 -9.16548446e-03 -5.68157819e-04
      1.19253597e-03 9.81652644e-03 6.54303841e-03 5.18555427e-03
      2.05180515e-03 -7.99737778e-03 -2.83010700e-03 -1.07954051e-02
      -3.31741292e-03 9.35168937e-04 1.05505148e-02 5.56948548e-03
      4.90659382e-03 7.58621981e-03 -3.92959267e-03 3.19962716e-03
      -4.91940323e-03 -7.58759864e-03 -3.35859554e-03 4.73939627e-03
      1.10692694e-03 5.29400120e-03 2.23292317e-03 -5.12138521e-03
      -2.58410815e-03 -8.19147006e-03 -3.93128116e-03 2.94553419e-03
      7.05002202e-03 5.33501711e-03 1.20075885e-02 8.53536930e-03
      2.69064005e-03 -5.36563853e-03 -9.02538188e-03 -3.34129925e-03
      3.23581020e-03 4.37773950e-03 3.01580847e-04 1.20406300e-02
      6.36904221e-03 -4.81713749e-03 6.52339950e-04 2.79251742e-03
      -9.61473584e-03 -4.61931247e-03 2.61062349e-04 4.96737950e-04
      4.81591607e-03 1.80187140e-04 -1.08633712e-02 -1.13545940e-03
      8.02331511e-03 -2.23755650e-03 -6.10393519e-03 7.95684755e-03
      7.95361644e-04 -4.02802456e-04 7.03328196e-03 -1.21295080e-03
      1.84858055e-03 -4.73910058e-03 -2.31064041e-03 -1.66375737e-03
      2.76674237e-03 1.48643588e-03 8.79791100e-03 -3.74201889e-04
      -2.70698103e-03 4.44239983e-03 2.11179862e-03 -1.16297742e-03
      5.26364485e-04 1.23198116e-02 -3.21014901e-03 2.00697873e-03
      2.96639948e-04 -7.88923725e-03 1.31116400e-03 5.61921950e-03
      -6.17501372e-03 -6.40052650e-03 -1.32021640e-04 3.78956291e-04
      9.74654395e-04 -6.78880373e-03 -5.42134093e-03 -1.59306068e-03
      3.32275592e-03 -4.23346972e-03 -7.41972076e-03 -2.50674377e-04
      2.43956270e-03 3.48154921e-03 -2.09621247e-03 -2.70834251e-04
      6.09369716e-03 5.81087591e-03 2.71253375e-04 -1.95533596e-03
      1.21016242e-02 2.16365815e-03 2.02893466e-03 -6.47013169e-03
      1.13177369e-03 -4.67328029e-03 1.08453736e-03 -3.53552611e-03
      -8.31825472e-03 1.05260741e-02 5.37073240e-03 -1.66756334e-03
      -4.82857879e-03 -4.64070309e-03 -1.24642946e-04 1.06576912e-03
      -7.42887892e-03 -9.95339453e-03 3.46364477e-03 2.60880287e-03
      5.73957944e-03 1.42867968e-04 2.07104534e-03 1.09083885e-02
      4.63528186e-03 6.76259585e-03 -2.57384032e-03 3.91678279e-03
      2.75124656e-03 1.06232986e-02 -6.20214036e-03 1.49913365e-03
      2.29087402e-03 1.11755952e-02 -9.21718124e-03 -8.31534341e-03
      5.67579875e-03 1.74620841e-03 4.64723213e-03 -7.87477102e-03
      -4.20403201e-03 8.54919851e-03 -2.12948839e-03 3.87539971e-03
      -2.53105280e-03 7.49743124e-03 -4.38307354e-04 6.28546998e-03
      2.93816254e-03 -3.97956138e-03 7.45856436e-03 7.68395746e-03
      3.97944823e-03 -3.43243917e-03 3.17806914e-03 3.15812742e-03
      9.36487038e-03 -1.64506142e-03 -1.21512618e-02 -5.98448375e-03
      1.65703055e-02 5.55197615e-03 -6.82992907e-03 5.56559488e-03
      1.35289354e-03 6.72189053e-03 -3.28936474e-03 -8.97989422e-03
      -9.03199252e-04 -1.60950891e-04 -3.53107322e-03 -2.66818982e-03
      4.15015779e-03 4.63393750e-03 5.92743047e-03 -5.47551829e-03
      -1.49203101e-02 -9.86661389e-03 7.25855911e-03 2.36615050e-03
      -4.32067923e-03 7.11978739e-03 4.10421722e-04 4.52452980e-04
      -2.03413330e-03 -1.18260197e-02 -4.95832181e-03 3.06902337e-03
      -4.61858604e-03 -6.01521041e-03 3.06594232e-03 7.52592168e-04
      8.57302267e-03 -7.70043174e-04 -3.48149333e-03 -1.71780156e-03
      8.69280368e-04 5.12063038e-03 5.81294997e-03 6.15347829e-03
      -6.32316526e-03 4.69235331e-03 2.89278035e-03 -9.39321797e-03
      -7.64601585e-03 3.10406438e-03 3.85040673e-03 -3.87134426e-03
      2.55364017e-03 -4.62088780e-03 -2.48461496e-03 5.25732432e-03
      -2.97317957e-03 -6.50879974e-03 -6.99752767e-04 3.95002495e-03
      -2.35651643e-03 6.10829983e-03 -7.71169504e-03 -2.51310412e-03
      4.59627807e-03 1.61975250e-03 -1.55406131e-04 2.13189446e-03
      -3.46862967e-03 4.40507103e-03 5.26731880e-03 -5.38866175e-03
      4.36094776e-03 9.06277914e-03 -1.20052486e-03 2.11399887e-03
      6.78718090e-04 3.19891935e-03 7.56021496e-03 3.07623763e-03
      -2.34436171e-04 8.99678655e-03 4.50972328e-03 -3.04354681e-03
      -4.04327409e-03 -3.95517563e-03 -7.98630249e-03 2.76895403e-03
      9.47775692e-03 -2.68143904e-03 4.49567917e-04 2.98999134e-03
      -1.77109754e-03 -7.67072779e-04 -5.95817482e-03 -1.64974097e-03
      3.03520542e-03 5.67585044e-03 3.93008813e-03 1.00479031e-03
      9.89581272e-03 -4.28981846e-03 -1.86165387e-03 4.37812274e-03
      9.14050848e-04 -5.49361575e-05 -4.23466275e-03 -7.75254052e-03
      4.47111577e-03 1.05129108e-02 1.77631073e-03 2.60853022e-03
      7.75402272e-03 1.00278948e-02 6.38234662e-03 -3.19339987e-03
      -3.78048979e-03 9.08887573e-03 3.60360136e-03 -1.79155392e-03
      -3.26792686e-03 -6.77237147e-03 -2.40054354e-03 8.29363358e-04
      -1.40923157e-03 -5.24351513e-03 -3.09482147e-03 -3.46786529e-03
      -5.80865750e-03 5.46948984e-03 6.05141977e-03 7.93171022e-03
      9.33359284e-03 -3.04621365e-03 -5.89846028e-03 -1.66418171e-03
      5.00202551e-03 8.82483728e-04 -3.66532302e-04 5.41617908e-03
      1.84744818e-03 4.70509846e-03 1.37854309e-03 5.10746380e-03
      4.61684680e-03 2.59889872e-03 2.30204943e-03 9.84780397e-03
      8.51958524e-03 -5.98175684e-04 -2.45154183e-03 2.02118792e-03
      -7.11657281e-04 4.02914453e-03 -6.23618206e-03 -1.15698772e-02
      -1.71152060e-03 1.44251250e-02 7.62899080e-03 3.80914169e-03
      -5.35972137e-03 4.01616888e-03 1.36103807e-03 -5.81936212e-03
      2.98231462e-04 6.50243461e-03 6.25446718e-03 2.38367449e-03
      -1.24056905e-03 1.57789944e-03 4.78925509e-03 -8.01754213e-05
      -7.45091995e-04 7.26552075e-03 1.57549046e-02 1.41842458e-02
      -5.81040629e-04 5.14670275e-03 4.61501681e-04 8.34981038e-04
      6.25346927e-03 -3.28216096e-03 3.89762991e-03 6.55100960e-03
      -4.34892299e-03 -1.05025042e-02 -3.22222267e-03 5.94916800e-03
      -2.21622339e-03 -6.99854596e-03 1.70115629e-04 4.88369446e-03
      1.30419498e-02 2.58403737e-03 -2.13241298e-03 -3.11346748e-03
      2.21603565e-04 4.37273178e-03 4.84636240e-03 -9.18280892e-03
      -1.19488162e-03 5.33698406e-03 -6.93536457e-03 -5.38537093e-03
      -4.14464064e-03 2.61934847e-03 2.70502083e-03 7.79755122e-04
      4.22752416e-03 -1.13952486e-03 3.70253879e-03 -1.24398759e-03
      4.62009339e-04 -4.41048556e-04 1.87221565e-04 -6.38226792e-03
      -1.28967245e-03 1.84573606e-03 -1.02163723e-03 1.43623067e-04
      6.63465261e-03 5.14578540e-03 4.99330601e-03 4.76956321e-03
      -8.26683186e-04 2.41161720e-03 -4.69489023e-03 -5.02592884e-03
      1.62839191e-03 -1.67173229e-03 -3.40942177e-03 -3.33109172e-03
      1.98806287e-03 2.76343967e-03 1.93315046e-03 5.91359288e-03
      7.18343211e-03 5.29428106e-03 6.35968056e-03 -6.46892982e-03
      1.38966588e-03 5.73602924e-03 2.23305682e-03 -1.44901813e-03
      1.35061820e-03 1.67885417e-04 1.96119747e-03 7.24311639e-03
      5.51654771e-03 2.28352076e-03 2.97819101e-03 -3.78464093e-03
      1.77787355e-04 5.13692480e-03 1.78000762e-03 6.25442481e-03
      1.25777572e-02 5.85886789e-03 -3.91111011e-03 1.80318020e-05
      -5.09440107e-03 -4.53782361e-03 3.14203883e-03 6.29202696e-03
      1.62326498e-03 1.02030626e-03 -1.11349125e-03 -1.67847634e-03
      -1.60367182e-03 -2.26092199e-03 -2.96456157e-03 1.03116210e-03
      1.58718566e-03 4.61655390e-03 1.02609070e-03 -9.59249854e-04
      -5.64170256e-03 -9.87654552e-03 1.73247862e-03 1.73436536e-03
      5.59660094e-03 -4.69336635e-04 -4.50814795e-03 6.94540283e-03
      9.48196836e-03 -1.53886981e-03 -5.72059536e-03 -2.13645166e-03
      -1.96176558e-03 3.28090298e-03 -3.88874835e-03 -5.17103123e-04
      5.82541851e-03 5.90588572e-03 -1.97568350e-03 -1.28593100e-02
      2.85767042e-03 4.14029602e-03 2.75780470e-03 4.64856997e-03
      1.73907855e-03 -3.80144920e-03 3.34283290e-03 -1.14332291e-03
      -4.33383649e-03 6.63607474e-03 5.59361186e-03 3.82916507e-04
      -1.52021961e-03 2.64340942e-03 -2.56533176e-03 -1.32320635e-03
      -2.41359626e-03 -3.73140932e-03 1.07416464e-02 6.75195549e-03
      -1.75360567e-03 9.35260323e-04 -2.21442344e-04 4.41583013e-03
      -5.48116770e-03 -3.00526712e-03 1.98083417e-03 -1.04334520e-03
      -5.51423524e-04 -7.35739886e-04 -1.71482249e-03 7.77841918e-03
      4.51722508e-03 1.40378237e-04 -1.01889875e-02 4.19672858e-03
      -3.79790366e-03 1.25232490e-03 -4.84468648e-03 -6.17959164e-03
      -2.33425162e-04 -1.77071930e-03 -7.42347725e-03 -3.14525864e-03
      5.84450457e-03 4.75710910e-03 -2.06252909e-03 2.12357775e-03
      -5.78531821e-04 4.12543258e-03 -6.18938962e-03 -1.22354145e-03
      -1.12998793e-02 3.02014430e-03 -3.87181691e-03 2.98618979e-04
      1.58999511e-03 1.97150256e-03 8.78614932e-03 2.82604154e-03
      -8.46200995e-03 -5.86779183e-03 1.25013515e-02 8.16306099e-03
      7.74542522e-03 -2.34938669e-03 -1.54068426e-03 7.09541701e-03
      -1.41580997e-03 -1.01817725e-02 -7.38912541e-03 7.43950205e-03
      6.19190745e-03 6.26072893e-03 3.27791553e-03 3.17351194e-03
      7.53326248e-03 1.55538821e-03 -7.30074896e-03 -5.92915993e-03
      7.68562686e-03 3.71217751e-03 4.42499807e-03 1.82605392e-04
      -5.25418087e-04 8.95560160e-03 2.33166665e-03 -6.30150503e-03
      -1.08307172e-02 5.46548096e-03 -2.60970066e-03 2.34260247e-03
      1.58508716e-03 1.44870288e-03 4.86017019e-03 -9.99313052e-05
      -9.07748193e-03 -3.28440499e-03 2.97450367e-03 2.87516089e-03
      7.78296590e-03 1.26805622e-03 4.43916628e-03 -2.04537786e-03
      -1.13640493e-02 -3.96261923e-03 4.69038147e-04 5.12726931e-03
      -3.33859981e-03 8.22858326e-03 -2.12386111e-03 4.27003484e-03
      6.66139461e-03 3.03852744e-03 -5.31404978e-03 -3.93847609e-03
      4.91038896e-03 1.67521706e-03 2.18440336e-03 -3.39709339e-03
      -5.73386811e-03 -2.38816882e-03 -4.56963573e-03 3.48377321e-03
      6.40024839e-04 3.50121013e-03 3.51610041e-04 -5.96001919e-04
      -2.86777224e-03 7.37583396e-05 -2.98309838e-04 -1.14425654e-02
      2.57346616e-03 -9.11681491e-05 -6.61809172e-04 -6.33274857e-03
      2.31839810e-03 -5.94603550e-03 -8.33196100e-04 1.99024053e-03
      3.56498826e-03 1.67326140e-03 4.89016762e-04 2.58872518e-03
      -3.94686451e-03 -2.39658846e-07 -4.64577432e-04 -6.64681429e-03
      -6.73320564e-03 -4.32362873e-03 7.70726660e-03 -2.23751669e-03
      -2.43180199e-04 -1.39810948e-03 -1.01333344e-03 -5.28666365e-04
      1.59753882e-03 1.86139974e-03 4.80434205e-03 1.58061809e-03
      -2.07428820e-03 2.50976323e-03 4.59748087e-03 -3.88989644e-03
      -1.02291012e-03 -1.84253149e-03 -2.70798826e-03 4.80621355e-03
      5.44090616e-03 -1.83475844e-03 5.61665604e-03 9.69076500e-05
      1.13990856e-03 -5.03104925e-03 -4.38402640e-03 -1.34514822e-02
      1.01256417e-03 -4.64385189e-03 -3.97496158e-03 7.50643434e-03
      -3.07406019e-03 -2.19473941e-03 7.22723780e-03 -5.23453718e-03
      -1.04780160e-02 5.62892016e-03 -1.78375363e-03 -2.08580866e-03
      6.74350793e-03 1.37687905e-03 1.03978871e-03 -3.38000059e-03
      -9.59544443e-03 -1.34590566e-02 -5.77372778e-03 -2.92676408e-03
      -4.16488806e-03 2.10805936e-03 -6.49174256e-03 -1.01173576e-03
      -2.24065641e-03 -5.10012219e-03 -2.21633492e-03 4.17349720e-03
      -1.17445271e-02 -6.55135093e-03 5.11676818e-03 -9.67326749e-04
      -2.00425670e-03 -2.77600338e-04 -3.38580343e-03 4.71312739e-03
      -2.29689782e-03 -3.74253630e-03 8.61806097e-04 8.22161511e-03
      1.56522973e-03 2.76747323e-03 1.21336419e-03 -3.57230520e-03
      -1.88586209e-03 -2.04715063e-03 -9.42424592e-03 2.95356323e-04
      3.34419659e-03 1.94531772e-03 5.52413659e-03 5.48213441e-03
      -4.55403002e-03 7.01543235e-04 -7.45731406e-04 2.01304839e-03
      1.75266317e-03 7.05470890e-03 4.71266685e-03 4.93934518e-03
      2.18842039e-03 -5.71103720e-03 -2.56639649e-03 1.17602292e-03
      -4.72554006e-03 5.18631842e-03 4.89581656e-03 4.45948564e-04
      3.90581414e-03 -1.65790319e-03 -1.17179332e-02 -6.64070481e-03
      1.27467071e-03 2.04948056e-03 1.75374013e-03 7.91784190e-03
      1.35165418e-03 -4.96715633e-03 -3.23732337e-03 -6.98840525e-03
      -3.23022157e-03 1.70268037e-03 -2.31860773e-04 1.77370897e-03
      5.44491690e-03 4.08018794e-04 1.26637646e-03 -4.59992699e-03
      -6.91940729e-03 -2.81944987e-04 -1.45966606e-03 1.37721642e-03
      -3.08681233e-03 5.39723923e-03 -3.21924640e-03 -7.35855242e-03
      3.16086574e-03 -4.06440441e-03 -2.14678864e-03 4.48297197e-03
      7.74237467e-03 2.18601036e-03 4.60710237e-03 -4.79813141e-04
      -6.76126312e-03 7.42962863e-03 -8.61239270e-04 -2.68125907e-03
      -7.20776618e-04 5.08939754e-03 -1.27416730e-04 8.35234858e-03
      -4.94846795e-03 -4.57963534e-03 1.69367925e-03 -9.15565586e-04
      8.42819922e-03 -1.65298130e-04 7.23745534e-03 4.49315226e-03
      3.63202859e-03 2.34000006e-04 -2.29124492e-03 -3.72671592e-03
      -9.62520298e-03 4.00418881e-03 -7.74728041e-03 6.08041463e-03
      9.65431740e-04 -3.97071382e-03 -9.10736155e-03 1.78258179e-03
      7.15555763e-03 -1.24555943e-03 4.24794620e-03 1.50910972e-04
      -6.30430598e-03 2.11561535e-04 9.26247519e-03 1.62258279e-03
      7.24835694e-03 2.90703541e-03 2.07026163e-03 6.38858834e-03
      2.76972307e-04 -3.18501261e-03 -3.27694509e-03 -6.19805243e-04
      3.28710349e-03 -3.72556783e-03 -4.91089711e-04 -4.21799533e-03
      4.82933316e-03 -5.31197246e-03 -3.89989838e-03 1.09725836e-04
      -1.91793981e-04 1.93208072e-03 1.19796488e-02 -1.27568434e-03
      -1.46266457e-03 1.96141028e-03 -1.65977573e-03 -2.31496437e-04
      2.63436395e-03 6.84108771e-03 4.77609551e-03 3.78445518e-04
      2.85301288e-03 4.25811065e-03 3.01114586e-03 -1.43135182e-07
      -2.82376376e-03 -5.70574822e-03 -4.02107788e-03 9.17209836e-04
      -5.00054006e-03 -1.55900349e-03 -5.83158620e-03 1.02630421e-03
      6.25007227e-03 7.76001113e-03 -1.24899845e-03 -1.70542917e-03
      -1.56267735e-04 5.40095381e-04 2.39571696e-03 2.02514475e-05
      4.71248850e-03 1.20380649e-03 -2.86331563e-03 -6.93375710e-03
      9.59940138e-04 2.23727850e-03 -3.24191479e-03 6.74249604e-03
      -8.88655800e-03 1.45476148e-03 -3.69155593e-03 2.89534172e-03
      3.49909789e-03 -6.30622904e-04 9.13958414e-04 3.14500416e-03
      -9.75883380e-03 -8.09226092e-03 -1.72951096e-03 1.00734560e-02
      6.36140537e-03 5.61595196e-03 -5.84519329e-03 -1.21421053e-03
      -8.71038937e-04 -7.49287941e-03 -1.28940225e-03 5.11258934e-03
      2.80805922e-04 2.77581997e-03 1.27054576e-03 -7.88793666e-04
      -2.67914333e-03 -2.54584104e-03 1.43076782e-03 -9.08541086e-04
      -2.42316979e-03 -2.42531346e-03 2.75471038e-03 9.98307206e-03
      9.23171174e-04 5.50240045e-04 -1.16502040e-03 2.96165282e-03
      2.82057119e-03 1.28137146e-03 -5.12632821e-03 5.72544523e-03
      4.14740155e-03 -2.56891409e-03 -2.85615120e-03 3.09216138e-03
      3.53286538e-04 1.32832362e-03 7.45602418e-03 2.89078965e-03
      4.44761710e-03 -4.23250545e-04 -1.54158194e-03 -4.83624288e-04
      1.37698415e-04 -6.65996131e-03 -3.69990221e-03 2.30484712e-03
      -3.61090712e-03 -8.62136076e-04 7.17054412e-04 1.43032137e-03
      2.21388834e-03 3.06329079e-04 5.05965250e-03 5.53253631e-04
      3.10622528e-03 -3.68244015e-03 4.24489239e-03 6.49160822e-04
      -1.85604068e-03 -7.14962324e-03 -1.60089473e-03 -1.89921085e-03
      -2.01838114e-03 -3.30424448e-03 -7.24431186e-04 -4.37519467e-03
      7.10869161e-03 6.98493328e-03 -8.12461833e-04 -8.46532919e-03
      -2.32508755e-03 -4.29225573e-03 6.38431986e-04 6.14328019e-05
      -7.33952690e-03 2.79321894e-03 9.45036300e-04 -8.25392781e-04
      -1.67001819e-03 2.28324672e-03 5.61177917e-03 4.21287306e-03
      2.27643875e-03 -1.05725564e-02 7.37253623e-03 8.71879421e-03
      1.69690920e-03 -6.32275920e-03 2.55420804e-03 -1.85664324e-03
      1.21630181e-03 1.70894759e-03 -6.72622584e-03 7.57541088e-03
      8.38125125e-03 1.63897802e-03 -4.15896764e-03 5.23150666e-03
      -3.15688131e-03 -2.78615463e-03 -1.10566465e-03 -4.52454621e-03
      8.55995063e-03 1.78948548e-02 3.84917879e-03 3.72259878e-04
      -4.43537487e-03 5.30236587e-03 6.66270964e-03 2.76848092e-03
      -2.43178988e-03 1.29738229e-03 1.90803630e-03 1.90320343e-03
      -4.77911904e-03 2.23635253e-03 5.09277591e-03 1.44479070e-02
      2.43349420e-03 -3.89197376e-03 4.69299674e-04 -5.94764715e-04
      5.46088722e-03 5.38085122e-03 4.69312828e-04 -4.34152037e-03
      -1.19827955e-03 -6.06340077e-03 8.45581584e-04 6.94984058e-03
      6.03411719e-03 2.48140772e-03 7.08984851e-04 9.69255064e-03
      -4.24415746e-04 8.97409394e-03 -1.91424508e-03 -5.20095928e-03
      2.64624739e-03 1.10714575e-02 3.91932391e-03 3.49497632e-03
      5.53876511e-04 2.97283498e-03 9.19259246e-03 -8.15795548e-03
      -6.17700070e-03 4.88144724e-04 -3.17929662e-03 2.39259913e-03
      1.09195069e-03 3.50670842e-03 -2.39812257e-03 3.42921866e-03
      -1.57086935e-03 -8.90051597e-04 1.83782401e-03 -1.22420792e-03
      7.91707449e-03 1.12666073e-03 6.09290227e-03 -7.23058649e-04
      3.56330024e-03 -6.07487792e-03 -6.48281770e-03 2.25228467e-03
      4.84145200e-03 5.93109056e-03 -1.19025458e-03 8.67062656e-04
      4.24225628e-03 3.61974188e-03 -3.07336892e-03 -3.00213788e-03
      7.57026719e-03 2.51249381e-04 1.32386843e-02 -6.22486928e-03
      -3.95009434e-03 -7.28533696e-03 -3.07929399e-03 -5.19958930e-03
      -1.01032909e-02 -3.72828031e-03 7.47000799e-03 5.06425276e-03
      -2.89761927e-03 6.13530912e-03 5.82111534e-04 1.57269824e-03
      -8.43387377e-03 -1.12448714e-03 -8.84949928e-04 8.25349055e-03
      4.19562915e-03 7.31275976e-03 -4.22733231e-03 -5.12753334e-03
      -6.98929932e-03 -2.84127565e-03 -5.09037031e-03 -5.68317855e-03
      7.77118048e-03 -4.53432556e-03 -5.61975222e-03 3.88188008e-03
      -1.09071210e-02 -7.57357012e-03 -1.31594706e-02 1.41796807e-03
      5.41346567e-03 2.29620188e-03 2.53640371e-03 4.18421626e-03
      2.84311105e-03 -1.17121951e-03 3.64643009e-03 1.84774934e-03
      -9.87308915e-04 -2.27607065e-03 3.70831462e-03 -4.01233207e-04
      3.34944180e-03 7.94695225e-04 -4.27135825e-03 8.26412905e-03
      3.68685531e-03 -3.12260073e-03 -1.10649858e-02 5.22198202e-03
      -2.32714252e-03 -1.68633240e-03 -2.03670794e-03 -8.71189777e-03
      -3.90141038e-03 -1.88137370e-03 5.37153217e-04 -8.98833212e-04
      -2.68052542e-03 -2.32750108e-03 -2.14330107e-03 -3.81166418e-03
      -3.34683293e-03 -1.33549969e-04 -2.52915034e-03 -1.87719113e-03
      -8.21954478e-03 -3.15687596e-03 -1.12958234e-02 -4.12986893e-03
      -2.59561464e-04 2.57439073e-03 4.70531872e-03 5.39071439e-03
      -2.13953061e-03 -6.46853470e-04 6.24359120e-03 -2.98693369e-04
      -1.44493912e-04 -6.27642949e-05 -7.14582903e-03 -1.37714483e-03
      -1.46875496e-03 -1.29448052e-03 4.20840317e-03 9.59542114e-03
      5.69560844e-03 1.10449083e-03 -2.59094592e-03 -2.81072746e-04
      1.82876748e-03 -2.61108857e-03 -2.67223106e-03 1.66466914e-03
      2.94850278e-03 -5.92968194e-03 -1.46405760e-03 2.42397873e-04
      -7.09172199e-03 -4.09937231e-03 -7.79569848e-03 -9.00491793e-03
      2.85989302e-03 1.11034438e-02 1.88514139e-04 -1.83585647e-03
      1.07920030e-03 -8.26337654e-03 -1.72489486e-03 1.19402399e-03
      2.25795107e-03 1.51721423e-03 3.88987991e-03 3.04600061e-03
      1.02764170e-04 3.62671562e-03 2.59016338e-03 -2.82910070e-03
      1.06820778e-03 -2.39236467e-03 4.05826746e-03 9.12069157e-03
      9.86315776e-03 1.49590825e-03 -3.56905023e-03 -4.87871235e-03
      6.90640369e-03 5.90741227e-04 -4.41217562e-03 -4.82119713e-03
      7.84265157e-03 -6.03957288e-03 -8.21889099e-03 -2.27521895e-03
      -2.94906530e-03 4.21625376e-03 -4.68031736e-03 -9.70351975e-03
      -1.16192698e-02 2.88463407e-03 -9.95995291e-03 -3.28473514e-03
      9.07342881e-03 -1.19722646e-03 -7.22376117e-03 2.44238672e-05
      -2.91996216e-03 1.57591188e-04 5.74680045e-03 4.39355895e-03
      5.62288146e-03 3.93535336e-03 -5.34344639e-04 -5.59070380e-03
      -1.64504675e-03 3.19252198e-04 -3.43097281e-03 2.11393298e-03
      1.40765810e-03 2.06704042e-03 3.17831454e-03 -4.46172012e-03
      -2.13090749e-03 1.34191616e-03 -5.10204025e-03 -7.40661658e-03
      4.89565602e-04 -5.45243546e-03 -1.27407000e-03 3.09343915e-04
      -7.37988669e-03 6.08523318e-04 -2.90744356e-03 2.77041947e-03
      -7.19607295e-03 6.22091466e-04 -6.45152759e-04 -7.06373993e-03
      9.53319669e-03 -8.04682495e-04 -1.45762489e-04 -1.03417085e-03
      -1.25270966e-03 -1.07607397e-03 -3.25393910e-03 2.93699163e-03
      7.19012320e-03 5.02570439e-03 -6.60051219e-03 -2.49510841e-03
      -1.51408443e-04 4.79633221e-04 3.59917548e-03 6.79090247e-03
      6.00608671e-03 8.01051501e-03 4.09920700e-03 6.81060374e-06
      -1.66290381e-03 -3.66481324e-03 -8.04495881e-04 -8.97300802e-03
      -3.49836797e-03 -6.67465106e-03 -2.25202297e-03 -6.50006440e-03
      -7.87379686e-03 -3.45801050e-03 -5.37177920e-03 2.14948770e-04
      -5.81139757e-04 4.33908170e-03 1.37889944e-03 3.91154736e-03
      -3.74456076e-03 -8.18728656e-03 9.70355395e-05 3.86335049e-03
      -4.74042492e-03 -3.47939529e-03 9.06511210e-03 3.72762699e-03
      3.51652573e-03 1.34640245e-03 -5.39851235e-03 1.33863476e-03
      -5.76096261e-03 -3.67541751e-03 -1.18797785e-02 6.56452775e-03
      1.69091171e-03 3.60634481e-03 -8.70162062e-03 -1.09661855e-02
      4.71072475e-04 -5.36986627e-03 -2.58869096e-03 -5.10899627e-05
      4.35030321e-03 2.45813467e-03 5.40004531e-03 3.29014816e-04
      -8.95618275e-03 -5.92963304e-03 -1.32419346e-02 3.05150007e-03
      -5.13446797e-03 4.05215845e-03 -2.92596105e-03 8.77087098e-03
      7.59132765e-03 2.74069171e-04 5.85862994e-03 -4.07484273e-04
      5.38802147e-03 -2.40239454e-03 2.91870837e-03 7.14557525e-03
      4.94859833e-03 -1.19739235e-03 -5.20253833e-03 2.04986287e-03
      -5.65468706e-03 4.25655628e-03 3.15377256e-03 -7.17786420e-03
      -4.59595257e-03 1.23741163e-03 1.10968342e-02 -4.24907124e-03
      -2.50797439e-03 -2.76263757e-03 6.98624738e-03 -4.70688799e-03
      2.54947366e-03 5.82956767e-04 5.78560075e-03 7.19645293e-03
      -1.94958784e-03 -9.59177408e-03 -6.73485827e-03 3.64354672e-03
      -2.62469240e-03 -7.35101115e-04 -7.72935920e-04 -3.65051371e-03
      1.41312298e-03 7.57355185e-04 5.74783515e-03 -2.22883094e-03
      -2.11003190e-03 2.54055788e-03 -7.11780740e-04 1.43479032e-03
      1.16775986e-02 -1.70497678e-03 2.42768467e-04 6.13249978e-03
      2.14169268e-04 -5.68696856e-03 3.00308317e-03 1.38654541e-02
      1.00477254e-02 5.03189908e-03 7.82311894e-03 -1.15418318e-03
      -8.53895582e-03 -4.50974191e-03 -1.46319752e-03 -8.41961126e-04
      1.53590736e-04 1.93602976e-03 3.41839646e-03 8.94877245e-04
      -4.16848250e-03 4.86386183e-04 -4.00360301e-03 -3.40328552e-03
      -1.12131389e-03 3.65061359e-03 5.53852692e-03 1.34658832e-02
      -4.49977058e-04 -5.18218428e-03 1.18544696e-04 -2.40423880e-03
      -2.99874204e-03 -3.16682830e-03 -5.11282647e-04 1.59165962e-03
      -2.57376675e-03 8.06642976e-03 -7.90061895e-03 -2.91176303e-03
      -8.41560308e-03 4.57055075e-03 1.03399726e-02 6.89793087e-04
      -6.20074512e-04 -5.39603597e-03 -2.06935965e-03 -1.35999545e-03
      -1.10244720e-04 -4.15121065e-03 1.45545823e-03 -7.33009772e-03
      1.73601598e-04 3.49120982e-03 8.86793772e-04 4.39398270e-03
      -6.86351536e-03 -1.79760531e-03 -2.98223528e-03 5.46634430e-03
      5.64521272e-03 3.18324193e-03 3.32473242e-03 -8.43618298e-04
      5.33627393e-03 8.77180544e-04 -2.14078696e-03 -8.62107147e-03
      2.35216459e-03 9.17095970e-03 -3.39467428e-04 -1.68904080e-03
      -2.26578186e-03 -5.72072284e-04 7.31945084e-03 6.47856249e-03
      -7.09250104e-03 -2.25276942e-03 1.02820096e-03 -1.62874837e-03
      -1.37508416e-03 1.51887431e-03 -1.33857725e-03 -6.42849924e-03
      1.81852747e-03 -2.80730892e-03 2.40710634e-03 5.14647691e-04
      2.54563987e-03 -8.13703344e-04 -3.01623414e-03 -5.74795110e-03
      2.88196374e-03 6.74533192e-03 -3.77202593e-03 -3.54178110e-03
      -3.62726138e-03 1.71890797e-03 -5.13114501e-03 -4.71633999e-03
      4.15161689e-04 1.85620331e-03 2.93975021e-03 -5.68882469e-03
      -2.40489026e-03 -7.37019145e-05 -2.01534524e-04 -1.97131396e-03
      1.62694731e-03 -2.74473778e-03 9.72839072e-04 -1.37566516e-04
      1.80322421e-03 2.74292496e-03 6.25516172e-04 -2.55786278e-03
      -2.59799650e-03 -3.40025406e-03 -6.98844786e-04 8.98781640e-04
      1.75240904e-03 4.32332512e-04 -3.56252422e-03 -5.26020944e-04
      4.15593060e-03 -6.81363570e-04 9.66416439e-04 -9.77064599e-04
      9.13804630e-04 1.88308291e-03 7.25919893e-03 4.97407233e-03
      -2.74872524e-03 -1.29859545e-03 -5.57040854e-04 -3.25404597e-03
      8.30874604e-04 2.10225116e-03 2.72858981e-03 7.14104623e-04
      3.47334729e-03 -1.01418141e-03 3.41143063e-03 -5.51368983e-04
      -1.57353526e-03 3.27052712e-03 8.45369650e-04 -3.02732951e-04
      -1.30800635e-03 1.05654146e-03 1.61458238e-03 8.81823990e-03
      1.38639461e-03 -2.04574852e-03 -6.03085663e-03 2.57876585e-03
      2.91874260e-03 4.02857596e-03 1.84481742e-03 -7.55014224e-03
      -3.84750613e-03 -3.63151752e-03 -2.78425450e-03 -1.06517621e-03
      8.93957913e-04 3.90527304e-03 2.07127398e-03 8.02953320e-04
      2.44303071e-03 4.57658316e-05 -6.82565733e-04 -2.35222955e-03
      3.96660995e-04 -5.31202648e-03 -9.73300729e-03 -5.22471825e-03
      4.19486966e-03 1.43541698e-03 1.93703885e-03 -2.26833951e-03
      1.31099916e-03 4.31094365e-03 -5.96586661e-03 -8.45614413e-04
      4.40426590e-03 7.57062982e-04 3.82664512e-05 8.90814979e-03
      -7.38191069e-04 9.33809672e-03 6.75135897e-03 6.80573471e-03
      -6.41283253e-03 4.46591573e-03 6.71544205e-03 4.19739261e-03
      8.00628331e-04 -9.45675711e-04 -7.16699194e-03 7.04014441e-03
      -3.26713850e-03 -2.31987471e-03 4.25320759e-04 4.94903326e-03
      5.03578503e-03 4.85894457e-03 -2.49525387e-04 1.94946106e-03
      -3.15016485e-03 -2.62641581e-03 -7.02803722e-04 -6.32870756e-03
      -3.77840106e-03 -2.50347564e-03 1.99942733e-03 4.40669712e-04
      4.56431851e-04 -1.70013183e-04 7.98065308e-03 3.55032063e-03
      -7.20871286e-03 3.64935328e-03 4.99898475e-03 -1.14344060e-03
      2.25230563e-03 -3.18161724e-03 5.15468069e-04 -9.18738637e-03
      -2.07109819e-03 -8.20238143e-03 2.55443971e-03 -1.66151347e-03
      7.02193659e-03 -3.65847861e-03 -1.30147091e-04 2.65114568e-03
      -7.46912672e-04 3.13545694e-03 3.20720789e-03 5.15073771e-04
      1.33198360e-02 9.73358378e-03 -6.54164795e-03 6.80416299e-04
      -1.50519703e-03 2.48884130e-03 -1.11776404e-04 -5.19828917e-03
      -1.86470250e-04 -7.36483606e-03 3.20562301e-03 -4.67176642e-03
      -1.26777240e-03 -3.25122208e-04 -4.81104245e-03 -3.43003124e-03
      -1.36056701e-02 2.61466205e-03 2.79149594e-04 -1.95372407e-03
      6.67345710e-04 1.29065360e-03 5.75730402e-04 6.62880857e-03
      -5.75221726e-04 -3.08771594e-03 3.50726303e-03 -7.95969181e-03
      -1.90889940e-03 -1.06343599e-02 -2.33685761e-03 2.18102336e-03
      6.60309393e-04 -3.69395455e-03 -7.01968232e-03 5.34690544e-03
      -4.21597762e-03 -4.84617520e-03 -5.11386385e-03 7.90956954e-04
      7.08723266e-04 -2.38690627e-04 -7.72411586e-04 -5.49755059e-04
      4.24500875e-04 4.00485564e-03 -2.30227527e-03 -1.72125886e-03
      -2.83569010e-04 2.15682550e-03 1.75431627e-03 -9.16432706e-04
      -1.99777493e-03 8.82786699e-04 -4.87745303e-04 -1.80367823e-03
      -4.27703606e-03 -2.23824615e-03 1.32466108e-03 4.69883345e-03
      1.81896868e-03 1.71803415e-03 1.94843858e-03 3.92211892e-04
      -2.36276304e-03 -3.53163807e-03 -1.92607183e-03 -1.67092934e-04
      -3.28377867e-03 1.75215933e-03 -2.35839142e-03 -2.72622355e-03
      4.27477848e-04 -2.25627306e-03 -5.63203869e-03 -3.77116795e-03
      7.41524855e-03 4.88289353e-03 8.72340612e-03 2.36311415e-03
      1.78707007e-03 1.38518563e-03 -2.56589788e-04 3.18605872e-03
      6.17565075e-03 4.42603650e-03 -3.86889139e-03 1.51053726e-04
      2.08895514e-03 -9.24435153e-04 5.74071147e-03 1.79418863e-03
      -1.17462932e-03 7.12374737e-03 -8.76799750e-04 -3.26588564e-03
      5.89544186e-03 1.56656769e-03 -1.14315441e-02 -7.80304894e-03
      -5.62913297e-03 -1.50860718e-03 8.40319728e-04 3.40235163e-03
      -1.03741989e-03 1.84110540e-03 -6.47023437e-04 2.41470174e-03
      -6.79628784e-03 -8.93860310e-03 -9.82211716e-03 3.96609260e-03
      -2.83899042e-03 -6.60464214e-03 3.34123266e-03 8.57699371e-04
      2.17868597e-03 -3.66692594e-03 3.56424274e-03 -7.08975829e-03
      -1.35452137e-03 -3.85407079e-03 -4.45817161e-04 1.08053479e-02
      4.13681119e-04 1.55267073e-03 -1.06392540e-02 6.10611355e-03
      -4.74105589e-03 -1.16439792e-03 -2.27434421e-03 -3.39305308e-03
      -1.36308279e-03 2.13282369e-03 9.28854849e-03 -4.94189095e-03
      -6.72108820e-03 -7.64586311e-03 3.81848845e-03 -1.12033484e-03
      2.46818666e-03 3.77573329e-03 -3.94286681e-03 6.79940078e-03
      1.63157575e-03 -2.54716561e-03 -1.03179943e-02 2.87650572e-03
      -7.87144818e-04 4.03369893e-04 5.34470892e-03 5.55653824e-04
      -6.56297151e-03 -6.81403046e-03 7.85778800e-04 -2.75399187e-03
      8.89813644e-04 -4.49277955e-04 -4.30827821e-03 6.64475420e-03
      -2.02387874e-03 2.02628085e-03 -2.04887660e-03 1.20788813e-03
      -1.17149868e-03 -7.44181219e-03 -3.44437110e-04 -4.47684713e-03
      6.40180835e-04 2.75340659e-04 -4.07088408e-03 4.92887804e-03
      5.00899216e-04 -6.51588757e-03 3.77093651e-03 -8.18439946e-03
      -6.58062566e-03 -2.36031855e-03 -3.85344983e-03 -1.31012814e-03
      1.51504169e-03 5.47382922e-04 -4.44330368e-03 -2.89678085e-03
      3.05251265e-03 8.96100362e-04 5.71177108e-04 -2.54651089e-03
      -1.31534622e-03 -4.15451685e-03 9.05460620e-04 -8.52156722e-04
      1.38025568e-03 -3.30956024e-03 -3.67989461e-03 -1.87197281e-03
      -1.69916428e-03 2.96696671e-03 -9.23891377e-04 8.93744361e-03
      3.15126474e-03 4.97592334e-03 1.32759771e-04 5.74724865e-04
      -2.31604121e-04 -8.12319689e-04 -1.21000025e-03 -3.19458358e-03
      -1.28319231e-03 -1.03289458e-04 4.31868294e-03 4.60852589e-03
      6.67721761e-05 -3.36098694e-03 -1.08762982e-03 5.76703483e-03
      -5.34555223e-03 -3.92413186e-03 -8.13105050e-03 7.72542879e-03
      1.50926062e-04 -2.65273498e-03 4.55046131e-04 -2.70766020e-03
      -3.23185790e-03 -4.72766487e-03 2.41748733e-03 2.71457504e-03
      6.86707906e-03 -3.44895176e-03 -5.32253366e-03 -5.87304402e-03
      -4.43073455e-03 2.46697338e-03 -1.81201310e-03 -3.97432875e-03
      -6.82509551e-03 -9.01805062e-04 5.71682118e-03 -6.72480371e-03
      1.21352321e-04 2.90943403e-03 -1.22933753e-03 -7.09093828e-03
      1.01034377e-04 -5.35500143e-03 7.98031501e-03 -5.31479670e-03
      -4.83889272e-03 3.84393847e-03 -9.42576095e-04 5.69309900e-03
      -3.16376868e-03 -8.99242586e-04 -4.53374395e-03 -2.08242261e-03
      8.80274549e-03 -2.54840590e-03 -3.52717564e-03 4.62942757e-03
      2.44625355e-03 -3.82775743e-03 -1.96222030e-03 4.30943648e-04
      2.99460092e-03 7.18064094e-03 -2.54358980e-04 -6.17625425e-03
      3.70562682e-03 4.95146960e-03 -2.77770753e-03 1.30176451e-03
      -1.53882516e-04 -3.99626791e-04 -2.95252143e-03 -9.28521622e-03
      -4.12355596e-03 3.10914102e-03 2.19491892e-03 -4.37985407e-03
      -7.35770399e-03 -6.12907286e-04 2.04866542e-03 -2.12761131e-03
      -3.11869313e-03 6.56705350e-03 7.39512965e-04 -1.23851432e-03
      -3.71296518e-03 -1.66922202e-03 7.06125423e-03 -4.16097045e-03
      4.96633258e-03 2.61350011e-04 -5.64023294e-03 -2.04508868e-03
      3.10677616e-03 3.50863044e-03 -4.54012770e-03 4.16156370e-03
      5.39530907e-03 3.48273618e-03 -3.34249402e-04 2.20298875e-06
      -3.64146009e-03 -1.77770562e-03 2.91294442e-03 -5.17127477e-03
      3.65943089e-03 1.17188757e-02 1.17888849e-03 2.02164380e-03
      1.33370068e-02 5.89537434e-03 6.91307825e-04 -1.17634430e-04
      3.21429502e-03 7.95863755e-03 3.46957915e-03 -3.98677570e-04
      6.52636448e-03 4.89193248e-03 -2.47736764e-03 -3.75844911e-03
      3.66849313e-03 -1.08737347e-03 1.64385070e-03 4.81984019e-03
      -2.01014150e-03 1.72859966e-03 2.68724543e-04 -3.25348228e-04
      -4.76301555e-03 -5.11606177e-03 1.37018971e-03 -4.71152691e-03
      -5.12093818e-03 7.71881640e-03 3.11938953e-03 3.29400972e-03
      1.09985936e-02 2.60258070e-03 -5.67924697e-03 8.73899728e-04
      -2.10717996e-03 3.37167527e-03 -4.38787555e-03 -7.83730124e-04
      -7.82701070e-04 -2.93273805e-03 -1.54996465e-03 1.00906566e-03
      -2.23610690e-03 -4.73831501e-03 -5.65985637e-03 1.80251873e-03
      -2.11346545e-03 -2.22780975e-03 1.00450404e-02 8.83367565e-03
      2.96306284e-03 -1.40474318e-03 -8.42162222e-03 -1.52579544e-03
      2.05012551e-03 -4.63721022e-04 -1.49939864e-04 3.77028249e-03
      3.32310959e-03 5.71128330e-04 3.63324070e-03 -5.17343928e-04
      1.03724189e-03 7.76578599e-05 2.21738801e-03 2.35211360e-03
      -5.30102802e-03 4.45813080e-03 2.03483389e-03 -2.64904695e-03
      -9.76094685e-04 -7.01501034e-04 -5.47392119e-04 1.82851474e-03
      -2.64512864e-03 3.86600354e-04 1.96745663e-04 -3.05851921e-03
      3.59663717e-03 -9.11858957e-03 -5.30115049e-03 3.54215736e-03
      3.07035912e-03 1.47595536e-03 -6.21779962e-03 4.17454168e-03
      -5.64582995e-04 -2.83683208e-03 -4.61124582e-03 2.33350159e-03
      3.55958613e-03 -8.32241320e-04 1.80855207e-03 1.06726750e-03
      -6.26983633e-03 1.53250340e-03 -4.19534277e-03 -5.02103567e-03
      3.36707942e-03 1.00892619e-03 2.03172513e-03 -7.03057158e-04
      3.88983032e-03 1.43074652e-03 -2.06768839e-03 -7.61490301e-05
      -4.68346756e-03 9.65373532e-04 7.98573066e-03 2.74700637e-04
      3.30139278e-03 8.90406140e-04 -3.49927315e-04 6.68529421e-04
      -6.78722467e-03 -3.44731053e-03 5.82394470e-03 3.79235088e-03
      -7.87097379e-05 -1.50674302e-03 -4.68774140e-03 -1.44647411e-03
      3.23276920e-03 8.96413461e-04 -4.89918748e-03 -8.21110443e-04
      -8.26358609e-03 1.92819058e-03 -1.53709974e-04 2.75942148e-03
      -4.69189696e-03 -3.24235437e-03 -1.25111011e-03 -2.78975558e-03
      -5.71845239e-03 -2.57293112e-03 2.40782485e-03 6.94216182e-03
      6.14019856e-03 2.07788707e-03 4.43810411e-03 1.48080278e-03
      1.72881852e-03 1.73262623e-03 4.62085521e-03 1.86528589e-04
      1.35529938e-03 -9.07959300e-04 -6.83371445e-06 2.76453048e-03
      2.23831055e-04 -5.14695514e-03 -4.10983618e-03 -1.05114537e-03
      -9.92681249e-04 1.57541013e-03 1.81400066e-03 1.50727428e-04
      4.27050609e-03 -3.90573917e-03 -5.18445158e-04 5.38695138e-04
      5.57151530e-03 1.88661087e-03 -4.79599647e-03 3.02535528e-03
      3.41478596e-03 4.72235214e-03 -1.26143580e-03 -1.11237017e-03
      9.52979433e-04 5.21131093e-03 1.62566477e-03 1.09027163e-03
      -1.00601849e-03 -4.96912422e-03 -1.27709052e-03 4.55060490e-06
      -2.22698422e-04 -1.03229226e-03 4.67291987e-03 -4.33124602e-03
      -7.30374968e-03 1.85527280e-03 -1.22986187e-03 5.07232640e-03
      -2.56217131e-03 -8.01769726e-04 2.02841125e-03 4.04645968e-03
      2.19626958e-03 4.42401459e-03 2.52726045e-03 8.97081336e-04
      -1.44285057e-03 -4.38326132e-03 -1.57596928e-03 1.60940015e-03
      3.67899705e-03 -5.17941359e-03 1.41152111e-03 -5.75910555e-03
      -3.97694390e-03 -6.23597344e-03 -1.04825362e-03 1.47277641e-03
      -2.28540055e-04 2.21999432e-03 -2.12349766e-03 2.09750491e-03
      1.98710454e-03 -7.50380522e-03 9.04982258e-03 8.14009737e-03
      -3.23873421e-04 5.51062217e-03 -1.98813132e-03 1.53141178e-03
      5.96677931e-03 -6.72192592e-03 -8.64504836e-03 -1.24516748e-02
      -9.76707507e-03 -1.64830021e-03 -1.58007455e-03 2.49445136e-03
      5.86638367e-03 5.38692402e-04 -5.05867321e-03 -6.92518987e-03
      2.47558323e-03 2.19441194e-04 -1.39888620e-03 2.61030486e-03
      2.57252250e-04 5.70760202e-03 8.08755960e-03 3.24455323e-03
      2.24289368e-03 -1.60252349e-03 -2.95557256e-04 -5.83309075e-03
      -6.95269695e-03 -1.34054432e-03 6.11719396e-03 7.03636184e-03
      -6.41700055e-04 5.76233445e-03 -2.13420927e-03 1.28983508e-03
      -3.77784413e-03 -8.73556826e-03 7.60669995e-04 2.04890850e-03
      7.93112814e-03 6.41838880e-04 -9.14398755e-04 -6.62504416e-03
      -1.00452895e-03 -3.45922238e-03 -6.80913683e-03 -2.77084229e-03
      1.07239722e-03 4.23693797e-03 -1.04480144e-03 2.79487623e-03
      -1.36978151e-02 7.25903083e-04 -2.22256710e-03 -1.04448209e-02
      1.05290650e-03 7.59024126e-03 6.29929407e-03 1.22891361e-04
      7.50276819e-03 1.50633173e-03 3.25587718e-03 -1.27380795e-03
      -6.01511030e-03 3.30824940e-03 -6.90256804e-03 -1.20470428e-03
      -2.65978277e-03 4.07506153e-03 2.61025573e-03 -5.11308499e-05
      -7.30834482e-03 -2.49441317e-03 -1.70276733e-03 4.23231395e-03
      4.10896726e-03 1.54357066e-03 9.77095217e-04 -9.97658819e-03
      3.92473722e-03 1.85820146e-03 -4.99911932e-03 4.14162502e-03
      -6.84915250e-03 -2.70903856e-03 -7.62155571e-04 1.23867812e-03
      -8.52776598e-03 -8.27711483e-04 -1.98139064e-03 -7.15446600e-04
      3.41169164e-03 -6.49989536e-03 -1.70460995e-03 -1.21401798e-03
      -6.74155541e-03 7.93470972e-05 4.71376954e-03 -2.62999116e-03
      2.23159487e-03 3.54366843e-03 1.34231686e-03 1.14139670e-03
      -1.30445999e-03 -1.19993289e-03 -9.92922578e-04 1.72929955e-03
      -4.05796012e-03 2.01261230e-03 8.99737887e-03 -2.77970475e-03
      -2.73830839e-04 -1.76476000e-03 2.98106065e-03 -2.63299630e-03
      1.86792269e-04 -8.59155506e-03 1.54797605e-03 1.71238300e-03
      3.75902164e-03 -4.21275897e-03 -2.80732964e-03 8.07813267e-05
      -3.37768998e-03 3.93126952e-03 -4.47906693e-03 -2.64890539e-03
      2.04668217e-03 1.32805528e-03 3.97803867e-03 4.86797281e-03
      9.68864653e-04 -6.45931764e-03 -2.49940739e-03 -4.55321308e-04
      5.29185450e-03 7.31326174e-03 2.99955113e-03 8.11581127e-03
      1.62631724e-04 1.33592330e-04 -4.04177187e-03 -1.60090509e-03
      -1.52924750e-03 8.82294402e-03 -2.92185158e-03 2.79220729e-03
      -6.69368834e-04 -2.41343820e-04 -3.27908737e-03 -5.44852763e-03
      6.53321901e-03 -6.60639707e-05 3.14715609e-04 -3.92612256e-03
      -2.41803052e-03 8.40261299e-03 -1.55074429e-03 1.06763758e-03
      -7.60338455e-03 2.53217365e-03 -1.66931353e-03 -1.33041001e-04
      6.62267767e-03 -6.80477917e-03 -2.42467062e-03 -1.68054097e-03
      -4.85356478e-03 2.98163574e-03 -3.82419123e-04 4.51103668e-04
      4.49710060e-03 -2.67736381e-03 -1.11412708e-04 -8.76743754e-04
      -2.55969656e-03 -2.20821495e-03 1.19962143e-02 8.18072911e-03
      -8.32689344e-04 1.39252818e-03 1.49473280e-03 -6.75207842e-03
      -8.26917822e-04 -5.57409413e-03 -3.83964251e-03 -3.42289894e-03
      -2.47181486e-03 5.24846418e-03 4.43670852e-03 -1.66526274e-03
      -1.38895732e-04 -1.46661722e-03 -8.50237720e-03 -2.44253222e-03
      1.29241850e-02 -2.31996892e-04 2.69329431e-03 -6.02097809e-03
      8.27876967e-04 1.66972168e-03 -3.83348903e-04 -3.25701688e-03
      -4.75317286e-03 5.35504101e-03 4.64696996e-03 1.05796859e-03
      7.38420617e-03 3.04548419e-03 -1.45141117e-03 5.04193362e-04
      -3.88347427e-03 4.42774920e-03 -1.90947368e-03 -1.51393574e-03
      -5.56712924e-03 4.07605385e-03 4.98893578e-03 -3.01217689e-04
      -3.98039725e-03 -6.74779294e-03 -6.07538270e-03 9.94015485e-03
      4.90570487e-03 2.31173565e-03 3.00771534e-03 3.79096018e-04
      -6.94915326e-03 -2.55931140e-04 -6.46586902e-03 5.26460446e-03
      3.99178686e-03 9.30473767e-03 2.51758075e-03 3.19160102e-03
      2.54690484e-03 -5.25709521e-03 -1.89460174e-04 -2.73938663e-03
      3.67425731e-04 2.90510361e-04 4.16048709e-03 -3.07335937e-03
      3.69971921e-03 -1.14128990e-04 -3.33917979e-03 3.36620986e-04
      1.35533698e-03 5.48178889e-03 -2.30196607e-03 3.50638689e-03
      2.73345417e-04 3.13730491e-03 3.76158766e-03 -1.98433571e-03
      1.18325674e-03 -2.87147495e-03 -2.09646227e-04 3.95034486e-03
      7.74865365e-03 -2.88327341e-04 5.16928732e-03 3.90553218e-03
      -3.22202430e-03 -2.27842084e-03 8.34311126e-04 4.44581558e-04
      -1.66924190e-04 1.01790670e-02 -2.14772369e-03 2.32409639e-03
      -3.19782831e-03 -5.69624361e-03 6.81889767e-04 4.91387118e-03
      1.60160789e-03 3.38529283e-03 -1.16931624e-03 -3.74397023e-05
      6.84059504e-03 -1.83599745e-03 -7.25687109e-03 1.24253763e-03
      -3.06124310e-03 -4.67550242e-04 1.29992131e-03 1.43068349e-02
      1.27713419e-02 5.32456767e-03 2.68135802e-04 -9.56087187e-03
      -2.86524324e-03 3.93448956e-03 -1.95556227e-03 -1.40159368e-03
      3.66872642e-03 -3.56866838e-03 1.93987670e-03 -3.04659735e-03
      -8.69548041e-03 -1.62161631e-03 -6.01049000e-03 5.35083236e-04
      -3.98222217e-03 1.05043538e-02 1.13858259e-03 -9.83165693e-04
      -5.25484676e-04 2.42754701e-03 4.53208573e-03 3.64643033e-03
      -1.47397129e-03 2.51925550e-03 7.58251594e-03 8.00767262e-03
      4.08086507e-03 -2.21457169e-03 7.59285456e-03 5.97320450e-03
      4.69851494e-03 -3.01827723e-03 4.52102628e-04 -5.94528858e-03
      2.16178177e-03 8.01007170e-03 2.54555210e-03 -5.23954304e-03
      -3.77881294e-03 -6.09161658e-03 1.74072251e-04 -1.59036869e-03
      6.94036018e-03 -1.26985041e-03 -2.21797335e-03 -6.25518558e-04
      -2.15011416e-04 6.51806546e-03 -1.79245940e-03 7.31014006e-04
      1.10332156e-03 -4.88965074e-03 -1.16393610e-03 5.04558207e-03
      -2.96374201e-03 -4.06547391e-04 -2.60687462e-04 -5.60692220e-04
      1.32163812e-03 1.87978067e-03 -4.82092891e-03 -5.46735828e-04
      1.20089925e-03 5.17764781e-03 7.96922599e-04 6.19214773e-03
      3.89652676e-03 7.80483708e-03 2.95603857e-03 1.03733654e-03
      3.45902547e-04 6.52050832e-03 -5.80663607e-03 -3.79711762e-03
      3.19168484e-03 -1.18754001e-03 2.96017999e-04 -6.18890394e-03
      -4.60550562e-03 -1.83802354e-03 -2.79188505e-03 5.85329905e-03
      -2.45057885e-03 7.25334883e-03 9.86638013e-04 -1.49333070e-03
      -3.48276412e-03 -3.07038729e-03 1.05717554e-04 -6.61795726e-04
      5.47365611e-03 4.00692411e-03 8.43293965e-03 4.39737836e-04
      -2.75899563e-03 7.01037236e-04 5.59870014e-03 -2.35113781e-03
      6.72551664e-03 3.34395422e-03 1.36073143e-03 3.84570425e-03
      -1.25098519e-03 1.73007825e-03 -5.72218699e-03 1.18198735e-03
      -3.25690676e-03 1.76259631e-03 4.82732803e-03 -4.53753397e-03
      2.37398292e-03 3.80371301e-03 -8.01127637e-04 -2.36982349e-04
      -4.72695520e-03 -3.51854041e-03 2.36612759e-04 4.90080751e-03
      -1.20358972e-03 -1.72184594e-03 -2.29247194e-03 -8.30771227e-04
      -5.28492208e-04 -5.00363344e-03 -2.94994004e-03 -5.15829679e-03
      6.25491701e-03 9.47699067e-04 1.92188739e-03 7.65935984e-04
      -2.90163700e-03 -2.63354531e-03 2.09788606e-03 4.82503744e-03
      5.82331559e-03 1.84100447e-03 3.36254295e-03 1.07874945e-02
      -4.33047395e-03 -4.53692628e-03 -3.34694935e-03 3.46900243e-03
      4.50542837e-04 7.42588146e-03 8.06807261e-03 -8.33333877e-04
      3.81147070e-03 2.37689586e-03 -1.85571203e-03 -1.83403303e-04
      -2.34727212e-03 4.33246326e-03 1.22505357e-03 -3.74466390e-03
      -9.79695586e-04 7.41842343e-03 3.97807127e-03 -5.49199851e-03
      -7.24777393e-03 -8.81557446e-03 -2.15034653e-03 1.87128468e-03
      3.88100604e-03 2.35384936e-03 5.73286507e-03 -6.41144486e-03
      -1.96459400e-03 7.55439760e-05 5.26597956e-04 -3.89940874e-03
      -1.18368852e-03 1.43403723e-03 3.03419167e-03 5.54042577e-04
      -3.59130604e-03 -2.28488864e-03 4.13129525e-03 -6.08894101e-04
      -1.40894263e-03 -7.06893625e-04 -1.71794521e-03 1.29393629e-05
      4.54103661e-04 2.23492226e-03 -3.98693280e-03 -4.08672262e-03
      -1.14025513e-03 -1.44073204e-03 1.92995401e-04 4.30052774e-03
      9.72675916e-04 2.86956970e-03 3.14831239e-04 -7.41374353e-03
      9.07749461e-04 6.09696843e-03 -1.47534374e-04 5.76534367e-04
      7.22345721e-04 -1.42728526e-03 -7.45462999e-03 -3.46527365e-03
      -5.92259178e-03 7.12359836e-03 3.11380578e-03 -9.06263711e-04
      -1.91233552e-03 2.72048614e-03 1.14731619e-03 1.37254724e-03
      2.68830545e-03 -1.68951310e-03 3.00883257e-04 -8.91160627e-04
      -4.39512171e-03 -3.62877239e-04 5.36860060e-03 1.00740907e-03
      -1.14017923e-04 -7.35254493e-04 -7.23622320e-03 4.21190867e-03
      5.64385066e-03 -4.24679462e-03 -3.60500137e-03 1.06771179e-02
      3.60584818e-03 -1.76018185e-03 7.96926580e-03 -1.80689106e-03
      2.52530747e-03 5.01942588e-03 -4.79591661e-04 -2.92753312e-03
      -2.76720384e-03 6.00755680e-03 2.84149498e-03 -7.07883993e-03
      -7.70647870e-03 -4.84960526e-03 -3.97257367e-03 -5.11632953e-03
      -4.33601346e-03 1.53397990e-03 2.08128267e-03 4.50529071e-04
      -6.05662493e-03 -9.71193309e-04 6.35129539e-03 -2.62274849e-03
      -5.76671166e-03 3.08489252e-04 2.22439924e-03 6.33738982e-03
      1.01440039e-03 3.63358762e-03 3.92706506e-03 -1.93041039e-03
      -1.91047997e-03 -2.53476645e-03 -7.48854969e-03 -6.09306917e-05
      1.23225816e-03 1.26175815e-03 -1.21177116e-03 1.75412701e-04
      3.42312921e-03 -2.89404648e-03 -3.18539818e-03 2.48751463e-03
      -2.82830116e-03 2.22612079e-03 7.70807266e-03 2.00363196e-04
      -1.99004979e-04 -4.49834811e-03 -6.44913467e-04 4.46957856e-04
      -7.26610608e-03 -3.08515481e-03 -5.43427281e-03 1.09349308e-03
      -4.86295251e-03 -1.04597688e-03 -7.73489522e-03 6.09345734e-03
      -2.73848115e-03 -8.41062923e-04 -6.11470919e-03 2.77728518e-03
      4.83457232e-03 -1.05888676e-03 -4.64841351e-03 -5.27502643e-03
      6.75872725e-04 2.82484922e-03 -1.76344207e-03 2.93766591e-03
      -7.58127123e-03 -5.71345724e-03 -5.18205576e-03 9.43569990e-04
      -8.01400933e-03 3.39550176e-03 -1.42505486e-03 2.99695018e-03
      -2.25477875e-03 -1.87431462e-03 -7.14169641e-04 -1.89579278e-03
      -5.22897393e-03 -8.01761635e-03 7.74609996e-03 4.64452710e-03
      3.79969086e-03 1.55162998e-03 -7.74270296e-03 2.87218066e-03
      9.38723097e-04 -5.39980317e-03 -1.31028863e-02 4.07468388e-03
      4.64361440e-03 -1.23711035e-03 1.16882648e-03 -6.63166260e-03
      -7.73620233e-03 -4.08011692e-04 -4.29822248e-04 -2.07029143e-03
      7.10637728e-03 1.21000723e-03 5.05110715e-03 -2.36589788e-03
      -7.43213110e-03 -4.99816146e-03 -2.59570149e-03 -5.53455437e-03
      -4.06234665e-03 1.70973735e-03 3.12964641e-03 -2.35438626e-03
      6.60210056e-03 -4.95032349e-04 5.72433043e-03 -1.09309633e-03
      -5.55241131e-04 -8.65491573e-03 -2.81247922e-04 1.57830407e-04
      3.16526438e-03 -1.88223622e-03 2.27759988e-03 -1.38137757e-03
      -1.28311163e-03 -5.00051677e-03 -3.08964401e-03 1.03451242e-03
      -3.58222355e-03 -6.00232801e-04 6.25368266e-04 2.43417337e-03
      3.00703477e-03 -2.81811040e-03 5.05028339e-03 -6.57963147e-03
      6.60666358e-03 4.47262591e-03 6.62028106e-05 -1.28732750e-03
      -3.04604392e-03 5.84497640e-04 -3.23556433e-03 2.33628991e-04
      -8.14012811e-03 2.65211868e-03 4.47623024e-04 2.76085990e-03
      -2.41653738e-03 1.06289831e-03 -1.07045204e-03 -4.23208391e-03
      -6.81339437e-03 -1.72529602e-03 7.44115608e-03 -8.17768683e-04
      -1.51420734e-03 1.98207027e-03 -3.32049117e-03 7.56054046e-03
      2.22934541e-04 -3.25379660e-03 -9.97778843e-04 1.26712518e-02
      -2.42530601e-03 4.19183448e-03 -2.19017878e-04 -4.22318839e-03
      -1.39619177e-03 -7.97759555e-03 -1.55802618e-03 -5.51868370e-03
      1.62419688e-03 -2.98925629e-03 1.01433636e-03 5.96920901e-04
      -5.09275775e-03 4.03318694e-03 -3.06740007e-03 1.90968497e-03
      1.81814085e-03 5.11423405e-03 9.73749047e-06 4.32832632e-03
      6.36646012e-03 -5.63663710e-03 2.67131324e-03 2.81414483e-03
      -3.58007126e-03 1.46921922e-03 3.09093948e-03 2.00846256e-03
      8.55273381e-03 4.01068432e-03 -1.78766937e-03 1.82104646e-03
      2.24236166e-04 -3.01736128e-03 1.91661553e-03 -5.03909716e-04
      2.30230065e-03 -6.48550503e-03 5.06774196e-03 1.88578025e-03
      2.31368840e-03 -2.79503944e-03 1.99954258e-03 6.29866822e-03
      5.61254378e-03 3.89797520e-03 6.74317731e-03 -5.00610936e-03
      -1.62324274e-03 2.12592911e-03 -8.29427969e-03 1.89011870e-03
      -6.20162999e-03 -3.85322422e-03 1.84020353e-03 -4.99295630e-03
      9.91875655e-04 1.02483516e-03 -3.78582656e-04 1.85699691e-03
      -8.77344515e-03 -2.96412688e-03 5.05621685e-03 -1.14704552e-03
      -1.82200677e-03 2.03331863e-03 2.66240764e-04 2.30719475e-03
      -5.64573929e-05 -2.48190714e-03 -1.28185109e-03 6.40344061e-03
      5.23717375e-03 7.61776557e-03 -4.40206291e-04 5.19737881e-03
      7.44180521e-03 6.58534467e-04 -5.66165568e-03 -7.37224007e-04
      3.96373356e-03 3.54908849e-03 -6.77261793e-04 4.10235208e-03
      6.82539865e-03 8.75335652e-03 -3.34490114e-03 -2.50030984e-03
      4.17474611e-03 -4.64724813e-04 2.11291225e-03 3.13058659e-03
      6.21987414e-03 2.11974885e-03 4.33861604e-03 3.94786894e-03
      1.82997237e-03 -7.63447373e-04 4.95847827e-03 3.96934850e-03
      9.92952939e-03 2.89034005e-03 -3.90635338e-03 -5.52657933e-04
      4.56859451e-03 -1.19855872e-03 -7.95900356e-03 4.80066426e-03
      -1.84207829e-03 2.29911297e-03 5.66739775e-03 1.77542248e-03
      8.85462109e-03 4.77860915e-03 7.76567031e-03 -2.77240225e-03
      -4.43491008e-04 2.14071115e-04 4.07321658e-03 -3.70929949e-03
      -5.01097459e-03 -4.28231899e-03 -4.27281344e-03 -8.60477565e-04
      -1.10193556e-02 -5.43695223e-03 -1.82508479e-03 -2.50361348e-03
      2.46726233e-03 -4.00454504e-03 -3.89998808e-04 5.25119901e-03
      -2.60443497e-03 -3.45828640e-03 4.59685549e-03 -2.51399144e-03
      2.01362045e-03 5.49871894e-03 5.43209817e-03 1.80826860e-03
      -3.95073323e-03 -1.11868416e-04 -2.61103711e-03 6.50100596e-03
      3.55795608e-04 -2.07183906e-03 1.09099573e-03 2.48417328e-03
      1.37046585e-03 1.90009188e-03 -2.64446693e-03 -9.41831898e-03
      -4.17178916e-03 -3.38380481e-03 1.39688386e-03 -1.80327811e-03
      5.92800416e-03 -1.75435061e-03 -1.06377632e-03 6.56929938e-03
      -3.75258591e-04 8.57786834e-03 -7.23009172e-04 -3.22859199e-03
      8.47606733e-03 1.65020858e-04 -5.62903890e-03 -2.89515569e-03
      -5.11388388e-03 -1.42970914e-03 5.49207954e-03 -1.57065515e-03
      -1.97840505e-03 4.32035513e-03 9.22081294e-04 8.05556122e-03
      4.87799477e-03 -3.58703290e-03 -9.78050521e-04 -4.15920280e-03
      4.63996257e-04 5.07919211e-03 2.15960713e-03 -2.08352343e-03
      -3.18136718e-03 1.08207786e-03 -1.46756603e-04 -2.29148194e-03
      7.99176469e-03 -1.89236028e-03 1.33803158e-04 6.85228966e-03
      -5.33181708e-03 9.38096456e-03 3.24160210e-03 -4.02231840e-03
      -5.29175671e-03 -2.61995522e-03 1.37763808e-03 9.68973991e-03
      -3.77740967e-03 -2.78354017e-03 7.00721657e-03 3.52665363e-03
      -1.78863911e-03 -7.87674729e-03 -3.12358863e-03 2.82184035e-03
      2.40589725e-03 4.35610884e-04 -1.21104007e-03 6.63979258e-03
      6.07759180e-03 1.69459556e-03 5.53402875e-04 -3.60279414e-03
      4.15396271e-03 1.40543177e-03 -1.60561793e-03 -3.14833852e-03
      6.60815602e-03 2.77913641e-04 -1.77320780e-03 -9.60371457e-03
      -4.79735853e-03 -1.11732190e-03 4.13763523e-03 -2.11152481e-03
      2.18682527e-03 4.63465229e-03 -2.97755701e-03 3.43450869e-04
      9.91551904e-04 -4.26332280e-03 2.55786581e-03 5.54207014e-03
      -2.22783256e-03 -4.61163884e-03 2.26069125e-04 5.15553821e-03
      5.76922717e-03 6.86386414e-03 -1.93711428e-03 1.79805502e-04
      -2.52337661e-03 3.60256014e-03 -3.13622586e-04 4.64930711e-03
      3.37260892e-03 3.00733675e-03 4.49653435e-03 2.12673913e-03
      -6.75578485e-05 -3.89559823e-03 -7.59662222e-03 8.60353539e-05
      -1.75183674e-03 3.76193435e-04 5.06902998e-03 -3.01188236e-04
      -3.88606265e-03 -3.04061268e-03 -5.76770573e-04 -5.66894095e-03
      -1.13780925e-03 -1.15098352e-04 -2.46766582e-03 4.11058776e-04
      8.29499960e-03 7.30636390e-03 -4.79212869e-03 -6.46222522e-03
      6.19039778e-03 -5.82882343e-03 -3.12995311e-04 -5.22200717e-04
      5.36274340e-04 3.55471019e-03 1.39275542e-03 7.04644190e-04
      -1.03997637e-03 1.38926599e-03 -6.89320173e-03 -3.53150722e-03
      1.72608532e-03 6.42734522e-04 1.75214652e-03 -6.19561924e-03
      -1.84226211e-03 -1.47341820e-03 -1.89966313e-03 5.54885366e-04
      -4.33394016e-04 -2.08341517e-03 5.30778780e-04 2.49576592e-03
      2.21751048e-03 -3.42984754e-03 -2.34685000e-03 2.84243212e-03
      -3.67483794e-04 -4.74125583e-04 -2.32381606e-03 6.78206445e-04
      -6.68587338e-04 7.42177537e-04 -3.09767528e-03 -5.67587791e-04
      -2.12861574e-03 -3.57781793e-03 -3.47789936e-03 8.32485792e-04
      -5.11500426e-03 -2.51715537e-03 -9.82464198e-03 -4.50534234e-03
      -3.78836528e-03 1.65882031e-03 -2.36519659e-03 4.04721592e-04
      -3.92405607e-04 -3.18483193e-03 1.69501966e-03 -1.75784939e-04
      -1.51075528e-03 2.52071419e-04 3.17177945e-03 1.71800749e-03
      -2.88362289e-03 -1.84531708e-03 1.50341191e-03 -8.34543607e-04
      4.40560223e-04 -3.73820122e-03 -3.38114146e-03 1.35269878e-03
      1.85635732e-03 1.37002801e-03 3.97853879e-03 6.80209487e-04
      7.31863687e-03 1.01207918e-03 -2.08819797e-03 3.60460998e-03
      3.76535929e-03 -2.68019899e-03 -5.21267008e-04 -4.00436431e-04
      -7.35085364e-03 3.62321828e-03 4.29675775e-03 -3.08039715e-03
      -2.57326057e-03 8.53012409e-03 -3.88170825e-04 -4.56362031e-03
      9.79637727e-03 4.21078497e-04 9.23619664e-04 1.37579441e-03
      2.25164222e-05 3.98778444e-04 -4.36205231e-03 -1.47540006e-04
      2.01658858e-03 -4.65396384e-04 -6.79842103e-03 3.87052284e-03
      2.68886943e-04 9.38915065e-04 1.89992541e-03 1.05994742e-03
      -1.55586982e-03 -4.30052256e-04 2.05331994e-03 -5.68933133e-03
      1.24324171e-03 -5.63712492e-05 1.37690373e-03 -1.19041326e-03
      -6.62188046e-04 3.19491210e-03 -4.55448870e-03 3.51457717e-03
      5.70914801e-03 -2.32058764e-03 -3.38005833e-03 1.56251411e-03
      -3.23611032e-03 -5.28647332e-04 -3.25609650e-03 -5.32232644e-03
      1.52632326e-03 4.90425481e-03 1.86543528e-03 -9.21282917e-04
      3.93532775e-03 4.35463991e-03 -2.59004091e-03 -1.64920138e-03
      -7.23442389e-03 -4.98001231e-03 -9.38927347e-04 1.98312406e-03
      -3.37264454e-03 2.22789682e-03 -6.22208137e-03 -2.86639808e-03
      -3.69471440e-04 -6.89946162e-03 -2.59550614e-03 1.80801947e-03
      3.78569029e-03 4.05697711e-03 7.65594933e-03 -4.37373668e-03
      -3.99724068e-03 -1.80201454e-03 -4.26116306e-03 -2.18544225e-03
      -9.14699025e-03 -2.04299274e-03 1.00968331e-02 -3.41654359e-03
      5.56830131e-03 -1.00513585e-02 1.89109868e-03 3.89868999e-03
      -1.52168665e-02 -1.06914598e-03 -5.10746427e-03 6.92687230e-03
      -1.43930940e-02 -2.89040431e-03 1.22346357e-03 2.03980342e-03
      2.07895157e-03 5.96850412e-03 -1.84651086e-04 -1.70401274e-03
      5.00410469e-03 8.31690617e-04 5.71753364e-03 -3.13226879e-03
      7.94759206e-03 1.36257876e-02 -1.96349761e-03 9.64852422e-03
      -8.80840607e-03 1.40172880e-04 -9.91665013e-03 3.53610190e-03
      -1.02037913e-04 4.33028117e-03 1.93470810e-03 -1.41942855e-02
      -7.28597166e-03 -5.71708614e-03 4.23929095e-03 -4.11148882e-03
      1.97394961e-03 -2.98401527e-03 -6.58034347e-03 -1.16305090e-02
      -1.08150989e-02 -2.40630796e-03 7.05993688e-03 9.68749076e-03
      5.18955244e-03 -1.45319314e-03 3.85309872e-03 6.51871879e-03
      7.31519563e-03 -7.72140548e-03 1.66904018e-03 -5.96207613e-03
      9.84175224e-03 5.78586652e-04 7.47375377e-03 -8.29889148e-04
      -4.00523655e-03 -3.30993277e-03 -9.16548446e-03 -5.68157819e-04
      1.19253597e-03 9.81652644e-03 6.54303841e-03 5.18555427e-03
      2.05180515e-03 -7.99737778e-03 -2.83010700e-03 -1.07954051e-02
      -3.31741292e-03 9.35168937e-04 1.05505148e-02 5.56948548e-03
      4.90659382e-03 7.58621981e-03 -3.92959267e-03 3.19962716e-03
      -4.91940323e-03 -7.58759864e-03 -3.35859554e-03 4.73939627e-03
      1.10692694e-03 5.29400120e-03 2.23292317e-03 -5.12138521e-03
      -2.58410815e-03 -8.19147006e-03 -3.93128116e-03 2.94553419e-03
      7.05002202e-03 5.33501711e-03 1.20075885e-02 8.53536930e-03
      2.69064005e-03 -5.36563853e-03 -9.02538188e-03 -3.34129925e-03
      3.23581020e-03 4.37773950e-03 3.01580847e-04 1.20406300e-02
      6.36904221e-03 -4.81713749e-03 6.52339950e-04 2.79251742e-03
      -9.61473584e-03 -4.61931247e-03 2.61062349e-04 4.96737950e-04
      4.81591607e-03 1.80187140e-04 -1.08633712e-02 -1.13545940e-03
      8.02331511e-03 -2.23755650e-03 -6.10393519e-03 7.95684755e-03
      7.95361644e-04 -4.02802456e-04 7.03328196e-03 -1.21295080e-03
      1.84858055e-03 -4.73910058e-03 -2.31064041e-03 -1.66375737e-03
      2.76674237e-03 1.48643588e-03 8.79791100e-03 -3.74201889e-04
      -2.70698103e-03 4.44239983e-03 2.11179862e-03 -1.16297742e-03
      5.26364485e-04 1.23198116e-02 -3.21014901e-03 2.00697873e-03
      2.96639948e-04 -7.88923725e-03 1.31116400e-03 5.61921950e-03
      -6.17501372e-03 -6.40052650e-03 -1.32021640e-04 3.78956291e-04
      9.74654395e-04 -6.78880373e-03 -5.42134093e-03 -1.59306068e-03
      3.32275592e-03 -4.23346972e-03 -7.41972076e-03 -2.50674377e-04
      2.43956270e-03 3.48154921e-03 -2.09621247e-03 -2.70834251e-04
      6.09369716e-03 5.81087591e-03 2.71253375e-04 -1.95533596e-03
      1.21016242e-02 2.16365815e-03 2.02893466e-03 -6.47013169e-03
      1.13177369e-03 -4.67328029e-03 1.08453736e-03 -3.53552611e-03
      -8.31825472e-03 1.05260741e-02 5.37073240e-03 -1.66756334e-03
      -4.82857879e-03 -4.64070309e-03 -1.24642946e-04 1.06576912e-03
      -7.42887892e-03 -9.95339453e-03 3.46364477e-03 2.60880287e-03
      5.73957944e-03 1.42867968e-04 2.07104534e-03 1.09083885e-02
      4.63528186e-03 6.76259585e-03 -2.57384032e-03 3.91678279e-03
      2.75124656e-03 1.06232986e-02 -6.20214036e-03 1.49913365e-03
      2.29087402e-03 1.11755952e-02 -9.21718124e-03 -8.31534341e-03
      5.67579875e-03 1.74620841e-03 4.64723213e-03 -7.87477102e-03
      -4.20403201e-03 8.54919851e-03 -2.12948839e-03 3.87539971e-03
      -2.53105280e-03 7.49743124e-03 -4.38307354e-04 6.28546998e-03
      2.93816254e-03 -3.97956138e-03 7.45856436e-03 7.68395746e-03
      3.97944823e-03 -3.43243917e-03 3.17806914e-03 3.15812742e-03
      9.36487038e-03 -1.64506142e-03 -1.21512618e-02 -5.98448375e-03
      1.65703055e-02 5.55197615e-03 -6.82992907e-03 5.56559488e-03
      1.35289354e-03 6.72189053e-03 -3.28936474e-03 -8.97989422e-03
      -9.03199252e-04 -1.60950891e-04 -3.53107322e-03 -2.66818982e-03
      4.15015779e-03 4.63393750e-03 5.92743047e-03 -5.47551829e-03
      -1.49203101e-02 -9.86661389e-03 7.25855911e-03 2.36615050e-03
      -4.32067923e-03 7.11978739e-03 4.10421722e-04 4.52452980e-04
      -2.03413330e-03 -1.18260197e-02 -4.95832181e-03 3.06902337e-03
      -4.61858604e-03 -6.01521041e-03 3.06594232e-03 7.52592168e-04
      8.57302267e-03 -7.70043174e-04 -3.48149333e-03 -1.71780156e-03
      8.69280368e-04 5.12063038e-03 5.81294997e-03 6.15347829e-03
      -6.32316526e-03 4.69235331e-03 2.89278035e-03 -9.39321797e-03
      -7.64601585e-03 3.10406438e-03 3.85040673e-03 -3.87134426e-03
      2.55364017e-03 -4.62088780e-03 -2.48461496e-03 5.25732432e-03
      -2.97317957e-03 -6.50879974e-03 -6.99752767e-04 3.95002495e-03
      -2.35651643e-03 6.10829983e-03 -7.71169504e-03 -2.51310412e-03
      4.59627807e-03 1.61975250e-03 -1.55406131e-04 2.13189446e-03
      -3.46862967e-03 4.40507103e-03 5.26731880e-03 -5.38866175e-03
      4.36094776e-03 9.06277914e-03 -1.20052486e-03 2.11399887e-03
      6.78718090e-04 3.19891935e-03 7.56021496e-03 3.07623763e-03
      -2.34436171e-04 8.99678655e-03 4.50972328e-03 -3.04354681e-03
      -4.04327409e-03 -3.95517563e-03 -7.98630249e-03 2.76895403e-03
      9.47775692e-03 -2.68143904e-03 4.49567917e-04 2.98999134e-03
      -1.77109754e-03 -7.67072779e-04 -5.95817482e-03 -1.64974097e-03
      3.03520542e-03 5.67585044e-03 3.93008813e-03 1.00479031e-03
      9.89581272e-03 -4.28981846e-03 -1.86165387e-03 4.37812274e-03
      9.14050848e-04 -5.49361575e-05 -4.23466275e-03 -7.75254052e-03
      4.47111577e-03 1.05129108e-02 1.77631073e-03 2.60853022e-03
      7.75402272e-03 1.00278948e-02 6.38234662e-03 -3.19339987e-03
      -3.78048979e-03 9.08887573e-03 3.60360136e-03 -1.79155392e-03
      -3.26792686e-03 -6.77237147e-03 -2.40054354e-03 8.29363358e-04
      -1.40923157e-03 -5.24351513e-03 -3.09482147e-03 -3.46786529e-03
      -5.80865750e-03 5.46948984e-03 6.05141977e-03 7.93171022e-03
      9.33359284e-03 -3.04621365e-03 -5.89846028e-03 -1.66418171e-03
      5.00202551e-03 8.82483728e-04 -3.66532302e-04 5.41617908e-03
      1.84744818e-03 4.70509846e-03 1.37854309e-03 5.10746380e-03
      4.61684680e-03 2.59889872e-03 2.30204943e-03 9.84780397e-03
      8.51958524e-03 -5.98175684e-04 -2.45154183e-03 2.02118792e-03
      -7.11657281e-04 4.02914453e-03 -6.23618206e-03 -1.15698772e-02
      -1.71152060e-03 1.44251250e-02 7.62899080e-03 3.80914169e-03
      -5.35972137e-03 4.01616888e-03 1.36103807e-03 -5.81936212e-03
      2.98231462e-04 6.50243461e-03 6.25446718e-03 2.38367449e-03
      -1.24056905e-03 1.57789944e-03 4.78925509e-03 -8.01754213e-05
      -7.45091995e-04 7.26552075e-03 1.57549046e-02 1.41842458e-02
      -5.81040629e-04 5.14670275e-03 4.61501681e-04 8.34981038e-04
      6.25346927e-03 -3.28216096e-03 3.89762991e-03 6.55100960e-03
      -4.34892299e-03 -1.05025042e-02 -3.22222267e-03 5.94916800e-03
      -2.21622339e-03 -6.99854596e-03 1.70115629e-04 4.88369446e-03
      1.30419498e-02 2.58403737e-03 -2.13241298e-03 -3.11346748e-03
      2.21603565e-04 4.37273178e-03 4.84636240e-03 -9.18280892e-03
      -1.19488162e-03 5.33698406e-03 -6.93536457e-03 -5.38537093e-03
      -4.14464064e-03 2.61934847e-03 2.70502083e-03 7.79755122e-04
      4.22752416e-03 -1.13952486e-03 3.70253879e-03 -1.24398759e-03
      4.62009339e-04 -4.41048556e-04 1.87221565e-04 -6.38226792e-03
      -1.28967245e-03 1.84573606e-03 -1.02163723e-03 1.43623067e-04
      6.63465261e-03 5.14578540e-03 4.99330601e-03 4.76956321e-03
      -8.26683186e-04 2.41161720e-03 -4.69489023e-03 -5.02592884e-03
      1.62839191e-03 -1.67173229e-03 -3.40942177e-03 -3.33109172e-03
      1.98806287e-03 2.76343967e-03 1.93315046e-03 5.91359288e-03
      7.18343211e-03 5.29428106e-03 6.35968056e-03 -6.46892982e-03
      1.38966588e-03 5.73602924e-03 2.23305682e-03 -1.44901813e-03
      1.35061820e-03 1.67885417e-04 1.96119747e-03 7.24311639e-03
      5.51654771e-03 2.28352076e-03 2.97819101e-03 -3.78464093e-03
      1.77787355e-04 5.13692480e-03 1.78000762e-03 6.25442481e-03
      1.25777572e-02 5.85886789e-03 -3.91111011e-03 1.80318020e-05
      -5.09440107e-03 -4.53782361e-03 3.14203883e-03 6.29202696e-03
      1.62326498e-03 1.02030626e-03 -1.11349125e-03 -1.67847634e-03
      -1.60367182e-03 -2.26092199e-03 -2.96456157e-03 1.03116210e-03
      1.58718566e-03 4.61655390e-03 1.02609070e-03 -9.59249854e-04
      -5.64170256e-03 -9.87654552e-03 1.73247862e-03 1.73436536e-03
      5.59660094e-03 -4.69336635e-04 -4.50814795e-03 6.94540283e-03
      9.48196836e-03 -1.53886981e-03 -5.72059536e-03 -2.13645166e-03
      -1.96176558e-03 3.28090298e-03 -3.88874835e-03 -5.17103123e-04
      5.82541851e-03 5.90588572e-03 -1.97568350e-03 -1.28593100e-02
      2.85767042e-03 4.14029602e-03 2.75780470e-03 4.64856997e-03
      1.73907855e-03 -3.80144920e-03 3.34283290e-03 -1.14332291e-03
      -4.33383649e-03 6.63607474e-03 5.59361186e-03 3.82916507e-04
      -1.52021961e-03 2.64340942e-03 -2.56533176e-03 -1.32320635e-03
      -2.41359626e-03 -3.73140932e-03 1.07416464e-02 6.75195549e-03
      -1.75360567e-03 9.35260323e-04 -2.21442344e-04 4.41583013e-03
      -5.48116770e-03 -3.00526712e-03 1.98083417e-03 -1.04334520e-03
      -5.51423524e-04 -7.35739886e-04 -1.71482249e-03 7.77841918e-03
      4.51722508e-03 1.40378237e-04 -1.01889875e-02 4.19672858e-03
      -3.79790366e-03 1.25232490e-03 -4.84468648e-03 -6.17959164e-03
      -2.33425162e-04 -1.77071930e-03 -7.42347725e-03 -3.14525864e-03
      5.84450457e-03 4.75710910e-03 -2.06252909e-03 2.12357775e-03
      -5.78531821e-04 4.12543258e-03 -6.18938962e-03 -1.22354145e-03
      -1.12998793e-02 3.02014430e-03 -3.87181691e-03 2.98618979e-04
      1.58999511e-03 1.97150256e-03 8.78614932e-03 2.82604154e-03
      -8.46200995e-03 -5.86779183e-03 1.25013515e-02 8.16306099e-03
      7.74542522e-03 -2.34938669e-03 -1.54068426e-03 7.09541701e-03
      -1.41580997e-03 -1.01817725e-02 -7.38912541e-03 7.43950205e-03
      6.19190745e-03 6.26072893e-03 3.27791553e-03 3.17351194e-03
      7.53326248e-03 1.55538821e-03 -7.30074896e-03 -5.92915993e-03
      7.68562686e-03 3.71217751e-03 4.42499807e-03 1.82605392e-04
      -5.25418087e-04 8.95560160e-03 2.33166665e-03 -6.30150503e-03
      -1.08307172e-02 5.46548096e-03 -2.60970066e-03 2.34260247e-03
      1.58508716e-03 1.44870288e-03 4.86017019e-03 -9.99313052e-05
      -9.07748193e-03 -3.28440499e-03 2.97450367e-03 2.87516089e-03
      7.78296590e-03 1.26805622e-03 4.43916628e-03 -2.04537786e-03
      -1.13640493e-02 -3.96261923e-03 4.69038147e-04 5.12726931e-03
      -3.33859981e-03 8.22858326e-03 -2.12386111e-03 4.27003484e-03
      6.66139461e-03 3.03852744e-03 -5.31404978e-03 -3.93847609e-03
      4.91038896e-03 1.67521706e-03 2.18440336e-03 -3.39709339e-03
      -5.73386811e-03 -2.38816882e-03 -4.56963573e-03 3.48377321e-03
      6.40024839e-04 3.50121013e-03 3.51610041e-04 -5.96001919e-04
      -2.86777224e-03 7.37583396e-05 -2.98309838e-04 -1.14425654e-02
      2.57346616e-03 -9.11681491e-05 -6.61809172e-04 -6.33274857e-03
      2.31839810e-03 -5.94603550e-03 -8.33196100e-04 1.99024053e-03
      3.56498826e-03 1.67326140e-03 4.89016762e-04 2.58872518e-03
      -3.94686451e-03 -2.39658846e-07 -4.64577432e-04 -6.64681429e-03
      -6.73320564e-03 -4.32362873e-03 7.70726660e-03 -2.23751669e-03
      -2.43180199e-04 -1.39810948e-03 -1.01333344e-03 -5.28666365e-04
      1.59753882e-03 1.86139974e-03 4.80434205e-03 1.58061809e-03
      -2.07428820e-03 2.50976323e-03 4.59748087e-03 -3.88989644e-03
      -1.02291012e-03 -1.84253149e-03 -2.70798826e-03 4.80621355e-03
      5.44090616e-03 -1.83475844e-03 5.61665604e-03 9.69076500e-05
      1.13990856e-03 -5.03104925e-03 -4.38402640e-03 -1.34514822e-02
      1.01256417e-03 -4.64385189e-03 -3.97496158e-03 7.50643434e-03
      -3.07406019e-03 -2.19473941e-03 7.22723780e-03 -5.23453718e-03
      -1.04780160e-02 5.62892016e-03 -1.78375363e-03 -2.08580866e-03
      6.74350793e-03 1.37687905e-03 1.03978871e-03 -3.38000059e-03
      -9.59544443e-03 -1.34590566e-02 -5.77372778e-03 -2.92676408e-03
      -4.16488806e-03 2.10805936e-03 -6.49174256e-03 -1.01173576e-03
      -2.24065641e-03 -5.10012219e-03 -2.21633492e-03 4.17349720e-03
      -1.17445271e-02 -6.55135093e-03 5.11676818e-03 -9.67326749e-04
      -2.00425670e-03 -2.77600338e-04 -3.38580343e-03 4.71312739e-03
      -2.29689782e-03 -3.74253630e-03 8.61806097e-04 8.22161511e-03
      1.56522973e-03 2.76747323e-03 1.21336419e-03 -3.57230520e-03
      -1.88586209e-03 -2.04715063e-03 -9.42424592e-03 2.95356323e-04
      3.34419659e-03 1.94531772e-03 5.52413659e-03 5.48213441e-03
      -4.55403002e-03 7.01543235e-04 -7.45731406e-04 2.01304839e-03
      1.75266317e-03 7.05470890e-03 4.71266685e-03 4.93934518e-03
      2.18842039e-03 -5.71103720e-03 -2.56639649e-03 1.17602292e-03
      -4.72554006e-03 5.18631842e-03 4.89581656e-03 4.45948564e-04
      3.90581414e-03 -1.65790319e-03 -1.17179332e-02 -6.64070481e-03
      1.27467071e-03 2.04948056e-03 1.75374013e-03 7.91784190e-03
      1.35165418e-03 -4.96715633e-03 -3.23732337e-03 -6.98840525e-03
      -3.23022157e-03 1.70268037e-03 -2.31860773e-04 1.77370897e-03
      5.44491690e-03 4.08018794e-04 1.26637646e-03 -4.59992699e-03
      -6.91940729e-03 -2.81944987e-04 -1.45966606e-03 1.37721642e-03
      -3.08681233e-03 5.39723923e-03 -3.21924640e-03 -7.35855242e-03
      3.16086574e-03 -4.06440441e-03 -2.14678864e-03 4.48297197e-03
      7.74237467e-03 2.18601036e-03 4.60710237e-03 -4.79813141e-04
      -6.76126312e-03 7.42962863e-03 -8.61239270e-04 -2.68125907e-03
      -7.20776618e-04 5.08939754e-03 -1.27416730e-04 8.35234858e-03
      -4.94846795e-03 -4.57963534e-03 1.69367925e-03 -9.15565586e-04
      8.42819922e-03 -1.65298130e-04 7.23745534e-03 4.49315226e-03
      3.63202859e-03 2.34000006e-04 -2.29124492e-03 -3.72671592e-03
      -9.62520298e-03 4.00418881e-03 -7.74728041e-03 6.08041463e-03
      9.65431740e-04 -3.97071382e-03 -9.10736155e-03 1.78258179e-03
      7.15555763e-03 -1.24555943e-03 4.24794620e-03 1.50910972e-04
      -6.30430598e-03 2.11561535e-04 9.26247519e-03 1.62258279e-03
      7.24835694e-03 2.90703541e-03 2.07026163e-03 6.38858834e-03
      2.76972307e-04 -3.18501261e-03 -3.27694509e-03 -6.19805243e-04
      3.28710349e-03 -3.72556783e-03 -4.91089711e-04 -4.21799533e-03
      4.82933316e-03 -5.31197246e-03 -3.89989838e-03 1.09725836e-04
      -1.91793981e-04 1.93208072e-03 1.19796488e-02 -1.27568434e-03
      -1.46266457e-03 1.96141028e-03 -1.65977573e-03 -2.31496437e-04
      2.63436395e-03 6.84108771e-03 4.77609551e-03 3.78445518e-04
      2.85301288e-03 4.25811065e-03 3.01114586e-03 -1.43135182e-07
      -2.82376376e-03 -5.70574822e-03 -4.02107788e-03 9.17209836e-04
      -5.00054006e-03 -1.55900349e-03 -5.83158620e-03 1.02630421e-03
      6.25007227e-03 7.76001113e-03 -1.24899845e-03 -1.70542917e-03
      -1.56267735e-04 5.40095381e-04 2.39571696e-03 2.02514475e-05
      4.71248850e-03 1.20380649e-03 -2.86331563e-03 -6.93375710e-03
      9.59940138e-04 2.23727850e-03 -3.24191479e-03 6.74249604e-03
      -8.88655800e-03 1.45476148e-03 -3.69155593e-03 2.89534172e-03
      3.49909789e-03 -6.30622904e-04 9.13958414e-04 3.14500416e-03
      -9.75883380e-03 -8.09226092e-03 -1.72951096e-03 1.00734560e-02
      6.36140537e-03 5.61595196e-03 -5.84519329e-03 -1.21421053e-03
      -8.71038937e-04 -7.49287941e-03 -1.28940225e-03 5.11258934e-03
      2.80805922e-04 2.77581997e-03 1.27054576e-03 -7.88793666e-04
      -2.67914333e-03 -2.54584104e-03 1.43076782e-03 -9.08541086e-04
      -2.42316979e-03 -2.42531346e-03 2.75471038e-03 9.98307206e-03
      9.23171174e-04 5.50240045e-04 -1.16502040e-03 2.96165282e-03
      2.82057119e-03 1.28137146e-03 -5.12632821e-03 5.72544523e-03
      4.14740155e-03 -2.56891409e-03 -2.85615120e-03 3.09216138e-03
      3.53286538e-04 1.32832362e-03 7.45602418e-03 2.89078965e-03
      4.44761710e-03 -4.23250545e-04 -1.54158194e-03 -4.83624288e-04
      1.37698415e-04 -6.65996131e-03 -3.69990221e-03 2.30484712e-03
      -3.61090712e-03 -8.62136076e-04 7.17054412e-04 1.43032137e-03
      2.21388834e-03 3.06329079e-04 5.05965250e-03 5.53253631e-04
      3.10622528e-03 -3.68244015e-03 4.24489239e-03 6.49160822e-04
      -1.85604068e-03 -7.14962324e-03 -1.60089473e-03 -1.89921085e-03
      -2.01838114e-03 -3.30424448e-03 -7.24431186e-04 -4.37519467e-03
      7.10869161e-03 6.98493328e-03 -8.12461833e-04 -8.46532919e-03
      -2.32508755e-03 -4.29225573e-03 6.38431986e-04 6.14328019e-05
      -7.33952690e-03 2.79321894e-03 9.45036300e-04 -8.25392781e-04
      -1.67001819e-03 2.28324672e-03 5.61177917e-03 4.21287306e-03
      2.27643875e-03 -1.05725564e-02 7.37253623e-03 8.71879421e-03
      1.69690920e-03 -6.32275920e-03 2.55420804e-03 -1.85664324e-03
      1.21630181e-03 1.70894759e-03 -6.72622584e-03 7.57541088e-03
      8.38125125e-03 1.63897802e-03 -4.15896764e-03 5.23150666e-03
      -3.15688131e-03 -2.78615463e-03 -1.10566465e-03 -4.52454621e-03
      8.55995063e-03 1.78948548e-02 3.84917879e-03 3.72259878e-04
      -4.43537487e-03 5.30236587e-03 6.66270964e-03 2.76848092e-03
      -2.43178988e-03 1.29738229e-03 1.90803630e-03 1.90320343e-03
      -4.77911904e-03 2.23635253e-03 5.09277591e-03 1.44479070e-02
      2.43349420e-03 -3.89197376e-03 4.69299674e-04 -5.94764715e-04
      5.46088722e-03 5.38085122e-03 4.69312828e-04 -4.34152037e-03
      -1.19827955e-03 -6.06340077e-03 8.45581584e-04 6.94984058e-03
      6.03411719e-03 2.48140772e-03 7.08984851e-04 9.69255064e-03
      -4.24415746e-04 8.97409394e-03 -1.91424508e-03 -5.20095928e-03
      2.64624739e-03 1.10714575e-02 3.91932391e-03 3.49497632e-03
      5.53876511e-04 2.97283498e-03 9.19259246e-03 -8.15795548e-03
      -6.17700070e-03 4.88144724e-04 -3.17929662e-03 2.39259913e-03
      1.09195069e-03 3.50670842e-03 -2.39812257e-03 3.42921866e-03
      -1.57086935e-03 -8.90051597e-04 1.83782401e-03 -1.22420792e-03
      7.91707449e-03 1.12666073e-03 6.09290227e-03 -7.23058649e-04
      3.56330024e-03 -6.07487792e-03 -6.48281770e-03 2.25228467e-03
      4.84145200e-03 5.93109056e-03 -1.19025458e-03 8.67062656e-04
      4.24225628e-03 3.61974188e-03 -3.07336892e-03 -3.00213788e-03
      7.57026719e-03 2.51249381e-04 1.32386843e-02 -6.22486928e-03
      -3.95009434e-03 -7.28533696e-03 -3.07929399e-03 -5.19958930e-03
      -1.01032909e-02 -3.72828031e-03 7.47000799e-03 5.06425276e-03
      -2.89761927e-03 6.13530912e-03 5.82111534e-04 1.57269824e-03
      -8.43387377e-03 -1.12448714e-03 -8.84949928e-04 8.25349055e-03
      4.19562915e-03 7.31275976e-03 -4.22733231e-03 -5.12753334e-03
      -6.98929932e-03 -2.84127565e-03 -5.09037031e-03 -5.68317855e-03
      7.77118048e-03 -4.53432556e-03 -5.61975222e-03 3.88188008e-03
      -1.09071210e-02 -7.57357012e-03 -1.31594706e-02 1.41796807e-03
      5.41346567e-03 2.29620188e-03 2.53640371e-03 4.18421626e-03
      2.84311105e-03 -1.17121951e-03 3.64643009e-03 1.84774934e-03
      -9.87308915e-04 -2.27607065e-03 3.70831462e-03 -4.01233207e-04
      3.34944180e-03 7.94695225e-04 -4.27135825e-03 8.26412905e-03
      3.68685531e-03 -3.12260073e-03 -1.10649858e-02 5.22198202e-03
      -2.32714252e-03 -1.68633240e-03 -2.03670794e-03 -8.71189777e-03
      -3.90141038e-03 -1.88137370e-03 5.37153217e-04 -8.98833212e-04
      -2.68052542e-03 -2.32750108e-03 -2.14330107e-03 -3.81166418e-03
      -3.34683293e-03 -1.33549969e-04 -2.52915034e-03 -1.87719113e-03
      -8.21954478e-03 -3.15687596e-03 -1.12958234e-02 -4.12986893e-03
      -2.59561464e-04 2.57439073e-03 4.70531872e-03 5.39071439e-03
      -2.13953061e-03 -6.46853470e-04 6.24359120e-03 -2.98693369e-04
      -1.44493912e-04 -6.27642949e-05 -7.14582903e-03 -1.37714483e-03
      -1.46875496e-03 -1.29448052e-03 4.20840317e-03 9.59542114e-03
      5.69560844e-03 1.10449083e-03 -2.59094592e-03 -2.81072746e-04
      1.82876748e-03 -2.61108857e-03 -2.67223106e-03 1.66466914e-03
      2.94850278e-03 -5.92968194e-03 -1.46405760e-03 2.42397873e-04
      -7.09172199e-03 -4.09937231e-03 -7.79569848e-03 -9.00491793e-03
      2.85989302e-03 1.11034438e-02 1.88514139e-04 -1.83585647e-03
      1.07920030e-03 -8.26337654e-03 -1.72489486e-03 1.19402399e-03
      2.25795107e-03 1.51721423e-03 3.88987991e-03 3.04600061e-03
      1.02764170e-04 3.62671562e-03 2.59016338e-03 -2.82910070e-03
      1.06820778e-03 -2.39236467e-03 4.05826746e-03 9.12069157e-03
      9.86315776e-03 1.49590825e-03 -3.56905023e-03 -4.87871235e-03
      6.90640369e-03 5.90741227e-04 -4.41217562e-03 -4.82119713e-03
      7.84265157e-03 -6.03957288e-03 -8.21889099e-03 -2.27521895e-03
      -2.94906530e-03 4.21625376e-03 -4.68031736e-03 -9.70351975e-03
      -1.16192698e-02 2.88463407e-03 -9.95995291e-03 -3.28473514e-03
      9.07342881e-03 -1.19722646e-03 -7.22376117e-03 2.44238672e-05
      -2.91996216e-03 1.57591188e-04 5.74680045e-03 4.39355895e-03
      5.62288146e-03 3.93535336e-03 -5.34344639e-04 -5.59070380e-03
      -1.64504675e-03 3.19252198e-04 -3.43097281e-03 2.11393298e-03
      1.40765810e-03 2.06704042e-03 3.17831454e-03 -4.46172012e-03
      -2.13090749e-03 1.34191616e-03 -5.10204025e-03 -7.40661658e-03
      4.89565602e-04 -5.45243546e-03 -1.27407000e-03 3.09343915e-04
      -7.37988669e-03 6.08523318e-04 -2.90744356e-03 2.77041947e-03
      -7.19607295e-03 6.22091466e-04 -6.45152759e-04 -7.06373993e-03
      9.53319669e-03 -8.04682495e-04 -1.45762489e-04 -1.03417085e-03
      -1.25270966e-03 -1.07607397e-03 -3.25393910e-03 2.93699163e-03
      7.19012320e-03 5.02570439e-03 -6.60051219e-03 -2.49510841e-03
      -1.51408443e-04 4.79633221e-04 3.59917548e-03 6.79090247e-03
      6.00608671e-03 8.01051501e-03 4.09920700e-03 6.81060374e-06
      -1.66290381e-03 -3.66481324e-03 -8.04495881e-04 -8.97300802e-03
      -3.49836797e-03 -6.67465106e-03 -2.25202297e-03 -6.50006440e-03
      -7.87379686e-03 -3.45801050e-03 -5.37177920e-03 2.14948770e-04
      -5.81139757e-04 4.33908170e-03 1.37889944e-03 3.91154736e-03
      -3.74456076e-03 -8.18728656e-03 9.70355395e-05 3.86335049e-03
      -4.74042492e-03 -3.47939529e-03 9.06511210e-03 3.72762699e-03
      3.51652573e-03 1.34640245e-03 -5.39851235e-03 1.33863476e-03
      -5.76096261e-03 -3.67541751e-03 -1.18797785e-02 6.56452775e-03
      1.69091171e-03 3.60634481e-03 -8.70162062e-03 -1.09661855e-02
      4.71072475e-04 -5.36986627e-03 -2.58869096e-03 -5.10899627e-05
      4.35030321e-03 2.45813467e-03 5.40004531e-03 3.29014816e-04
      -8.95618275e-03 -5.92963304e-03 -1.32419346e-02 3.05150007e-03
      -5.13446797e-03 4.05215845e-03 -2.92596105e-03 8.77087098e-03
      7.59132765e-03 2.74069171e-04 5.85862994e-03 -4.07484273e-04
      5.38802147e-03 -2.40239454e-03 2.91870837e-03 7.14557525e-03
      4.94859833e-03 -1.19739235e-03 -5.20253833e-03 2.04986287e-03
      -5.65468706e-03 4.25655628e-03 3.15377256e-03 -7.17786420e-03
      -4.59595257e-03 1.23741163e-03 1.10968342e-02 -4.24907124e-03
      -2.50797439e-03 -2.76263757e-03 6.98624738e-03 -4.70688799e-03
      2.54947366e-03 5.82956767e-04 5.78560075e-03 7.19645293e-03
      -1.94958784e-03 -9.59177408e-03 -6.73485827e-03 3.64354672e-03
      -2.62469240e-03 -7.35101115e-04 -7.72935920e-04 -3.65051371e-03
      1.41312298e-03 7.57355185e-04 5.74783515e-03 -2.22883094e-03
      -2.11003190e-03 2.54055788e-03 -7.11780740e-04 1.43479032e-03
      1.16775986e-02 -1.70497678e-03 2.42768467e-04 6.13249978e-03
      2.14169268e-04 -5.68696856e-03 3.00308317e-03 1.38654541e-02
      1.00477254e-02 5.03189908e-03 7.82311894e-03 -1.15418318e-03
      -8.53895582e-03 -4.50974191e-03 -1.46319752e-03 -8.41961126e-04
      1.53590736e-04 1.93602976e-03 3.41839646e-03 8.94877245e-04
      -4.16848250e-03 4.86386183e-04 -4.00360301e-03 -3.40328552e-03
      -1.12131389e-03 3.65061359e-03 5.53852692e-03 1.34658832e-02
      -4.49977058e-04 -5.18218428e-03 1.18544696e-04 -2.40423880e-03
      -2.99874204e-03 -3.16682830e-03 -5.11282647e-04 1.59165962e-03
      -2.57376675e-03 8.06642976e-03 -7.90061895e-03 -2.91176303e-03
      -8.41560308e-03 4.57055075e-03 1.03399726e-02 6.89793087e-04
      -6.20074512e-04 -5.39603597e-03 -2.06935965e-03 -1.35999545e-03
      -1.10244720e-04 -4.15121065e-03 1.45545823e-03 -7.33009772e-03
      1.73601598e-04 3.49120982e-03 8.86793772e-04 4.39398270e-03
      -6.86351536e-03 -1.79760531e-03 -2.98223528e-03 5.46634430e-03
      5.64521272e-03 3.18324193e-03 3.32473242e-03 -8.43618298e-04
      5.33627393e-03 8.77180544e-04 -2.14078696e-03 -8.62107147e-03
      2.35216459e-03 9.17095970e-03 -3.39467428e-04 -1.68904080e-03
      -2.26578186e-03 -5.72072284e-04 7.31945084e-03 6.47856249e-03
      -7.09250104e-03 -2.25276942e-03 1.02820096e-03 -1.62874837e-03
      -1.37508416e-03 1.51887431e-03 -1.33857725e-03 -6.42849924e-03
      1.81852747e-03 -2.80730892e-03 2.40710634e-03 5.14647691e-04
      2.54563987e-03 -8.13703344e-04 -3.01623414e-03 -5.74795110e-03
      2.88196374e-03 6.74533192e-03 -3.77202593e-03 -3.54178110e-03
      -3.62726138e-03 1.71890797e-03 -5.13114501e-03 -4.71633999e-03
      4.15161689e-04 1.85620331e-03 2.93975021e-03 -5.68882469e-03
      -2.40489026e-03 -7.37019145e-05 -2.01534524e-04 -1.97131396e-03
      1.62694731e-03 -2.74473778e-03 9.72839072e-04 -1.37566516e-04
      1.80322421e-03 2.74292496e-03 6.25516172e-04 -2.55786278e-03
      -2.59799650e-03 -3.40025406e-03 -6.98844786e-04 8.98781640e-04
      1.75240904e-03 4.32332512e-04 -3.56252422e-03 -5.26020944e-04
      4.15593060e-03 -6.81363570e-04 9.66416439e-04 -9.77064599e-04
      9.13804630e-04 1.88308291e-03 7.25919893e-03 4.97407233e-03
      -2.74872524e-03 -1.29859545e-03 -5.57040854e-04 -3.25404597e-03
      8.30874604e-04 2.10225116e-03 2.72858981e-03 7.14104623e-04
      3.47334729e-03 -1.01418141e-03 3.41143063e-03 -5.51368983e-04
      -1.57353526e-03 3.27052712e-03 8.45369650e-04 -3.02732951e-04
      -1.30800635e-03 1.05654146e-03 1.61458238e-03 8.81823990e-03
      1.38639461e-03 -2.04574852e-03 -6.03085663e-03 2.57876585e-03
      2.91874260e-03 4.02857596e-03 1.84481742e-03 -7.55014224e-03
      -3.84750613e-03 -3.63151752e-03 -2.78425450e-03 -1.06517621e-03
      8.93957913e-04 3.90527304e-03 2.07127398e-03 8.02953320e-04
      2.44303071e-03 4.57658316e-05 -6.82565733e-04 -2.35222955e-03
      3.96660995e-04 -5.31202648e-03 -9.73300729e-03 -5.22471825e-03
      4.19486966e-03 1.43541698e-03 1.93703885e-03 -2.26833951e-03
      1.31099916e-03 4.31094365e-03 -5.96586661e-03 -8.45614413e-04
      4.40426590e-03 7.57062982e-04 3.82664512e-05 8.90814979e-03
      -7.38191069e-04 9.33809672e-03 6.75135897e-03 6.80573471e-03
      -6.41283253e-03 4.46591573e-03 6.71544205e-03 4.19739261e-03
      8.00628331e-04 -9.45675711e-04 -7.16699194e-03 7.04014441e-03
      -3.26713850e-03 -2.31987471e-03 4.25320759e-04 4.94903326e-03
      5.03578503e-03 4.85894457e-03 -2.49525387e-04 1.94946106e-03
      -3.15016485e-03 -2.62641581e-03 -7.02803722e-04 -6.32870756e-03
      -3.77840106e-03 -2.50347564e-03 1.99942733e-03 4.40669712e-04
      4.56431851e-04 -1.70013183e-04 7.98065308e-03 3.55032063e-03
      -7.20871286e-03 3.64935328e-03 4.99898475e-03 -1.14344060e-03
      2.25230563e-03 -3.18161724e-03 5.15468069e-04 -9.18738637e-03
      -2.07109819e-03 -8.20238143e-03 2.55443971e-03 -1.66151347e-03
      7.02193659e-03 -3.65847861e-03 -1.30147091e-04 2.65114568e-03
      -7.46912672e-04 3.13545694e-03 3.20720789e-03 5.15073771e-04
      1.33198360e-02 9.73358378e-03 -6.54164795e-03 6.80416299e-04
      -1.50519703e-03 2.48884130e-03 -1.11776404e-04 -5.19828917e-03
      -1.86470250e-04 -7.36483606e-03 3.20562301e-03 -4.67176642e-03
      -1.26777240e-03 -3.25122208e-04 -4.81104245e-03 -3.43003124e-03
      -1.36056701e-02 2.61466205e-03 2.79149594e-04 -1.95372407e-03
      6.67345710e-04 1.29065360e-03 5.75730402e-04 6.62880857e-03
      -5.75221726e-04 -3.08771594e-03 3.50726303e-03 -7.95969181e-03
      -1.90889940e-03 -1.06343599e-02 -2.33685761e-03 2.18102336e-03
      6.60309393e-04 -3.69395455e-03 -7.01968232e-03 5.34690544e-03
      -4.21597762e-03 -4.84617520e-03 -5.11386385e-03 7.90956954e-04
      7.08723266e-04 -2.38690627e-04 -7.72411586e-04 -5.49755059e-04
      4.24500875e-04 4.00485564e-03 -2.30227527e-03 -1.72125886e-03
      -2.83569010e-04 2.15682550e-03 1.75431627e-03 -9.16432706e-04
      -1.99777493e-03 8.82786699e-04 -4.87745303e-04 -1.80367823e-03
      -4.27703606e-03 -2.23824615e-03 1.32466108e-03 4.69883345e-03
      1.81896868e-03 1.71803415e-03 1.94843858e-03 3.92211892e-04
      -2.36276304e-03 -3.53163807e-03 -1.92607183e-03 -1.67092934e-04
      -3.28377867e-03 1.75215933e-03 -2.35839142e-03 -2.72622355e-03
      4.27477848e-04 -2.25627306e-03 -5.63203869e-03 -3.77116795e-03
      7.41524855e-03 4.88289353e-03 8.72340612e-03 2.36311415e-03
      1.78707007e-03 1.38518563e-03 -2.56589788e-04 3.18605872e-03
      6.17565075e-03 4.42603650e-03 -3.86889139e-03 1.51053726e-04
      2.08895514e-03 -9.24435153e-04 5.74071147e-03 1.79418863e-03
      -1.17462932e-03 7.12374737e-03 -8.76799750e-04 -3.26588564e-03
      5.89544186e-03 1.56656769e-03 -1.14315441e-02 -7.80304894e-03
      -5.62913297e-03 -1.50860718e-03 8.40319728e-04 3.40235163e-03
      -1.03741989e-03 1.84110540e-03 -6.47023437e-04 2.41470174e-03
      -6.79628784e-03 -8.93860310e-03 -9.82211716e-03 3.96609260e-03
      -2.83899042e-03 -6.60464214e-03 3.34123266e-03 8.57699371e-04
      2.17868597e-03 -3.66692594e-03 3.56424274e-03 -7.08975829e-03
      -1.35452137e-03 -3.85407079e-03 -4.45817161e-04 1.08053479e-02
      4.13681119e-04 1.55267073e-03 -1.06392540e-02 6.10611355e-03
      -4.74105589e-03 -1.16439792e-03 -2.27434421e-03 -3.39305308e-03
      -1.36308279e-03 2.13282369e-03 9.28854849e-03 -4.94189095e-03
      -6.72108820e-03 -7.64586311e-03 3.81848845e-03 -1.12033484e-03
      2.46818666e-03 3.77573329e-03 -3.94286681e-03 6.79940078e-03
      1.63157575e-03 -2.54716561e-03 -1.03179943e-02 2.87650572e-03
      -7.87144818e-04 4.03369893e-04 5.34470892e-03 5.55653824e-04
      -6.56297151e-03 -6.81403046e-03 7.85778800e-04 -2.75399187e-03
      8.89813644e-04 -4.49277955e-04 -4.30827821e-03 6.64475420e-03
      -2.02387874e-03 2.02628085e-03 -2.04887660e-03 1.20788813e-03
      -1.17149868e-03 -7.44181219e-03 -3.44437110e-04 -4.47684713e-03
      6.40180835e-04 2.75340659e-04 -4.07088408e-03 4.92887804e-03
      5.00899216e-04 -6.51588757e-03 3.77093651e-03 -8.18439946e-03
      -6.58062566e-03 -2.36031855e-03 -3.85344983e-03 -1.31012814e-03
      1.51504169e-03 5.47382922e-04 -4.44330368e-03 -2.89678085e-03
      3.05251265e-03 8.96100362e-04 5.71177108e-04 -2.54651089e-03
      -1.31534622e-03 -4.15451685e-03 9.05460620e-04 -8.52156722e-04
      1.38025568e-03 -3.30956024e-03 -3.67989461e-03 -1.87197281e-03
      -1.69916428e-03 2.96696671e-03 -9.23891377e-04 8.93744361e-03
      3.15126474e-03 4.97592334e-03 1.32759771e-04 5.74724865e-04
      -2.31604121e-04 -8.12319689e-04 -1.21000025e-03 -3.19458358e-03
      -1.28319231e-03 -1.03289458e-04 4.31868294e-03 4.60852589e-03
      6.67721761e-05 -3.36098694e-03 -1.08762982e-03 5.76703483e-03
      -5.34555223e-03 -3.92413186e-03 -8.13105050e-03 7.72542879e-03
      1.50926062e-04 -2.65273498e-03 4.55046131e-04 -2.70766020e-03
      -3.23185790e-03 -4.72766487e-03 2.41748733e-03 2.71457504e-03
      6.86707906e-03 -3.44895176e-03 -5.32253366e-03 -5.87304402e-03
      -4.43073455e-03 2.46697338e-03 -1.81201310e-03 -3.97432875e-03
      -6.82509551e-03 -9.01805062e-04 5.71682118e-03 -6.72480371e-03
      1.21352321e-04 2.90943403e-03 -1.22933753e-03 -7.09093828e-03
      1.01034377e-04 -5.35500143e-03 7.98031501e-03 -5.31479670e-03
      -4.83889272e-03 3.84393847e-03 -9.42576095e-04 5.69309900e-03
      -3.16376868e-03 -8.99242586e-04 -4.53374395e-03 -2.08242261e-03
      8.80274549e-03 -2.54840590e-03 -3.52717564e-03 4.62942757e-03
      2.44625355e-03 -3.82775743e-03 -1.96222030e-03 4.30943648e-04
      2.99460092e-03 7.18064094e-03 -2.54358980e-04 -6.17625425e-03
      3.70562682e-03 4.95146960e-03 -2.77770753e-03 1.30176451e-03
      -1.53882516e-04 -3.99626791e-04 -2.95252143e-03 -9.28521622e-03
      -4.12355596e-03 3.10914102e-03 2.19491892e-03 -4.37985407e-03
      -7.35770399e-03 -6.12907286e-04 2.04866542e-03 -2.12761131e-03
      -3.11869313e-03 6.56705350e-03 7.39512965e-04 -1.23851432e-03
      -3.71296518e-03 -1.66922202e-03 7.06125423e-03 -4.16097045e-03
      4.96633258e-03 2.61350011e-04 -5.64023294e-03 -2.04508868e-03
      3.10677616e-03 3.50863044e-03 -4.54012770e-03 4.16156370e-03
      5.39530907e-03 3.48273618e-03 -3.34249402e-04 2.20298875e-06
      -3.64146009e-03 -1.77770562e-03 2.91294442e-03 -5.17127477e-03
      3.65943089e-03 1.17188757e-02 1.17888849e-03 2.02164380e-03
      1.33370068e-02 5.89537434e-03 6.91307825e-04 -1.17634430e-04
      3.21429502e-03 7.95863755e-03 3.46957915e-03 -3.98677570e-04
      6.52636448e-03 4.89193248e-03 -2.47736764e-03 -3.75844911e-03
      3.66849313e-03 -1.08737347e-03 1.64385070e-03 4.81984019e-03
      -2.01014150e-03 1.72859966e-03 2.68724543e-04 -3.25348228e-04
      -4.76301555e-03 -5.11606177e-03 1.37018971e-03 -4.71152691e-03
      -5.12093818e-03 7.71881640e-03 3.11938953e-03 3.29400972e-03
      1.09985936e-02 2.60258070e-03 -5.67924697e-03 8.73899728e-04
      -2.10717996e-03 3.37167527e-03 -4.38787555e-03 -7.83730124e-04
      -7.82701070e-04 -2.93273805e-03 -1.54996465e-03 1.00906566e-03
      -2.23610690e-03 -4.73831501e-03 -5.65985637e-03 1.80251873e-03
      -2.11346545e-03 -2.22780975e-03 1.00450404e-02 8.83367565e-03
      2.96306284e-03 -1.40474318e-03 -8.42162222e-03 -1.52579544e-03
      2.05012551e-03 -4.63721022e-04 -1.49939864e-04 3.77028249e-03
      3.32310959e-03 5.71128330e-04 3.63324070e-03 -5.17343928e-04
      1.03724189e-03 7.76578599e-05 2.21738801e-03 2.35211360e-03
      -5.30102802e-03 4.45813080e-03 2.03483389e-03 -2.64904695e-03
      -9.76094685e-04 -7.01501034e-04 -5.47392119e-04 1.82851474e-03
      -2.64512864e-03 3.86600354e-04 1.96745663e-04 -3.05851921e-03
      3.59663717e-03 -9.11858957e-03 -5.30115049e-03 3.54215736e-03
      3.07035912e-03 1.47595536e-03 -6.21779962e-03 4.17454168e-03
      -5.64582995e-04 -2.83683208e-03 -4.61124582e-03 2.33350159e-03
      3.55958613e-03 -8.32241320e-04 1.80855207e-03 1.06726750e-03
      -6.26983633e-03 1.53250340e-03 -4.19534277e-03 -5.02103567e-03
      3.36707942e-03 1.00892619e-03 2.03172513e-03 -7.03057158e-04
      3.88983032e-03 1.43074652e-03 -2.06768839e-03 -7.61490301e-05
      -4.68346756e-03 9.65373532e-04 7.98573066e-03 2.74700637e-04
      3.30139278e-03 8.90406140e-04 -3.49927315e-04 6.68529421e-04
      -6.78722467e-03 -3.44731053e-03 5.82394470e-03 3.79235088e-03
      -7.87097379e-05 -1.50674302e-03 -4.68774140e-03 -1.44647411e-03
      3.23276920e-03 8.96413461e-04 -4.89918748e-03 -8.21110443e-04
      -8.26358609e-03 1.92819058e-03 -1.53709974e-04 2.75942148e-03
      -4.69189696e-03 -3.24235437e-03 -1.25111011e-03 -2.78975558e-03
      -5.71845239e-03 -2.57293112e-03 2.40782485e-03 6.94216182e-03
      6.14019856e-03 2.07788707e-03 4.43810411e-03 1.48080278e-03
      1.72881852e-03 1.73262623e-03 4.62085521e-03 1.86528589e-04
