<?xml version="1.0"?>
<opencv_storage>
<my_svm type_id="opencv-ml-svm">
  <svm_type>C_SVC</svm_type>
  <kernel><type>LINEAR</type></kernel>
  <C>1.</C>
  <term_criteria><epsilon>2.2204460492503131e-16</epsilon>
    <iterations>1000</iterations></term_criteria>
  <var_all>8192</var_all>
  <var_count>8192</var_count>
  <class_count>2</class_count>
  <class_labels type_id="opencv-matrix">
    <rows>1</rows>
    <cols>2</cols>
    <dt>i</dt>
    <data>
      -1 1</data></class_labels>
  <sv_total>1</sv_total>
  <support_vectors>
    <_>
      -4.15625185e-01 4.60985720e-01 0. 2.34412268e-01 0. 4.93712097e-01
      0. -5.85638165e-01 0. 6.27536654e-01 0. 2.25302517e-01 0.
      1.06208414e-01 0. -1.04333770e+00 0. 3.20400819e-02 0.
      -6.93083229e-03 0. 4.76241251e-03 0. -4.59885746e-02 0.
      3.66049409e-01 0. 1.66919231e-01 0. 1.05256252e-01 0.
      8.91957283e-02 0. -6.88563943e-01 0. -5.69313765e-01 0.
      -1.82608590e-02 0. 5.57022840e-02 0. 1.49837673e-01 0.
      -6.27671108e-02 0. 1.73646644e-01 0. -1.68133691e-01 0.
      -2.35845223e-01 0. -2.87171394e-01 0. -5.16597666e-02 0.
      -2.35594988e-01 0. 9.53379273e-02 0. -3.72887333e-03 0.
      -1.32836804e-01 0. -6.49680912e-01 0. -2.15352669e-01 0.
      -4.01931703e-02 0. 5.83578087e-02 0. 1.93883985e-01 0.
      1.00822963e-01 0. 2.18344089e-02 0. 6.89183399e-02 0.
      -1.76323935e-01 0. -4.10796627e-02 0. 1.69202033e-03 0.
      2.62878444e-02 0. 5.52998781e-02 0. -1.08604953e-02 0.
      3.18366177e-02 0. 7.34002367e-02 0. -1.71162620e-01 0.
      -1.14127554e-01 0. -1.58204347e-01 0. 8.45433921e-02 0.
      -5.42196669e-02 0. 1.02732398e-01 0. 6.15481287e-02 0.
      5.23123667e-02 0. 9.51011330e-02 0. 2.01590225e-01 0.
      1.52383279e-02 0. 2.57892665e-02 0. 2.44659949e-02 0.
      5.32124937e-03 0. -1.81843325e-01 0. -3.08797229e-02 0.
      -3.26131493e-01 0. 3.66536751e-02 0. 2.38313213e-01 0.
      -2.47818045e-02 0. -1.50501225e-02 0. -3.12507935e-02 0.
      9.07867849e-02 0. 5.13461605e-02 0. -1.28239524e-02 0.
      1.22118860e-01 0. 2.58813724e-02 0. 8.88383687e-02 0.
      -8.38343278e-02 0. 2.62026023e-02 0. 6.36527538e-02 0.
      1.03152581e-01 0. 4.14709151e-02 0. -1.00168988e-01 0.
      3.59730236e-02 0. 5.21061942e-03 0. 4.67559136e-02 0.
      2.31213402e-02 0. 4.21875827e-02 0. 3.18661854e-02 0.
      4.44999710e-02 0. 8.04383531e-02 0. 1.18164249e-01 0.
      4.06423882e-02 0. -2.25370172e-02 0. 2.49382518e-02 0.
      -8.56970847e-02 0. 3.67959961e-02 0. 1.73996255e-01 0.
      -7.85935670e-03 0. -1.23617060e-01 0. 2.88075283e-02 0.
      -7.70219341e-02 0. 5.72560653e-02 0. 4.46135998e-02 0.
      -4.64106463e-02 0. 5.03298193e-02 0. 6.56112581e-02 0.
      4.70313057e-03 0. 4.61857095e-02 0. -6.50281180e-03 0.
      -1.48029043e-03 0. -3.96033080e-04 0. -4.92154546e-02 0.
      1.37636364e-01 0. -1.00803431e-02 0. 1.98857442e-01 0.
      7.84579515e-02 0. -6.82821125e-02 0. -1.86971575e-01 0.
      5.79254562e-03 0. 2.94631273e-02 0. -4.66900207e-02 0.
      -9.53197554e-02 0. 3.25234979e-02 0. -7.84913152e-02 0.
      -1.53004900e-01 0. 1.36587480e-02 0. 6.18859194e-02 0.
      -1.06632978e-01 0. 1.26868024e-01 0. 5.24659932e-01 0.
      3.04713488e-01 0. 3.57297063e-02 0. -4.85602878e-02 0.
      -6.30602911e-02 0. -2.34893840e-02 0. 9.09962058e-02 0.
      -1.21799737e-01 0. 1.27274349e-01 0. 3.04750744e-02 0.
      -7.08016707e-03 0. -1.35649368e-02 0. 6.55873911e-03 0.
      2.09110193e-02 0. 1.74510088e-02 0. 1.59165502e-01 0.
      -4.23523895e-02 0. 4.84371036e-02 0. 5.86819835e-02 0.
      3.09585370e-02 0. -6.76570600e-03 0. -8.40019360e-02 0.
      2.95304004e-02 0. -2.26832228e-03 0. -3.21313478e-02 0.
      3.99223939e-02 0. 1.47854043e-02 0. 2.41256673e-02 0.
      -2.84615178e-02 0. 5.09451889e-02 0. -6.66510165e-02 0.
      6.05944172e-02 0. -8.91230404e-02 0. 6.41948059e-02 0.
      -1.18842404e-02 0. 2.01631840e-02 0. -4.86943610e-02 0.
      7.23021477e-03 0. -1.14641394e-02 0. -1.64403439e-01 0.
      7.27543607e-02 0. -2.97259986e-02 0. -1.76045559e-02 0.
      9.32849050e-02 0. 7.52743706e-03 0. 7.79042616e-02 0.
      5.81751987e-02 0. 1.00617610e-01 0. 7.58396983e-02 0.
      5.91618307e-02 0. 2.72070933e-02 0. 6.44769706e-03 0.
      -7.89979473e-02 0. 7.55382329e-02 0. 3.39629017e-02 0.
      -1.00269996e-01 0. 5.21290377e-02 0. -1.45956024e-03 0.
      5.60991988e-02 0. 1.62894323e-01 0. -1.02379166e-01 0.
      5.89014255e-02 0. -3.10218371e-02 0. 3.42391655e-02 0.
      3.49356271e-02 0. 1.72242045e-01 0. -3.98444617e-03 0.
      -1.33638605e-01 0. 9.24664065e-02 0. 5.95487766e-02 0.
      1.51045872e-02 0. -1.41653016e-01 0. 6.78660050e-02 0.
      4.13806252e-02 0. -1.27021503e-02 0. -8.53001773e-02 0.
      5.04898746e-03 0. -2.56159380e-02 0. 5.27523197e-02 0.
      4.32349369e-02 0. -1.47910669e-01 0. 6.57322258e-02 0.
      -1.98206324e-02 0. 4.13009971e-02 0. 6.78121578e-03 0.
      -9.13842209e-03 0. -1.92724112e-02 0. -4.50765751e-02 0.
      -3.93373333e-02 0. 2.74392217e-02 0. 5.17260563e-03 0.
      1.34730749e-02 0. 3.58149484e-02 0. 1.82547085e-02 0.
      -2.83135809e-02 0. 1.88876107e-01 0. -2.53946126e-01 0.
      -8.17945749e-02 0. -2.32665008e-03 0. 1.06000468e-01 0.
      5.96391372e-02 0. -2.96556763e-02 0. 8.93465895e-03 0.
      -9.66299176e-02 0. 9.20409039e-02 0. 6.90131336e-02 0.
      3.82968597e-02 0. -3.01415846e-02 0. -1.80214494e-02 0.
      -8.24626256e-03 0. 2.14896761e-02 0. -3.08810063e-02 0.
      1.35500982e-01 0. 5.55927912e-03 0. 1.06134615e-03 0.
      5.61855994e-02 0. -1.01508334e-01 0. 4.45995433e-03 0.
      -1.26619056e-01 0. 1.94546178e-01 0. -6.52285218e-02 0.
      1.05949175e-02 0. -6.23722076e-02 0. -2.84143060e-01 0.
      5.72268888e-02 0. -2.78054923e-01 0. -2.09453806e-01 0.
      4.79214191e-02 0. 1.04703617e+00 0. 7.97451019e-01 0.
      2.05802903e-01 0. -3.22273642e-01 0. 1.32991314e-01 0.
      5.47289476e-02 0. -3.59159738e-01 0. -2.25496352e-01 0.
      8.53454694e-02 0. 2.52051055e-01 0. -5.22973090e-02 0.
      -2.60371715e-01 0. 1.15486898e-01 0. 2.23691061e-01 0.
      -4.71168081e-04 0. 2.53876001e-02 0. -4.21768352e-02 0.
      -4.40100394e-02 0. -6.24675229e-02 0. 4.29245830e-02 0.
      1.14449702e-01 0. 3.68700400e-02 0. 1.44469356e-02 0.
      -5.93611151e-02 0. -1.17290623e-01 0. -1.19200751e-01 0.
      3.72479111e-02 0. 1.23644263e-01 0. 3.17296609e-02 0.
      1.50343701e-01 0. -5.50042577e-02 0. -8.42916220e-02 0.
      1.41453937e-01 0. 1.08689545e-02 0. 8.41387063e-02 0.
      -4.83506881e-02 0. 6.69483840e-02 0. -2.85253418e-03 0.
      5.82642592e-02 0. 1.13629177e-01 0. 1.50795683e-01 0.
      9.83845443e-03 0. 6.81646317e-02 0. -6.82157353e-02 0.
      7.59087084e-03 0. 1.76270995e-02 0. 3.59007083e-02 0.
      9.56646353e-02 0. -8.18956345e-02 0. -1.51956333e-02 0.
      2.27363594e-02 0. -1.24277398e-01 0. 5.45575237e-03 0.
      -1.83944162e-02 0. 4.80026379e-03 0. 4.33337204e-02 0.
      1.51438341e-01 0. 6.11823164e-02 0. 1.04459241e-01 0.
      1.59488872e-01 0. 4.02407115e-03 0. -3.50383848e-01 0.
      -7.49986172e-02 0. 1.36543959e-01 0. 1.28377989e-01 0.
      1.59082368e-01 0. 1.08962059e-01 0. -1.90068483e-02 0.
      6.12134002e-02 0. 1.18666708e-01 0. 9.47683379e-02 0.
      -5.72955068e-05 0. 5.44124246e-02 0. 7.39249736e-02 0.
      4.75730374e-02 0. -3.11717875e-02 0. 7.08803162e-02 0.
      9.17664841e-02 0. 7.94015154e-02 0. 1.83254272e-01 0.
      -9.64492112e-02 0. 8.38119909e-03 0. -1.83917806e-02 0.
      9.16094333e-02 0. -6.72511980e-02 0. 4.09178576e-03 0.
      9.45543498e-02 0. 9.86689329e-02 0. 1.60520971e-02 0.
      5.44701181e-02 0. 2.08032457e-03 0. -1.46096451e-02 0.
      -5.43265371e-03 0. -6.20219409e-02 0. -9.54932626e-03 0.
      2.20768034e-01 0. -8.77063498e-02 0. -2.90841348e-02 0.
      7.96108767e-02 0. -4.84189764e-03 0. -2.00136434e-02 0.
      4.42415029e-02 0. -2.04516817e-02 0. 7.66358376e-02 0.
      1.11811934e-03 0. 1.05904378e-02 0. 3.84092703e-02 0.
      -3.09341326e-02 0. 1.09459937e-03 0. -4.40099575e-02 0.
      -1.77717712e-02 0. 8.25877041e-02 0. -4.77366410e-02 0.
      -7.75045082e-02 0. 1.12619534e-01 0. -1.73932508e-01 0.
      2.62776278e-02 0. 3.01114051e-03 0. -1.99413020e-02 0.
      -1.77294895e-01 0. -6.38160333e-02 0. 1.55564025e-01 0.
      9.51564461e-02 0. 4.52352613e-02 0. -3.17460741e-03 0.
      5.51604778e-02 0. -1.54474512e-01 0. 7.17518568e-01 0.
      4.93813127e-01 0. 3.29871207e-01 0. -1.43185496e-01 0.
      -7.44668469e-02 0. -1.94297865e-01 0. -2.50375867e-01 0.
      -2.12107271e-01 0. 4.37374488e-02 0. -2.96573713e-02 0.
      -2.58563340e-01 0. 5.53407241e-03 0. -3.10689688e-01 0.
      9.51006114e-02 0. -2.99576744e-02 0. 4.91504185e-02 0.
      -1.67819411e-01 0. -1.47349052e-02 0. -1.41114682e-01 0.
      2.29387134e-02 0. -1.38729528e-01 0. 9.41273272e-02 0.
      -2.38425191e-02 0. 1.43486559e-02 0. -1.91881899e-02 0.
      -8.11656937e-02 0. 2.72830408e-02 0. -9.42108855e-02 0.
      4.92464472e-03 0. -5.90509214e-02 0. -6.26709163e-02 0.
      -2.39701867e-01 0. 2.49637873e-03 0. -8.21878463e-02 0.
      -4.76185791e-02 0. -4.75326963e-02 0. -1.09550133e-01 0.
      1.50518399e-02 0. 5.99153945e-03 0. 4.36313227e-02 0.
      6.95419637e-03 0. -4.96622175e-02 0. -1.11438083e-02 0.
      4.52345125e-02 0. -5.01608104e-02 0. -4.22036787e-03 0.
      -1.25960231e-01 0. 3.46339159e-02 0. -9.52048302e-02 0.
      4.15156111e-02 0. 1.25445202e-02 0. -2.18039956e-02 0.
      -1.55064926e-01 0. -4.34797294e-02 0. -1.11259095e-01 0.
      1.09112270e-01 0. 1.90576673e-01 0. -1.18508153e-01 0.
      -6.65280670e-02 0. -7.15903239e-03 0. 7.82651082e-02 0.
      -1.31071121e-01 0. 9.14383456e-02 0. -5.26255846e-01 0.
      6.97274983e-01 0. -7.28630781e-01 0. -2.20598057e-01 0.
      -5.31132519e-01 0. -5.00854194e-01 0. -2.81276405e-01 0.
      1.00462586e-01 0. -1.33236259e-01 0. -6.08526170e-02 0.
      -8.53232369e-02 0. -1.26076695e-02 0. -5.11959493e-02 0.
      1.68756358e-02 0. -2.57667929e-01 0. 1.93601977e-02 0.
      -2.55269229e-01 0. 2.57524848e-01 0. 1.60988774e-02 0.
      -1.65221449e-02 0. 8.23526755e-02 0. 1.06898412e-01 0.
      -4.19744626e-02 0. 1.18550941e-01 0. 6.06987486e-03 0.
      1.08009286e-01 0. -1.95476096e-02 0. 1.57907590e-01 0.
      -6.83559030e-02 0. 1.23237818e-01 0. -2.99111038e-01 0.
      -5.04972711e-02 0. -3.80463868e-01 0. 6.31742120e-01 0.
      -7.05852687e-01 0. -7.90652931e-02 0. -1.33307919e-01 0.
      -1.77825645e-01 0. -2.91065909e-02 0. 1.63205385e-01 0.
      -2.58881636e-02 0. 3.46934140e-01 0. 1.92578420e-01 0.
      1.56933904e-01 0. 5.01220524e-02 0. -3.31563801e-02 0.
      -1.92479864e-02 0. -1.05420854e-02 0. -3.42669159e-01 0.
      8.75688314e-01 0. -5.55048645e-01 0. 9.47318152e-02 0.
      6.88662305e-02 0. 4.02137697e-01 0. 6.98671164e-03 0.
      1.91661879e-01 0. -2.52127647e-01 0. 5.59141219e-01 0.
      3.72101516e-02 0. 3.25499289e-02 0. 1.58494674e-02 0.
      4.22647983e-01 0. -7.44238421e-02 0. 1.01685815e-01 0.
      -8.59841764e-01 0. -5.64977884e-01 7.68408701e-02 4.83108200e-02
      0. 6.73818514e-02 0. 1.33557871e-01 0. -7.34630764e-01 0.
      3.79799008e-01 0. 4.45229113e-01 0. 7.09197596e-02 0.
      -7.67683566e-01 0. 9.13713351e-02 0. 1.79065868e-01 0.
      1.25219211e-01 0. -3.30248177e-02 0. -8.64284337e-02 0.
      2.47316375e-01 0. -1.76614419e-01 0. -5.06547987e-01 0.
      3.17789130e-02 0. -3.83427739e-02 0. 7.58735314e-02 0.
      -3.95861268e-02 0. 8.56754035e-02 0. 2.70762276e-02 0.
      -8.59211087e-02 0. -2.26509914e-01 0. 2.70182729e-01 0.
      -2.46891275e-01 0. -4.28072549e-02 0. -1.66120172e-01 0.
      -4.30312119e-02 0. -1.07923754e-01 0. -2.85701603e-01 0.
      -5.79014599e-01 0. 8.51658522e-04 0. -1.16716269e-02 0.
      8.90074298e-02 0. -8.67797583e-02 0. -8.46436918e-02 0.
      9.95066110e-03 0. 5.14332429e-02 0. -4.79308106e-02 0.
      1.33088753e-01 0. -3.26993018e-02 0. 1.18183373e-02 0.
      -5.99411353e-02 0. -2.86972467e-02 0. 5.54563254e-02 0.
      4.66695242e-02 0. 6.02382086e-02 0. -2.28885040e-01 0.
      8.06989223e-02 0. -3.16361189e-02 0. 7.22654313e-02 0.
      -5.51974736e-02 0. 7.68788606e-02 0. 1.69238560e-02 0.
      -5.97041063e-02 0. -7.67861754e-02 0. 4.63080816e-02 0.
      -1.88496225e-02 0. -6.11630157e-02 0. -6.27586693e-02 0.
      -3.04195043e-02 0. -1.26367047e-01 0. -4.14828509e-01 0.
      -1.82774112e-01 0. -1.36823192e-01 0. -1.72470231e-02 0.
      -3.36940289e-02 0. -3.49919051e-02 0. 6.20284304e-02 0.
      -2.90824436e-02 0. -1.94432378e-01 0. 1.88067019e-01 0.
      1.45236105e-01 0. -2.92010494e-02 0. 2.15250556e-03 0.
      1.61139225e-03 0. 1.17949374e-01 0. 6.31606812e-03 0.
      1.12672783e-01 0. 3.14278118e-02 0. 1.15622155e-01 0.
      4.05236743e-02 0. 1.46348244e-02 0. 5.58352657e-02 0.
      6.58028200e-02 0. 7.23683983e-02 0. 3.02487109e-02 0.
      3.92937995e-02 0. 1.78649575e-02 0. -8.79420936e-02 0.
      -3.83116603e-02 0. -2.63674576e-02 0. -2.96769161e-02 0.
      -6.02432713e-02 0. 1.64373562e-01 0. -2.41275281e-01 0.
      -1.70841977e-01 0. 3.91788632e-02 0. 3.50012593e-02 0.
      -7.19765201e-03 0. 6.52973056e-02 0. -2.44739465e-02 0.
      7.59542957e-02 0. -2.95240171e-02 0. -2.20256369e-03 0.
      2.44879220e-02 0. 1.71684641e-02 0. -6.90214485e-02 0.
      6.54502660e-02 0. 4.22311872e-02 0. 7.22103715e-02 0.
      -1.57709986e-01 0. 1.80013761e-01 0. 7.98626710e-03 0.
      -5.94520792e-02 0. -1.59845799e-02 0. -5.06667234e-02 0.
      -7.87107460e-03 0. 2.49714125e-02 0. -6.04795404e-02 0.
      -1.86477602e-01 0. -4.79781330e-02 0. 1.84080556e-01 0.
      -1.66827351e-01 0. 3.39671262e-02 0. -8.25105142e-03 0.
      3.52983410e-03 0. 7.97610581e-02 0. 9.03861746e-02 0.
      2.28089583e-03 0. -1.00476846e-01 0. 1.04074210e-01 0.
      1.64985985e-01 0. 2.66500171e-02 0. -2.13573545e-01 0.
      1.19161360e-01 0. 1.33598000e-01 0. 8.07236531e-04 0.
      8.06474686e-02 0. 2.56270859e-02 0. 5.21360300e-02 0.
      -6.46588057e-02 0. -1.95154070e-03 0. -4.68365140e-02 0.
      -5.07633686e-02 0. -3.64829600e-02 0. -3.47071700e-02 0.
      4.29123119e-02 0. 2.94656074e-03 0. -3.51208933e-02 0.
      7.46850520e-02 0. -6.70696497e-02 0. -6.20203698e-03 0.
      -3.39676142e-02 0. -2.73462827e-03 0. -5.77567741e-02 0.
      8.25245678e-02 0. -8.16880167e-02 0. 6.73241168e-02 0.
      1.76055998e-01 0. -1.35863591e-02 0. -7.89324269e-02 0.
      -2.58337352e-02 0. 6.93781674e-02 0. -1.84482839e-02 0.
      5.37498109e-02 0. -1.19070768e-01 0. 6.33058399e-02 0.
      6.09127991e-02 0. 2.19731852e-02 0. -9.27828811e-03 0.
      -5.42675238e-03 0. -3.86111215e-02 0. -2.76490375e-02 0.
      -7.86704347e-02 0. 2.76660407e-03 0. 6.70975149e-02 0.
      -4.68928553e-02 0. 1.67997566e-03 0. 5.38494484e-03 0.
      3.65608707e-02 0. -5.40563688e-02 0. -2.03971472e-02 0.
      -1.73508264e-02 0. 4.73825773e-03 0. -4.33980860e-02 0.
      -8.04906413e-02 0. 3.03759798e-02 0. -1.79393739e-02 0.
      -6.11524731e-02 0. -1.02738626e-01 0. -3.23247343e-01 0.
      1.93619177e-01 0. -1.33032203e-01 0. -1.44450992e-01 0.
      1.79130033e-01 0. -3.62678878e-02 0. 4.45777848e-02 0.
      -1.25894681e-01 0. 5.89994453e-02 0. 4.29963432e-02 0.
      1.49350371e-02 0. -4.57153022e-02 0. -3.33210155e-02 0.
      7.42537081e-02 0. 5.65519370e-02 0. 1.03668375e-02 0.
      3.52506489e-02 0. -1.99402422e-02 0. -1.83075108e-02 0.
      -3.53194983e-03 0. 7.61920810e-02 0. -6.81440756e-02 0.
      5.92203103e-02 0. -9.86005664e-02 0. 7.42547214e-02 0.
      -3.00151925e-03 0. -5.65725304e-02 0. 1.74731538e-02 0.
      -9.69907641e-02 0. -5.52906375e-03 0. -1.33632287e-01 0.
      1.26886159e-01 0. -1.21466659e-01 0. -3.80152883e-03 0.
      7.40877092e-02 0. 1.04529530e-01 0. 9.35607404e-02 0.
      -7.33580664e-02 0. 2.37957146e-02 0. -9.41377357e-02 0.
      -1.44452858e-03 0. 7.56784901e-02 0. -2.19511278e-02 0.
      5.04784565e-03 0. 3.18835340e-02 0. 9.47791636e-02 0.
      9.30155218e-02 0. 5.66676185e-02 0. 4.37019430e-02 0.
      5.64206280e-02 0. 1.00843489e-01 0. -5.03639169e-02 0.
      -6.86262324e-02 0. -4.06177714e-02 0. 7.56664276e-02 0.
      3.91348079e-02 0. -2.68372744e-01 0. 8.09604675e-03 0.
      2.08435822e-02 0. 1.07050119e-02 0. 2.59268191e-02 0.
      -8.42206702e-02 0. -2.38400638e-01 0. -2.33212914e-02 0.
      -5.50127804e-01 0. 4.35444504e-01 0. 3.43515635e-01 0.
      -7.62611866e-01 0. 1.00845374e-01 0. 1.38188610e-02 0.
      -2.01733589e-01 0. 3.04986358e-01 0. -9.78098065e-02 0.
      -9.88454670e-02 0. -1.03171393e-01 0. -1.02462664e-01 0.
      6.38339818e-02 0. 1.11618258e-01 0. 9.38209370e-02 0.
      1.61139756e-01 0. 1.47848285e-03 0. -9.50829610e-02 0.
      -1.61418375e-02 0. -1.78119484e-02 0. -5.91918640e-03 0.
      -7.33549297e-02 0. 3.78136933e-02 0. 6.07498921e-02 0.
      5.00195809e-02 0. -9.17352177e-03 0. -1.53621780e-02 0.
      -1.65693089e-01 0. -2.76663769e-02 0. -4.83638495e-02 0.
      -7.05230758e-02 0. 1.09365351e-01 0. 6.72233030e-02 0.
      1.80374250e-01 0. 4.31317650e-03 0. -1.13266438e-01 0.
      -3.21079381e-02 0. -3.68447527e-02 0. -2.27508731e-02 0.
      1.14939988e-01 0. 8.48687142e-02 0. -2.56369710e-02 0.
      -3.57779823e-02 0. -1.30580351e-01 0. 5.64496592e-02 0.
      3.00765201e-03 0. 9.21600759e-02 0. 1.34504616e-01 0.
      -8.46064165e-02 0. 1.10407136e-01 0. -9.80073772e-03 0.
      -9.13173612e-03 0. -7.27100968e-02 0. -2.70199087e-02 0.
      6.76755682e-02 0. -2.70255804e-02 0. -7.87623301e-02 0.
      -1.59517943e-03 0. 1.62640940e-02 0. -3.74411866e-02 0.
      -7.97400624e-02 0. 1.96856614e-02 0. 8.10215324e-02 0.
      3.13257754e-01 0. -1.05644710e-01 0. 3.92540544e-02 0.
      1.18932255e-01 0. -1.57250613e-01 0. 3.01135257e-02 0.
      8.00382644e-02 0. -1.93655845e-02 0. 8.56744424e-02 0.
      9.34953894e-03 0. 7.00592026e-02 0. -6.68616593e-02 0.
      3.24307345e-02 0. 1.81298628e-02 0. -2.68359128e-02 0.
      -3.06766555e-02 0. -9.98718515e-02 0. -9.11810473e-02 0.
      8.89860466e-02 0. 3.68213616e-02 0. 4.80771437e-03 0.
      -2.90518031e-02 0. -5.46193011e-02 0. 5.91139644e-02 0.
      1.15363657e-01 0. -7.38162454e-03 0. 6.27393499e-02 0.
      2.38116216e-02 0. -2.55888458e-02 0. 6.62233979e-02 0.
      7.15681762e-02 0. -7.03033060e-02 0. 1.66765586e-01 0.
      1.47145391e-01 0. -1.32907843e-02 0. 7.47036338e-02 0.
      -7.61073828e-02 0. -2.80688629e-02 0. 7.65331164e-02 0.
      -7.16302618e-02 0. 1.99223056e-01 0. -5.92089035e-02 0.
      2.62181507e-03 0. -5.35800271e-02 0. 3.52896601e-02 0.
      2.28883158e-02 0. -9.47892889e-02 0. -6.80373758e-02 0.
      -3.59159075e-02 0. -5.27103804e-02 0. 4.06206697e-02 0.
      7.35106617e-02 0. -1.17547035e-01 0. 1.00037064e-02 0.
      1.08979270e-01 0. 3.16698514e-02 0. 3.67210478e-01 0.
      -8.70157182e-02 0. 1.39093576e-02 0. 1.27861770e-02 0.
      4.75946367e-02 0. 3.22131738e-02 0. 4.22029644e-01 0.
      -8.09845403e-02 0. 3.64367872e-01 0. -1.87223300e-01 0.
      -6.45920396e-01 0. -1.87223047e-01 0. 6.70002043e-01 0.
      -1.81200683e-01 0. -3.10374439e-01 0. -1.41901642e-01 0.
      3.43389571e-01 0. 1.64378118e-02 0. -2.76629657e-01 0.
      2.50692144e-02 0. 5.81485666e-02 0. -6.11816160e-02 0.
      -2.94261649e-02 0. -2.54090615e-02 0. 3.24811190e-01 0.
      -3.55753541e-01 0. -2.45082334e-01 0. -4.83815223e-02 0.
      -1.17097292e-02 0. 4.23751958e-02 0. -6.65117353e-02 0.
      -1.36522222e-02 0. 5.38691208e-02 0. -8.80264118e-02 0.
      4.23542876e-03 0. -1.02376103e-01 0. -3.68803181e-02 0.
      -4.92557399e-02 0. -1.01232901e-01 0. -1.04089864e-02 0.
      1.90687448e-01 0. 1.55958369e-01 0. -1.72888577e-01 0.
      -2.15791203e-02 0. -2.29515694e-02 0. 5.93861006e-02 0.
      1.75416227e-02 0. -6.08826876e-02 0. 1.50219694e-01 0.
      5.10358699e-02 0. -2.87431180e-02 0. 5.70369698e-03 0.
      1.10319458e-01 0. -5.90950949e-03 0. -1.74476579e-02 0.
      9.21223760e-02 0. 3.17193747e-01 0. -2.08875518e-02 0.
      -2.98176333e-02 0. 2.24274620e-02 0. 1.47737842e-02 0.
      9.28665604e-03 0. -7.82970935e-02 0. 4.19589058e-02 0.
      3.12940888e-02 0. -2.98902150e-02 0. -1.02627896e-01 0.
      3.73272821e-02 0. 4.67709810e-01 0. -3.58148441e-02 0.
      2.58689821e-01 0. 1.42451674e-01 0. 2.60192245e-01 0.
      -1.17703843e+00 0. 2.41667539e-01 0. -6.41080439e-02 0.
      5.70970833e-01 0. -2.08966106e-01 0. 5.30393161e-02 0.
      3.39935198e-02 0. 2.55494684e-01 0. -1.96151406e-01 0.
      2.20560655e-02 0. -2.68703140e-02 0. -2.23897230e-02 0.
      -1.02515668e-01 0. 9.78857502e-02 0. -7.08408281e-02 0.
      2.10965320e-01 0. -3.87468934e-01 0. 2.23615337e-02 0.
      -3.37230861e-02 0. 6.00733645e-02 0. -3.95696498e-02 0.
      -1.13151304e-01 0. 4.66261944e-03 0. 1.99576721e-01 0.
      -6.77154735e-02 0. 1.32566839e-01 0. -1.03942081e-01 0.
      5.81835583e-02 0. -2.02538237e-01 0. 4.09480274e-01 0.
      -1.28895044e-01 0. 3.98018837e-01 0. -5.39402604e-01 0.
      4.02534097e-01 0. -9.90422592e-02 0. 3.75991523e-01 0.
      1.13196142e-01 0. 2.15904385e-01 0. 1.06434107e-01 0.
      4.14057165e-01 0. -1.33905644e-02 0. 1.03784062e-01 0.
      4.99067232e-02 0. 1.07123494e-01 0. -2.98230555e-02 0.
      1.48039579e-01 0. 2.22355843e-01 0. 7.81913877e-01 0.
      -5.40924251e-01 0. 6.41002283e-02 0. -1.62784606e-02 0.
      4.26370531e-01 0. -1.18567578e-01 0. 4.82161820e-01 0.
      -1.46447793e-01 0. 5.08376241e-01 0. -1.57316085e-02 0.
      -1.04532167e-01 0. -1.82243541e-01 0. 4.31166708e-01 0.
      -1.29102632e-01 0. 3.66410285e-01 0. -8.47505450e-01 0.
      -6.18149400e-01 -1.98385611e-01 -1.74514726e-01 0. -4.09044892e-01
      0. 2.55768299e-01 0. -4.59048420e-01 0. 5.79605818e-01 0.
      1.41010731e-01 0. -4.62073088e-02 0. -1.39046025e+00 0.
      2.28694171e-01 0. -1.94198772e-01 0. 7.08250478e-02 0.
      -3.68733741e-02 0. 4.40257967e-01 0. -8.60674605e-02 0.
      1.78641304e-02 0. -1.32945657e-01 0. -1.45233369e+00 0.
      -6.15214348e-01 0. 8.01510061e-04 0. -7.46824592e-02 0.
      -8.81889090e-02 0. 1.81787256e-02 0. 2.85967976e-01 0.
      -2.96312243e-01 0. -1.81341171e-01 0. -2.02522293e-01 0.
      1.49802221e-02 0. -2.64381945e-01 0. 3.96276601e-02 0.
      -1.34978332e-02 0. -3.06548119e-01 0. -3.89198840e-01 0.
      -1.84354141e-01 0. -1.97912648e-01 0. 1.26801193e-01 0.
      -7.93419965e-03 0. 2.18254998e-02 0. 9.77543928e-03 0.
      2.38425031e-01 0. -7.38882720e-02 0. 2.12307107e-02 0.
      -4.75488119e-02 0. 5.31011447e-02 0. 5.07172979e-02 0.
      8.05088878e-03 0. -7.66418651e-02 0. 3.11243702e-02 0.
      -1.91599146e-01 0. -1.33252949e-01 0. -1.11262366e-01 0.
      2.28799246e-02 0. -8.99033770e-02 0. 1.08896293e-01 0.
      3.97274978e-02 0. 6.61481768e-02 0. -3.26911137e-02 0.
      1.58199489e-01 0. 1.57575250e-01 0. 6.62950575e-02 0.
      -1.35090593e-02 0. 7.43576661e-02 0. 7.42623536e-03 0.
      -1.06444404e-01 0. -1.03352992e-02 0. 2.28938714e-01 0.
      1.22346342e-01 0. -1.30699679e-01 0. -4.08087820e-02 0.
      2.05388010e-01 0. 1.98511064e-01 0. 5.70348911e-02 0.
      1.80326607e-02 0. 2.21213549e-01 0. 4.73870337e-02 0.
      3.72906625e-02 0. -6.38444023e-03 0. 1.87965408e-01 0.
      1.44582883e-01 0. 8.37863013e-02 0. 1.59787759e-01 0.
      -1.32197244e-02 0. 4.51607704e-02 0. 1.11616246e-01 0.
      4.90009636e-02 0. 4.83448952e-02 0. 7.82818571e-02 0.
      3.66396941e-02 0. -6.07747817e-03 0. 9.21997055e-02 0.
      1.57406881e-01 0. 5.05023412e-02 0. 2.89052110e-02 0.
      -3.08469147e-03 0. 5.14981449e-02 0. -7.34102447e-03 0.
      2.01292425e-01 0. -2.18527094e-01 0. -1.31009296e-01 0.
      1.29105961e-02 0. -1.19203866e-01 0. 9.23252255e-02 0.
      5.32126948e-02 0. 8.77961144e-03 0. -2.47429428e-03 0.
      6.17654808e-02 0. 6.31056353e-02 0. 1.96392797e-02 0.
      3.71365837e-04 0. 1.69569254e-02 0. 1.54006798e-02 0.
      -1.03486124e-02 0. 1.58406168e-01 0. 1.15316711e-01 0.
      1.00825682e-01 0. 2.13196818e-02 0. -1.05217308e-01 0.
      -5.07697128e-02 0. 2.03618519e-02 0. 6.33102208e-02 0.
      4.42240899e-03 0. -1.45403352e-02 0. 1.59024913e-02 0.
      -9.03140455e-02 0. -2.88428515e-01 0. -5.01674414e-02 0.
      1.45196915e-01 0. 1.05291596e-02 0. 1.27680063e-01 0.
      4.76813644e-01 0. 1.88729763e-01 0. 4.30855900e-03 0.
      -5.31579144e-02 0. 7.73507431e-02 0. 1.42047703e-01 0.
      1.65157571e-01 0. -1.52385995e-01 0. 1.90391690e-01 0.
      9.99848992e-02 0. 8.92231464e-02 0. -3.02496012e-02 0.
      7.08656162e-02 0. 4.91055064e-02 0. 3.53505760e-02 0.
      1.81034327e-01 0. 5.34262173e-02 0. 7.66698420e-02 0.
      4.34230408e-03 0. -6.10255525e-02 0. 1.05185792e-01 0.
      -1.46665825e-02 0. -3.86258890e-03 0. -5.10718264e-02 0.
      -1.03098042e-02 0. -2.29325495e-03 0. -2.78177671e-03 0.
      3.03104101e-03 0. -6.97831362e-02 0. 8.62196013e-02 0.
      -2.74240449e-02 0. 1.78093374e-01 0. 7.35088289e-02 0.
      -5.72616048e-03 0. -4.78551202e-02 0. -1.16774648e-01 0.
      2.56257448e-02 0. 1.63275115e-02 0. 3.48612443e-02 0.
      -1.24522552e-01 0. 2.52820402e-02 0. -2.82678921e-02 0.
      -1.28407748e-02 0. 8.11570417e-03 0. -3.30818035e-02 0.
      4.66777124e-02 0. 1.04352813e-02 0. -5.47272675e-02 0.
      2.16749012e-02 0. 9.31025296e-02 0. -2.07234360e-02 0.
      7.22216966e-04 0. -4.56635356e-02 0. 5.11801913e-02 0.
      4.47397865e-02 0. -1.15136162e-03 0. 2.01798677e-02 0.
      6.59414828e-02 0. 2.33377870e-02 0. -5.57752501e-04 0.
      -5.50218001e-02 0. 6.82852194e-02 0. -2.52801906e-02 0.
      -6.28076792e-02 0. 2.15343878e-01 0. -1.05261169e-02 0.
      4.83232960e-02 0. 3.58730033e-02 0. 1.00508019e-01 0.
      7.04619288e-02 0. 3.17245536e-02 0. -3.11294217e-02 0.
      -2.21236032e-02 0. 3.19062509e-02 0. 3.93731083e-04 0.
      3.50332400e-03 0. 4.46882360e-02 0. 7.35155642e-02 0.
      4.32631001e-03 0. 3.64989862e-02 0. 3.03822085e-02 0.
      1.80891901e-02 0. -3.45165189e-03 0. -7.85356751e-05 0.
      -8.51314422e-03 0. 1.95153132e-02 0. 5.48603944e-03 0.
      -3.10357772e-02 0. 3.15162130e-02 0. 4.95626554e-02 0.
      4.70126309e-02 0. 5.94442477e-04 0. 7.96968117e-02 0.
      8.30177665e-02 0. 4.67085503e-02 0. 9.30870101e-02 0.
      7.22420216e-02 0. -9.61078033e-02 0. -5.78977913e-02 0.
      5.52353933e-02 0. -3.38368006e-02 0. 8.61302912e-02 0.
      1.50180990e-02 0. 6.98060468e-02 0. 4.53815497e-02 0.
      1.05450384e-01 0. 6.45494685e-02 0. 1.41864177e-02 0.
      -4.33189906e-02 0. 5.24686351e-02 0. -5.65586388e-02 0.
      -1.29558951e-01 0. 2.35427283e-02 0. -2.56676301e-02 0.
      4.95516602e-03 0. -1.93552181e-01 0. 1.48892039e-02 0.
      2.61647981e-02 0. -1.12133343e-02 0. 8.68842751e-02 0.
      -1.72487274e-01 0. 1.17535949e-01 0. -6.54303953e-02 0.
      -4.50107872e-01 0. 1.25089660e-01 0. -1.42120078e-01 0.
      8.29535201e-02 0. -7.30238184e-02 0. 6.05518937e-01 0.
      9.33987945e-02 0. 1.33162737e-02 0. -6.47614777e-01 0.
      -7.50984699e-02 0. 7.12582767e-02 0. -2.78830469e-01 0.
      -1.47096694e-01 0. -3.10055435e-01 0. 6.78712204e-02 0.
      -7.33451769e-02 0. -1.94913000e-01 0. -5.20078279e-02 0.
      2.76486799e-02 0. 1.04281539e-03 0. 2.97294945e-01 0.
      2.14649104e-02 0. -1.64020866e-01 0. -5.49220331e-02 0.
      -1.05700130e-02 0. 1.50589302e-01 0. 1.12976856e-03 0.
      1.21936733e-02 0. -1.63891375e-01 0. 5.03861792e-02 0.
      1.00666387e-02 0. 6.06901869e-02 0. -7.38834031e-03 0.
      -1.56541709e-02 0. 6.40705898e-02 0. 3.97531912e-02 0.
      -7.58398324e-02 0. 1.48869038e-01 0. 6.15766756e-02 0.
      7.28434473e-02 0. -2.18910187e-01 0. 1.01469189e-01 0.
      8.44964758e-02 0. 7.52524957e-02 0. 1.34726062e-01 0.
      5.94489947e-02 0. -4.04754207e-02 0. 9.77273099e-03 0.
      -1.24427557e-01 0. 4.49505970e-02 0. -3.85443978e-02 0.
      1.40785528e-02 0. 7.85607845e-02 0. -2.12241635e-01 0.
      -3.79673205e-02 0. 4.57970016e-02 0. -4.72356528e-02 0.
      5.33973984e-03 0. -1.05692416e-01 0. 6.02059662e-02 0.
      7.96638336e-03 0. 3.38650458e-02 0. -1.12571426e-01 0.
      7.79889245e-03 0. 1.34864794e-02 0. 5.43713719e-02 0.
      -4.85054493e-01 0. -2.82058474e-02 0. 3.46388578e-01 0.
      1.94153130e-01 0. 9.24746841e-02 0. 4.10807580e-02 0.
      -2.03335240e-01 0. 1.70765564e-01 0. 1.35805666e-01 0.
      5.16747721e-02 0. 4.28574579e-03 0. 4.25616186e-03 0.
      -4.48448323e-02 0. -3.16631608e-03 0. 2.32754070e-02 0.
      1.30574461e-02 0. 1.42433107e-01 0. 3.62350629e-03 0.
      1.48918450e-01 0. -9.44829360e-03 0. -5.96572421e-02 0.
      -3.37050892e-02 0. 6.93898425e-02 0. -2.56455243e-02 0.
      1.99963748e-02 0. 4.58078682e-02 0. 2.06128046e-01 0.
      6.41227812e-02 0. 4.95891506e-03 0. 7.72370072e-03 0.
      -6.75550625e-02 0. 3.80109884e-02 0. -5.97857721e-02 0.
      6.33347258e-02 0. 1.65907353e-01 0. 9.71339792e-02 0.
      -1.63781345e-02 0. 4.15181294e-02 0. -7.81673789e-02 0.
      1.36570603e-01 0. 7.05641359e-02 0. 1.14492007e-01 0.
      1.57399327e-01 0. -5.77501692e-02 0. 2.93346718e-02 0.
      -1.15464987e-04 0. -4.54929806e-02 0. 2.62494013e-02 0.
      2.45636553e-02 0. -6.13723360e-02 0. 1.70139685e-01 0.
      -1.16608806e-01 0. -9.58201755e-03 0. 1.04741931e-01 0.
      -3.43835354e-01 0. 2.09656414e-02 0. -3.58403064e-02 0.
      4.23669629e-02 0. -9.57616270e-02 0. -1.82561632e-02 0.
      -1.86078355e-01 0. 6.79630488e-02 0. -5.65575110e-03 0.
      -5.46414629e-02 0. -2.30986685e-01 0. 6.57557994e-02 0.
      6.32900417e-01 0. 2.25556493e-01 0. 2.08257630e-01 0.
      -1.23563677e-01 0. 7.89489090e-01 0. -2.12512314e-01 0.
      -2.44617075e-01 0. -3.82910147e-02 0. 3.99826556e-01 0.
      1.63624585e-02 0. -8.36258978e-02 0. -4.77335006e-02 0.
      -2.75514454e-01 0. 4.72725779e-02 0. -2.44330335e-02 0.
      -9.30513293e-02 0. 1.64413333e-01 0. -2.25018635e-01 0.
      -2.19766796e-01 0. 8.09058473e-02 0. -2.27880720e-02 0.
      -4.90250699e-02 0. -2.92393640e-02 0. 5.23829423e-02 0.
      1.04367673e-01 0. -8.01234320e-02 0. -1.08745717e-01 0.
      -3.79673392e-02 0. 1.10881226e-02 0. -1.65112138e-01 0.
      -3.53508331e-02 0. -1.18207157e-01 0. -1.60884097e-01 0.
      -1.84393600e-01 0. -7.87663385e-02 0. 1.97406858e-02 0.
      8.98392051e-02 0. -1.15673997e-01 0. -3.01190885e-03 0.
      3.40777636e-02 0. 1.34866893e-01 0. 5.85064618e-03 0.
      -7.94585496e-02 0. 4.83088115e-05 0. -1.27939116e-02 0.
      1.09478105e-02 0. -1.96500495e-01 0. 6.61546690e-03 0.
      3.04540452e-02 0. 6.78744465e-02 0. -1.21512324e-01 0.
      2.42602900e-02 0. -1.68836396e-02 0. -4.46744449e-02 0.
      -1.67725027e-01 0. 5.00960797e-02 0. -2.89550722e-02 0.
      -1.28067479e-01 0. -3.52810442e-01 0. -5.09247817e-02 0.
      -2.55410355e-02 0. -2.27991119e-01 0. -1.49098575e-01 0.
      -4.87471670e-01 0. 8.90354633e-01 0. -5.31851590e-01 0.
      1.53556749e-01 0. -2.88178772e-01 0. 3.22446376e-01 0.
      -2.88253427e-01 0. -8.98758173e-02 0. -1.23326555e-01 0.
      1.89688876e-01 0. -8.27888921e-02 0. 8.04717913e-02 0.
      -1.50243044e-01 0. 1.97979212e-01 0. -2.47303337e-01 0.
      2.09388837e-01 0. -1.69028267e-01 0. 7.12208807e-01 0.
      -1.19221285e-01 0. 5.74386604e-02 0. 7.57745951e-02 0.
      2.72623181e-01 0. -9.16928947e-02 0. 4.13412601e-02 0.
      3.68969925e-02 0. -7.08793476e-02 0. -1.02841176e-01 0.
      2.79102419e-02 0. -2.07115918e-01 0. 9.86883938e-02 0.
      -3.10194999e-01 0. 3.06690838e-02 0. -5.20028174e-01 0.
      1.02797663e+00 0. -5.80679893e-01 0. 9.32724774e-02 0.
      -2.22001776e-01 0. 2.21534491e-01 0. 4.77976212e-03 0.
      2.02253059e-01 0. 6.27897158e-02 0. 5.26622117e-01 0.
      1.53829470e-01 0. 1.89417809e-01 0. -1.01609305e-01 0.
      -7.43123293e-02 0. -3.46307606e-02 0. 6.13245368e-02 0.
      -3.87553006e-01 0. 5.32128334e-01 0. -1.96207926e-01 0.
      -3.94905824e-03 0. 4.60961042e-03 0. 2.72600621e-01 0.
      1.88702926e-01 0. 2.16483012e-01 0. -2.97949016e-02 0.
      6.72693133e-01 0. 9.95471999e-02 0. 4.10162419e-01 0.
      1.21199287e-01 0. 5.16643226e-02 0. -6.75408095e-02 0.
      -1.10343829e-01 0. -7.51667261e-01 0. -6.23951674e-01
      -4.00196224e-01 5.97710721e-02 0. -4.07824516e-01 0.
      1.59187447e-02 0. -6.44669175e-01 0. 5.72139919e-01 0.
      1.53196186e-01 0. -8.75252357e-04 0. -5.47183275e-01 0.
      2.93514341e-01 0. 7.29226768e-02 0. 1.25453413e-01 0.
      1.86426863e-02 0. 2.21709341e-01 0. 1.45398930e-01 0.
      -2.11348295e-01 0. -4.96187955e-01 0. -5.99389195e-01 0.
      -3.88469309e-01 0. 4.86722402e-02 0. -9.97314677e-02 0.
      1.04169458e-01 0. -1.65888034e-02 0. -4.25079353e-02 0.
      -1.08273052e-01 0. 1.90382168e-01 0. -3.48897696e-01 0.
      -8.29275623e-02 0. 1.41126309e-02 0. -1.36574671e-01 0.
      -4.21899930e-02 0. -2.30605364e-01 0. -6.27694368e-01 0.
      5.87864101e-01 0. -3.96176381e-03 0. 1.37123764e-01 0.
      -6.97858557e-02 0. 1.45622000e-01 0. -2.12381277e-02 0.
      9.58656520e-02 0. 1.24133648e-02 0. 1.86401218e-01 0.
      -3.27022858e-02 0. -2.45065782e-02 0. 2.76472345e-02 0.
      4.77235653e-02 0. 6.58171996e-02 0. -4.46315762e-03 0.
      -7.66544566e-02 0. -4.06389862e-01 0. -2.97034774e-02 0.
      -5.65475458e-03 0. 3.52999382e-02 0. 7.00181499e-02 0.
      9.49008577e-03 0. 5.48228398e-02 0. -1.21123984e-01 0.
      -1.98492512e-01 0. 2.94487253e-02 0. 5.32615334e-02 0.
      1.25383157e-02 0. -7.64980316e-02 0. -5.59036713e-03 0.
      -9.01065650e-04 0. -5.74341536e-01 0. -3.72297913e-01 0.
      -2.57016659e-01 0. -9.23725143e-02 0. -5.32916524e-02 0.
      -1.04249872e-01 0. -4.68742655e-04 0. 5.59751876e-03 0.
      -1.36050537e-01 0. 8.35568160e-02 0. 7.91061521e-02 0.
      -6.45583216e-03 0. 3.13466378e-02 0. 1.90027598e-02 0.
      5.80027923e-02 0. 6.05566837e-02 0. 1.44479707e-01 0.
      2.23938957e-01 0. 1.11512296e-01 0. 1.01472244e-01 0.
      2.52918750e-02 0. 3.74887325e-02 0. 3.84070501e-02 0.
      1.18929222e-01 0. -7.80983642e-02 0. 2.68574879e-02 0.
      -1.83563549e-02 0. 4.98480052e-02 0. 1.12249283e-02 0.
      -1.24227190e-02 0. -1.58851445e-02 0. -9.03697386e-02 0.
      1.07994579e-01 0. -4.88859490e-02 0. -1.99971631e-01 0.
      1.14762131e-02 0. -3.60943079e-02 0. 1.17590046e-02 0.
      2.95257196e-02 0. 1.26966638e-02 0. 5.75384777e-03 0.
      -4.61942144e-03 0. 7.50103071e-02 0. 2.07707826e-02 0.
      9.52370930e-03 0. -5.58095276e-02 0. 5.46480976e-02 0.
      1.05197476e-02 0. -1.02649100e-01 0. -6.40060082e-02 0.
      1.32607892e-01 0. -1.25654005e-02 0. -1.28663525e-01 0.
      -4.74864095e-02 0. -4.33738492e-02 0. -5.38716018e-02 0.
      -8.53115916e-02 0. -2.53277961e-02 0. -6.12118021e-02 0.
      8.36095512e-02 0. 2.54140445e-03 0. -2.36704141e-01 0.
      8.20181444e-02 0. 1.25845680e-02 0. 1.48237020e-01 0.
      1.31540194e-01 0. 1.38985482e-03 0. 2.07722485e-01 0.
      7.99893588e-02 0. 1.61464944e-01 0. 3.07626538e-02 0.
      -9.58983824e-02 0. -4.75436933e-02 0. 1.06245920e-01 0.
      1.28441840e-01 0. -3.27016402e-04 0. 8.60070735e-02 0.
      3.57073918e-02 0. 4.82277684e-02 0. -6.81182593e-02 0.
      -6.99611381e-02 0. 2.81595215e-02 0. -1.46892073e-03 0.
      4.32453826e-02 0. -1.23336865e-02 0. 4.17745337e-02 0.
      3.89890894e-02 0. 3.23045105e-02 0. -6.47381768e-02 0.
      2.94636749e-02 0. 3.17883305e-02 0. -6.05278388e-02 0.
      2.17577908e-02 0. -5.02837896e-02 0. 8.08728486e-02 0.
      -1.52024820e-01 0. -3.11861299e-02 0. 3.53730887e-01 0.
      9.65750888e-02 0. 3.45149217e-03 0. -7.04535171e-02 0.
      8.09221789e-02 0. -4.86452654e-02 0. 3.70346047e-02 0.
      -8.84247571e-02 0. 6.55160993e-02 0. 2.51611508e-02 0.
      5.55526055e-02 0. -4.04671356e-02 0. -1.03662331e-02 0.
      -8.53692517e-02 0. -4.96483147e-02 0. 8.79626349e-02 0.
      4.34586331e-02 0. -3.23924646e-02 0. -1.29241226e-02 0.
      9.04973820e-02 0. -3.80358053e-03 0. 1.00899942e-01 0.
      -3.15744542e-02 0. 3.63963135e-02 0. -4.93144281e-02 0.
      6.63167909e-02 0. 2.28779260e-02 0. -4.18309011e-02 0.
      1.66984051e-02 0. 2.06583813e-02 0. -8.81736875e-02 0.
      -2.91442186e-01 0. 9.95532144e-03 0. -1.33553930e-02 0.
      -1.03164211e-01 0. -8.42896849e-03 0. 7.47716427e-02 0.
      5.80745516e-03 0. -5.96203916e-02 0. 1.10804416e-01 0.
      3.69758084e-02 0. 6.97471425e-02 0. 3.16888802e-02 0.
      4.56695445e-02 0. -5.74662462e-02 0. 7.47841969e-02 0.
      5.23642339e-02 0. 6.56451359e-02 0. -4.65484969e-02 0.
      -5.18125296e-02 0. 4.65375073e-02 0. -1.89903518e-03 0.
      7.82372057e-02 0. 1.88936689e-03 0. 6.29610568e-02 0.
      -6.97162077e-02 0. 8.97866711e-02 0. 2.02333722e-02 0.
      -3.72188464e-02 0. -7.03431061e-03 0. 4.38780859e-02 0.
      1.98337119e-02 0. -1.25519902e-01 0. 2.63225764e-01 0.
      1.56059384e-01 0. -1.02335207e-01 0. 8.21445808e-02 0.
      4.00633104e-02 0. 6.11120760e-02 0. 4.06459197e-02 0.
      3.00610508e-03 0. 4.05687913e-02 0. -2.83706803e-02 0.
      6.73594922e-02 0. -2.36031096e-02 0. -4.77543212e-02 0.
      8.87042582e-02 0. 1.81810223e-02 0. 7.93358088e-02 0.
      6.53932616e-02 0. -2.19640449e-01 0. 2.92034149e-02 0.
      1.14680184e-02 0. -5.16266078e-02 0. 4.95274551e-02 0.
      4.22179438e-02 0. -3.86632942e-02 0. 1.07854426e-01 0.
      -2.28741035e-01 0. 8.03702790e-03 0. 5.12590148e-02 0.
      -5.62550649e-02 0. 5.67193367e-02 0. -1.27998814e-01 0.
      -1.40305951e-01 0. -5.17869711e-01 0. 1.13001456e-02 0.
      -2.15798542e-01 0. 1.09244939e-02 0. -2.62061507e-01 0.
      1.39722884e-01 0. 2.39638731e-01 0. -6.08232468e-02 0.
      9.91108343e-02 0. -3.41450781e-01 0. -1.60885304e-01 0.
      -7.22711906e-02 0. -2.89894283e-01 0. -6.44180328e-02 0.
      -9.62650124e-03 0. 8.62625688e-02 0. 2.01770410e-01 0.
      1.10897511e-01 0. -1.86960801e-01 0. -1.08633889e-02 0.
      5.73587790e-02 0. 1.22732501e-02 0. 3.86500172e-02 0.
      7.41342679e-02 0. -2.33082369e-01 0. -8.30488801e-02 0.
      2.97044124e-02 0. -6.21703379e-02 0. -1.21953646e-02 0.
      -3.55262533e-02 0. 1.24860080e-02 0. 2.67296694e-02 0.
      2.76846755e-02 0. 5.83025394e-03 0. -5.96230477e-02 0.
      4.19798046e-02 0. -1.09178185e-01 0. -3.23631149e-03 0.
      -5.53355925e-02 0. 3.85777131e-02 0. -2.77088266e-02 0.
      3.11547294e-02 0. -4.08918485e-02 0. 4.54596709e-03 0.
      -1.28436789e-01 0. 5.54979630e-02 0. 5.12398817e-02 0.
      7.57697821e-02 0. 8.48595425e-02 0. 4.10165824e-02 0.
      1.05368450e-01 0. -5.87819144e-02 0. -1.35941043e-01 0.
      -8.48574971e-04 0. 4.59665339e-03 0. 5.35199121e-02 0.
      -5.51211014e-02 0. -4.14080657e-02 0. -1.06634937e-01 0.
      1.04811020e-01 0. -2.94139609e-02 0. -3.10515910e-02 0.
      -8.71388838e-02 0. -2.73119658e-02 0. 2.80518532e-01 0.
      -1.59782052e-01 0. -2.87383087e-02 0. 2.73391809e-02 0.
      -3.12799245e-01 0. 9.95425731e-02 0. 8.78816284e-03 0.
      7.70822838e-02 0. -4.05054688e-02 0. -4.09639813e-03 0.
      7.69443661e-02 0. 1.42809469e-02 0. -7.09158778e-02 0.
      5.46709038e-02 0. 5.10316156e-03 0. 2.05288064e-02 0.
      5.18867485e-02 0. 4.63927835e-02 0. 7.55452216e-02 0.
      6.57833517e-02 0. 3.08648829e-04 0. -5.69060445e-02 0.
      -5.80820926e-02 0. 3.36746275e-02 0. 1.08606644e-01 0.
      7.68141225e-02 0. -1.19313970e-02 0. 4.14873585e-02 0.
      6.03090599e-02 0. 6.72559887e-02 0. 8.98909643e-02 0.
      -1.32788002e-01 0. 1.19580127e-01 0. 9.63293090e-02 0.
      -8.39698464e-02 0. 1.53695541e-02 0. 1.30644934e-02 0.
      8.72127861e-02 0. 4.77595329e-02 0. -7.15500116e-03 0.
      8.66717473e-02 0. 1.52928149e-02 0. -7.67208338e-02 0.
      -6.35756478e-02 0. -7.53856376e-02 0. 3.31077864e-03 0.
      -8.97776410e-02 0. -1.60596058e-01 0. 3.66044976e-02 0.
      1.03033386e-01 0. 1.02783270e-01 0. 6.64732084e-02 0.
      -1.40796170e-01 0. 1.39781768e-02 0. 7.22954497e-02 0.
      6.58551902e-02 0. 2.41712958e-01 0. 1.00210182e-01 0.
      1.47662804e-01 0. 2.21378729e-02 0. 5.11669740e-02 0.
      2.07076445e-02 0. 1.69915214e-01 0. -1.34104798e-02 0.
      4.42744911e-01 0. -3.46534327e-02 0. -9.64461565e-01 0.
      -1.04590379e-01 0. 7.10023701e-01 0. -2.19442979e-01 0.
      1.30488593e-02 0. -4.46444787e-02 0. 3.50250512e-01 0.
      -5.55624925e-02 0. -1.68326050e-01 0. -2.27372088e-02 0.
      -7.85926636e-03 0. -1.29941598e-01 0. -2.92880666e-02 0.
      -9.10911188e-02 0. 3.65249604e-01 0. -2.23721087e-01 0.
      -2.42138714e-01 0. -1.44898415e-01 0. -9.06908736e-02 0.
      -1.55732306e-02 0. -2.91937739e-02 0. 2.71473527e-02 0.
      -1.55146299e-02 0. -2.14666761e-02 0. -1.77703783e-01 0.
      8.88156239e-03 0. 2.63082888e-02 0. -1.05536796e-01 0.
      -7.36092627e-02 0. -8.03851709e-02 0. 4.56462175e-01 0.
      1.17686033e-01 0. -8.53981078e-02 0. 1.03339829e-01 0.
      1.47576490e-02 0. 4.58975285e-02 0. -5.40219210e-02 0.
      -1.45009840e-02 0. 7.54728317e-02 0. 3.63909751e-02 0.
      -7.98094831e-03 0. -5.95224127e-02 0. -1.17544755e-01 0.
      2.79957335e-02 0. -2.33698804e-02 0. 9.52784643e-02 0.
      1.44656956e-01 0. 1.35646844e-02 0. -1.26235232e-01 0.
      -1.61176939e-02 0. 1.16482116e-01 0. -1.38920229e-02 0.
      -8.46652016e-02 0. 3.53000872e-02 0. 3.59949172e-02 0.
      -2.53574476e-02 0. -1.52486950e-01 0. 2.91815195e-02 0.
      3.42641920e-01 0. -3.38618159e-02 0. 3.49230841e-02 0.
      3.13733101e-01 0. 5.20030439e-01 0. -1.29759407e+00 0.
      2.57740170e-01 0. 1.24264978e-01 0. 5.74507177e-01 0.
      -1.29677713e-01 0. -1.97507367e-01 0. -2.53003445e-02 0.
      6.05601311e-01 0. -2.41895497e-01 0. -9.76185724e-02 0.
      1.26443105e-02 0. 2.43329123e-01 0. -2.48998955e-01 0.
      -2.90469080e-02 0. -1.12625331e-01 0. 8.31398487e-01 0.
      -3.50938112e-01 0. -7.85729215e-02 0. 6.50492460e-02 0.
      7.73768872e-02 0. -1.01108909e-01 0. 2.28251815e-02 0.
      -1.98952071e-02 0. 1.16895452e-01 0. -2.98304502e-02 0.
      3.58764604e-02 0. -9.70303342e-02 0. 3.60369124e-02 0.
      -1.41508520e-01 0. 2.45982736e-01 0. -1.46568954e-01 0.
      5.81362486e-01 0. -4.19248372e-01 0. 1.02164924e-01 0.
      -1.80236727e-01 0. 2.07806379e-01 0. 4.31553870e-02 0.
      9.69388336e-02 0. -4.82029691e-02 0. 5.55866122e-01 0.
      2.84328256e-02 0. 1.86105385e-01 0. -2.70924792e-02 0.
      1.76333606e-01 0. -3.64857689e-02 0. 2.12404013e-01 0.
      7.20210597e-02 0. 1.11466467e+00 0. -6.69771910e-01 0.
      -1.40468970e-01 0. 1.21140368e-01 0. 1.19586967e-01 0.
      -8.73867795e-02 0. 2.27579057e-01 0. -6.25073910e-02 0.
      5.25890410e-01 0. -2.78854873e-02 0. 9.60117728e-02 0.
      -1.22163452e-01 0. 1.82761788e-01 0. 8.91206861e-02 0.
      4.32216883e-01 0. -5.94730377e-01 0. -1.66920647e-01
      2.53190875e-01 -1.78451002e-01 0. -1.97500899e-01 0.
      3.18843096e-01 0. 1.89781994e-01 0. 2.20799968e-01 0.
      2.16192916e-01 0. 1.56618610e-01 0. -5.57319820e-01 0.
      2.33697817e-01 0. -1.20891549e-01 0. 1.15240924e-01 0.
      -1.79360271e-01 0. 2.22856790e-01 0. -5.55456281e-02 0.
      -8.64129588e-02 0. -4.62458044e-01 0. -1.59723353e+00 0.
      -6.44901276e-01 0. -2.50458997e-02 0. -1.29667550e-01 0.
      8.24903697e-03 0. -8.50267336e-02 0. 2.08940580e-02 0.
      -1.45171583e-01 0. -2.07811501e-02 0. -3.28925461e-01 0.
      -3.94701362e-02 0. -1.29273593e-01 0. 7.27907866e-02 0.
      -7.12324530e-02 0. -2.75155660e-02 0. -7.18770921e-01 0.
      -2.17607487e-02 0. -2.00760774e-02 0. 5.70936054e-02 0.
      -4.10784036e-02 0. 8.42342228e-02 0. -6.55822922e-03 0.
      3.76720913e-02 0. -5.41481450e-02 0. 6.71277046e-02 0.
      -7.60236382e-02 0. -3.46094891e-02 0. 5.18024750e-02 0.
      -8.48760642e-03 0. -5.62554412e-03 0. 8.88970122e-03 0.
      1.01347849e-01 0. -2.59785712e-01 0. -1.39688522e-01 0.
      -1.25575280e-02 0. -1.13072656e-01 0. 4.61575054e-02 0.
      4.10654470e-02 0. -1.25017697e-02 0. -6.54446110e-02 0.
      1.67566583e-01 0. 1.04454242e-01 0. 8.92552733e-02 0.
      -9.13969614e-03 0. 2.53909901e-02 0. -7.52814254e-03 0.
      6.60738796e-02 0. 4.63451780e-02 0. 5.28985560e-01 0.
      3.09563756e-01 0. 3.71459238e-02 0. -2.74900813e-02 0.
      1.15439631e-01 0. 2.20395893e-01 0. 3.65137160e-02 0.
      4.91265506e-02 0. 1.08191393e-01 0. 4.34417166e-02 0.
      1.49270827e-02 0. -7.44261444e-02 0. 6.93165138e-02 0.
      1.63885370e-01 0. 1.12151936e-01 0. 4.82780561e-02 0.
      1.34103224e-01 0. -1.21083232e-02 0. 1.32879540e-02 0.
      2.45853104e-02 0. 4.89068255e-02 0. 1.03270151e-02 0.
      3.09552513e-02 0. -2.15316247e-02 0. 5.55003919e-02 0.
      1.09128721e-01 0. 6.02511652e-02 0. 6.22644387e-02 0.
      3.15486453e-02 0. 3.11551988e-02 0. 1.00197382e-02 0.
      1.41662195e-01 0. 6.26159012e-02 0. -2.74828702e-01 0.
      1.52256399e-01 0. 2.51426976e-02 0. 4.89573888e-02 0.
      7.35292882e-02 0. -1.68473832e-02 0. 1.01281300e-01 0.
      3.26554589e-02 0. 9.75334942e-02 0. 1.13498904e-02 0.
      -4.06527817e-02 0. 4.68709134e-02 0. 9.17143226e-02 0.
      -9.39732790e-03 0. 8.56687948e-02 0. 1.53292105e-01 0.
      1.02042563e-01 0. 1.84088275e-02 0. -1.78761616e-01 0.
      2.54570842e-02 0. -1.15064289e-02 0. 6.59098327e-02 0.
      3.46922083e-03 0. 7.70915300e-02 0. -1.22439198e-01 0.
      2.10873894e-02 0. -1.81778580e-01 0. 5.37436977e-02 0.
      -2.13068910e-02 0. 8.64843652e-02 0. 1.44738793e-01 0.
      5.83906323e-02 0. 1.32906824e-01 0. 8.94175023e-02 0.
      -1.76027581e-01 0. 2.23150134e-01 0. 2.98123676e-02 0.
      9.54913720e-02 0. -6.39795512e-02 0. 2.39774287e-01 0.
      1.01997875e-01 0. -3.46479821e-03 0. -7.52592925e-04 0.
      3.88065092e-02 0. 1.47651723e-02 0. 4.30892855e-02 0.
      1.44360647e-01 0. 1.60998810e-04 0. 6.52557909e-02 0.
      7.35709071e-02 0. 5.53760789e-02 0. 1.09358512e-01 0.
      -2.53975727e-02 0. 6.63905144e-02 0. -2.07170728e-03 0.
      1.32253289e-01 0. -1.78908780e-02 0. 5.28291166e-02 0.
      -2.12963074e-02 0. -3.75211164e-02 0. 5.78451976e-02 0.
      3.37071829e-02 0. 3.59862074e-02 0. -5.50496690e-02 0.
      -1.75081380e-02 0. -1.48714818e-02 0. -4.22797762e-02 0.
      4.90932204e-02 0. 1.86938550e-02 0. -9.10979323e-03 0.
      -4.83690463e-02 0. -1.89874577e-03 0. 5.59785739e-02 0.
      3.61437351e-02 0. 6.91930354e-02 0. -3.08693312e-02 0.
      -1.05428807e-02 0. 3.90939452e-02 0. -2.74811909e-02 0.
      -4.68701720e-02 0. 6.79766610e-02 0. -3.30633633e-02 0.
      -1.04977325e-01 0. 4.92621027e-02 0. 5.88489622e-02 0.
      5.19737080e-02 0. -6.97669014e-02 0. -6.47691190e-02 0.
      4.19601351e-02 0. 6.97845072e-02 0. 3.72701362e-02 0.
      -1.49989948e-01 0. 8.87600109e-02 0. 1.07739689e-02 0.
      2.33362545e-03 0. -4.37697731e-02 0. -1.44156903e-01 0.
      -2.20188014e-02 0. -6.72240853e-02 0. 6.41834736e-02 0.
      7.01475292e-02 0. 6.58685640e-02 0. 1.48644093e-02 0.
      3.58314649e-03 0. 1.14016242e-01 0. 4.01746742e-02 0.
      3.57866324e-02 0. 1.32693788e-02 0. 2.35794648e-03 0.
      4.26938646e-02 0. 1.90450266e-01 0. -4.14037183e-02 0.
      3.14615332e-02 0. 1.28851132e-02 0. -1.24453343e-02 0.
      2.61530150e-02 0. 2.97197476e-02 0. 4.29725945e-02 0.
      -6.04561232e-02 0. 5.95143065e-02 0. 9.96766891e-03 0.
      2.11707335e-02 0. 6.69263527e-02 0. 1.62953977e-02 0.
      8.75657499e-02 0. 3.28768343e-02 0. 1.59603097e-02 0.
      -3.24786752e-01 0. 5.94224967e-02 0. -5.35102794e-03 0.
      1.33304104e-01 0. 1.84728124e-03 0. -1.79248191e-02 0.
      1.13418736e-01 0. 2.47214213e-02 0. 5.75214587e-02 0.
      1.10186137e-01 0. 1.45684937e-02 0. 4.79798764e-03 0.
      1.24483425e-02 0. 6.86268210e-02 0. 2.28111283e-03 0.
      -5.27628437e-02 0. -1.33851781e-01 0. 7.59243146e-02 0.
      4.31528315e-02 0. -2.75676906e-01 0. -4.37441422e-03 0.
      9.99521688e-02 0. 2.22622156e-02 0. -1.20110624e-01 0.
      -1.86260909e-01 0. 6.96740746e-02 0. -7.22859753e-03 0.
      -2.85145551e-01 0. 2.28002757e-01 0. -3.46297845e-02 0.
      1.24620922e-01 0. 1.37619274e-02 0. 4.97198880e-01 0.
      -3.80887479e-01 0. -5.47527559e-02 0. -7.94828832e-01 0.
      3.67188156e-02 0. -9.86859351e-02 0. -3.13997298e-01 0.
      3.63641143e-01 0. -3.00091326e-01 0. 5.00306487e-02 0.
      -7.13104755e-02 0. -1.63971171e-01 0. -6.95177540e-02 0.
      -7.14491010e-02 0. 3.37921269e-02 0. 4.58634049e-01 0.
      -1.77193750e-02 0. -1.75151154e-01 0. 4.19472717e-02 0.
      -3.24873216e-02 0. 1.54416308e-01 0. 5.91709204e-02 0.
      7.18096038e-03 0. 4.10262458e-02 0. 7.23037347e-02 0.
      -5.44165261e-02 0. 1.97166372e-02 0. 6.45990446e-02 0.
      -4.84466664e-02 0. 5.98933063e-02 0. 8.34188089e-02 0.
      1.79108426e-01 0. -4.85268459e-02 0. 5.86266182e-02 0.
      7.07695186e-02 0. -2.21348584e-01 0. 1.43540353e-01 0.
      -2.42623761e-02 0. 8.52906853e-02 0. 2.05687940e-01 0.
      7.76974484e-02 0. -1.30097494e-01 0. 1.35813206e-02 0.
      -1.83298558e-01 0. 2.39550658e-02 0. -8.72172713e-02 0.
      -1.40765179e-02 0. 2.85477247e-02 0. -2.49105111e-01 0.
      -1.33852074e-02 0. -1.85896794e-03 0. -1.59220081e-02 0.
      6.81896731e-02 0. 3.26937018e-03 0. 3.57104391e-02 0.
      1.45039260e-01 0. 8.71049315e-02 0. -2.21659556e-01 0.
      8.17323029e-02 0. -8.91219452e-03 0. -2.24518791e-01 0.
      -3.55325937e-01 0. -1.18848242e-01 0. 1.66815206e-01 0.
      -2.62392312e-01 0. 2.69718114e-02 0. 8.52542296e-02 0.
      -3.26264262e-01 0. 6.43763691e-02 0. 9.77386162e-02 0.
      5.75448833e-02 0. 2.58627057e-01 0. 4.46489155e-02 0.
      9.04791579e-02 0. -1.72602478e-02 0. -1.12731673e-01 0.
      4.79776897e-02 0. 5.63506521e-02 0. -6.03833497e-02 0.
      1.61442742e-01 0. 2.89366860e-02 0. -9.83823985e-02 0.
      3.55336107e-02 0. 4.14170958e-02 0. 1.60668008e-02 0.
      -2.89676283e-02 0. 2.96393093e-02 0. 1.21024184e-01 0.
      4.55203988e-02 0. 1.91901741e-03 0. -2.38649510e-02 0.
      -5.62609024e-02 0. 1.02660574e-01 0. -1.03185035e-01 0.
      7.52021074e-02 0. 2.25969076e-01 0. -2.82044406e-03 0.
      -1.09612934e-01 0. 5.20604961e-02 0. -1.81628212e-01 0.
      1.25935599e-01 0. -3.57995592e-02 0. 1.45708412e-01 0.
      2.54312098e-01 0. -3.12197804e-02 0. 5.87147772e-02 0.
      1.54140918e-02 0. -7.73506761e-02 0. 6.64842203e-02 0.
      -5.00537604e-02 0. 5.59471883e-02 0. 1.43684492e-01 0.
      -1.32186040e-01 0. -1.15834653e-01 0. 5.27242683e-02 0.
      -2.30966672e-01 0. 3.04413214e-02 0. 5.40494360e-02 0.
      2.56237835e-02 0. 1.58702523e-01 0. 4.44219373e-02 0.
      -1.22159392e-01 0. -1.88366566e-02 0. -1.28496036e-01 0.
      -8.32177550e-02 0. -1.64094999e-01 0. -8.32078513e-03 0.
      1.55503944e-01 0. 5.41262805e-01 0. -1.84888933e-02 0.
      -1.34794816e-01 0. 4.72618967e-01 0. -3.12166303e-01 0.
      -1.06495038e-01 0. 3.95539738e-02 0. 3.46714824e-01 0.
      -4.24375385e-02 0. -4.02574502e-02 0. -2.02851575e-02 0.
      -1.70200378e-01 0. 2.55784672e-02 0. 3.93722653e-02 0.
      8.88753459e-02 0. 5.97384453e-01 0. -1.32867366e-01 0.
      -2.85173446e-01 0. 6.73487931e-02 0. 1.04181625e-01 0.
      -4.62780381e-03 0. -8.07274356e-02 0. 6.59186170e-02 0.
      7.34368786e-02 0. -6.39092624e-02 0. -1.31986663e-01 0.
      4.88647595e-02 0. 1.11482859e-01 0. -8.95396322e-02 0.
      -1.66707337e-01 0. -1.38046801e-01 0. 4.73404884e-01 0.
      -3.24363112e-02 0. -2.50825286e-01 0. -7.88551476e-03 0.
      1.08468771e-01 0. -1.36295594e-02 0. -8.93059149e-02 0.
      9.50326547e-02 0. 1.08831808e-01 0. -4.68190573e-02 0.
      -7.67610595e-02 0. -1.92549117e-02 0. -1.56448632e-02 0.
      4.79235239e-02 0. -1.52552798e-01 0. -6.42914325e-03 0.
      -1.21312775e-01 0. -1.82878284e-04 0. -1.38383806e-01 0.
      -2.80500762e-02 0. 1.43302307e-01 0. -3.70641425e-03 0.
      -1.21600114e-01 0. 1.52186751e-01 0. 6.66451901e-02 0.
      -7.31053725e-02 0. -2.74253845e-01 0. 3.23712453e-02 0.
      1.36603685e-02 0. -3.15517336e-01 0. -1.66248292e-01 0.
      -2.70370007e-01 0. 3.42145979e-01 0. -8.97491217e-01 0.
      3.95287603e-01 0. -1.09183662e-01 0. 9.51621979e-02 0.
      -2.13911638e-01 0. -1.25076488e-01 0. -2.84738969e-02 0.
      4.17610705e-01 0. -7.83988833e-02 0. 8.75988081e-02 0.
      -8.09473544e-02 0. 2.85216033e-01 0. -3.21903557e-01 0.
      2.29185417e-01 0. -2.95437500e-02 0. 7.02790558e-01 0.
      -2.87075669e-01 0. 1.33981362e-01 0. -2.22444370e-01 0.
      4.93475720e-02 0. -1.65153563e-01 0. 1.69849649e-01 0.
      -8.59759599e-02 0. -6.13022819e-02 0. -7.96570331e-02 0.
      -1.26245273e-02 0. -1.28426090e-01 0. 1.80917978e-01 0.
      -4.57242012e-01 0. -1.99290793e-02 0. -5.46584427e-01 0.
      1.27967191e+00 0. -1.16595757e+00 0. -6.56979019e-03 0.
      -2.60969430e-01 0. 2.20022723e-01 0. -8.06574896e-02 0.
      -6.48915302e-03 0. 2.18418732e-01 0. 3.30646664e-01 0.
      -5.25333658e-02 0. 3.76652181e-02 0. -1.45008817e-01 0.
      1.52201563e-01 0. -2.35404652e-02 0. 2.36861542e-01 0.
      -2.17672169e-01 0. 1.16735435e+00 0. -3.56354564e-01 0.
      -3.38685624e-02 0. 2.08964925e-02 0. 3.97558242e-01 0.
      3.22650671e-02 0. -1.15558654e-01 0. 3.77338827e-02 0.
      8.28145087e-01 0. 6.29834831e-02 0. 3.23635012e-01 0.
      -3.43031138e-02 0. 8.38995427e-02 0. -1.91842645e-01 0.
      -4.98877823e-01 0. -9.18723524e-01 0. -7.60689855e-01
      -4.79679286e-01 3.33736926e-01 0. -4.70468342e-01 0.
      -1.47126511e-01 0. -4.10692900e-01 0. 2.76820082e-03 0.
      1.59106210e-01 0. -4.39938232e-02 0. 2.58609559e-02 0.
      1.99491158e-01 0. 1.32176504e-01 0. 1.09308027e-01 0.
      -1.68037683e-01 0. -8.89808685e-02 0. 3.86918359e-03 0.
      -1.47081241e-01 0. -4.17801946e-01 0. -2.17465490e-01 0.
      -2.58203745e-01 0. 1.18281990e-02 0. 2.00561583e-02 0.
      6.59214705e-02 0. -1.42149165e-01 0. -9.77387503e-02 0.
      2.88982820e-02 0. 4.95217070e-02 0. -2.82842547e-01 0.
      2.16941442e-02 0. -9.00158286e-02 0. -2.35524043e-01 0.
      -1.31644145e-01 0. -1.32236689e-01 0. -6.13527834e-01 0.
      5.49180359e-02 0. -4.32530344e-01 0. 3.68804745e-02 0.
      -1.78339362e-01 0. 2.06316307e-01 0. -4.95812856e-02 0.
      1.54532015e-01 0. 7.44486824e-02 0. 1.07189707e-01 0.
      -1.30688660e-02 0. 2.46633962e-03 0. -6.21173792e-02 0.
      3.30474675e-02 0. 7.36570358e-02 0. -9.68259275e-02 0.
      8.89508799e-02 0. -3.55827779e-01 0. -4.00138758e-02 0.
      -2.98998039e-03 0. 4.96923998e-02 0. -2.80705467e-02 0.
      -4.83668447e-02 0. 2.01266236e-03 0. -1.35841161e-01 0.
      -1.66068360e-01 0. 9.63360444e-02 0. 3.03732306e-02 0.
      3.91165027e-03 0. -1.93129361e-01 0. 3.26993354e-02 0.
      -8.09038989e-03 0. -3.74707192e-01 0. 6.40008897e-02 0.
      -2.16763303e-01 0. 1.08390711e-01 0. -1.95096973e-02 0.
      7.14334995e-02 0. 2.60654557e-03 0. 2.67253052e-02 0.
      -7.25881830e-02 0. 2.47879907e-01 0. -3.94468475e-03 0.
      1.24923540e-02 0. -6.12350293e-02 0. 1.25005439e-01 0.
      1.86226536e-02 0. 4.46337312e-02 0. 6.78460151e-02 0.
      2.06599802e-01 0. 9.47782323e-02 0. -8.63183364e-02 0.
      2.84212995e-02 0. 1.28439307e-01 0. -1.86161101e-02 0.
      1.29253045e-01 0. 5.87443002e-02 0. 5.58284596e-02 0.
      -2.19312645e-02 0. -3.62758301e-02 0. -5.50854281e-02 0.
      -1.90616660e-02 0. 2.27207430e-02 0. -1.86960376e-03 0.
      1.66510910e-01 0. 9.41028446e-02 0. -1.27152679e-02 0.
      5.47999181e-02 0. -4.02076021e-02 0. 2.67508309e-02 0.
      4.89335693e-02 0. -9.72224213e-03 0. 6.47596642e-02 0.
      2.80222651e-02 0. 4.50523831e-02 0. -3.58101688e-02 0.
      -5.78696355e-02 0. 2.74218246e-02 0. 5.86301684e-02 0.
      -1.21740727e-02 0. 7.59823993e-02 0. 9.12969038e-02 0.
      -5.00253402e-03 0. 1.46921063e-02 0. -1.78913131e-01 0.
      -7.49584064e-02 0. 4.35250923e-02 0. -7.43857771e-02 0.
      -6.72923867e-03 0. 3.85024175e-02 0. -4.07611206e-03 0.
      -8.95248633e-03 0. -1.69072405e-03 0. -9.47409496e-02 0.
      5.84492460e-02 0. 6.12441488e-02 0. 2.08249763e-02 0.
      8.79115015e-02 0. -7.19984397e-02 0. 1.87690593e-02 0.
      -1.65338755e-01 0. 5.47880381e-02 0. 3.17057297e-02 0.
      -2.81016603e-02 0. -5.65848276e-02 0. 3.63348164e-02 0.
      5.65187223e-02 0. -7.39500625e-03 0. -3.50131840e-02 0.
      6.22541979e-02 0. 1.63112022e-02 0. -4.25021760e-02 0.
      8.11754633e-03 0. 1.58460692e-01 0. 1.01457380e-01 0.
      2.88423095e-02 0. -1.65559575e-01 0. -2.49320697e-02 0.
      3.70830111e-02 0. 9.46712941e-02 0. -3.86080109e-02 0.
      -6.35388270e-02 0. 1.78481378e-02 0. -8.82817581e-02 0.
      -1.44425686e-03 0. -7.56124854e-02 0. 7.01839291e-03 0.
      -7.18082786e-02 0. -5.00837341e-02 0. 1.77602574e-01 0.
      3.85477841e-02 0. -8.37637344e-05 0. -5.15491441e-02 0.
      4.33704332e-02 0. 2.04005162e-03 0. 6.13560639e-02 0.
      -7.90459067e-02 0. 7.40194246e-02 0. 3.24321613e-02 0.
      6.81732297e-02 0. -1.24153890e-01 0. -3.88216674e-02 0.
      -1.33006603e-01 0. 6.34821074e-04 0. -1.10876476e-02 0.
      1.89413521e-02 0. 7.70108998e-02 0. 5.86450379e-03 0.
      -9.55119170e-03 0. -4.80406219e-03 0. 9.05785486e-02 0.
      4.68275286e-02 0. -4.04494107e-02 0. 2.69283764e-02 0.
      6.69134110e-02 0. 6.04964979e-03 0. -4.35850732e-02 0.
      1.06511638e-03 0. 7.53495395e-02 0. -2.80016232e-02 0.
      -2.19768852e-01 0. -4.89474041e-03 0. -2.26860762e-01 0.
      -2.71872673e-02 0. -3.59145254e-02 0. 2.72201374e-02 0.
      -6.07632026e-02 0. 1.13539782e-03 0. 1.78460199e-02 0.
      1.18853085e-01 0. 4.58731651e-02 0. 2.56112181e-02 0.
      -5.10944463e-02 0. -4.53669615e-02 0. 4.09912951e-02 0.
      9.00145024e-02 0. 1.56520680e-01 0. 1.08706735e-01 0.
      -4.40016203e-02 0. 1.81476679e-02 0. -3.96593362e-02 0.
      2.91250292e-02 0. -4.00676914e-02 0. 3.86257060e-02 0.
      -3.55208442e-02 0. 1.10201262e-01 0. 2.46203085e-03 0.
      -4.60320860e-02 0. 1.49151189e-02 0. 4.16590972e-03 0.
      7.12954327e-02 0. -1.17218301e-01 0. 1.94414556e-01 0.
      5.65344766e-02 0. -6.05745614e-02 0. 3.54176909e-02 0.
      1.23446800e-01 0. 1.33276224e-01 0. -1.00366725e-02 0.
      3.00273877e-02 0. 1.12146838e-02 0. 5.02244011e-02 0.
      1.47206318e-02 0. 3.45578045e-02 0. -4.32482958e-02 0.
      -3.49161658e-03 0. 5.08104451e-02 0. 7.56624416e-02 0.
      2.02267811e-01 0. -5.64255901e-02 0. 7.98362046e-02 0.
      7.04684407e-02 0. -1.09897487e-01 0. 3.31256166e-02 0.
      1.05583169e-01 0. 6.78414553e-02 0. -3.68332081e-02 0.
      -1.77826256e-01 0. 1.24563696e-02 0. 1.83815490e-02 0.
      -6.16336353e-02 0. 8.17190576e-03 0. -1.77906081e-01 0.
      -8.45517963e-02 0. -1.44419774e-01 0. 6.51904419e-02 0.
      -7.20285296e-01 0. 6.22410551e-02 0. -1.16473961e+00 0.
      5.98306693e-02 0. 1.15427643e-01 0. -9.93011668e-02 0.
      4.68855113e-01 0. -2.39997819e-01 0. -9.18857232e-02 0.
      -1.14921525e-01 0. -4.52935994e-01 0. -8.56034160e-02 0.
      6.49628490e-02 0. 3.74798588e-02 0. 5.24106145e-01 0.
      8.56737718e-02 0. -2.86185801e-01 0. 1.62022114e-02 0.
      4.59976345e-02 0. -2.75525302e-02 0. 3.69774736e-02 0.
      -3.75291053e-03 0. 3.29370308e-03 0. 5.87305352e-02 0.
      -1.39698591e-02 0. 1.95084885e-02 0. 4.31735702e-02 0.
      6.75977543e-02 0. 7.12944716e-02 0. 7.95613416e-03 0.
      1.07386135e-01 0. -1.24290558e-02 0. -1.11202866e-01 0.
      1.18157454e-01 0. -8.59330744e-02 0. 1.57110505e-02 0.
      -1.60956591e-01 0. 1.14075035e-01 0. 1.44185588e-01 0.
      1.01790711e-01 0. -5.93107902e-02 0. -2.82769036e-02 0.
      3.58598982e-03 0. 6.66737854e-02 0. -4.68749292e-02 0.
      8.36113244e-02 0. -2.18988378e-02 0. 6.70215711e-02 0.
      6.29633516e-02 0. 4.96644750e-02 0. 8.92595872e-02 0.
      4.64584231e-02 0. -1.41572151e-02 0. 5.74535131e-02 0.
      -4.17390279e-02 0. 5.32308295e-02 0. 2.06309389e-02 0.
      1.24842487e-01 0. 1.69534072e-01 0. -4.72869389e-02 0.
      -3.26331072e-02 0. 1.21371873e-01 0. 4.01618123e-01 0.
      -2.44808465e-01 0. -2.59316474e-01 0. -1.28497405e-03 0.
      -4.54348028e-01 0. 1.57594308e-01 0. 5.17734699e-02 0.
      4.08388451e-02 0. 1.00626804e-01 0. -7.79267773e-03 0.
      4.34770025e-02 0. -3.54528241e-02 0. -7.27333277e-02 0.
      4.40059565e-02 0. -1.01274042e-03 0. -3.19654904e-02 0.
      3.31457588e-03 0. 8.50882977e-02 0. 8.13947245e-03 0.
      1.31493965e-02 0. -1.46772757e-01 0. -8.57574418e-02 0.
      4.22139466e-02 0. 6.20899834e-02 0. 1.15621202e-02 0.
      4.86591831e-02 0. -5.04673496e-02 0. -2.06382629e-02 0.
      9.68458038e-03 0. 5.66550568e-02 0. 2.78301295e-02 0.
      -8.59302527e-04 0. 2.38593683e-01 0. 1.78766623e-01 0.
      -1.98175628e-02 0. -1.45087540e-02 0. -1.09038487e-01 0.
      8.66969004e-02 0. -7.15088248e-02 0. 4.31557419e-03 0.
      1.14670247e-01 0. 3.38763036e-02 0. -4.62895520e-02 0.
      1.92187596e-02 0. 1.12332232e-01 0. 9.85752344e-02 0.
      -7.52633624e-03 0. -1.21883256e-02 0. 9.52360108e-02 0.
      1.19107254e-02 0. 9.39895585e-02 0. -9.44865402e-03 0.
      6.44052103e-02 0. 3.92204821e-02 0. 6.93481266e-02 0.
      1.63152646e-02 0. 1.62103117e-01 0. 1.27180085e-01 0.
      1.44750610e-01 0. 5.76041229e-02 0. 3.13075900e-01 0.
      4.74463776e-03 0. 3.75435114e-01 0. 4.24094908e-02 0.
      8.48323107e-01 0. 1.72460422e-01 0. -7.69661188e-01 0.
      -1.87789053e-01 0. 4.26427245e-01 0. -1.94607407e-01 0.
      -1.49389520e-01 0. 3.63344587e-02 0. 6.56364381e-01 0.
      1.35366851e-02 0. -4.75856364e-02 0. -1.17069744e-01 0.
      -1.39711216e-01 0. -3.29740979e-02 0. -1.83284953e-01 0.
      -2.65088324e-02 0. 2.34890535e-01 0. -2.55160928e-01 0.
      -3.90823223e-02 0. -4.77764681e-02 0. -3.01843528e-02 0.
      3.60653847e-02 0. -7.02908710e-02 0. -8.49525630e-02 0.
      -3.41306031e-02 0. -8.05509314e-02 0. -1.87673718e-01 0.
      4.95116077e-02 0. -1.01949945e-01 0. 3.85667244e-03 0.
      -7.05620795e-02 0. -3.34166288e-02 0. 2.59595156e-01 0.
      4.60054651e-02 0. -2.87685424e-01 0. 5.27604334e-02 0.
      -2.24815812e-02 0. 5.46614714e-02 0. -7.86191449e-02 0.
      -5.76030202e-02 0. 6.29358366e-02 0. 3.98036838e-02 0.
      3.05420682e-02 0. 1.15371877e-02 0. 1.84780974e-02 0.
      1.28955960e-01 0. -5.93745969e-02 0. 7.49587566e-02 0.
      -2.01254673e-02 0. 4.71650995e-02 0. -9.19320956e-02 0.
      -1.04001306e-01 0. 1.01367734e-01 0. -2.37277057e-02 0.
      -1.50932327e-01 0. -1.44161889e-02 0. -6.64482340e-02 0.
      -1.14629433e-01 0. 3.65557075e-02 0. -4.05174419e-02 0.
      4.91941392e-01 0. -2.80635133e-02 0. 4.79806691e-01 0.
      2.86431491e-01 0. 6.40930951e-01 0. -9.99483287e-01 0.
      3.48312229e-01 0. 1.73249114e-02 0. 3.36049259e-01 0.
      -4.52437401e-02 0. -2.10865736e-01 0. -2.15930734e-02 0.
      2.51925737e-01 0. -1.38091832e-01 0. 7.77074397e-02 0.
      -4.66287844e-02 0. 1.02917671e-01 0. -3.18290517e-02 0.
      -4.61465605e-02 0. 1.34152146e-02 0. 4.22372252e-01 0.
      -3.16915691e-01 0. -7.01908395e-02 0. 1.83596723e-02 0.
      -4.92225923e-02 0. -8.24113339e-02 0. -4.94104587e-02 0.
      1.26742516e-02 0. 1.79139391e-01 0. -1.30253388e-02 0.
      -1.81421749e-02 0. 6.44337684e-02 0. -4.81971428e-02 0.
      -6.22768849e-02 0. 1.54928910e-02 0. 1.04144439e-01 0.
      7.16466665e-01 0. -7.21072376e-01 0. -9.41749439e-02 0.
      -2.67549187e-01 0. 1.53015450e-01 0. -1.12283483e-01 0.
      1.21956877e-01 0. -1.09842867e-01 0. 2.49065578e-01 0.
      -5.93846217e-02 0. 1.90269444e-02 0. 1.26155932e-02 0.
      -1.14759073e-01 0. -8.23794678e-03 0. 2.20281601e-01 0.
      2.58589294e-02 0. 8.08484077e-01 0. -7.94799160e-03 0.
      -2.71815866e-01 0. 1.25323310e-01 0. 1.98977619e-01 0.
      -7.20922723e-02 0. 2.01493159e-01 0. 8.53530318e-03 0.
      8.35275352e-01 0. -1.09441228e-01 0. 1.96884245e-01 0.
      -1.10148706e-01 0. 2.15785637e-01 0. -3.91302593e-02 0.
      2.72923768e-01 0. -5.68732977e-01 0. -9.62375522e-01
      1.08609468e-01 9.72865596e-02 0. 1.87003553e-01 0. 3.53189826e-01
      0. -4.17914301e-01 0. 3.19650948e-01 0. -2.37564929e-02 0.
      6.40434846e-02 0. -3.84639233e-01 0. -4.45595756e-02 0.
      -1.33994268e-02 0. 3.68354120e-03 0. -3.51869762e-01 0.
      7.73722082e-02 0. -1.80085570e-01 0. 1.66678522e-03 0.
      -3.28389376e-01 0. -6.76739991e-01 0. -4.13711309e-01 0.
      4.11551073e-02 0. -1.02455504e-01 0. 4.26125916e-04 0.
      7.25810900e-02 0. 7.94089362e-02 0. -2.87470788e-01 0.
      -9.71611738e-02 0. -2.33246878e-01 0. -8.59114155e-02 0.
      -1.52189344e-01 0. 8.94845873e-02 0. -9.40137170e-03 0.
      -7.69758001e-02 0. -5.26377738e-01 0. 1.95230067e-01 0.
      4.38827574e-02 0. 1.81744710e-01 0. -6.27529202e-03 0.
      -8.13009124e-03 0. 5.71528915e-03 0. 2.97549162e-02 0.
      -2.18894050e-01 0. 1.08415335e-01 0. 4.04243730e-02 0.
      1.42199285e-02 0. -9.57692228e-03 0. -4.52132449e-02 0.
      7.00782612e-03 0. -1.14498967e-02 0. 7.68961683e-02 0.
      -3.15933764e-01 0. 5.42107671e-02 0. 1.05931435e-03 0.
      -5.79008944e-02 0. -5.24839275e-02 0. 2.69424301e-02 0.
      3.68962847e-02 0. -3.30772139e-02 0. 1.45954952e-01 0.
      1.91909727e-02 0. 5.55627160e-02 0. -2.43901014e-02 0.
      4.18196581e-02 0. -2.42144931e-02 0. 1.24710640e-02 0.
      -1.32921040e-01 0. 3.33223104e-01 0. 2.50147998e-01 0.
      2.62296069e-02 0. -6.87489882e-02 0. 9.63018090e-02 0.
      8.54575410e-02 0. 5.80221675e-02 0. 3.31937186e-02 0.
      -8.36663991e-02 0. -5.31332307e-02 0. 2.28495733e-03 0.
      -1.33920312e-02 0. 6.72520548e-02 0. 1.37762532e-01 0.
      1.33679332e-02 0. 2.34283775e-01 0. 1.59633651e-01 0.
      7.86571503e-02 0. -5.02456166e-02 0. 9.07938927e-02 0.
      7.92184472e-03 0. 5.22580855e-02 0. -4.35909815e-02 0.
      -4.84880023e-02 0. 3.39924768e-02 0. -1.68562587e-02 0.
      1.46072116e-02 0. -3.83563340e-02 0. 7.05847517e-02 0.
      7.18666147e-03 0. -8.84490609e-02 0. 1.04600685e-02 0.
      1.19633693e-02 0. -1.46078080e-01 0. 5.55329863e-03 0.
      -3.93271595e-02 0. -1.15813250e-02 0. 4.09899354e-02 0.
      -6.40164390e-02 0. -2.82877609e-02 0. 4.45019156e-02 0.
      3.69829871e-02 0. 5.63368723e-02 0. 3.63547425e-03 0.
      -7.23940879e-03 0. 7.14922324e-02 0. 3.75594981e-02 0.
      -1.31491069e-02 0. 2.17233121e-01 0. 3.90275307e-02 0.
      -4.47124168e-02 0. -3.45799694e-04 0. 2.19110865e-02 0.
      -1.83448531e-02 0. 3.76958847e-02 0. 1.16607174e-02 0.
      4.81028855e-02 0. -9.03023481e-02 0. -7.40101188e-02 0.
      -3.74204703e-02 0. 2.46189997e-01 0. 3.13566737e-02 0.
      2.84684189e-02 0. -2.25400906e-02 0. -2.36213971e-02 0.
      5.20641729e-02 0. 4.19973210e-02 0. -8.26827288e-02 0.
      2.56661713e-01 0. -3.48422155e-02 0. 1.95415653e-02 0.
      -1.04645289e-01 0. 9.86242965e-02 0. 2.34474652e-02 0.
      -5.80995390e-03 0. -2.60105077e-02 0. 3.64132598e-02 0.
      3.45168472e-03 0. 4.47847806e-02 0. -6.63625523e-02 0.
      5.81577756e-02 0. 2.68242694e-02 0. 7.46001005e-02 0.
      -8.51742104e-02 0. 5.40409461e-02 0. 5.70187904e-03 0.
      3.94549146e-02 0. 6.27211332e-02 0. 7.76470825e-02 0.
      -2.26166826e-02 0. 4.85059172e-02 0. -8.18606466e-03 0.
      2.92243692e-03 0. 1.82887434e-03 0. -4.81795669e-02 0.
      1.74210072e-01 0. -6.84470162e-02 0. -7.70682395e-02 0.
      -7.11806072e-03 0. -4.16500634e-03 0. -4.78851870e-02 0.
      -1.82667561e-02 0. -1.26575315e-02 0. -1.33504629e-01 0.
      1.20868601e-01 0. -3.26945856e-02 0. 1.19661316e-02 0.
      3.81851234e-02 0. -9.40431468e-03 0. 3.45091596e-02 0.
      1.59872882e-02 0. -3.32351476e-02 0. 2.71904357e-02 0.
      8.64988416e-02 0. -1.41651770e-02 0. -4.60599810e-02 0.
      2.26932969e-02 0. -1.37851648e-02 0. 7.15750605e-02 0.
      -5.01443306e-03 0. 1.01797329e-02 0. -1.83138736e-02 0.
      3.48091833e-02 0. 4.20028269e-02 0. -6.34415001e-02 0.
      4.20952104e-02 0. -5.12978411e-04 0. 1.19574484e-03 0.
      -2.28727218e-02 0. 1.32522210e-01 0. 5.78832626e-02 0.
      -1.78771000e-02 0. 5.13128117e-02 0. 1.27078556e-02 0.
      5.07246815e-02 0. 9.98307733e-05 0. -3.36984396e-02 0.
      1.44658377e-02 0. -1.86351426e-02 0. 2.79805996e-02 0.
      -2.31773201e-02 0. 6.68022782e-02 0. 5.21865338e-02 0.
      1.23073999e-02 0. -4.51465957e-02 0. 9.14969482e-03 0.
      7.92137254e-03 0. -4.92938934e-03 0. 4.35568467e-02 0.
      2.60728989e-02 0. 6.52700067e-02 0. -6.83014244e-02 0.
      3.87768373e-02 0. -6.42863736e-02 0. 7.74939209e-02 0.
      4.14797515e-02 0. 7.33118281e-02 0. -1.38086649e-02 0.
      7.16340542e-02 0. 7.60295540e-02 0. -1.83442041e-01 0.
      1.27426028e-01 0. 3.38648595e-02 0. 1.58043519e-01 0.
      6.85143024e-02 0. -8.25536437e-03 0. -1.47546851e-03 0.
      2.60932930e-02 0. -4.95632663e-02 0. -7.93951331e-05 0.
      3.88202965e-02 0. 5.08841015e-02 0. 2.52241418e-02 0.
      1.27368629e-01 0. 1.25125265e-02 0. 1.66363090e-01 0.
      8.39932486e-02 0. 6.46329746e-02 0. 7.52881244e-02 0.
      -1.20135546e-01 0. -5.43839596e-02 0. -4.42798734e-02 0.
      1.03343828e-02 0. 1.54494703e-01 0. -1.01750582e-01 0.
      1.75280631e-01 0. -3.04872207e-02 0. 3.25365290e-02 0.
      2.33303055e-01 0. -1.92357734e-01 0. 4.39097136e-02 0.
      -7.05831312e-03 0. -1.19236931e-01 0. -5.37873097e-02 0.
      -2.12553576e-01 0. -8.17373216e-01 0. 2.47926697e-01 0.
      -4.24329698e-01 0. -1.38580978e-01 0. -1.18980967e-01 0.
      6.01365604e-02 0. 8.95275455e-03 0. -5.16699590e-02 0.
      -2.90792048e-01 0. -1.86756980e-02 0. 7.09887668e-02 0.
      -7.64041245e-02 0. 3.93241435e-01 0. 2.38868803e-01 0.
      -8.78822729e-02 0. -2.35139555e-03 0. -8.43600780e-02 0.
      8.05184394e-02 0. 9.37992558e-02 0. -5.29516749e-02 0.
      1.72939971e-02 0. 2.97195047e-01 0. 7.09297359e-02 0.
      8.67698565e-02 0. -5.97798452e-02 0. 2.30667251e-03 0.
      6.52920529e-02 0. -4.43876982e-02 0. -3.01282527e-03 0.
      -9.55926925e-02 0. 2.21208291e-04 0. 1.00567259e-01 0.
      -2.79679358e-01 0. -1.77170746e-02 0. -4.61774133e-02 0.
      5.62420078e-02 0. 1.44093975e-01 0. 5.66319972e-02 0.
      -7.59407580e-02 0. -1.17771458e-02 0. -1.51054874e-01 0.
      -1.97824780e-02 0. -1.91537678e-01 0. -9.97282565e-02 0.
      -1.78753734e-01 0. -1.66759685e-01 0. 1.32099362e-02 0.
      -1.20438007e-03 0. -1.39101595e-01 0. -3.37315761e-02 0.
      -5.70056550e-02 0. 3.34439538e-02 0. 6.34083971e-02 0.
      5.60787208e-02 0. -4.32723165e-02 0. 4.16843928e-02 0.
      6.37027100e-02 0. -1.45360112e-01 0. -2.20143273e-01 0.
      -1.63933247e-01 0. 3.02680671e-01 0. 1.16360234e-02 0.
      8.57539773e-02 0. -5.77578954e-02 0. -2.21550778e-01 0.
      -6.18887655e-02 0. 2.96837296e-02 0. 5.90592949e-03 0.
      4.28159628e-03 0. 6.80132061e-02 0. 3.43125910e-02 0.
      1.96511652e-02 0. -1.56888276e-01 0. 2.53900737e-02 0.
      3.66438664e-02 0. 3.94070661e-03 0. 9.67015624e-02 0.
      3.33332643e-02 0. -6.41355058e-03 0. -2.30762102e-02 0.
      -2.86251474e-02 0. -5.22249006e-02 0. -3.42983343e-02 0.
      1.94412302e-02 0. 8.86521786e-02 0. 6.62757233e-02 0.
      7.53355026e-02 0. -8.82235449e-03 0. -9.80267301e-03 0.
      3.79460193e-02 0. 2.60167513e-02 0. 7.58897513e-02 0.
      -1.83321703e-02 0. -5.15688285e-02 0. 1.35641843e-01 0.
      1.29002392e-01 0. -1.66547909e-01 0. 5.32113761e-02 0.
      -5.59842363e-02 0. -9.69678257e-03 0. 1.65526047e-01 0.
      -1.95771996e-02 0. 4.90443828e-03 0. 7.05422508e-03 0.
      -5.32213449e-02 0. 9.24582500e-03 0. -6.09459821e-03 0.
      1.05028398e-01 0. -1.73039705e-01 0. 2.19152328e-02 0.
      6.18571229e-02 0. 6.94986507e-02 0. -1.21555850e-01 0.
      7.14038312e-02 0. 1.85624901e-02 0. 3.61348614e-02 0.
      4.13462877e-01 0. 8.83413553e-02 0. -3.47511508e-02 0.
      -4.64763194e-02 0. 5.36559932e-02 0. -1.21018521e-01 0.
      7.62861967e-02 0. -1.05297029e-01 0. 6.13219857e-01 0.
      3.20465058e-01 0. 2.14147598e-01 0. -2.86364734e-01 0.
      3.80419403e-01 0. -9.93753672e-02 0. -2.92621523e-01 0.
      -1.10308625e-01 0. -1.34932045e-02 0. 3.01448740e-02 0.
      -2.47771610e-02 0. -1.89774949e-02 0. -1.47196695e-01 0.
      6.62739128e-02 0. -3.17700626e-03 0. 1.41749263e-01 0.
      4.97434229e-01 0. 7.31104147e-03 0. -2.67889053e-01 0.
      1.89744029e-02 0. 1.67676494e-01 0. 2.51295278e-03 0.
      -9.92526561e-02 0. 1.16080686e-01 0. 2.18929965e-02 0.
      -8.94140080e-02 0. 1.05021544e-01 0. -4.22641588e-03 0.
      1.18937589e-01 0. 6.46432862e-02 0. -3.45533416e-02 0.
      -7.12283477e-02 0. -1.27356604e-03 0. -9.30237323e-02 0.
      -3.40349674e-01 0. 1.30533790e-02 0. -5.13616018e-02 0.
      -2.63091419e-02 0. -1.72456235e-01 0. 3.95759717e-02 0.
      -2.16015968e-02 0. -1.67874526e-02 0. -6.37940764e-02 0.
      5.24579212e-02 0. -1.15735419e-01 0. 1.16745308e-02 0.
      -2.25278363e-01 0. -2.20612716e-02 0. -3.13053690e-02 0.
      -7.06928670e-02 0. 2.55032927e-02 0. -5.16682900e-02 0.
      5.19078933e-02 0. 5.14001809e-02 0. -1.81852698e-01 0.
      6.06634468e-02 0. -1.51072377e-02 0. -4.33855318e-02 0.
      -1.63262144e-01 0. 8.60368609e-02 0. 3.68282884e-01 0.
      -2.14717567e-01 0. 6.67299703e-02 0. -4.44902247e-03 0.
      7.09595263e-01 0. -8.03363562e-01 0. 1.01514316e+00 0.
      -1.23027131e-01 0. -1.65215626e-01 0. -2.21098378e-01 0.
      -6.20876811e-02 0. -6.58346638e-02 0. 2.00904280e-01 0.
      -1.10173114e-01 0. 9.68777165e-02 0. -1.07931547e-01 0.
      8.45224634e-02 0. -2.29106039e-01 0. 2.23569542e-01 0.
      -6.00487851e-02 0. 5.48606098e-01 0. -2.36859247e-01 0.
      6.55930638e-02 0. 1.84663739e-02 0. 5.12700044e-02 0.
      -1.50244772e-01 0. 9.92475599e-02 0. 3.51643749e-03 0.
      2.14602556e-02 0. -1.57780424e-02 0. 1.04182847e-01 0.
      -4.66592535e-02 0. 1.67773128e-01 0. -3.79264057e-01 0.
      1.69583067e-01 0. -2.56245375e-01 0. 9.09621656e-01 0.
      -1.11766279e+00 0. 3.50679457e-01 0. -2.04044834e-01 0.
      7.94403180e-02 0. -1.92827031e-01 0. -5.99425100e-02 0.
      -1.60858594e-02 0. -1.61918595e-01 0. -1.84752762e-01 0.
      -8.88855681e-02 0. -1.48082465e-01 0. 1.30086998e-03 0.
      -4.61978242e-02 0. 2.40250328e-03 0. -8.55276808e-02 0.
      3.14468861e-01 0. 1.79932863e-01 0. -1.48254503e-02 0.
      6.75326362e-02 0. 3.97188306e-01 0. 8.15832913e-02 0.
      -9.35097970e-03 0. -7.12911040e-02 0. 4.90810722e-01 0.
      6.48052767e-02 0. -2.77432632e-02 0. 5.02242409e-02 0.
      5.77044129e-01 0. 1.91171225e-02 0. -2.94681370e-01 0.
      -4.07810599e-01 0. -4.92700368e-01 -3.25343370e-01 3.73774916e-01
      0. 1.08563984e-02 0. -7.26577491e-02 0. -6.73165977e-01 0.
      3.12509388e-01 0. -9.40337405e-02 0. -3.24907266e-02 0.
      -5.69258392e-01 0. 3.17111015e-01 0. 2.38332212e-01 0.
      6.40207827e-02 0. 2.77774986e-02 0. -3.12363863e-01 0.
      -1.46924984e-02 0. -2.44499013e-01 0. 8.70367363e-02 0.
      -6.49968684e-02 0. -1.72516525e-01 0. -1.43122226e-01 0.
      1.61020815e-01 0. 4.41247858e-02 0. -1.02043197e-01 0.
      -8.79947171e-02 0. -2.65700966e-01 0. 3.73783372e-02 0.
      -1.55066043e-01 0. -2.60148570e-02 0. 2.02919319e-02 0.
      -2.38666460e-01 0. -6.93414547e-03 0. -2.32324004e-01 0.
      -3.76418382e-01 0. 3.74956995e-01 0. -3.95279944e-01 0.
      3.23706609e-03 0. -6.62333742e-02 0. 5.16691525e-03 0.
      5.65888584e-02 0. 6.26512244e-02 0. 4.98889107e-03 0.
      8.63590091e-02 0. 7.05673918e-02 0. 4.07251902e-02 0.
      -9.38059464e-02 0. -2.49635633e-02 0. 5.46780862e-02 0.
      -1.51672475e-02 0. 1.06279090e-01 0. -1.02942385e-01 0.
      -7.83629119e-02 0. 5.64167239e-02 0. -9.82813165e-02 0.
      4.08752821e-02 0. -1.38715923e-01 0. 4.78733480e-02 0.
      -1.51159003e-01 0. -7.51275644e-02 0. 9.85736772e-02 0.
      -8.65828320e-02 0. 1.89630091e-02 0. -4.38873842e-02 0.
      9.92597565e-02 0. -1.62234664e-01 0. -6.02463245e-01 0.
      1.70477316e-01 0. -3.50744098e-01 0. 2.03721412e-02 0.
      -1.41789764e-01 0. 1.32016107e-01 0. 5.09951487e-02 0.
      2.63278708e-02 0. 8.12074461e-04 0. 2.03801751e-01 0.
      -3.64053510e-02 0. -4.72009592e-02 0. -3.62086855e-02 0.
      1.32415146e-01 0. -1.14701828e-02 0. -4.82656136e-02 0.
      1.29658312e-01 0. 8.56941044e-02 0. 5.57632595e-02 0.
      -2.88436562e-02 0. -5.60472682e-02 0. 2.62494311e-02 0.
      2.82786619e-02 0. 1.11883290e-01 0. 3.07564195e-02 0.
      9.21177194e-02 0. -1.09397937e-02 0. -2.45062318e-02 0.
      -6.07106425e-02 0. 4.68890406e-02 0. 6.49033289e-04 0.
      2.69199861e-03 0. 1.83285195e-02 0. 7.99317509e-02 0.
      1.23519331e-01 0. -9.87947569e-04 0. 2.14942619e-02 0.
      -7.97985941e-02 0. 7.59490132e-02 0. 2.23264191e-03 0.
      6.75583705e-02 0. 8.10144991e-02 0. -9.73072276e-03 0.
      -3.58085036e-02 0. -9.65239927e-02 0. 8.52259248e-02 0.
      8.15029815e-02 0. -3.78142134e-03 0. 5.16006630e-03 0.
      4.02518548e-02 0. -9.03883278e-02 0. -3.76718827e-02 0.
      -1.82835814e-02 0. 1.03564769e-01 0. 4.36530188e-02 0.
      5.80289699e-02 0. 1.13646619e-01 0. 1.85206711e-01 0.
      -5.62188821e-03 0. -1.88173018e-02 0. -2.46559717e-02 0.
      8.47137719e-02 0. 2.89941952e-02 0. 2.61048228e-02 0.
      -2.41135329e-01 0. 5.48756659e-01 0. 1.52216032e-01 0.
      2.35132426e-02 0. 7.73151070e-02 0. 1.84971407e-01 0.
      -5.63665405e-02 0. -1.06038593e-01 0. -1.16325818e-01 0.
      -6.78460151e-02 0. 2.09176950e-02 0. -5.25050685e-02 0.
      -5.04892804e-02 0. 1.15289949e-02 0. -9.22117680e-02 0.
      -7.62908831e-02 0. -1.90941319e-02 0. 1.10893838e-01 0.
      -2.23195478e-02 0. 4.29175235e-02 0. -7.44847283e-02 0.
      4.35142173e-03 0. 9.03604738e-03 0. 8.31862986e-02 0.
      4.73146997e-02 0. -4.97592799e-02 0. -1.06664248e-01 0.
      -1.08915471e-01 0. -1.01754731e-02 0. -7.56325796e-02 0.
      -8.54552090e-02 0. -7.15121776e-02 0. 1.91311613e-01 0.
      4.15139720e-02 0. 1.03291504e-01 0. 6.17150627e-02 0.
      -6.38917610e-02 0. -1.41717484e-02 0. 3.82477641e-02 0.
      5.67426831e-02 0. 8.31435062e-03 0. 1.58540793e-02 0.
      6.10037446e-02 0. 8.18909146e-04 0. -1.65597349e-01 0.
      -5.44420956e-03 0. -1.19430564e-01 0. -6.11043386e-02 0.
      6.99361414e-02 0. 3.78264263e-02 0. 1.53605770e-02 0.
      -1.33386664e-02 0. 6.50603101e-02 0. -5.08486629e-02 0.
      8.36184772e-04 0. 5.24513535e-02 0. 4.04506782e-03 0.
      -1.47351036e-02 0. 4.15340699e-02 0. -1.03712240e-02 0.
      -1.45820361e-02 0. 2.39574555e-02 0. 5.40044568e-02 0.
      -1.44877851e-01 0. -1.99435696e-01 0. 3.37966293e-01 0.
      -4.86652926e-02 0. 5.25419526e-02 0. 4.82626781e-02 0.
      -1.94517598e-02 0. -8.71371180e-02 0. -7.56027028e-02 0.
      2.97519099e-02 0. 4.59038131e-02 0. 2.68508252e-02 0.
      -5.11580054e-03 0. -3.85913327e-02 0. -3.25109735e-02 0.
      6.67245919e-03 0. 1.54803097e-02 0. 5.36931381e-02 0.
      1.17055610e-01 0. 3.19470353e-02 0. -3.66507913e-03 0.
      -2.67623886e-02 0. 1.11337513e-01 0. 1.20326737e-02 0.
      -1.97454188e-02 0. 1.46208657e-02 0. 4.04012240e-02 0.
      7.66146043e-03 0. -1.25871915e-02 0. -3.72849107e-02 0.
      7.21737295e-02 0. 4.27079424e-02 0. -7.87293091e-02 0.
      1.65042147e-01 0. 1.09915569e-01 0. 4.97727580e-02 0.
      3.84072475e-02 0. -3.85921150e-02 0. 7.92094171e-02 0.
      -6.03723060e-03 0. 4.74781990e-02 0. 1.41401559e-01 0.
      8.10849741e-02 0. -7.31473789e-02 0. 1.91185046e-02 0.
      -3.33631858e-02 0. 5.74492812e-02 0. 5.80440611e-02 0.
      5.37736081e-02 0. 1.33861661e-01 0. -8.67218617e-03 0.
      1.18001299e-02 0. 2.84205116e-02 0. -9.14308429e-02 0.
      2.33554002e-02 0. 1.09811006e-02 0. 1.20785318e-01 0.
      1.57436118e-01 0. -6.62894920e-02 0. 5.63777722e-02 0.
      -8.15632716e-02 0. -2.97509804e-02 0. 2.24203262e-02 0.
      -8.14555362e-02 0. -2.65537232e-01 0. -4.17305082e-01 0.
      -5.58151782e-01 0. -1.19252765e+00 0. 1.42421760e-02 0.
      -6.97095752e-01 0. 9.55699310e-02 0. 1.06368244e-01 0.
      1.72309182e-03 0. 3.77626717e-01 0. -1.85227171e-01 0.
      -3.00162286e-01 0. -3.37108746e-02 0. -3.83562833e-01 0.
      -1.18846603e-01 0. 4.40231059e-03 0. -3.89406979e-02 0.
      2.72370517e-01 0. -8.65976810e-02 0. -6.59735277e-02 0.
      -6.88900575e-02 0. -5.35956621e-02 0. 1.02919703e-02 0.
      1.00354694e-01 0. -3.37380990e-02 0. -1.38677597e-01 0.
      1.07135803e-01 0. 4.93379496e-02 0. -6.07915074e-02 0.
      -3.67417485e-02 0. 5.24323992e-02 0. 4.77012806e-02 0.
      -4.10596877e-02 0. 4.51188564e-01 0. 4.55896296e-02 0.
      -4.38636616e-02 0. -7.96530209e-03 0. -2.48772487e-01 0.
      6.92436621e-02 0. -8.53800997e-02 0. 9.54596102e-02 0.
      1.80916443e-01 0. 1.66963637e-02 0. -8.25067535e-02 0.
      -5.47719188e-03 0. -4.53382209e-02 0. -4.42503579e-02 0.
      1.05063822e-02 0. 2.90801004e-03 0. -1.02234997e-01 0.
      1.38279647e-01 0. 5.20722196e-02 0. 3.57562378e-02 0.
      6.81092218e-02 0. -6.86034001e-03 0. -1.49215460e-02 0.
      9.13276970e-02 0. 8.01435336e-02 0. 5.68989217e-02 0.
      2.56214552e-02 0. 9.80849490e-02 0. 1.28500625e-01 0.
      3.83235142e-02 0. 3.75705734e-02 0. 1.15605988e-01 0.
      3.56527179e-01 0. -5.30247875e-02 0. -1.58686012e-01 0.
      -8.90037715e-02 0. -1.73141792e-01 0. 9.64690447e-02 0.
      -3.17037106e-02 0. -5.31682232e-03 0. 1.97894841e-01 0.
      3.76821049e-02 0. -5.88500090e-02 0. -5.14081977e-02 0.
      4.35896441e-02 0. 4.82803136e-02 0. -8.12531039e-02 0.
      -1.13277286e-01 0. -4.12828336e-03 0. 3.36227641e-02 0.
      2.20281743e-02 0. 3.50678936e-02 0. -9.18062329e-02 0.
      -2.78261025e-02 0. 1.44440634e-02 0. 6.59892708e-02 0.
      -7.94250593e-02 0. 2.14430671e-02 0. -2.72353198e-02 0.
      -9.26352963e-02 0. -4.48305979e-02 0. -3.14378925e-02 0.
      2.43415497e-02 0. -4.40606549e-02 0. -9.95791983e-03 0.
      6.70985281e-02 0. 9.46657509e-02 0. -7.35171735e-02 0.
      -1.50065839e-01 0. -2.99492516e-02 0. -5.09641021e-02 0.
      -3.58639136e-02 0. 1.08099706e-01 0. -5.33435680e-03 0.
      -6.87697623e-03 0. -3.09319869e-02 0. 1.66942388e-01 0.
      6.86867461e-02 0. -2.20407732e-02 0. -2.93385684e-02 0.
      7.86985978e-02 0. 9.04395804e-02 0. 2.16525123e-01 0.
      3.52872759e-02 0. -5.47601953e-02 0. 7.25787133e-02 0.
      -7.37830326e-02 0. 3.21205035e-02 0. 5.15612438e-02 0.
      -5.35508506e-02 0. 2.01935455e-01 0. -1.18518751e-02 0.
      4.67189282e-01 0. 6.74663559e-02 0. 2.36599058e-01 0.
      -5.46117388e-02 0. 7.15804756e-01 0. 1.10068947e-01 0.
      -6.66523218e-01 0. -8.46326053e-02 0. 8.33528876e-01 0.
      -9.31024551e-02 0. -5.43306351e-01 0. -1.32944763e-01 0.
      1.56427070e-01 0. 1.97822675e-02 0. -9.86545756e-02 0.
      -1.07068725e-01 0. 1.78290289e-02 0. 2.91941427e-02 0.
      -1.47170275e-01 0. 3.46870646e-02 0. 3.77560019e-01 0.
      -2.44911656e-01 0. -3.32637783e-03 0. -6.92325979e-02 0.
      -4.92449328e-02 0. 7.12288022e-02 0. -1.33488134e-01 0.
      -5.43893203e-02 0. -5.70988171e-02 0. 3.83720547e-02 0.
      1.22547343e-01 0. -4.94741574e-02 0. 4.73687313e-02 0.
      3.99228977e-03 0. 7.42294639e-02 0. -1.75298378e-01 0.
      6.84054047e-02 0. -5.85951284e-02 0. -2.86442578e-01 0.
      -8.66283476e-02 0. -1.57323349e-02 0. 6.72894856e-03 0.
      -1.49058655e-01 0. -5.41378185e-02 0. 1.27077196e-02 0.
      -4.46344577e-02 0. 1.11167006e-01 0. -8.47942606e-02 0.
      6.80371821e-02 0. -9.33737028e-03 0. -6.18367419e-02 0.
      6.12657964e-02 0. -1.20317101e-01 0. -6.76156720e-03 0.
      2.05197465e-02 0. -8.25148895e-02 0. 8.21350887e-03 0.
      -7.22405910e-02 0. -1.86831892e-01 0. -7.03566298e-02 0.
      -3.50930542e-02 0. -6.78107664e-02 0. 9.69050154e-02 0.
      6.68727383e-02 0. 3.70753825e-01 0. 7.95194358e-02 0.
      4.51799631e-01 0. 3.17223132e-01 0. 9.19495106e-01 0.
      -7.63306737e-01 0. -2.45548021e-02 0. -2.67843276e-01 0.
      3.86033654e-01 0. -4.00938913e-02 0. -1.70094341e-01 0.
      -1.32055178e-01 0. 4.82701480e-01 0. -8.56586546e-02 0.
      4.39952128e-02 0. -1.36002615e-01 0. 1.95882097e-02 0.
      8.07882473e-03 0. -5.35310917e-02 0. -1.55658973e-02 0.
      3.88725340e-01 0. -7.19429702e-02 0. -1.46050841e-01 0.
      -7.24475011e-02 0. -6.66194856e-02 0. 4.03092057e-03 0.
      -7.77393132e-02 0. -4.47243592e-03 0. -2.17465252e-01 0.
      -3.72315235e-02 0. 3.87572236e-02 0. -5.39425798e-02 0.
      6.80254027e-02 0. -8.20639506e-02 0. 2.32311144e-01 0.
      -1.20273151e-01 0. 5.74419260e-01 0. -2.42489487e-01 0.
      -5.26525915e-01 0. -2.85727203e-01 0. 2.39319295e-01 0.
      -5.72657818e-03 0. 1.75931737e-01 0. 8.21965486e-02 0.
      3.43771279e-01 0. -1.44654915e-01 0. 1.12185262e-01 0.
      -2.65441947e-02 0. -2.15834692e-01 0. 5.57938144e-02 0.
      1.68241978e-01 0. -6.10344112e-02 0. 3.92329961e-01 0.
      1.78215519e-01 0. 1.33517403e-02 0. 6.26976639e-02 0.
      3.15432280e-01 0. 1.12183735e-01 0. 2.16818944e-01 0.
      -7.76074976e-02 0. 6.16054833e-01 0. 7.65819699e-02 0.
      2.53291219e-01 0. -2.48119891e-01 0. 6.01374269e-01 0.
      -1.17263198e-02 0. 6.78720474e-01 0. -4.46689636e-01 0.
      -6.59379482e-01</_></support_vectors>
  <decision_functions>
    <_>
      <sv_count>1</sv_count>
      <rho>-3.8370973150297689e+00</rho>
      <alpha>
        1.</alpha>
      <index>
        0</index></_></decision_functions></my_svm>
</opencv_storage>
