<?xml version="1.0"?>
<opencv_storage>
<my_svm type_id="opencv-ml-svm">
  <svm_type>C_SVC</svm_type>
  <kernel><type>LINEAR</type></kernel>
  <C>1.</C>
  <term_criteria><epsilon>2.2204460492503131e-16</epsilon>
    <iterations>100</iterations></term_criteria>
  <var_all>34020</var_all>
  <var_count>34020</var_count>
  <class_count>2</class_count>
  <class_labels type_id="opencv-matrix">
    <rows>1</rows>
    <cols>2</cols>
    <dt>i</dt>
    <data>
      -1 1</data></class_labels>
  <sv_total>1</sv_total>
  <support_vectors>
    <_>
      1.27105229e-02 8.25893320e-03 -5.33214770e-03 -1.01877870e-02
      -2.29184143e-02 -2.40518600e-02 7.41157960e-03 -4.40660678e-03
      7.04743434e-03 3.32435500e-03 -4.84727882e-03 -7.41550606e-03
      -2.15824153e-02 -9.58926324e-03 -1.60790198e-02 6.13710983e-03
      -6.49094675e-03 3.24453274e-03 1.58736203e-02 1.01762963e-02
      -3.55223473e-03 -7.79782748e-03 -6.53443579e-03 -1.17649566e-02
      1.47369765e-02 1.09433685e-03 1.38761289e-02 8.44694860e-03
      4.04906133e-03 9.44723096e-03 -1.01872832e-02 7.52939936e-03
      -1.33774960e-02 8.38464912e-05 1.62635057e-03 1.27490023e-02
      -1.76642532e-03 -1.17596192e-02 -1.80053920e-03 -1.00354496e-02
      -1.01406192e-02 -5.85725624e-03 3.54531873e-03 -1.20097294e-03
      2.63364962e-03 1.67195604e-03 -1.04670590e-02 -8.94232653e-04
      -1.61675573e-03 9.80073353e-04 -2.98971805e-04 7.68542383e-03
      4.69016517e-03 4.62166220e-03 -2.79137352e-03 -8.33615474e-03
      6.40419265e-03 -1.92151079e-03 9.30056849e-04 1.70536060e-03
      2.99928221e-03 2.06027692e-03 1.30570738e-03 -5.67395752e-03
      -1.68136470e-02 -2.65171588e-03 -7.72916130e-04 1.35187627e-04
      1.60784439e-05 1.03522707e-02 -2.32245467e-04 -2.81431223e-03
      8.64317827e-03 -2.45261798e-03 1.74478150e-03 1.57077983e-03
      -9.74743802e-04 2.52048555e-03 9.53689124e-03 6.68861065e-03
      8.26731231e-03 2.65479553e-03 3.05466400e-03 2.85871909e-04
      -1.11409847e-03 -2.01585307e-03 -1.86569663e-03 1.31564718e-02
      6.56399364e-03 1.65713504e-02 -2.02795956e-03 -9.56120435e-03
      4.42503160e-03 2.24965229e-03 -7.75944907e-03 -1.25002153e-02
      8.95188563e-03 -2.24786950e-03 -2.43914477e-03 3.45572922e-03
      1.17514457e-03 6.51859120e-03 1.16771080e-04 -8.11690278e-03
      -6.76677702e-03 1.18710054e-02 4.18314384e-03 1.02843065e-02
      -2.20519374e-03 -3.89752281e-03 -4.57147788e-03 -1.39247263e-02
      -2.04104427e-02 -1.29688727e-02 3.64650111e-03 1.58459693e-03
      8.65679048e-03 4.81401011e-03 -4.56413114e-03 6.38617319e-04
      2.49232026e-03 -6.43628603e-03 3.30997771e-03 -7.89949554e-04
      5.47258137e-03 7.37083936e-03 -1.47533821e-04 -6.18494768e-03
      2.51274032e-04 -9.87291243e-03 -1.47004817e-02 -1.12881223e-02
      9.83816665e-03 5.20632137e-03 5.84071083e-03 6.79008290e-03
      -4.91128117e-03 3.65665462e-03 6.57745730e-03 -1.47109036e-04
      4.46182769e-03 1.46513595e-03 4.89608850e-03 3.99917923e-03
      -2.74046627e-03 -1.16600981e-02 -8.77833925e-03 2.02087150e-03
      -5.05190995e-03 -2.48392019e-03 -5.48151461e-03 -6.88108616e-03
      -3.36078065e-03 4.17100359e-03 -1.19103454e-02 -1.45466560e-02
      -1.56164228e-04 6.41452149e-03 -1.55869953e-03 -1.80312782e-03
      -4.89348220e-03 2.37063481e-03 4.80099395e-03 -7.20977038e-03
      -7.77344545e-03 -2.59765424e-03 -1.80411630e-03 -8.75473197e-04
      -2.08954816e-03 -7.46127544e-03 6.75496121e-04 1.67313532e-03
      -4.93309880e-03 -1.10840974e-02 -5.61043946e-03 5.67264576e-03
      4.98369243e-03 2.85705132e-03 7.85858079e-04 2.36095744e-03
      6.87309075e-03 -7.75790494e-03 -6.20442769e-03 1.99590344e-03
      8.66240938e-04 1.41040853e-03 -7.96719920e-04 6.45694649e-03
      9.78747196e-03 -6.75057434e-03 -1.07108625e-02 2.02549342e-03
      -9.85639077e-03 -9.13346838e-03 -8.40335339e-03 -2.17426033e-03
      -1.64613687e-03 4.69954917e-03 -2.49624532e-03 -3.63735296e-03
      6.82222750e-03 -6.49513153e-04 -2.81786267e-03 4.18368174e-04
      4.89339465e-03 6.69526029e-03 5.87749155e-03 -1.01861767e-02
      -1.03864884e-02 5.31504629e-03 -1.13412384e-02 -2.68217037e-03
      -1.01989927e-02 7.15138484e-03 -3.07367649e-04 2.43235216e-03
      2.67447555e-03 -6.80814404e-03 -2.34802696e-03 -3.59520619e-03
      -9.01300739e-03 -9.65602137e-03 1.88977015e-03 -1.02892960e-03
      4.34109615e-03 6.22830959e-03 -7.83197582e-03 -6.35928661e-03
      -4.73246258e-03 -6.38212296e-05 -6.44093798e-03 2.67646462e-03
      -7.50945299e-04 -6.69514935e-04 4.39052889e-03 1.19024678e-03
      1.44796749e-03 2.90189963e-03 -2.60291365e-03 -2.47267494e-03
      6.93373242e-03 -2.42832722e-03 2.73506809e-03 8.49821698e-03
      -2.66577234e-03 -6.38563000e-03 1.50014879e-02 8.71193409e-03
      2.71057477e-03 3.15991486e-03 3.87247594e-04 3.91433528e-03
      9.30228329e-04 -7.01206503e-03 2.50081322e-03 -1.73439318e-03
      1.45133620e-03 -5.29934128e-04 -4.05896129e-03 -2.58608081e-04
      -3.06611182e-04 -2.24148505e-03 -8.92923959e-03 -3.06961802e-03
      -6.35549519e-03 -5.18664625e-03 -9.96644143e-03 -4.69247764e-03
      7.06902752e-03 -2.48102401e-03 9.09105781e-03 -2.74553685e-03
      1.76001666e-03 1.26373647e-02 2.16747145e-03 -1.28858490e-03
      -1.83020122e-04 2.08037370e-03 7.10449275e-03 -2.05846876e-03
      -4.25293762e-03 1.58805703e-03 1.01160993e-04 2.15104362e-03
      -1.46682775e-02 -4.36702714e-04 9.42288316e-05 -2.72181886e-03
      6.47353940e-04 -6.59010094e-03 -8.92740861e-03 -3.56033701e-03
      -2.96932668e-03 -9.63645149e-03 1.40676828e-04 4.35041869e-03
      5.59800654e-04 6.54752273e-03 -2.98453751e-03 -3.44010117e-03
      4.24454265e-05 2.39080610e-03 5.64079778e-03 7.64275246e-05
      5.66235336e-04 7.75772985e-03 2.97409220e-04 2.95678794e-04
      7.82557472e-04 -1.42295472e-03 2.22965959e-03 -1.01998150e-02
      2.52432213e-03 5.26902499e-04 -4.39502299e-03 8.33565078e-04
      -1.00378720e-02 -2.46813684e-03 2.79230741e-03 -1.29777531e-04
      6.56226277e-03 -4.22250945e-03 -3.66927683e-03 -2.25387840e-03
      4.10441216e-03 3.93879949e-04 4.17151675e-03 6.04243297e-03
      3.77438171e-03 2.76137725e-03 3.43588786e-03 -1.67363568e-03
      4.31597838e-03 3.59339896e-03 -6.54380256e-03 3.77114583e-03
      8.43188073e-03 8.75985622e-03 -4.63681016e-03 8.24746583e-03
      8.27150978e-03 8.78229551e-03 -4.79796639e-04 -1.14840381e-02
      -2.34977133e-03 4.05474380e-03 -4.27949382e-03 -3.76317184e-03
      -1.36194210e-02 -2.51847948e-03 -6.28415309e-03 4.29707626e-03
      -1.93830824e-03 3.41782253e-03 1.36197812e-03 9.97718424e-03
      -6.36796746e-03 -8.80187191e-03 -2.56338413e-03 7.50270486e-03
      3.28470347e-03 -4.52519162e-03 2.46253447e-03 5.04747685e-03
      1.53453043e-03 3.00186430e-03 3.13814846e-03 5.43283345e-03
      1.07612284e-02 3.63919628e-03 -4.49401094e-03 3.15415347e-03
      5.33287972e-03 1.37266901e-03 3.37676937e-03 -1.51882810e-03
      -7.37766735e-04 1.24108708e-02 2.21138820e-03 -2.53386633e-03
      3.19485832e-03 8.99826270e-03 9.23685543e-03 -2.45163403e-03
      -2.63735396e-03 -4.75701317e-03 8.09815130e-04 1.37019996e-03
      -7.02446792e-03 -6.06118841e-03 1.25042908e-02 8.83689430e-03
      -2.82929349e-03 -2.93773692e-03 -7.56920874e-03 -1.48579234e-03
      5.41454833e-03 4.53093729e-04 1.91594311e-03 -1.36043900e-03
      1.42003037e-03 -1.77136587e-03 -6.44099060e-03 -2.57695722e-03
      9.26251896e-03 7.85282720e-03 2.62797083e-04 -1.73517992e-03
      -2.46573170e-03 -2.67834193e-03 -4.95713577e-03 -1.13593899e-02
      -7.13880640e-03 3.64978355e-03 7.15699745e-03 -7.28790415e-04
      -7.64584914e-03 8.17424431e-03 7.50601385e-03 -4.87394689e-04
      -7.29853567e-03 -7.88462535e-03 7.76500301e-03 6.80403179e-03
      7.40038638e-04 -4.48799133e-03 -1.35337771e-03 -1.56333297e-03
      -5.04482770e-04 -7.07506016e-03 -9.05388966e-03 9.66881029e-03
      3.79718491e-04 -3.45915556e-03 -5.51098958e-03 -4.56412276e-03
      -3.87008232e-03 4.00830852e-03 3.91644862e-04 -5.80513850e-03
      -2.66442075e-03 2.78540235e-03 -4.33354732e-03 2.97382125e-03
      4.52637585e-04 1.54574576e-03 2.49631866e-03 4.03157016e-03
      5.35582704e-03 -5.52911963e-03 4.19408735e-03 2.23335088e-03
      9.80179357e-06 1.20808044e-03 -3.61023401e-03 2.31641158e-03
      -3.43120657e-04 -6.83578337e-03 -1.80983078e-03 5.13540860e-03
      -4.79258713e-04 -1.35782204e-04 1.23595204e-02 8.50556593e-04
      5.87799307e-03 7.57742580e-03 1.45887060e-03 3.97829991e-03
      -3.64466524e-03 -4.64015221e-03 -4.36055707e-04 8.34865216e-03
      -4.13229027e-05 8.46340612e-04 7.19079908e-05 3.10804509e-03
      -3.94311780e-03 -9.36531578e-04 -6.27221493e-03 1.15499040e-03
      3.22517008e-03 1.33972417e-03 4.72142780e-03 -3.34389252e-03
      2.61431001e-03 4.27193474e-03 2.90463166e-03 -7.27684563e-03
      -8.77285749e-03 1.23791201e-02 8.15107895e-04 1.88781077e-03
      3.63496086e-03 -2.56978325e-03 6.07943453e-04 8.11681151e-03
      -5.05451625e-03 -2.32623820e-03 8.22132360e-03 7.83097092e-03
      -2.04621535e-03 1.60689407e-04 6.48818072e-03 7.48776598e-03
      -1.80987921e-03 -8.99399724e-03 -6.21581625e-04 1.47094612e-03
      5.22472616e-03 -5.06160362e-03 1.16681587e-03 4.77781240e-03
      4.24874073e-04 8.37986451e-03 1.62419929e-05 3.89029249e-03
      7.76589103e-03 4.31618700e-03 -4.50878125e-03 1.90062274e-03
      -4.03355528e-03 1.17855403e-03 9.33056697e-03 -3.44898785e-03
      4.93439520e-03 3.89457121e-03 2.00643716e-03 -9.14491434e-03
      -2.96043069e-03 1.64432323e-03 9.35518648e-03 8.13505054e-03
      3.61313554e-03 9.42202378e-03 1.39788399e-02 2.16347049e-04
      -1.09728249e-02 -1.02351941e-02 -7.75153888e-03 9.48274415e-03
      3.28550325e-03 6.31962111e-03 -3.51366820e-03 -8.99992418e-03
      -9.66752227e-03 -7.79489614e-03 4.32846555e-03 -9.74222610e-04
      9.23555251e-03 1.18335837e-03 2.62156129e-03 5.61586302e-03
      -6.51807152e-03 -3.89664457e-03 -1.32290218e-02 1.26114080e-03
      -1.55010121e-03 -8.95855541e-04 1.62522541e-03 2.18341732e-03
      4.67742095e-04 -3.95926787e-03 -4.07435204e-04 -7.79274385e-03
      -9.75283212e-04 -5.04328590e-03 1.79320539e-03 6.92670792e-03
      8.01030453e-03 3.34050646e-03 -2.45165266e-03 9.63188708e-03
      -9.81114525e-03 -1.09939894e-03 -1.14750750e-02 5.26492763e-03
      -2.00892729e-03 -2.34655198e-03 4.12257668e-03 -1.76595047e-03
      4.27139224e-03 2.94115581e-03 6.44620648e-03 3.51508334e-03
      -4.58510965e-03 -1.22586079e-02 -9.10064764e-03 -9.53106396e-03
      -7.99599104e-03 1.70496164e-03 7.57785747e-03 8.97720829e-03
      -3.40693607e-03 -1.00731459e-02 2.26027472e-03 5.88283082e-03
      1.17497100e-03 -1.51229079e-03 7.71248247e-03 6.41023042e-03
      9.29512922e-03 -2.45280005e-03 3.98265372e-04 -6.59670262e-03
      -1.12113054e-03 -3.22352716e-04 1.71908556e-04 8.44844617e-03
      7.87183363e-03 1.63604412e-03 -1.53578306e-03 -6.41576340e-03
      -7.16212019e-03 -4.48928867e-03 -1.26370136e-03 -4.23764717e-03
      -7.88356084e-03 -4.73370339e-04 5.89591824e-03 -3.57463537e-03
      -4.15046606e-03 5.49571763e-04 1.69314723e-03 9.94237233e-03
      2.36853422e-03 -7.93932192e-03 3.58991115e-03 1.02913203e-02
      8.26009724e-04 6.31172070e-03 -2.49824277e-03 -1.70180734e-04
      2.00178730e-03 -2.55395169e-03 -1.69866369e-03 3.07064597e-03
      -2.29222048e-03 -3.43994214e-03 4.18777624e-03 2.64614285e-03
      7.78930204e-04 1.30811175e-02 3.19040008e-03 -1.96467550e-03
      6.46722876e-03 4.71027801e-03 -2.36305129e-03 5.30388439e-03
      1.03244500e-03 2.54995492e-03 9.32645053e-03 -6.34317379e-03
      -9.50777903e-03 -8.48351233e-03 6.16068020e-03 9.30907554e-04
      2.20618723e-03 3.99344834e-03 -6.56768389e-04 5.84505219e-03
      2.96517072e-04 3.48850177e-03 -3.76748532e-04 9.01239924e-03
      -1.82559760e-03 1.44540332e-03 -1.82641277e-04 -5.22770977e-04
      1.17031299e-02 -7.63486139e-03 -1.19201848e-02 -1.46623934e-02
      -6.90616388e-03 -4.96755773e-03 1.16455404e-03 -2.16478226e-03
      -7.87634286e-04 4.88837296e-03 -4.42963466e-03 -3.13314318e-04
      -1.56121480e-03 5.16909361e-03 -7.58769782e-03 -1.49646413e-03
      3.27728665e-03 -7.42265815e-03 8.96315556e-04 -8.82842112e-03
      -1.88634254e-03 -4.98369429e-03 7.42939860e-03 2.50412268e-04
      5.42862294e-03 -1.18800637e-03 -7.09701283e-03 -3.90270445e-03
      -8.65135249e-03 3.80546809e-03 2.36348994e-03 1.20008243e-02
      7.54242809e-03 4.87793609e-03 -2.88311648e-03 -7.79659394e-03
      1.47529517e-03 -1.02778794e-02 -7.48734036e-03 -7.41126854e-03
      3.46836075e-03 -3.34375916e-04 1.57564215e-03 -4.24867700e-04
      -4.65375977e-03 3.29378434e-03 -8.95708799e-03 3.06293114e-05
      -4.01245430e-03 9.06530023e-03 3.04973358e-03 1.55443337e-03
      -6.97382260e-04 -4.62576933e-03 9.04660206e-03 -3.36851459e-03
      2.62202160e-03 2.15430837e-03 1.56983212e-02 8.85717478e-03
      4.59219702e-03 -2.33341023e-04 -1.17406677e-02 8.86881258e-03
      -4.14381269e-04 7.43710343e-03 -8.49183556e-03 5.21995872e-03
      -1.05133327e-03 4.31416882e-03 -2.24589068e-03 -6.73462776e-03
      1.04218423e-02 4.71744826e-03 7.56893132e-04 -4.18654922e-03
      5.39129134e-03 3.54960700e-03 1.58370251e-03 -3.28632072e-03
      -1.89069789e-02 -4.32739733e-03 2.77785980e-03 2.63360143e-03
      -5.91939921e-03 -7.55175482e-03 -6.66534621e-03 -2.09196005e-04
      5.63336164e-03 -2.87470664e-03 3.74261104e-03 8.76651797e-03
      4.31921752e-03 -3.26853245e-04 6.08256925e-03 -6.22413878e-04
      5.77935437e-03 3.35319713e-03 -2.45589181e-03 -2.28521251e-03
      9.44396574e-03 7.97669636e-04 2.91734608e-03 3.97210754e-03
      5.71270706e-03 3.35014658e-03 6.63323037e-04 -1.01353144e-02
      -3.05436231e-04 6.06977334e-03 3.75166419e-03 -3.39875900e-04
      -7.25464383e-03 -3.26476595e-03 -9.13858006e-04 -7.34873861e-03
      1.54724612e-03 1.18200760e-03 -4.67916572e-04 -6.32351451e-03
      -6.46705041e-03 -2.32139626e-03 4.76914458e-03 -5.36740571e-03
      1.17912218e-02 -2.00634077e-03 -3.25906463e-03 1.48094282e-03
      -9.15863737e-03 -1.37075281e-03 1.54459686e-03 5.35372971e-03
      6.98026130e-03 4.18383023e-03 -2.70190043e-03 -5.27000939e-03
      -9.80685349e-04 9.74760274e-04 -1.04540549e-02 -4.24575899e-03
      -4.66898596e-03 -1.78198982e-03 7.73827732e-03 3.63625493e-03
      3.98105523e-03 -2.71103671e-03 -1.26000736e-02 -3.47657432e-03
      6.62579387e-03 3.11596808e-03 3.92098213e-03 5.14224079e-03
      3.51430941e-03 -4.60227020e-03 1.02785463e-03 6.67440193e-03
      -2.54666060e-03 -5.08058351e-04 -4.10171831e-03 7.01380800e-03
      -5.04369149e-04 4.56163380e-03 -1.97956106e-03 2.36405060e-03
      9.36141890e-03 -3.50835663e-03 -3.62383272e-03 -4.75241523e-03
      -4.93041193e-03 -3.63040337e-04 -9.80001129e-03 -3.98699753e-03
      5.98593662e-03 5.45866648e-03 4.34522610e-03 -5.93805220e-04
      1.14219426e-03 -1.10451737e-03 -7.25375896e-04 -3.89598147e-03
      -5.47737535e-03 6.92721037e-03 9.63028707e-03 -3.31876962e-03
      -1.08760595e-03 9.07350855e-04 3.53114051e-03 -1.63567276e-03
      -1.72738209e-02 -3.92367365e-03 8.59831739e-03 3.27333482e-03
      -2.33969395e-03 -7.21658987e-04 5.42179076e-03 5.12671936e-03
      2.52857618e-03 -1.37163820e-02 -6.18167594e-03 3.89871025e-03
      -3.04550468e-03 -3.89619963e-03 -5.57705527e-03 5.76881983e-04
      1.65826117e-03 1.19786523e-02 9.14945966e-04 -1.93940592e-03
      8.19586043e-04 9.70111415e-03 -3.91853362e-04 -2.90394551e-03
      -6.92196144e-03 7.01947883e-03 4.15521068e-03 -1.08522605e-02
      -1.09573928e-04 2.10188795e-03 5.31222438e-03 -4.63371398e-03
      1.34815718e-03 3.76559189e-03 5.15893428e-03 8.63749254e-03
      2.96726078e-03 -1.85650936e-03 -3.45908175e-03 4.90753585e-03
      6.51800958e-03 1.77371409e-03 -8.88759177e-03 3.76226380e-03
      1.41714113e-02 7.48542603e-03 -5.82830980e-03 3.06079804e-04
      7.19568180e-03 3.39236949e-03 2.24015210e-03 -4.96995123e-03
      5.60023915e-03 4.19671321e-03 -1.77304307e-03 -8.16812739e-03
      5.63380960e-03 5.03366953e-03 -1.51888293e-03 -4.91862977e-03
      -1.17671164e-02 -3.70913278e-03 1.30515033e-02 6.19877595e-03
      -1.50695238e-02 -3.24053969e-03 4.49604297e-04 5.74315200e-03
      1.28758082e-03 -3.71141592e-03 1.10568814e-02 7.53985485e-03
      -2.85441778e-03 -1.35553358e-02 -1.37187180e-03 -1.34709186e-03
      8.68768257e-04 -3.90039990e-03 1.80466834e-03 6.06657704e-03
      4.54813708e-03 -2.02609590e-04 -2.30756542e-03 3.04822437e-03
      5.48639987e-03 3.22473701e-03 -8.41325708e-03 -1.09527810e-02
      5.70043176e-03 1.02359205e-02 1.91698072e-03 -2.04166630e-03
      -1.12898349e-04 1.24228513e-03 4.11545159e-03 1.93437177e-03
      9.16250283e-04 7.64034921e-03 1.20749825e-03 7.03979575e-04
      1.52801478e-03 -1.39749912e-03 -2.51696166e-03 -5.94399450e-03
      -1.40903972e-03 2.99443025e-03 3.24777560e-03 6.99998811e-03
      6.66941982e-03 3.58553603e-03 4.08417050e-04 4.18271869e-03
      -1.78342481e-04 2.73589417e-03 8.00825562e-03 4.65998938e-03
      2.92060338e-03 -1.92861655e-03 3.37386085e-03 1.20154128e-03
      -4.64196026e-04 -4.30401927e-03 -4.69019217e-03 -4.67779022e-03
      -3.60526843e-03 4.24285280e-03 4.71072737e-03 6.98785484e-03
      1.30956369e-02 1.25393315e-04 -1.59596722e-03 -2.71733431e-03
      -3.46484268e-03 4.38022101e-03 7.44852144e-03 6.92293921e-04
      2.18941504e-03 6.30847830e-03 3.56183993e-03 -7.28132785e-04
      -4.12002951e-03 -5.55061921e-03 -1.18791021e-03 1.36259831e-02
      8.64446908e-03 1.10802352e-02 1.10487752e-02 4.02375916e-03
      5.35550062e-03 -2.92527792e-03 -5.27125457e-03 3.05777858e-03
      -3.08789685e-03 -3.60830710e-03 -2.48321425e-03 8.85291118e-03
      -9.82348691e-04 1.75462384e-03 2.16484512e-03 -7.02108769e-03
      1.01348059e-03 1.02549661e-02 -1.42708735e-03 -5.56391291e-03
      7.26193935e-03 5.10912156e-03 -4.39314079e-03 -7.79756112e-04
      -2.02296698e-03 1.78885448e-03 6.49115350e-03 -2.25243997e-03
      4.48762113e-03 3.44699388e-03 -2.24149087e-03 -9.11832729e-04
      1.50752335e-03 -6.79598609e-03 -2.30075349e-03 1.39262164e-02
      6.33241236e-03 2.63430318e-03 1.08745345e-03 4.71652066e-03
      -4.49394621e-03 -5.08097745e-03 -3.92508646e-03 4.67889197e-03
      1.15824128e-02 2.38049240e-03 1.11795706e-03 6.01655163e-04
      3.81505699e-04 -5.45564340e-03 -7.61151128e-03 1.79247378e-04
      5.17673278e-03 8.83328542e-03 5.05611347e-03 4.83685452e-03
      6.21272717e-03 5.21180220e-03 -7.99415819e-03 -1.27712367e-02
      -2.75906967e-03 9.02563334e-03 8.78473464e-03 1.05250375e-02
      5.78457443e-03 -6.12091855e-04 -2.55934848e-03 -4.27724374e-03
      -4.96295141e-03 6.45042351e-03 8.34070332e-03 4.81215585e-03
      5.08136000e-04 -1.16595207e-03 -5.46675920e-03 3.53421969e-03
      -1.37119507e-03 -6.05401210e-03 3.58610274e-03 1.03138080e-02
      -2.19670637e-03 -5.15065156e-03 3.69392964e-03 -6.71279710e-03
      -7.66157312e-03 -7.75704626e-03 -2.87471944e-03 -8.61398038e-03
      -3.09904106e-03 -9.00662872e-06 1.28575834e-04 5.53757278e-03
      3.51560535e-03 1.52762188e-03 -7.73042534e-03 -4.21383837e-03
      -8.82533658e-03 7.84755801e-04 5.81565872e-03 -3.94444773e-03
      6.77535636e-03 9.38490906e-04 4.87264432e-03 -7.16875447e-03
      -1.60973857e-03 -6.33002119e-03 5.35703613e-04 5.87109616e-03
      -3.97720654e-03 8.97208601e-03 6.17289543e-03 4.51991474e-03
      -5.21404156e-03 1.65642978e-05 -4.66162851e-03 4.03903052e-03
      -3.03939101e-03 1.96749880e-03 5.99799259e-03 8.43930803e-03
      3.29488213e-03 2.36758846e-03 8.17067176e-03 -2.41066143e-03
      9.50407761e-04 -6.06623758e-03 -1.06223905e-03 -3.44878598e-03
      8.43441929e-04 -6.87460694e-03 -6.01676386e-03 1.15119887e-03
      3.22034233e-04 -4.13265079e-03 -1.03488448e-03 -2.44635693e-03
      3.19656869e-03 1.29828304e-02 2.20270408e-03 2.94428528e-03
      8.16454366e-03 8.99684906e-04 5.68298902e-03 -1.14390021e-03
      1.94442784e-03 -5.87616768e-03 -1.24712312e-03 -3.86617845e-03
      -4.48746141e-03 5.22552431e-03 5.02784085e-03 2.35415041e-03
      -7.09398242e-04 7.83921569e-04 -1.49784226e-03 1.16099429e-03
      -1.00809783e-02 -4.38141078e-03 -3.06855305e-03 -3.26193194e-03
      4.42752335e-03 -4.52688849e-03 -6.97006052e-03 5.73178660e-03
      5.51384920e-03 -7.53666135e-03 7.07337912e-03 -8.03345814e-04
      -7.38785788e-03 4.77843918e-04 3.32002202e-03 1.02987036e-03
      -2.83784280e-03 3.05416947e-03 -1.89336867e-03 -5.65166352e-03
      2.93149706e-03 7.39459507e-03 7.16109714e-03 -9.45495209e-04
      -1.07095586e-02 6.54256297e-03 1.54156657e-02 -5.60885528e-04
      3.82546638e-03 2.97396444e-03 -4.97288164e-03 2.62567797e-03
      -1.96023122e-03 -5.14942221e-03 1.03327790e-02 2.15867162e-03
      -1.09288068e-02 -4.05569980e-03 -5.83416410e-03 -1.98603538e-03
      1.60367519e-03 4.44663595e-03 4.65993246e-04 3.30160721e-03
      4.91413008e-03 -2.76149693e-03 2.43833149e-03 1.79829274e-03
      2.63748516e-04 1.91752042e-03 -5.27770666e-04 -9.45741311e-03
      5.48285083e-04 5.67219080e-03 -2.59100669e-03 -5.15573705e-03
      -2.69103982e-03 -2.40823417e-03 7.32498663e-03 4.10506409e-03
      -1.24663964e-03 -4.82306629e-03 -6.00609835e-03 -3.26578366e-03
      -5.86687820e-04 -4.19720542e-03 3.10715334e-03 5.22391777e-03
      7.22144917e-03 -2.40355870e-03 5.80200576e-04 -2.86657538e-04
      -1.35780068e-03 2.82512046e-03 4.07662243e-03 -4.63641773e-04
      3.49894166e-03 7.66279968e-03 6.91828085e-04 2.05338420e-03
      8.04858166e-04 4.60701389e-03 -3.36228870e-03 1.01132244e-02
      -2.63440213e-03 3.08871106e-03 3.32671520e-03 -8.31326842e-03
      -1.07537899e-02 -2.68791802e-03 -8.49733129e-04 -3.21259792e-03
      6.89708628e-03 1.94532902e-03 -1.97775476e-03 -7.93221407e-03
      -1.27612520e-02 -7.83768203e-03 -7.66763769e-05 7.73348147e-03
      -1.22920983e-02 2.12236401e-03 -4.63164831e-03 -5.19035617e-03
      5.07760188e-03 -1.70371938e-03 5.46325138e-03 7.89493416e-03
      1.42353389e-03 -1.30576384e-03 4.94401995e-03 -2.82923080e-04
      7.04596564e-03 1.83816999e-03 -1.45424455e-02 -2.65492871e-03
      2.65379902e-03 2.09688162e-03 -9.88295942e-05 -2.70452991e-04
      -5.02916868e-04 9.49888024e-03 -3.76041932e-03 -7.46994233e-03
      7.65485980e-04 7.58093875e-03 -2.01575132e-03 -1.26117812e-02
      7.99609290e-04 -7.32299779e-03 5.37078176e-03 2.40262761e-03
      -1.27127338e-02 1.13729562e-03 -1.04982208e-03 6.37469161e-03
      2.29065816e-04 4.49390709e-03 7.05445360e-04 2.85116537e-03
      -4.10642329e-04 -8.91804229e-03 -2.67954264e-03 1.53751601e-03
      -1.59448630e-03 1.22275343e-03 -5.91248786e-03 -1.46089529e-03
      -2.11574283e-04 2.06523691e-03 5.60242962e-03 3.31379822e-03
      -7.86922639e-04 -1.92679663e-03 -5.22502174e-04 -2.93523585e-03
      -1.62594568e-03 -4.97691240e-03 -1.43245712e-03 -4.79165744e-03
      -1.18399679e-04 2.41243886e-03 4.03772108e-03 -1.02187018e-03
      -4.21515806e-03 4.20281943e-03 -5.65091090e-04 -3.90467281e-03
      2.96602724e-04 -3.31211922e-04 8.70625675e-03 -1.92496111e-04
      -4.64663515e-03 -6.79809833e-03 -7.36065488e-03 -5.72877517e-03
      5.59387123e-03 4.22827760e-03 5.14488388e-03 5.61192445e-03
      -6.12323545e-03 -6.24497328e-03 1.57999352e-03 -3.24085727e-03
      -4.55414956e-05 2.84840120e-03 7.03375880e-03 -2.68694828e-03
      4.76857601e-03 8.99396138e-04 -5.17807435e-03 -1.01933628e-03
      1.42829271e-03 1.07385069e-02 9.56715885e-05 3.31181288e-03
      -7.51192274e-04 1.38494270e-02 3.04854871e-03 -6.80876756e-03
      -2.80376710e-03 -7.42284954e-03 -4.69894381e-03 9.04112181e-04
      8.74836172e-04 1.39689981e-03 8.43977835e-03 5.66146430e-03
      -5.29096555e-03 7.40598422e-04 4.21661697e-03 8.56464636e-03
      6.90361136e-04 7.78271991e-04 -1.53534798e-04 9.08367429e-03
      5.96423773e-03 -6.99555385e-05 -4.51238407e-03 1.94764137e-03
      1.12751564e-02 -1.72097032e-04 -4.91957460e-03 6.66513806e-04
      1.09814797e-02 -1.96663989e-03 -7.84988515e-03 -5.01697510e-03
      -2.30154386e-04 5.69256162e-03 8.10834172e-05 -2.63283867e-03
      1.93319528e-03 3.35379853e-03 1.75912399e-03 -1.48669956e-03
      1.65972218e-03 7.42593734e-03 1.20674241e-02 -1.00652513e-03
      -1.01491706e-02 -5.39588183e-03 -1.91300432e-03 1.16723485e-03
      -4.95712087e-03 -5.14546409e-03 -4.51320928e-04 2.36954726e-03
      9.29555914e-04 -1.39097357e-03 2.32784590e-03 6.88935071e-03
      3.22600151e-03 -5.30379219e-03 6.45431282e-04 6.53447350e-04
      2.23722239e-03 7.95952103e-04 9.11652867e-04 2.19555455e-03
      -6.72079565e-04 7.55174691e-03 3.24349618e-03 -9.36833560e-04
      -5.69327828e-03 3.14674992e-03 1.19479396e-03 -1.57673680e-03
      3.37245176e-03 8.16868444e-04 1.75541034e-03 -6.95385411e-03
      -3.11065139e-03 -3.62483831e-03 -1.16177334e-03 -1.28571945e-03
      -2.32625240e-03 -5.16088970e-04 -2.68072169e-03 7.28574116e-04
      -5.87248988e-03 8.16450862e-04 -4.95210849e-03 -1.96991581e-03
      4.69032954e-03 1.41226989e-03 -4.27159434e-03 -1.23622781e-03
      -2.77107488e-03 7.94446561e-03 2.86923023e-03 -4.30095010e-03
      7.08993291e-03 4.13017813e-04 -2.59901211e-03 -5.72046032e-03
      -3.79363867e-03 -2.88399821e-03 3.32234171e-03 -2.89041619e-03
      2.62501324e-03 1.53663638e-03 6.65777712e-04 -2.02618702e-03
      -3.62719805e-03 -5.56612096e-04 5.02304314e-03 1.05859684e-02
      4.43462841e-03 -4.78570862e-03 1.51820842e-03 6.04148163e-03
      1.16786985e-04 -4.51282971e-03 -3.94685473e-03 4.67794761e-03
      4.64969967e-03 -6.37470046e-03 -3.93858273e-03 4.89856349e-03
      -2.02254232e-04 1.67036997e-04 6.28212816e-04 -1.53767236e-03
      -3.29578412e-03 2.90302583e-03 -8.56741215e-04 1.01212589e-02
      -9.52697184e-04 3.59969563e-03 2.85621476e-03 2.32835696e-03
      2.47320929e-03 1.40701467e-03 7.51199247e-03 5.40132821e-03
      1.10179866e-02 4.10398608e-03 3.38426954e-03 1.64588063e-03
      2.13650544e-03 -1.00813033e-02 5.21103432e-03 6.59538107e-03
      -8.61811684e-04 1.06013368e-03 5.08235535e-03 -1.22795999e-03
      4.45804297e-04 4.17838246e-03 -5.22105256e-03 1.51997840e-03
      1.12391636e-02 5.62345376e-03 1.31100486e-03 5.27955033e-03
      1.85106369e-03 -2.11795326e-03 -1.62334915e-03 -7.19868985e-04
      -2.05507805e-03 1.75995822e-03 5.58338710e-04 -3.43861664e-03
      -1.35838205e-03 1.09029775e-02 4.10709437e-03 5.38652064e-03
      3.55158676e-03 6.45761890e-03 3.46983550e-03 -1.14845950e-03
      -4.78494726e-03 1.97671447e-03 -2.18183326e-04 -5.07926056e-03
      -8.86784226e-04 -5.12988400e-03 2.28427793e-03 1.73191447e-03
      -4.28114814e-04 -3.37051251e-03 1.92352082e-03 5.75865619e-03
      2.17100233e-03 1.98721397e-03 3.37465061e-03 1.09841838e-03
      6.03891537e-03 4.12642211e-03 -2.35778000e-03 3.80338961e-03
      5.64413099e-03 -3.74192419e-03 3.62680621e-05 -3.32895806e-03
      2.86606082e-04 -4.43667360e-03 1.85822428e-03 -1.12474873e-03
      -3.79125052e-03 6.09188620e-03 1.80055469e-03 2.77998392e-04
      -1.08368404e-03 1.59166707e-03 -3.22337099e-03 -1.16365950e-03
      -3.09939584e-04 -1.12148910e-03 6.68609515e-04 3.18544847e-03
      1.16338581e-03 -4.49388521e-03 1.79827679e-03 -2.42493860e-03
      -8.00278096e-04 -3.78677016e-03 -6.04046462e-03 -6.93964830e-04
      3.37897707e-03 4.15194593e-03 1.15246873e-03 -3.10359662e-03
      -3.68417567e-03 5.34377992e-03 1.94933882e-03 -4.73890128e-03
      7.41729513e-03 -3.44901287e-04 3.88447917e-03 1.15432683e-03
      -4.28788504e-03 -8.11677077e-04 1.47006824e-03 2.43413425e-03
      -1.81201892e-03 4.31830157e-03 -6.98561454e-03 2.07493012e-03
      -5.02988975e-03 -2.85879662e-03 -1.57764577e-03 -3.37290257e-04
      4.37193224e-03 1.28142466e-03 3.51698790e-03 -4.62287484e-04
      2.90704169e-03 9.11251549e-03 1.52116979e-03 3.98809882e-03
      6.29166514e-03 4.34385054e-03 -2.81843799e-03 4.98498091e-03
      -2.22445326e-03 5.48378192e-03 7.49829318e-03 1.08935405e-04
      6.05893496e-04 -2.39325687e-03 3.87304369e-03 -3.29232472e-03
      1.16008483e-02 8.61358247e-04 7.92458374e-03 4.66474425e-03
      1.59841124e-03 -2.81826220e-03 3.44923325e-03 -2.77039711e-03
      6.29349286e-03 7.19275558e-03 -8.49285978e-04 3.65564483e-03
      -4.00295621e-03 -4.35137236e-03 -3.88695695e-03 9.41163115e-03
      2.77357129e-03 7.08106067e-03 2.02791765e-03 -5.69695327e-03
      4.91798250e-03 -3.57674062e-03 -1.60402292e-03 -3.61529901e-03
      1.24753024e-02 -7.65362848e-03 3.95104894e-03 2.14757794e-03
      -7.75918073e-04 3.54233361e-03 -1.85067598e-02 -6.48999913e-03
      -8.10763985e-03 3.98569461e-03 -5.29359560e-03 7.07386201e-03
      1.72768126e-03 -2.05918401e-03 -2.47077318e-03 4.81098378e-03
      -6.85039768e-03 2.98094732e-04 2.35825474e-03 -4.41772537e-03
      4.41748556e-03 2.87829596e-03 -2.35483586e-03 1.11242989e-03
      -6.29290706e-04 -3.95698240e-03 -6.80345763e-03 3.25075863e-03
      6.84794795e-04 8.52120575e-03 1.42370164e-03 1.42989983e-03
      -6.19788328e-03 3.97756882e-03 -3.54280951e-03 -5.98662859e-03
      8.03426665e-05 -1.05199739e-02 3.43392999e-03 2.90665310e-03
      -1.70368864e-03 -7.02261552e-03 -2.82626745e-04 7.24718720e-03
      -9.96184722e-03 7.58409093e-04 -8.19394365e-03 5.65891713e-03
      3.95411800e-04 -4.95245680e-03 -3.01052560e-03 6.49661641e-04
      -3.70994280e-03 -2.18215538e-03 4.51238779e-03 2.63472646e-03
      7.31653301e-03 1.28348905e-03 -6.10316265e-03 1.19222200e-03
      4.26726975e-03 -5.41183725e-03 4.42271773e-03 9.94093530e-03
      -1.79581938e-03 6.17040973e-03 9.04734363e-04 -2.20720703e-03
      -4.67800302e-03 -2.29524705e-03 -3.02551198e-03 2.87196692e-03
      4.29587299e-03 -4.07164637e-03 7.53907114e-03 -2.94073197e-05
      -2.62631266e-03 1.17767625e-03 -8.14421196e-03 -6.00141892e-03
      6.81267073e-03 1.11737503e-02 -5.55904396e-03 1.96456723e-03
      6.82457874e-04 -4.50970093e-03 2.48470390e-03 3.36398114e-03
      -3.10634589e-03 -1.99650228e-03 6.15832768e-03 1.48085746e-04
      8.60171765e-03 -1.03259899e-05 -6.86453015e-04 -1.67099549e-03
      -7.90038332e-03 -5.39878476e-03 -8.19064502e-04 6.47186022e-03
      7.33767962e-03 6.31810958e-03 3.58497840e-03 -2.93322373e-03
      5.24960808e-04 -8.98945332e-03 -4.06312943e-03 -1.08764097e-02
      4.31896094e-03 -6.05542387e-04 -4.43358527e-04 -1.58174394e-03
      -3.39133292e-03 4.69672307e-03 -4.59248200e-03 -6.56617573e-03
      -4.60585998e-03 2.85971421e-03 3.16706765e-03 6.65287441e-03
      2.68426212e-03 -3.31617356e-03 -9.87032894e-04 -1.69048598e-03
      -5.36299217e-03 -1.46338181e-03 1.05832396e-02 5.18233748e-03
      2.63840752e-03 -4.69262304e-04 -9.75080393e-03 -1.01661950e-03
      -1.94165259e-04 -1.93360879e-03 -1.13952318e-02 3.34180077e-04
      -5.57198469e-03 -1.60354795e-03 2.44127936e-03 -6.28545275e-03
      1.10019697e-03 -1.59686024e-03 -3.52849136e-03 -1.53155171e-03
      7.19244732e-03 7.40900030e-03 4.55931062e-03 4.03200462e-03
      -9.41657275e-03 -2.60980427e-03 -5.19755157e-03 2.73565110e-03
      -6.96656667e-03 2.59228214e-03 3.44731542e-03 4.19639051e-03
      3.75076849e-03 -8.51636566e-03 7.88750034e-03 1.08657684e-02
      -9.97458585e-03 -7.63891079e-03 -5.00741787e-03 -8.21385905e-03
      4.24687052e-03 4.18657204e-03 -4.87608276e-03 6.33205427e-03
      7.68750720e-03 -7.14222109e-03 3.36996093e-03 6.50897436e-03
      -4.74120141e-04 -1.42873975e-03 -8.34474922e-04 -5.02329925e-03
      8.13030347e-04 -3.64381773e-03 -6.47665840e-03 -2.91880290e-03
      3.60908126e-03 -1.84661464e-03 2.05187476e-03 -2.82285083e-03
      -7.14077242e-03 6.62862370e-03 5.64239221e-04 -3.49374604e-03
      -2.00033755e-04 1.01831520e-03 3.44329746e-04 -5.69000980e-03
      8.14180996e-04 -1.38157967e-03 2.73924251e-03 3.51385516e-03
      -7.49812135e-03 2.77658715e-03 1.65844103e-03 2.26941449e-03
      -1.88132486e-04 -1.70843879e-04 -2.43141945e-03 1.91661785e-03
      5.43726236e-03 3.69371939e-03 3.47448536e-03 8.83214525e-04
      6.97012234e-04 2.46996409e-03 2.11152993e-03 -9.59760696e-03
      -3.44931148e-03 6.13166776e-04 -4.66742599e-03 -2.99614831e-03
      -4.08645859e-03 -1.73608295e-03 -2.27337354e-03 -1.27475220e-03
      -9.56456270e-03 -4.40680934e-03 -8.97619221e-03 4.33689868e-03
      -1.88187591e-03 -6.27224194e-03 -1.67322622e-04 2.82506319e-03
      3.92427715e-03 3.72748356e-03 3.35566374e-03 1.05214603e-02
      6.07431866e-03 2.54930509e-03 5.34074521e-03 -2.03224597e-03
      3.15073435e-03 7.16645736e-04 -4.42115730e-03 6.53651485e-04
      8.20214581e-03 -2.78993999e-03 -9.66280873e-04 8.11185408e-03
      5.09624882e-03 6.26677275e-03 4.02865512e-03 6.22931293e-06
      -8.75524827e-04 2.06700992e-03 1.80168392e-03 -2.65795598e-03
      -4.70743864e-04 -3.12098139e-03 6.35087211e-03 -3.79813428e-04
      -1.36148762e-02 -9.33477841e-03 1.50841579e-03 -2.20856536e-03
      -6.27021305e-03 4.43208730e-04 -1.64241018e-03 -5.35607251e-05
      -2.85325316e-03 -7.99812190e-03 -6.41279970e-04 2.83292984e-03
      1.70211971e-03 -2.21581990e-03 6.90844329e-03 2.96609011e-03
      7.95282982e-03 -5.11185359e-03 -5.85178519e-03 2.01004231e-03
      -1.45976129e-03 5.15378965e-03 6.28868444e-03 -8.75378435e-04
      4.01772838e-03 9.27034486e-03 4.83108946e-04 -1.11297173e-02
      6.22184161e-05 7.44346762e-03 6.39017532e-03 -5.23302180e-04
      1.70901971e-04 1.53401203e-03 4.38689860e-03 -4.84808953e-03
      -4.61043790e-03 9.72242001e-03 7.98086263e-03 1.04229348e-02
      7.30265165e-03 -7.17986142e-03 2.75960565e-03 6.30655140e-03
      -2.73552095e-03 -4.59058385e-04 3.61400307e-03 1.39768748e-03
      -2.91470042e-03 1.92426506e-03 -7.05541624e-03 -4.55773639e-04
      5.89695247e-03 2.37080455e-03 2.07129007e-04 2.41302210e-03
      -6.87522441e-03 -3.24822176e-04 -4.41148784e-03 1.44703931e-03
      -1.80070475e-03 2.25480879e-03 2.49659596e-03 3.15274415e-03
      3.28355539e-03 5.69705991e-03 -9.74361610e-04 8.59358988e-04
      5.21667476e-04 4.76053078e-03 1.99954771e-03 8.35767202e-03
      -2.87808129e-03 4.95638372e-03 -7.69736851e-03 1.69409241e-03
      1.24912697e-03 3.97065654e-03 -2.53475955e-05 1.27064879e-03
      4.57744673e-03 -5.38607826e-03 -3.52478749e-03 -8.70684255e-03
      2.06325133e-03 8.51569045e-03 9.22505092e-03 -1.54279856e-04
      1.20364630e-03 7.20773218e-03 -3.45397298e-03 -4.29162383e-03
      -9.34359524e-03 1.04286550e-02 1.06679667e-02 1.81449228e-03
      -6.83856336e-03 5.87740168e-03 2.90011801e-03 -5.12615778e-03
      6.15610601e-03 1.40552165e-03 -2.54701287e-03 3.09843966e-03
      3.84378503e-03 -2.67703831e-03 1.26573187e-03 -8.06376524e-03
      -4.72424552e-03 5.81661472e-04 2.32943357e-03 7.97853898e-03
      3.54410522e-03 1.71794242e-03 -2.35972507e-03 5.50711295e-03
      5.10364771e-03 2.71953642e-03 -6.46418007e-03 -1.35804424e-02
      7.60837598e-03 4.57087206e-03 4.08807350e-03 -4.50218702e-03
      6.52342103e-03 -3.02327774e-03 9.22720530e-04 1.74520875e-03
      -2.26740679e-03 5.57299983e-03 1.00519881e-02 4.86433459e-03
      -4.10867156e-03 4.38643806e-03 -7.25262100e-03 -3.58453998e-03
      -2.39991467e-03 -4.54762159e-03 4.52363770e-03 3.64848622e-03
      2.29454320e-03 -4.24625631e-03 4.66462970e-03 -6.80891518e-03
      3.10566253e-03 2.03820970e-03 1.75862294e-03 2.24508950e-03
      1.30986618e-02 8.08257610e-03 -6.08418090e-03 6.68187765e-03
      -4.93596680e-03 -3.99458251e-04 5.01217972e-03 1.33054005e-03
      -1.77223585e-03 3.12322075e-03 -5.53658558e-03 -9.12008248e-03
      -2.82666297e-03 2.08628667e-03 9.12882970e-04 7.26098288e-03
      4.98719513e-04 -2.96456693e-03 6.18154090e-03 4.06314526e-03
      -2.35525123e-03 3.31105455e-03 -1.05523951e-02 5.03551355e-03
      3.42234364e-03 7.55612913e-04 -6.26274559e-04 6.11774391e-03
      -2.87159905e-03 -4.64584073e-03 -7.76164467e-03 1.67562743e-03
      1.67414127e-03 3.71896219e-03 -1.33346370e-03 -4.26127715e-03
      4.73486306e-03 -5.80677530e-04 -1.27706595e-03 -6.61357492e-03
      1.79481308e-03 1.05493920e-04 -1.32087339e-03 -5.73206553e-03
      4.49714134e-04 -3.85272340e-03 1.12137175e-04 -1.54127262e-03
      -1.79380411e-03 -2.91831279e-03 2.00908631e-03 -3.14639445e-04
      4.94051538e-03 -8.82622087e-04 1.92240637e-03 3.69422021e-03
      3.14402184e-03 -2.21962249e-03 4.12543863e-03 -1.85911835e-03
      -2.86595500e-03 -1.15806877e-03 -2.05483241e-03 -2.50854716e-03
      -2.52689375e-03 3.53607931e-03 -3.83531046e-03 -2.21047856e-04
      -2.21799966e-03 -4.05060966e-03 3.49572627e-03 4.89709293e-03
      6.45081652e-03 2.29189638e-03 4.02043853e-03 1.50819262e-03
      -4.17738222e-03 -1.89348205e-03 -3.28905066e-04 6.57295948e-03
      -1.78647193e-03 9.65043623e-03 5.68556460e-03 7.77701288e-03
      -2.38699722e-03 8.60600441e-04 9.72880889e-03 5.27163642e-03
      6.40913425e-03 -6.08858233e-03 1.73692766e-03 -7.62236351e-03
      -3.91636742e-03 -2.61420477e-03 -3.99427256e-03 -5.16218599e-03
      -5.02367038e-03 5.59903099e-04 1.88395934e-04 6.63311873e-03
      2.40203156e-03 3.99155339e-04 -3.63785401e-03 1.72397157e-03
      5.24022710e-03 -4.27379925e-03 1.64569158e-03 -7.71008618e-03
      4.08390211e-03 -2.12388975e-03 -8.14795215e-03 -5.07048517e-03
      -6.53891126e-03 -5.45689557e-03 2.69103423e-03 -6.86016027e-03
      2.84289301e-04 2.35370174e-03 9.71399434e-03 -4.47734632e-03
      2.09387532e-03 2.15207203e-03 -1.02114945e-03 3.25189414e-03
      -6.48834230e-03 -7.15709932e-04 -4.35681548e-03 6.56822522e-04
      -9.30074137e-03 8.10770877e-03 2.57885666e-04 2.62314710e-03
      -3.84209468e-03 -1.25810038e-02 1.53698586e-03 -1.36077148e-03
      3.65974236e-04 3.26868868e-03 7.11509027e-03 3.50869563e-03
      4.15718229e-03 -3.55029665e-03 -7.50430627e-03 3.20678606e-04
      -2.19672569e-03 -1.14890770e-03 -7.19900196e-03 1.28187041e-03
      1.05225958e-03 -1.06720114e-03 -4.56099398e-03 -1.79354835e-03
      -2.73099751e-03 -2.06587254e-03 -4.03050845e-03 -1.13497088e-02
      2.03498802e-03 1.47947879e-03 -2.15921458e-03 6.06952672e-05
      -6.12919498e-03 6.37323223e-03 -5.58621669e-03 -1.15713768e-03
      -6.74046203e-03 3.15546151e-03 4.57681296e-03 -9.76753072e-04
      -4.70366888e-03 -1.61449169e-03 4.19220794e-03 2.69192853e-03
      1.86241674e-03 -1.11536505e-02 -4.62178886e-03 3.95412836e-03
      2.84209236e-04 2.28490331e-03 -7.51281390e-03 6.87520066e-03
      4.33891267e-03 2.00348743e-03 -3.49208759e-03 5.21017285e-03
      1.12371764e-03 -7.33172521e-04 2.77741393e-03 6.17493456e-03
      -2.24704063e-03 3.99733847e-03 4.92447894e-03 5.54900756e-03
      5.81199815e-03 1.30643381e-03 -3.06419469e-03 1.12517504e-03
      -4.82474919e-03 -7.64613925e-03 1.93139422e-03 5.62277716e-03
      -4.99897578e-04 -2.63295067e-03 4.31578560e-03 5.62866509e-04
      5.09964628e-03 1.48401596e-04 3.80294456e-04 5.65078668e-03
      5.07948222e-03 5.20363636e-03 7.31496047e-03 7.20897689e-03
      -3.04985512e-03 5.42428112e-03 -3.10401176e-03 1.34216365e-03
      -3.77832912e-03 4.63544065e-03 -5.42738335e-03 1.73364370e-03
      3.65834916e-03 -1.58005429e-03 1.93331926e-03 -1.92483456e-03
      -6.62132679e-03 -5.12800319e-03 1.02753681e-03 -8.84320936e-04
      -3.17599252e-03 -2.43213354e-03 -4.18073963e-03 5.49020944e-03
      6.50593592e-03 -4.07376174e-05 3.48308682e-03 2.80571845e-03
      1.29984692e-03 7.23791355e-03 5.68864122e-03 -4.70114592e-03
      4.40566242e-03 -1.53791858e-03 -2.83116032e-03 -2.93901237e-03
      -2.70732725e-03 -9.27790999e-03 7.49436615e-04 -1.22439477e-03
      -4.32304246e-03 -2.53063114e-03 3.35927447e-03 -3.40120611e-03
      3.31772887e-03 5.72685758e-03 -5.08937659e-03 3.54640710e-04
      -1.09755411e-03 -1.07341520e-02 -3.20126349e-03 2.37994292e-03
      2.53770454e-03 -1.00763398e-03 1.57091650e-03 6.08243048e-03
      8.88415333e-03 -5.97740477e-03 -1.10669741e-02 -9.29192919e-03
      -2.53020087e-03 2.60537048e-03 -3.75211029e-03 7.39282137e-03
      6.53140247e-03 6.19764905e-03 2.28414289e-03 -9.19101760e-03
      -8.24088976e-03 2.37428513e-03 -2.09092279e-03 -2.52840621e-03
      4.19910578e-03 -1.30682849e-04 7.68944481e-03 -6.52809814e-03
      -5.39597217e-03 -1.51065411e-03 -3.81723256e-03 4.97977575e-03
      -2.97482102e-03 4.67245979e-03 5.10114944e-03 -2.32844613e-03
      -5.38471574e-03 -7.77704315e-03 -3.90771683e-03 -3.70614836e-03
      -2.62851897e-03 -4.04913444e-03 5.28692780e-03 5.72749088e-03
      8.76763952e-05 -7.04436214e-04 -6.89733867e-03 3.12972721e-03
      -3.99048120e-04 -1.73169514e-03 -4.54870192e-03 1.03043523e-02
      2.36998382e-03 -5.26396604e-03 -2.32458534e-03 -5.16170170e-03
      3.11554084e-03 5.42873330e-03 6.47017313e-03 1.25350396e-03
      3.98337329e-03 8.19891598e-03 1.15125360e-04 -2.52547557e-03
      -4.32331162e-03 1.67253194e-03 3.75510915e-03 9.32121277e-03
      -1.17358298e-03 1.18647553e-02 3.05491593e-03 -6.46575529e-04
      1.73079828e-03 -6.24157721e-03 1.07898819e-03 -1.95298868e-03
      -4.69281746e-04 -4.47841128e-03 1.73393299e-03 2.85413186e-03
      1.73780357e-03 -1.47717504e-03 -4.74230014e-03 -1.62293867e-03
      -4.00529895e-03 9.77798644e-03 -2.63368478e-03 -5.21372119e-03
      3.58701963e-03 5.66624291e-03 4.43885848e-03 1.88450306e-03
      5.93475625e-03 1.83361501e-03 9.27014451e-04 1.95118587e-03
      1.05522517e-02 6.18773699e-03 4.08040872e-03 -1.20610581e-04
      -1.14021148e-03 1.74283527e-03 -4.69699083e-03 9.48772486e-03
      -2.32380955e-03 -9.52775590e-05 3.11750639e-03 2.37173837e-04
      9.27451905e-03 -1.13142375e-03 -8.54891259e-03 2.99006875e-04
      1.22605674e-02 7.24651269e-04 3.05099483e-03 7.02158548e-03
      1.12565402e-02 5.58810169e-03 -8.27460643e-03 -7.76039902e-03
      7.05989427e-04 3.62578733e-03 -3.56669328e-03 -6.59831194e-03
      2.24461081e-03 5.43604931e-03 5.09141618e-03 -4.98120580e-03
      -1.77232933e-03 1.22885418e-03 6.52733818e-03 -4.13545035e-03
      -1.20854937e-03 4.93401196e-03 3.42674297e-03 -1.09832978e-03
      -7.86037184e-03 -2.90083955e-03 -3.61369899e-03 1.49479788e-03
      -7.99991377e-03 -2.64026877e-03 -4.94792941e-04 -4.60903253e-03
      7.65368110e-03 -7.30025303e-03 -2.13896530e-03 -1.69648614e-03
      6.23866078e-03 -1.36875431e-03 -8.62867571e-03 2.44758488e-03
      5.42841572e-03 5.49218012e-03 -1.75094884e-03 6.16671331e-03
      2.40793661e-03 1.16812335e-02 2.96098972e-03 -9.03388427e-04
      4.93121799e-03 5.15024969e-03 3.75454198e-03 -4.89924848e-03
      -1.93925272e-03 1.83942798e-03 -7.08304928e-04 -8.26532766e-03
      6.73396804e-04 -2.10086908e-03 -4.58718603e-03 7.04795914e-03
      -4.74540284e-04 -1.74530840e-04 1.20501360e-03 -5.64321352e-04
      -1.41535373e-03 3.66370566e-03 -8.00012494e-04 7.46626174e-05
      2.54446571e-03 -5.94805460e-03 -3.43822502e-03 -5.25062857e-03
      3.18556931e-03 -1.48119184e-03 2.46201106e-03 1.70268724e-03
      2.40419852e-03 1.23496186e-02 -2.12768721e-03 -2.86760827e-04
      6.19485683e-04 6.99253101e-03 -3.10235145e-03 4.97744710e-04
      -4.51082550e-03 2.02397234e-03 -2.37344136e-03 -6.74181199e-03
      -5.38398745e-03 -3.15478677e-03 3.69508431e-04 3.74248624e-03
      7.50034861e-03 -1.47157395e-03 -2.42455630e-03 -2.94781919e-03
      -2.53934693e-03 -2.30658706e-03 2.95309373e-03 8.00170656e-03
      3.46042239e-03 3.05860100e-04 -5.23793418e-03 6.59576617e-03
      8.11664294e-03 8.83987756e-04 4.62757424e-04 8.51672888e-03
      6.19287253e-04 3.43365571e-03 3.15403170e-03 -1.91694440e-03
      2.71450938e-03 -2.04906869e-03 9.81487450e-04 7.57688843e-03
      8.33154563e-03 -6.33015705e-04 4.27032402e-03 5.64813334e-03
      6.53750636e-03 1.54432387e-03 5.22472383e-03 4.92029241e-04
      -2.85862642e-03 4.30240436e-03 1.21491204e-03 1.09589985e-03
      -7.47858721e-04 -8.44813790e-03 7.50631618e-04 1.45539269e-03
      2.23260396e-03 -1.29530288e-03 -2.83418223e-03 6.15755329e-04
      -2.10693758e-03 -1.69457553e-03 -3.14887566e-03 3.50273680e-04
      -6.59247255e-03 -2.79768516e-04 7.02256011e-03 -7.38595729e-04
      5.84182446e-04 5.58661949e-03 5.89070003e-03 -8.93904420e-04
      1.20190518e-04 -5.09659003e-04 1.15492661e-03 7.68478913e-03
      1.38224824e-03 1.51496718e-03 8.57151952e-03 5.13172476e-03
      -6.39853673e-03 7.92665232e-04 2.37087533e-03 3.23632220e-03
      8.79840646e-03 -4.45734710e-03 1.14867662e-03 -5.63134393e-03
      2.06179800e-03 -3.06361984e-03 1.87731488e-03 4.24863258e-03
      -7.91262428e-04 1.01057151e-02 1.06018018e-02 -4.72288160e-03
      1.24744745e-03 1.11943635e-03 2.55437801e-04 7.22349912e-04
      -4.18505119e-03 -1.22826907e-03 -1.65229279e-03 -6.03527413e-04
      -2.15157424e-03 2.88292230e-03 7.62720010e-04 -6.64278073e-03
      -4.69545508e-03 6.35001343e-03 3.33228637e-03 4.56736004e-03
      -4.77027008e-03 -1.75714830e-03 6.20986684e-04 -5.52973291e-03
      -3.04155867e-03 -3.36746080e-03 1.64842862e-03 -5.38133504e-03
      2.56317272e-03 4.95682703e-03 -2.50110897e-04 -5.32938400e-03
      -1.28734228e-03 -1.80033594e-03 -3.82030965e-03 1.34816440e-02
      -8.28583667e-04 5.32763032e-03 -1.80281408e-03 1.99765619e-03
      -3.25911702e-03 -2.30932725e-03 -2.21661176e-03 -8.37712782e-04
      8.34897440e-03 -3.16588534e-03 2.68283067e-03 -9.72023420e-03
      -4.36923280e-03 3.19544255e-04 -7.16640707e-03 -1.28393515e-03
      -1.34229043e-03 2.61214562e-03 7.60083261e-04 1.39738852e-03
      -5.89873380e-05 -3.96915450e-04 1.96396816e-03 3.01229511e-03
      2.14902917e-03 -4.56233742e-03 9.78835858e-03 -3.27052781e-03
      4.60066972e-03 -5.32396184e-03 -3.03917751e-03 -8.99205264e-03
      -3.79747385e-03 -5.78931812e-03 1.89704285e-03 3.94416135e-03
      -3.93755443e-04 9.73674841e-03 3.29694850e-03 3.06684058e-04
      -7.20059825e-03 -5.26075484e-04 8.16103595e-04 8.23435257e-04
      9.95091395e-05 -1.19326496e-03 -6.88001455e-04 3.21729900e-03
      2.25927215e-03 5.15768479e-04 4.36003832e-03 -8.33912462e-04
      -4.25613904e-03 2.34134845e-03 -3.25803645e-03 -4.49439697e-03
      4.24585165e-03 -5.31583047e-03 -5.53111429e-04 -2.36976985e-03
      -8.76406487e-03 -3.61657992e-04 -1.35191018e-03 -3.36433225e-03
      4.43423586e-03 5.52801974e-03 -3.24821100e-04 -3.79320141e-03
      3.07873171e-03 9.03614055e-05 -3.34188878e-03 3.24685778e-03
      -3.37948883e-03 -2.59149168e-03 5.09617804e-03 1.58084661e-03
      -5.50767640e-03 -2.12736544e-03 -5.42246876e-03 1.06623839e-03
      4.27697133e-03 9.46800597e-03 5.85199846e-03 -8.61681649e-04
      -1.67784176e-03 4.93830070e-04 -1.51661981e-03 -1.10770680e-03
      4.89035342e-03 5.30335028e-03 3.63212777e-04 3.22901038e-03
      -1.80969306e-03 -1.53030455e-03 7.93877698e-04 -7.35203736e-04
      -5.01628453e-03 -3.30301793e-03 -2.34892243e-03 -8.38335487e-04
      2.38104141e-03 -1.69293187e-03 -1.13407278e-03 -6.73967088e-03
      -8.00707610e-04 -6.55325828e-03 -5.04302280e-03 -5.18281898e-03
      -6.81473734e-03 2.11152364e-03 -7.70423329e-03 -1.37092720e-03
      -7.76628079e-03 -8.58566817e-03 -7.71061284e-03 -5.62357856e-03
      2.14638002e-03 2.35691958e-04 1.90208002e-03 5.89755317e-03
      2.08123820e-03 4.32404224e-03 1.85046752e-03 -7.46110396e-04
      -1.25461468e-03 2.77634547e-03 4.97840438e-03 2.48204265e-03
      2.57415720e-03 8.95774458e-03 -1.82091387e-03 1.67640042e-03
      -2.23575305e-04 4.83476184e-03 -2.99080717e-03 -4.91367094e-03
      6.65378431e-03 -4.21749108e-04 -3.01391981e-03 -3.06050805e-03
      -3.98658231e-05 -2.28687678e-03 2.62455345e-04 -3.93195637e-03
      -4.23385249e-03 1.89322955e-03 -4.91329527e-04 4.03036177e-03
      -1.16501041e-02 -1.66343700e-03 -6.40414888e-03 -1.96377421e-03
      1.07821962e-03 -2.00858689e-03 -3.07875173e-03 -6.38644211e-04
      -9.36268363e-04 3.76484497e-03 2.06531817e-03 -8.61569657e-04
      7.76897511e-03 8.30323249e-03 -5.70774544e-03 1.95094023e-03
      -8.67662020e-04 -7.57267000e-04 6.83847582e-03 6.27243798e-03
      -6.88430993e-03 3.88523564e-03 4.32701432e-04 -6.62269024e-03
      -1.87388493e-03 -9.53915529e-04 7.15458998e-04 -6.80926663e-04
      -2.45632394e-03 -7.80207384e-03 1.04469585e-03 6.36211317e-03
      4.29160282e-05 -3.10547301e-03 -2.18085153e-03 4.84737940e-03
      3.58365872e-03 1.48587540e-04 -2.26907968e-03 4.29581385e-03
      4.12585260e-03 -3.05416761e-03 5.01320651e-03 4.31226380e-03
      -6.02244725e-03 -1.26836216e-03 2.90983531e-04 -4.56969393e-03
      1.53526594e-03 -1.13274774e-03 -7.50748487e-03 2.55957246e-03
      2.50303419e-03 -6.95359707e-03 2.99892458e-03 7.42287654e-03
      9.80080338e-04 3.57830955e-04 2.36561592e-03 6.54004095e-03
      8.74170859e-04 -2.04383489e-03 1.95733458e-03 -5.41614182e-03
      -2.96393293e-03 -6.37910212e-04 2.26123515e-03 -8.23255337e-04
      -5.47229953e-04 4.95808013e-03 2.53369712e-04 3.81618156e-03
      5.90883149e-03 1.35708833e-03 -4.09860768e-05 -4.57330287e-04
      5.08512696e-03 -7.89326150e-03 -9.86956758e-04 4.68290551e-03
      -3.56861413e-03 6.14595646e-03 6.48470270e-03 -1.22736057e-03
      5.39657427e-03 1.71109021e-03 -3.71353212e-03 6.11174665e-03
      4.55101347e-03 8.59254785e-03 4.04424639e-03 5.34130912e-03
      -2.15703133e-03 -2.26442702e-03 -1.92322501e-03 -6.35930616e-03
      -1.71740050e-03 -4.13139537e-03 -4.53086663e-03 7.67824519e-03
      -2.31762649e-04 -4.77097090e-03 -4.18331270e-04 -1.13089231e-03
      -4.65898449e-03 -2.63324007e-03 -2.48902407e-03 5.54897962e-03
      3.53615545e-03 -1.22189231e-03 -5.21553308e-03 -4.95407544e-03
      -6.69420348e-04 -2.15091347e-03 4.69432492e-03 6.08230988e-03
      4.03848616e-03 2.95114587e-03 -1.83217358e-04 1.41976692e-03
      2.14457116e-03 -3.01300734e-03 -4.74137813e-03 -1.38738693e-03
      -2.01947219e-03 2.53361859e-03 -4.14211163e-03 -3.22268286e-04
      -1.43857300e-03 5.07269008e-03 5.44231501e-04 -3.88740259e-03
      -4.95835033e-04 4.23851743e-04 8.28370277e-04 3.25343106e-03
      -2.13534432e-03 3.17004189e-04 -8.78614141e-04 -4.38354956e-03
      -7.38420757e-03 -5.04847476e-03 1.13640702e-03 1.75107387e-03
      -4.33993153e-03 -1.45258079e-03 -1.66039285e-03 -3.26659018e-03
      4.17604996e-03 1.19835034e-03 9.94850416e-04 7.89548503e-04
      2.52476102e-03 -1.43091532e-03 7.47823447e-04 2.32251501e-03
      4.32541734e-03 2.29080371e-03 2.56353407e-03 1.97145180e-03
      -1.02325820e-03 4.57997806e-03 -4.71364334e-03 2.79741059e-03
      2.04047584e-03 2.66622240e-03 2.64981296e-04 -1.64282072e-04
      5.69961458e-06 6.61554793e-03 -1.81528821e-03 -3.99935013e-03
      -2.09583814e-04 3.68338340e-04 6.79388130e-03 -2.57593486e-03
      -3.15202097e-03 -1.35298085e-03 -1.36016984e-03 6.93982514e-03
      -6.87651243e-03 4.31817491e-03 -4.19973256e-03 3.35299037e-03
      4.87662619e-04 -8.67625233e-03 8.08619952e-04 9.56108561e-04
      -2.66927324e-04 -6.93870767e-04 -1.34754134e-03 2.61226785e-04
      -2.61546811e-04 1.09473267e-03 -5.60416887e-03 2.84671062e-03
      2.06801831e-03 1.75627379e-03 -7.14055588e-03 1.41587772e-03
      1.38456037e-03 -7.71245861e-04 -4.01335163e-03 -1.30837699e-02
      -3.97806335e-03 5.54446015e-04 -1.29165384e-03 1.52388844e-03
      2.57728272e-03 -3.96687258e-03 -1.35366595e-03 -4.01180284e-03
      -9.49020125e-03 3.15966411e-03 -3.06730904e-03 6.08360302e-03
      -2.30311067e-03 -1.47796457e-03 6.75050760e-05 2.12615496e-03
      1.61823223e-03 -9.04713664e-03 -5.56142768e-03 2.33508716e-03
      -4.55937535e-03 -3.17625259e-03 4.00882261e-03 -1.56569865e-03
      9.33893898e-04 4.28136345e-03 -4.93631139e-03 -1.13061117e-03
      9.08069685e-03 -4.85603465e-03 1.81925588e-03 5.82303060e-03
      -2.87726616e-05 -1.17525298e-04 9.65827086e-04 -5.48912585e-03
      2.72823439e-04 1.19080686e-03 1.54253212e-03 -1.62906945e-03
      8.90699564e-04 -6.53283391e-03 3.06290365e-03 3.92639218e-03
      -6.03515375e-03 -3.71330971e-04 4.16138442e-03 7.89930020e-03
      -6.91504567e-04 4.95736813e-03 4.92478721e-04 9.06850025e-03
      -2.03889306e-03 -3.97345546e-04 -4.70231706e-03 -8.04166892e-04
      1.84826727e-03 2.91992980e-03 1.62156590e-03 -2.11459887e-03
      -4.55276854e-03 -3.93379107e-03 1.35767239e-03 4.52361302e-03
      -1.07382052e-03 1.37033372e-03 2.39549088e-03 -5.49260760e-03
      -7.16363732e-03 -9.22160980e-04 4.60972497e-03 4.34816023e-03
      -1.81439833e-03 5.70282992e-03 1.05316862e-02 -9.00191907e-03
      -2.60462635e-03 5.41759329e-03 2.35667615e-03 -2.52935360e-03
      -1.21496618e-03 2.27334723e-03 -5.68227796e-03 2.01688171e-03
      3.21893464e-03 -3.75471613e-03 3.51808942e-03 4.72203319e-05
      6.73869718e-03 4.29964712e-04 2.86010071e-03 2.19040154e-03
      -3.79045284e-03 5.84568037e-03 -4.86324914e-03 -5.94172860e-03
      -2.66503706e-03 6.23398181e-03 3.03204171e-03 4.89723578e-04
      5.02071460e-04 2.05399911e-03 -5.40862605e-03 3.26964364e-04
      -3.32763977e-03 6.05373702e-04 -6.25457906e-04 -5.36400499e-03
      5.99348452e-03 2.06727325e-03 -6.04544487e-03 1.17540511e-03
      -9.04605404e-05 -2.04623304e-03 -1.17700582e-03 2.22298945e-03
      1.71320559e-03 1.11203804e-03 4.73246956e-03 4.44792910e-03
      -4.49142564e-04 4.42469231e-04 -3.12750461e-03 -5.70039323e-04
      3.20620649e-03 1.29653991e-03 -4.14639420e-04 -7.19210785e-03
      -4.04713582e-03 -1.42601868e-02 -1.74006133e-03 -2.83112633e-03
      1.94745336e-03 9.14294738e-03 8.90559983e-04 1.30975517e-02
      6.38710056e-03 -5.61954593e-03 -1.06104231e-02 1.99189666e-03
      -7.17154122e-04 6.06757449e-03 3.09574069e-04 1.99842878e-04
      -2.97487853e-03 -3.87605885e-03 3.55204986e-03 -5.46528772e-03
      -1.54455611e-03 -1.51290989e-03 -3.92477727e-04 6.26011519e-03
      -2.46205297e-03 7.61198066e-03 7.57202413e-03 7.35822320e-03
      -7.64147553e-04 7.86089897e-03 5.04425785e-04 4.66800807e-03
      1.67571486e-03 -8.53040256e-03 -7.58332142e-04 -2.26303795e-03
      -5.14808064e-03 -9.59980953e-03 1.56346161e-03 1.22824044e-03
      -4.00822517e-03 7.75355240e-03 -6.04377221e-03 -2.56146863e-03
      -6.32257620e-03 -2.49619014e-03 7.57685280e-04 6.88984385e-03
      -3.33344215e-03 -3.57765169e-03 2.48283159e-05 -1.41383999e-03
      1.69953099e-03 2.68857344e-03 2.24610558e-03 -3.89401615e-03
      7.62494188e-03 6.04716036e-03 -1.64639461e-03 3.86663550e-03
      9.91060282e-04 1.55439647e-03 4.30405792e-03 2.43188255e-03
      6.05386915e-03 8.85836501e-03 1.45976956e-04 1.57076155e-03
      7.10714888e-03 -3.66600044e-03 3.75165080e-04 -2.87996815e-03
      1.15966785e-03 1.68105384e-04 -2.23433424e-04 -5.60082914e-03
      2.17855885e-03 4.16780915e-03 -2.93910527e-03 4.62735770e-03
      -3.50898190e-04 2.10461370e-03 -5.91459963e-03 -5.78241097e-03
      -1.76633024e-04 4.41806018e-03 7.00551225e-03 1.98410944e-05
      3.59032536e-03 8.81349028e-04 6.69822388e-04 6.33963104e-03
      -1.43041322e-03 -7.62760546e-03 -1.79965713e-03 5.52448584e-03
      2.15194048e-03 3.30022164e-03 3.00095906e-03 -1.68460782e-03
      -6.08719420e-04 -3.76648619e-03 -4.79563884e-03 -1.00102206e-03
      -3.37240053e-03 -6.42992929e-03 3.65410303e-03 -1.48671551e-03
      -2.86342879e-03 -4.67954529e-03 2.92353911e-06 -3.15880589e-03
      8.39034677e-04 -1.63740013e-03 -3.19952169e-03 6.93770780e-05
      2.00879970e-03 -4.01953794e-03 -9.40651819e-03 1.15746574e-03
      -2.66356440e-03 6.70708762e-03 1.97019806e-04 -8.98517785e-04
      4.14151046e-03 8.51368182e-04 2.23015761e-03 3.21787992e-03
      -2.14326498e-03 -4.40602982e-03 -9.43764579e-04 8.72289669e-03
      -1.34401559e-03 1.19468116e-03 -3.38909194e-05 -1.15019351e-03
      1.08049740e-03 4.76315431e-03 -3.55433626e-03 1.05460454e-02
      -2.89958413e-03 -2.25261599e-03 2.12701876e-03 -3.11355921e-03
      -3.86481220e-03 -3.84710706e-03 4.22062539e-03 4.92730353e-04
      -1.33843903e-04 -3.05210962e-03 -3.39846080e-03 5.12232014e-04
      -1.14440881e-02 -3.73044240e-05 -2.81190639e-03 -5.34504688e-05
      -4.11037309e-03 3.13948956e-03 -2.52832798e-03 2.78825988e-03
      9.63480386e-04 -8.61620624e-03 -8.83901585e-03 -5.68516506e-03
      1.06597971e-03 1.48063153e-03 3.15618963e-04 -2.58770958e-03
      -3.17744515e-03 -9.25589644e-04 -1.04604028e-02 -1.38770824e-03
      -5.60463173e-03 4.59956682e-05 -2.12335493e-03 -1.51277127e-04
      3.52142658e-03 1.70249972e-04 1.74162211e-03 1.14518589e-04
      3.81755317e-03 7.42784468e-04 -1.00183918e-03 -1.54531852e-03
      1.19317858e-03 3.55537026e-03 -2.90764845e-03 4.10673628e-03
      -3.43946653e-04 3.91940074e-03 -1.20200319e-02 1.94050930e-03
      -2.06753868e-03 1.95694715e-03 -5.54820348e-04 -4.85936878e-03
      -4.55968874e-03 -1.60348078e-03 2.88204593e-03 -1.95090787e-03
      -4.54606256e-03 8.24222981e-04 1.63422397e-03 -1.01094693e-03
      -9.97568667e-03 -5.86716132e-03 -2.91367644e-03 2.38009728e-03
      -1.15404241e-02 -6.85658818e-03 4.32504155e-03 3.80961015e-03
      2.08143773e-03 -4.03588545e-03 4.89069382e-03 3.98169132e-03
      -3.35847144e-03 -8.23893026e-03 -3.67261958e-03 -1.68934639e-03
      2.82903260e-04 3.02440044e-03 3.92339937e-03 7.25645246e-03
      -1.02222105e-03 -5.99827478e-03 -4.19715280e-03 -4.54063993e-03
      -6.03235886e-03 4.75531071e-03 8.89311661e-04 2.13416573e-03
      -1.66773202e-03 -6.84640196e-04 2.02456629e-03 -3.80096654e-03
      7.99917416e-07 5.77132544e-03 -1.06776948e-04 2.77031586e-03
      4.17879969e-03 3.24425171e-03 -4.58739651e-03 -4.78039635e-03
      -1.65301934e-03 5.10549871e-03 -2.19053269e-04 4.07488830e-03
      2.77615455e-03 8.39681551e-03 2.55091069e-03 1.53099454e-03
      -7.04366388e-03 -4.43849340e-03 -6.25545532e-03 -8.10755137e-03
      7.07251020e-03 1.62355590e-03 4.69680410e-03 1.11069123e-03
      2.20617256e-03 -5.23825409e-03 4.90811281e-03 -6.01953175e-03
      -4.07017209e-03 4.36523976e-03 -4.31094412e-03 5.69157884e-04
      1.63312838e-03 -1.74999516e-03 -7.68850977e-03 2.43655886e-04
      2.65355315e-03 -8.32610764e-04 8.95114336e-03 -2.29005062e-04
      7.35183421e-04 1.65177521e-03 -1.16490410e-03 -1.96645060e-03
      3.14151682e-03 -7.07639847e-04 -1.60471827e-03 -2.20345357e-03
      4.15325211e-03 -1.06096081e-03 3.65750911e-03 -3.00087128e-03
      -6.79683220e-03 1.69824052e-03 -5.18302852e-03 6.64563384e-04
      5.33683691e-03 1.06546599e-02 7.98518246e-04 6.80863997e-03
      1.96701032e-03 -3.28398100e-03 -4.83163167e-03 2.10494176e-03
      4.00073687e-03 5.96201397e-04 3.58291133e-03 1.04714790e-03
      -3.49799448e-05 -3.47261620e-03 -3.76300188e-03 -2.67236819e-03
      6.10689051e-04 -2.14771763e-03 -4.59434837e-03 6.01135008e-03
      2.54765479e-03 4.24931943e-03 1.08631491e-03 -3.32761439e-03
      -6.28211489e-03 -1.10261317e-03 4.29734908e-04 -8.16904940e-04
      5.68121113e-03 -2.02725845e-04 3.00533907e-03 5.63104684e-03
      -2.95435567e-03 1.16069522e-03 2.50714296e-03 5.12331212e-03
      -1.06183474e-03 -3.81761201e-04 -7.71974272e-04 1.54205028e-03
      7.62707926e-03 -1.12750370e-03 1.07513787e-03 7.55233224e-03
      5.89984190e-03 -2.78193131e-03 3.19071673e-03 2.78218021e-03
      3.69580369e-03 4.03783331e-03 -6.50479319e-03 -3.08066560e-03
      2.99186329e-03 -1.59503554e-03 2.23462400e-03 -1.49341580e-03
      -3.20600369e-03 8.03471135e-04 -3.32721951e-03 -7.36165186e-03
      -3.42701050e-03 -5.74082194e-04 -5.37147280e-03 2.17651832e-03
      5.55793010e-03 -2.89258260e-05 -3.06695234e-04 2.87807407e-03
      -5.86631708e-03 4.42948984e-03 4.85396059e-03 2.17790343e-03
      5.16736880e-03 -1.92157400e-03 -8.66105035e-03 1.80627767e-03
      2.54542305e-04 1.54817442e-03 -3.31307203e-03 1.97050790e-03
      -1.44305837e-03 -2.84679537e-03 3.97265702e-03 1.32022356e-03
      1.78804956e-04 8.35324114e-04 -5.14454301e-03 -1.96512628e-05
      -3.43211554e-03 -4.02306439e-03 -9.07686597e-04 -3.84535617e-03
      -5.98460762e-03 7.76427507e-04 2.20240140e-03 4.93364595e-03
      -2.81798327e-03 -6.24016626e-03 -2.89882929e-03 -8.13998282e-03
      -1.02378428e-03 -7.59050297e-03 6.28025155e-04 1.26352918e-03
      1.41761336e-03 -2.03082920e-03 3.60607309e-03 1.39942544e-03
      -2.82946858e-03 1.20008143e-03 -4.92269825e-03 5.53257624e-03
      -3.87902651e-03 4.18066001e-03 -1.88414298e-03 1.74944650e-03
      4.85399133e-03 2.00552028e-03 2.14827852e-03 -4.58276225e-03
      4.50341078e-03 4.85791266e-03 2.79516750e-03 -1.17771849e-02
      -1.12061165e-02 -3.04952753e-03 3.46906041e-03 -8.63906287e-04
      -3.32702673e-03 7.65635120e-03 -6.21076440e-03 3.61952116e-03
      -7.72793684e-03 3.36066238e-03 4.83330153e-03 7.32094282e-04
      -3.95682873e-04 -3.35968542e-03 5.32904873e-03 4.75651294e-04
      -3.21320142e-03 -2.21694913e-03 9.85343242e-04 -3.58089758e-03
      -5.16401324e-03 -2.27483315e-03 6.28787209e-04 7.31208967e-03
      4.19107033e-03 3.10679269e-03 -5.54084312e-03 -2.59885914e-04
      2.94131925e-04 4.92591038e-03 2.37991964e-03 -4.93563293e-03
      7.94094615e-03 3.53836408e-03 -3.00529925e-03 -1.26959314e-03
      5.27932728e-03 2.28071492e-03 -5.45925647e-03 1.30149268e-03
      -5.98473009e-03 5.19850198e-03 1.51356333e-03 9.84394064e-05
      3.56682832e-03 3.30407452e-03 5.09217661e-03 1.78964401e-03
      -1.16032141e-03 3.21293296e-03 2.29565005e-04 6.98306924e-03
      3.65590071e-03 -6.39082352e-03 -2.85073859e-03 3.57678370e-03
      7.09616207e-03 -1.59816013e-03 8.35666317e-04 1.80410303e-03
      1.34066353e-03 2.41701212e-03 2.32902262e-03 4.68331855e-03
      7.24439230e-03 1.06171966e-02 -6.05139649e-03 3.26756854e-03
      7.58440653e-03 -3.17211752e-03 -4.93668485e-03 -8.82177206e-04
      -1.25992228e-04 -2.97990162e-04 -2.39978847e-03 -8.27973615e-03
      -1.89081009e-03 -1.90852431e-03 -3.46916821e-03 1.16152549e-03
      -1.27991883e-03 -5.34802908e-03 -6.16388675e-03 -3.64391389e-03
      -4.93611721e-03 -9.75768140e-04 -1.04482612e-03 -2.60443334e-03
      -5.64418267e-03 1.89167261e-03 -1.62564684e-03 -1.10639085e-03
      8.27684475e-04 -1.04550831e-03 2.01876555e-03 9.06236470e-04
      7.02348480e-04 3.44692660e-03 -3.78897501e-04 7.68452242e-04
      -7.43366138e-04 5.65042836e-04 -5.17444499e-03 -8.78504361e-04
      -9.15729790e-04 1.25472737e-03 2.32605194e-03 -1.61990221e-03
      -1.11502956e-03 -7.44377496e-03 -6.59073889e-03 3.32652917e-03
      4.44801478e-03 -3.66885622e-04 -9.53158597e-04 2.75810307e-04
      7.05653743e-04 1.10621946e-02 -7.71794061e-04 1.69596600e-03
      -8.28997511e-03 -4.01992630e-03 -2.94960965e-03 -6.70135580e-03
      2.75076739e-03 -4.18525096e-03 -4.72594611e-03 -1.22182083e-03
      -2.55070860e-03 -1.43459614e-03 -9.22267733e-04 -2.56263046e-03
      3.06367665e-03 6.55183429e-03 -6.74464623e-04 8.49304372e-04
      1.13885792e-03 3.09262751e-03 -9.40703205e-04 2.22800882e-03
      -4.21349006e-03 -7.32984813e-03 -4.02918318e-03 -8.24950449e-03
      3.16652306e-03 4.38289193e-04 -1.63903751e-03 2.56898906e-03
      1.01839146e-02 -6.16471458e-04 6.56518014e-03 5.20538026e-03
      -6.70776842e-03 -3.45117040e-03 -1.39652239e-03 5.19870222e-03
      -4.81228251e-03 -4.05989238e-04 -3.29081877e-03 -3.68505280e-05
      -1.48886314e-03 -5.02842339e-03 4.35786229e-03 3.41579225e-03
      -4.11027437e-03 4.71399352e-03 -1.67818635e-03 5.59271313e-03
      2.98474124e-03 -1.24049222e-03 3.68263968e-03 8.13955814e-03
      2.72553833e-03 -6.73237606e-04 -2.02305499e-03 7.30006909e-03
      1.22894126e-03 1.76553687e-04 -1.19111757e-03 -5.99796884e-03
      3.01389722e-04 -7.15856766e-03 -4.19176510e-03 3.74121591e-03
      6.97835349e-03 5.72045939e-03 1.84653408e-03 -1.21125008e-03
      7.48684979e-04 8.48198868e-03 1.41078420e-03 -1.77303178e-03
      5.57106314e-03 -5.33519313e-03 7.37855630e-03 -3.75933992e-03
      -4.09522979e-03 6.56424323e-03 3.10409028e-04 -1.09387550e-03
      -2.38459976e-03 9.45541449e-03 3.70020443e-03 6.07009279e-03
      2.75592110e-03 1.64578215e-03 2.04971293e-03 -3.33618419e-03
      -2.08251434e-03 -8.40408902e-05 7.13743689e-03 -4.29648859e-03
      4.80907876e-03 -1.87697937e-04 -7.07667461e-03 -5.13649592e-03
      -1.05688279e-03 3.34155886e-03 1.99411437e-03 3.49057140e-03
      -1.65532037e-04 8.78832070e-04 4.70099738e-04 4.65718750e-03
      -7.43925758e-03 -1.67445419e-03 3.60279903e-03 2.53228541e-03
      -3.15337908e-04 -1.46884611e-03 -7.19269505e-03 -4.54437803e-04
      2.37189559e-03 1.81658333e-03 -2.09947280e-03 -3.23870662e-03
      -3.43914260e-03 6.47466397e-03 -4.41385992e-03 -4.21103602e-03
      4.92233608e-04 3.03828088e-03 5.80818485e-03 3.22596799e-03
      -1.04820181e-03 5.38871856e-03 -1.34595134e-03 -6.85689156e-05
      -7.40004657e-03 -4.78855288e-03 -1.85502868e-04 -8.37955449e-04
      6.42377976e-03 3.43798869e-03 -2.82226433e-03 -5.29335521e-04
      4.06707730e-03 -1.99285569e-03 2.70124030e-04 7.17704603e-03
      3.85879353e-03 6.73751999e-03 3.43751092e-03 -2.13998347e-03
      3.28550325e-03 6.31962111e-03 -3.51366820e-03 -8.99992418e-03
      -9.66752227e-03 -7.79489614e-03 4.32846555e-03 -9.74222610e-04
      9.23555251e-03 1.18335837e-03 2.62156129e-03 5.61586302e-03
      -6.51807152e-03 -3.89664457e-03 -1.32290218e-02 1.26114080e-03
      -1.55010121e-03 -8.95855541e-04 1.62522541e-03 2.18341732e-03
      4.67742095e-04 -3.95926787e-03 -4.07435204e-04 -7.79274385e-03
      -9.75283212e-04 -5.04328590e-03 1.79320539e-03 6.92670792e-03
      8.01030453e-03 3.34050646e-03 -2.45165266e-03 9.63188708e-03
      -9.81114525e-03 -1.09939894e-03 -1.14750750e-02 5.26492763e-03
      -2.00892729e-03 -2.34655198e-03 4.12257668e-03 -1.76595047e-03
      4.27139224e-03 2.94115581e-03 6.44620648e-03 3.51508334e-03
      -4.58510965e-03 -1.22586079e-02 -9.10064764e-03 -9.53106396e-03
      -7.99599104e-03 1.70496164e-03 7.57785747e-03 8.97720829e-03
      -3.40693607e-03 -1.00731459e-02 2.26027472e-03 5.88283082e-03
      1.17497100e-03 -1.51229079e-03 7.71248247e-03 6.41023042e-03
      9.29512922e-03 -2.45280005e-03 3.98265372e-04 -6.59670262e-03
      -1.12113054e-03 -3.22352716e-04 1.71908556e-04 8.44844617e-03
      7.87183363e-03 1.63604412e-03 -1.53578306e-03 -6.41576340e-03
      -7.16212019e-03 -4.48928867e-03 -1.26370136e-03 -4.23764717e-03
      -7.88356084e-03 -4.73370339e-04 5.89591824e-03 -3.57463537e-03
      -4.15046606e-03 5.49571763e-04 1.69314723e-03 9.94237233e-03
      2.36853422e-03 -7.93932192e-03 3.58991115e-03 1.02913203e-02
      8.26009724e-04 6.31172070e-03 -2.49824277e-03 -1.70180734e-04
      2.00178730e-03 -2.55395169e-03 -1.69866369e-03 3.07064597e-03
      -2.29222048e-03 -3.43994214e-03 4.18777624e-03 2.64614285e-03
      7.78930204e-04 1.30811175e-02 3.19040008e-03 -1.96467550e-03
      6.46722876e-03 4.71027801e-03 -2.36305129e-03 5.30388439e-03
      1.03244500e-03 2.54995492e-03 9.32645053e-03 -6.34317379e-03
      -9.50777903e-03 -8.48351233e-03 6.16068020e-03 9.30907554e-04
      2.20618723e-03 3.99344834e-03 -6.56768389e-04 5.84505219e-03
      2.96517072e-04 3.48850177e-03 -3.76748532e-04 9.01239924e-03
      -1.82559760e-03 1.44540332e-03 -1.82641277e-04 -5.22770977e-04
      1.17031299e-02 -7.63486139e-03 -1.19201848e-02 -1.46623934e-02
      -6.90616388e-03 -4.96755773e-03 1.16455404e-03 -2.16478226e-03
      -7.87634286e-04 4.88837296e-03 -4.42963466e-03 -3.13314318e-04
      -1.56121480e-03 5.16909361e-03 -7.58769782e-03 -1.49646413e-03
      3.27728665e-03 -7.42265815e-03 8.96315556e-04 -8.82842112e-03
      -1.88634254e-03 -4.98369429e-03 7.42939860e-03 2.50412268e-04
      5.42862294e-03 -1.18800637e-03 -7.09701283e-03 -3.90270445e-03
      -8.65135249e-03 3.80546809e-03 2.36348994e-03 1.20008243e-02
      7.54242809e-03 4.87793609e-03 -2.88311648e-03 -7.79659394e-03
      1.47529517e-03 -1.02778794e-02 -7.48734036e-03 -7.41126854e-03
      3.46836075e-03 -3.34375916e-04 1.57564215e-03 -4.24867700e-04
      -4.65375977e-03 3.29378434e-03 -8.95708799e-03 3.06293114e-05
      -4.01245430e-03 9.06530023e-03 3.04973358e-03 1.55443337e-03
      -6.97382260e-04 -4.62576933e-03 9.04660206e-03 -3.36851459e-03
      2.62202160e-03 2.15430837e-03 1.56983212e-02 8.85717478e-03
      4.59219702e-03 -2.33341023e-04 -1.17406677e-02 8.86881258e-03
      -4.14381269e-04 7.43710343e-03 -8.49183556e-03 5.21995872e-03
      -1.05133327e-03 4.31416882e-03 -2.24589068e-03 -6.73462776e-03
      1.04218423e-02 4.71744826e-03 7.56893132e-04 -4.18654922e-03
      5.39129134e-03 3.54960700e-03 1.58370251e-03 -3.28632072e-03
      -1.89069789e-02 -4.32739733e-03 2.77785980e-03 2.63360143e-03
      -5.91939921e-03 -7.55175482e-03 -6.66534621e-03 -2.09196005e-04
      5.63336164e-03 -2.87470664e-03 3.74261104e-03 8.76651797e-03
      4.31921752e-03 -3.26853245e-04 6.08256925e-03 -6.22413878e-04
      5.77935437e-03 3.35319713e-03 -2.45589181e-03 -2.28521251e-03
      9.44396574e-03 7.97669636e-04 2.91734608e-03 3.97210754e-03
      5.71270706e-03 3.35014658e-03 6.63323037e-04 -1.01353144e-02
      -3.05436231e-04 6.06977334e-03 3.75166419e-03 -3.39875900e-04
      -7.25464383e-03 -3.26476595e-03 -9.13858006e-04 -7.34873861e-03
      1.54724612e-03 1.18200760e-03 -4.67916572e-04 -6.32351451e-03
      -6.46705041e-03 -2.32139626e-03 4.76914458e-03 -5.36740571e-03
      1.17912218e-02 -2.00634077e-03 -3.25906463e-03 1.48094282e-03
      -9.15863737e-03 -1.37075281e-03 1.54459686e-03 5.35372971e-03
      6.98026130e-03 4.18383023e-03 -2.70190043e-03 -5.27000939e-03
      -9.80685349e-04 9.74760274e-04 -1.04540549e-02 -4.24575899e-03
      -4.66898596e-03 -1.78198982e-03 7.73827732e-03 3.63625493e-03
      3.98105523e-03 -2.71103671e-03 -1.26000736e-02 -3.47657432e-03
      6.62579387e-03 3.11596808e-03 3.92098213e-03 5.14224079e-03
      3.51430941e-03 -4.60227020e-03 1.02785463e-03 6.67440193e-03
      -2.54666060e-03 -5.08058351e-04 -4.10171831e-03 7.01380800e-03
      -5.04369149e-04 4.56163380e-03 -1.97956106e-03 2.36405060e-03
      9.36141890e-03 -3.50835663e-03 -3.62383272e-03 -4.75241523e-03
      -4.93041193e-03 -3.63040337e-04 -9.80001129e-03 -3.98699753e-03
      5.98593662e-03 5.45866648e-03 4.34522610e-03 -5.93805220e-04
      1.14219426e-03 -1.10451737e-03 -7.25375896e-04 -3.89598147e-03
      -5.47737535e-03 6.92721037e-03 9.63028707e-03 -3.31876962e-03
      -1.08760595e-03 9.07350855e-04 3.53114051e-03 -1.63567276e-03
      -1.72738209e-02 -3.92367365e-03 8.59831739e-03 3.27333482e-03
      -2.33969395e-03 -7.21658987e-04 5.42179076e-03 5.12671936e-03
      2.52857618e-03 -1.37163820e-02 -6.18167594e-03 3.89871025e-03
      -3.04550468e-03 -3.89619963e-03 -5.57705527e-03 5.76881983e-04
      1.65826117e-03 1.19786523e-02 9.14945966e-04 -1.93940592e-03
      8.19586043e-04 9.70111415e-03 -3.91853362e-04 -2.90394551e-03
      -6.92196144e-03 7.01947883e-03 4.15521068e-03 -1.08522605e-02
      -1.09573928e-04 2.10188795e-03 5.31222438e-03 -4.63371398e-03
      1.34815718e-03 3.76559189e-03 5.15893428e-03 8.63749254e-03
      2.96726078e-03 -1.85650936e-03 -3.45908175e-03 4.90753585e-03
      6.51800958e-03 1.77371409e-03 -8.88759177e-03 3.76226380e-03
      1.41714113e-02 7.48542603e-03 -5.82830980e-03 3.06079804e-04
      7.19568180e-03 3.39236949e-03 2.24015210e-03 -4.96995123e-03
      5.60023915e-03 4.19671321e-03 -1.77304307e-03 -8.16812739e-03
      5.63380960e-03 5.03366953e-03 -1.51888293e-03 -4.91862977e-03
      -1.17671164e-02 -3.70913278e-03 1.30515033e-02 6.19877595e-03
      -1.50695238e-02 -3.24053969e-03 4.49604297e-04 5.74315200e-03
      1.28758082e-03 -3.71141592e-03 1.10568814e-02 7.53985485e-03
      -2.85441778e-03 -1.35553358e-02 -1.37187180e-03 -1.34709186e-03
      8.68768257e-04 -3.90039990e-03 1.80466834e-03 6.06657704e-03
      4.54813708e-03 -2.02609590e-04 -2.30756542e-03 3.04822437e-03
      5.48639987e-03 3.22473701e-03 -8.41325708e-03 -1.09527810e-02
      5.70043176e-03 1.02359205e-02 1.91698072e-03 -2.04166630e-03
      -1.12898349e-04 1.24228513e-03 4.11545159e-03 1.93437177e-03
      9.16250283e-04 7.64034921e-03 1.20749825e-03 7.03979575e-04
      1.52801478e-03 -1.39749912e-03 -2.51696166e-03 -5.94399450e-03
      -1.40903972e-03 2.99443025e-03 3.24777560e-03 6.99998811e-03
      6.66941982e-03 3.58553603e-03 4.08417050e-04 4.18271869e-03
      -1.78342481e-04 2.73589417e-03 8.00825562e-03 4.65998938e-03
      2.92060338e-03 -1.92861655e-03 3.37386085e-03 1.20154128e-03
      -4.64196026e-04 -4.30401927e-03 -4.69019217e-03 -4.67779022e-03
      -3.60526843e-03 4.24285280e-03 4.71072737e-03 6.98785484e-03
      1.30956369e-02 1.25393315e-04 -1.59596722e-03 -2.71733431e-03
      -3.46484268e-03 4.38022101e-03 7.44852144e-03 6.92293921e-04
      2.18941504e-03 6.30847830e-03 3.56183993e-03 -7.28132785e-04
      -4.12002951e-03 -5.55061921e-03 -1.18791021e-03 1.36259831e-02
      8.64446908e-03 1.10802352e-02 1.10487752e-02 4.02375916e-03
      5.35550062e-03 -2.92527792e-03 -5.27125457e-03 3.05777858e-03
      -3.08789685e-03 -3.60830710e-03 -2.48321425e-03 8.85291118e-03
      -9.82348691e-04 1.75462384e-03 2.16484512e-03 -7.02108769e-03
      1.01348059e-03 1.02549661e-02 -1.42708735e-03 -5.56391291e-03
      7.26193935e-03 5.10912156e-03 -4.39314079e-03 -7.79756112e-04
      -2.02296698e-03 1.78885448e-03 6.49115350e-03 -2.25243997e-03
      4.48762113e-03 3.44699388e-03 -2.24149087e-03 -9.11832729e-04
      1.50752335e-03 -6.79598609e-03 -2.30075349e-03 1.39262164e-02
      6.33241236e-03 2.63430318e-03 1.08745345e-03 4.71652066e-03
      -4.49394621e-03 -5.08097745e-03 -3.92508646e-03 4.67889197e-03
      1.15824128e-02 2.38049240e-03 1.11795706e-03 6.01655163e-04
      3.81505699e-04 -5.45564340e-03 -7.61151128e-03 1.79247378e-04
      5.17673278e-03 8.83328542e-03 5.05611347e-03 4.83685452e-03
      6.21272717e-03 5.21180220e-03 -7.99415819e-03 -1.27712367e-02
      -2.75906967e-03 9.02563334e-03 8.78473464e-03 1.05250375e-02
      5.78457443e-03 -6.12091855e-04 -2.55934848e-03 -4.27724374e-03
      -4.96295141e-03 6.45042351e-03 8.34070332e-03 4.81215585e-03
      5.08136000e-04 -1.16595207e-03 -5.46675920e-03 3.53421969e-03
      -1.37119507e-03 -6.05401210e-03 3.58610274e-03 1.03138080e-02
      -2.19670637e-03 -5.15065156e-03 3.69392964e-03 -6.71279710e-03
      -7.66157312e-03 -7.75704626e-03 -2.87471944e-03 -8.61398038e-03
      -3.09904106e-03 -9.00662872e-06 1.28575834e-04 5.53757278e-03
      3.51560535e-03 1.52762188e-03 -7.73042534e-03 -4.21383837e-03
      -8.82533658e-03 7.84755801e-04 5.81565872e-03 -3.94444773e-03
      6.77535636e-03 9.38490906e-04 4.87264432e-03 -7.16875447e-03
      -1.60973857e-03 -6.33002119e-03 5.35703613e-04 5.87109616e-03
      -3.97720654e-03 8.97208601e-03 6.17289543e-03 4.51991474e-03
      -5.21404156e-03 1.65642978e-05 -4.66162851e-03 4.03903052e-03
      -3.03939101e-03 1.96749880e-03 5.99799259e-03 8.43930803e-03
      3.29488213e-03 2.36758846e-03 8.17067176e-03 -2.41066143e-03
      9.50407761e-04 -6.06623758e-03 -1.06223905e-03 -3.44878598e-03
      8.43441929e-04 -6.87460694e-03 -6.01676386e-03 1.15119887e-03
      3.22034233e-04 -4.13265079e-03 -1.03488448e-03 -2.44635693e-03
      3.19656869e-03 1.29828304e-02 2.20270408e-03 2.94428528e-03
      8.16454366e-03 8.99684906e-04 5.68298902e-03 -1.14390021e-03
      1.94442784e-03 -5.87616768e-03 -1.24712312e-03 -3.86617845e-03
      -4.48746141e-03 5.22552431e-03 5.02784085e-03 2.35415041e-03
      -7.09398242e-04 7.83921569e-04 -1.49784226e-03 1.16099429e-03
      -1.00809783e-02 -4.38141078e-03 -3.06855305e-03 -3.26193194e-03
      4.42752335e-03 -4.52688849e-03 -6.97006052e-03 5.73178660e-03
      5.51384920e-03 -7.53666135e-03 7.07337912e-03 -8.03345814e-04
      -7.38785788e-03 4.77843918e-04 3.32002202e-03 1.02987036e-03
      -2.83784280e-03 3.05416947e-03 -1.89336867e-03 -5.65166352e-03
      2.93149706e-03 7.39459507e-03 7.16109714e-03 -9.45495209e-04
      -1.07095586e-02 6.54256297e-03 1.54156657e-02 -5.60885528e-04
      3.82546638e-03 2.97396444e-03 -4.97288164e-03 2.62567797e-03
      -1.96023122e-03 -5.14942221e-03 1.03327790e-02 2.15867162e-03
      -1.09288068e-02 -4.05569980e-03 -5.83416410e-03 -1.98603538e-03
      1.60367519e-03 4.44663595e-03 4.65993246e-04 3.30160721e-03
      4.91413008e-03 -2.76149693e-03 2.43833149e-03 1.79829274e-03
      2.63748516e-04 1.91752042e-03 -5.27770666e-04 -9.45741311e-03
      5.48285083e-04 5.67219080e-03 -2.59100669e-03 -5.15573705e-03
      -2.69103982e-03 -2.40823417e-03 7.32498663e-03 4.10506409e-03
      -1.24663964e-03 -4.82306629e-03 -6.00609835e-03 -3.26578366e-03
      -5.86687820e-04 -4.19720542e-03 3.10715334e-03 5.22391777e-03
      7.22144917e-03 -2.40355870e-03 5.80200576e-04 -2.86657538e-04
      -1.35780068e-03 2.82512046e-03 4.07662243e-03 -4.63641773e-04
      3.49894166e-03 7.66279968e-03 6.91828085e-04 2.05338420e-03
      8.04858166e-04 4.60701389e-03 -3.36228870e-03 1.01132244e-02
      -2.63440213e-03 3.08871106e-03 3.32671520e-03 -8.31326842e-03
      -1.07537899e-02 -2.68791802e-03 -8.49733129e-04 -3.21259792e-03
      6.89708628e-03 1.94532902e-03 -1.97775476e-03 -7.93221407e-03
      -1.27612520e-02 -7.83768203e-03 -7.66763769e-05 7.73348147e-03
      -1.22920983e-02 2.12236401e-03 -4.63164831e-03 -5.19035617e-03
      5.07760188e-03 -1.70371938e-03 5.46325138e-03 7.89493416e-03
      1.42353389e-03 -1.30576384e-03 4.94401995e-03 -2.82923080e-04
      7.04596564e-03 1.83816999e-03 -1.45424455e-02 -2.65492871e-03
      2.65379902e-03 2.09688162e-03 -9.88295942e-05 -2.70452991e-04
      -5.02916868e-04 9.49888024e-03 -3.76041932e-03 -7.46994233e-03
      7.65485980e-04 7.58093875e-03 -2.01575132e-03 -1.26117812e-02
      7.99609290e-04 -7.32299779e-03 5.37078176e-03 2.40262761e-03
      -1.27127338e-02 1.13729562e-03 -1.04982208e-03 6.37469161e-03
      2.29065816e-04 4.49390709e-03 7.05445360e-04 2.85116537e-03
      -4.10642329e-04 -8.91804229e-03 -2.67954264e-03 1.53751601e-03
      -1.59448630e-03 1.22275343e-03 -5.91248786e-03 -1.46089529e-03
      -2.11574283e-04 2.06523691e-03 5.60242962e-03 3.31379822e-03
      -7.86922639e-04 -1.92679663e-03 -5.22502174e-04 -2.93523585e-03
      -1.62594568e-03 -4.97691240e-03 -1.43245712e-03 -4.79165744e-03
      -1.18399679e-04 2.41243886e-03 4.03772108e-03 -1.02187018e-03
      -4.21515806e-03 4.20281943e-03 -5.65091090e-04 -3.90467281e-03
      2.96602724e-04 -3.31211922e-04 8.70625675e-03 -1.92496111e-04
      -4.64663515e-03 -6.79809833e-03 -7.36065488e-03 -5.72877517e-03
      5.59387123e-03 4.22827760e-03 5.14488388e-03 5.61192445e-03
      -6.12323545e-03 -6.24497328e-03 1.57999352e-03 -3.24085727e-03
      -4.55414956e-05 2.84840120e-03 7.03375880e-03 -2.68694828e-03
      4.76857601e-03 8.99396138e-04 -5.17807435e-03 -1.01933628e-03
      1.42829271e-03 1.07385069e-02 9.56715885e-05 3.31181288e-03
      -7.51192274e-04 1.38494270e-02 3.04854871e-03 -6.80876756e-03
      -2.80376710e-03 -7.42284954e-03 -4.69894381e-03 9.04112181e-04
      8.74836172e-04 1.39689981e-03 8.43977835e-03 5.66146430e-03
      -5.29096555e-03 7.40598422e-04 4.21661697e-03 8.56464636e-03
      6.90361136e-04 7.78271991e-04 -1.53534798e-04 9.08367429e-03
      5.96423773e-03 -6.99555385e-05 -4.51238407e-03 1.94764137e-03
      1.12751564e-02 -1.72097032e-04 -4.91957460e-03 6.66513806e-04
      1.09814797e-02 -1.96663989e-03 -7.84988515e-03 -5.01697510e-03
      -2.30154386e-04 5.69256162e-03 8.10834172e-05 -2.63283867e-03
      1.93319528e-03 3.35379853e-03 1.75912399e-03 -1.48669956e-03
      1.65972218e-03 7.42593734e-03 1.20674241e-02 -1.00652513e-03
      -1.01491706e-02 -5.39588183e-03 -1.91300432e-03 1.16723485e-03
      -4.95712087e-03 -5.14546409e-03 -4.51320928e-04 2.36954726e-03
      9.29555914e-04 -1.39097357e-03 2.32784590e-03 6.88935071e-03
      3.22600151e-03 -5.30379219e-03 6.45431282e-04 6.53447350e-04
      2.23722239e-03 7.95952103e-04 9.11652867e-04 2.19555455e-03
      -6.72079565e-04 7.55174691e-03 3.24349618e-03 -9.36833560e-04
      -5.69327828e-03 3.14674992e-03 1.19479396e-03 -1.57673680e-03
      3.37245176e-03 8.16868444e-04 1.75541034e-03 -6.95385411e-03
      -3.11065139e-03 -3.62483831e-03 -1.16177334e-03 -1.28571945e-03
      -2.32625240e-03 -5.16088970e-04 -2.68072169e-03 7.28574116e-04
      -5.87248988e-03 8.16450862e-04 -4.95210849e-03 -1.96991581e-03
      4.69032954e-03 1.41226989e-03 -4.27159434e-03 -1.23622781e-03
      -2.77107488e-03 7.94446561e-03 2.86923023e-03 -4.30095010e-03
      7.08993291e-03 4.13017813e-04 -2.59901211e-03 -5.72046032e-03
      -3.79363867e-03 -2.88399821e-03 3.32234171e-03 -2.89041619e-03
      2.62501324e-03 1.53663638e-03 6.65777712e-04 -2.02618702e-03
      -3.62719805e-03 -5.56612096e-04 5.02304314e-03 1.05859684e-02
      4.43462841e-03 -4.78570862e-03 1.51820842e-03 6.04148163e-03
      1.16786985e-04 -4.51282971e-03 -3.94685473e-03 4.67794761e-03
      4.64969967e-03 -6.37470046e-03 -3.93858273e-03 4.89856349e-03
      -2.02254232e-04 1.67036997e-04 6.28212816e-04 -1.53767236e-03
      -3.29578412e-03 2.90302583e-03 -8.56741215e-04 1.01212589e-02
      -9.52697184e-04 3.59969563e-03 2.85621476e-03 2.32835696e-03
      2.47320929e-03 1.40701467e-03 7.51199247e-03 5.40132821e-03
      1.10179866e-02 4.10398608e-03 3.38426954e-03 1.64588063e-03
      2.13650544e-03 -1.00813033e-02 5.21103432e-03 6.59538107e-03
      -8.61811684e-04 1.06013368e-03 5.08235535e-03 -1.22795999e-03
      4.45804297e-04 4.17838246e-03 -5.22105256e-03 1.51997840e-03
      1.12391636e-02 5.62345376e-03 1.31100486e-03 5.27955033e-03
      1.85106369e-03 -2.11795326e-03 -1.62334915e-03 -7.19868985e-04
      -2.05507805e-03 1.75995822e-03 5.58338710e-04 -3.43861664e-03
      -1.35838205e-03 1.09029775e-02 4.10709437e-03 5.38652064e-03
      3.55158676e-03 6.45761890e-03 3.46983550e-03 -1.14845950e-03
      -4.78494726e-03 1.97671447e-03 -2.18183326e-04 -5.07926056e-03
      -8.86784226e-04 -5.12988400e-03 2.28427793e-03 1.73191447e-03
      -4.28114814e-04 -3.37051251e-03 1.92352082e-03 5.75865619e-03
      2.17100233e-03 1.98721397e-03 3.37465061e-03 1.09841838e-03
      6.03891537e-03 4.12642211e-03 -2.35778000e-03 3.80338961e-03
      5.64413099e-03 -3.74192419e-03 3.62680621e-05 -3.32895806e-03
      2.86606082e-04 -4.43667360e-03 1.85822428e-03 -1.12474873e-03
      -3.79125052e-03 6.09188620e-03 1.80055469e-03 2.77998392e-04
      -1.08368404e-03 1.59166707e-03 -3.22337099e-03 -1.16365950e-03
      -3.09939584e-04 -1.12148910e-03 6.68609515e-04 3.18544847e-03
      1.16338581e-03 -4.49388521e-03 1.79827679e-03 -2.42493860e-03
      -8.00278096e-04 -3.78677016e-03 -6.04046462e-03 -6.93964830e-04
      3.37897707e-03 4.15194593e-03 1.15246873e-03 -3.10359662e-03
      -3.68417567e-03 5.34377992e-03 1.94933882e-03 -4.73890128e-03
      7.41729513e-03 -3.44901287e-04 3.88447917e-03 1.15432683e-03
      -4.28788504e-03 -8.11677077e-04 1.47006824e-03 2.43413425e-03
      -1.81201892e-03 4.31830157e-03 -6.98561454e-03 2.07493012e-03
      -5.02988975e-03 -2.85879662e-03 -1.57764577e-03 -3.37290257e-04
      4.37193224e-03 1.28142466e-03 3.51698790e-03 -4.62287484e-04
      2.90704169e-03 9.11251549e-03 1.52116979e-03 3.98809882e-03
      6.29166514e-03 4.34385054e-03 -2.81843799e-03 4.98498091e-03
      -2.22445326e-03 5.48378192e-03 7.49829318e-03 1.08935405e-04
      6.05893496e-04 -2.39325687e-03 3.87304369e-03 -3.29232472e-03
      1.16008483e-02 8.61358247e-04 7.92458374e-03 4.66474425e-03
      1.59841124e-03 -2.81826220e-03 3.44923325e-03 -2.77039711e-03
      6.29349286e-03 7.19275558e-03 -8.49285978e-04 3.65564483e-03
      -4.00295621e-03 -4.35137236e-03 -3.88695695e-03 9.41163115e-03
      2.77357129e-03 7.08106067e-03 2.02791765e-03 -5.69695327e-03
      4.91798250e-03 -3.57674062e-03 -1.60402292e-03 -3.61529901e-03
      1.24753024e-02 -7.65362848e-03 3.95104894e-03 2.14757794e-03
      -7.75918073e-04 3.54233361e-03 -1.85067598e-02 -6.48999913e-03
      -8.10763985e-03 3.98569461e-03 -5.29359560e-03 7.07386201e-03
      1.72768126e-03 -2.05918401e-03 -2.47077318e-03 4.81098378e-03
      -6.85039768e-03 2.98094732e-04 2.35825474e-03 -4.41772537e-03
      4.41748556e-03 2.87829596e-03 -2.35483586e-03 1.11242989e-03
      -6.29290706e-04 -3.95698240e-03 -6.80345763e-03 3.25075863e-03
      6.84794795e-04 8.52120575e-03 1.42370164e-03 1.42989983e-03
      -6.19788328e-03 3.97756882e-03 -3.54280951e-03 -5.98662859e-03
      8.03426665e-05 -1.05199739e-02 3.43392999e-03 2.90665310e-03
      -1.70368864e-03 -7.02261552e-03 -2.82626745e-04 7.24718720e-03
      -9.96184722e-03 7.58409093e-04 -8.19394365e-03 5.65891713e-03
      3.95411800e-04 -4.95245680e-03 -3.01052560e-03 6.49661641e-04
      -3.70994280e-03 -2.18215538e-03 4.51238779e-03 2.63472646e-03
      7.31653301e-03 1.28348905e-03 -6.10316265e-03 1.19222200e-03
      4.26726975e-03 -5.41183725e-03 4.42271773e-03 9.94093530e-03
      -1.79581938e-03 6.17040973e-03 9.04734363e-04 -2.20720703e-03
      -4.67800302e-03 -2.29524705e-03 -3.02551198e-03 2.87196692e-03
      4.29587299e-03 -4.07164637e-03 7.53907114e-03 -2.94073197e-05
      -2.62631266e-03 1.17767625e-03 -8.14421196e-03 -6.00141892e-03
      6.81267073e-03 1.11737503e-02 -5.55904396e-03 1.96456723e-03
      6.82457874e-04 -4.50970093e-03 2.48470390e-03 3.36398114e-03
      -3.10634589e-03 -1.99650228e-03 6.15832768e-03 1.48085746e-04
      8.60171765e-03 -1.03259899e-05 -6.86453015e-04 -1.67099549e-03
      -7.90038332e-03 -5.39878476e-03 -8.19064502e-04 6.47186022e-03
      7.33767962e-03 6.31810958e-03 3.58497840e-03 -2.93322373e-03
      5.24960808e-04 -8.98945332e-03 -4.06312943e-03 -1.08764097e-02
      4.31896094e-03 -6.05542387e-04 -4.43358527e-04 -1.58174394e-03
      -3.39133292e-03 4.69672307e-03 -4.59248200e-03 -6.56617573e-03
      -4.60585998e-03 2.85971421e-03 3.16706765e-03 6.65287441e-03
      2.68426212e-03 -3.31617356e-03 -9.87032894e-04 -1.69048598e-03
      -5.36299217e-03 -1.46338181e-03 1.05832396e-02 5.18233748e-03
      2.63840752e-03 -4.69262304e-04 -9.75080393e-03 -1.01661950e-03
      -1.94165259e-04 -1.93360879e-03 -1.13952318e-02 3.34180077e-04
      -5.57198469e-03 -1.60354795e-03 2.44127936e-03 -6.28545275e-03
      1.10019697e-03 -1.59686024e-03 -3.52849136e-03 -1.53155171e-03
      7.19244732e-03 7.40900030e-03 4.55931062e-03 4.03200462e-03
      -9.41657275e-03 -2.60980427e-03 -5.19755157e-03 2.73565110e-03
      -6.96656667e-03 2.59228214e-03 3.44731542e-03 4.19639051e-03
      3.75076849e-03 -8.51636566e-03 7.88750034e-03 1.08657684e-02
      -9.97458585e-03 -7.63891079e-03 -5.00741787e-03 -8.21385905e-03
      4.24687052e-03 4.18657204e-03 -4.87608276e-03 6.33205427e-03
      7.68750720e-03 -7.14222109e-03 3.36996093e-03 6.50897436e-03
      -4.74120141e-04 -1.42873975e-03 -8.34474922e-04 -5.02329925e-03
      8.13030347e-04 -3.64381773e-03 -6.47665840e-03 -2.91880290e-03
      3.60908126e-03 -1.84661464e-03 2.05187476e-03 -2.82285083e-03
      -7.14077242e-03 6.62862370e-03 5.64239221e-04 -3.49374604e-03
      -2.00033755e-04 1.01831520e-03 3.44329746e-04 -5.69000980e-03
      8.14180996e-04 -1.38157967e-03 2.73924251e-03 3.51385516e-03
      -7.49812135e-03 2.77658715e-03 1.65844103e-03 2.26941449e-03
      -1.88132486e-04 -1.70843879e-04 -2.43141945e-03 1.91661785e-03
      5.43726236e-03 3.69371939e-03 3.47448536e-03 8.83214525e-04
      6.97012234e-04 2.46996409e-03 2.11152993e-03 -9.59760696e-03
      -3.44931148e-03 6.13166776e-04 -4.66742599e-03 -2.99614831e-03
      -4.08645859e-03 -1.73608295e-03 -2.27337354e-03 -1.27475220e-03
      -9.56456270e-03 -4.40680934e-03 -8.97619221e-03 4.33689868e-03
      -1.88187591e-03 -6.27224194e-03 -1.67322622e-04 2.82506319e-03
      3.92427715e-03 3.72748356e-03 3.35566374e-03 1.05214603e-02
      6.07431866e-03 2.54930509e-03 5.34074521e-03 -2.03224597e-03
      3.15073435e-03 7.16645736e-04 -4.42115730e-03 6.53651485e-04
      8.20214581e-03 -2.78993999e-03 -9.66280873e-04 8.11185408e-03
      5.09624882e-03 6.26677275e-03 4.02865512e-03 6.22931293e-06
      -8.75524827e-04 2.06700992e-03 1.80168392e-03 -2.65795598e-03
      -4.70743864e-04 -3.12098139e-03 6.35087211e-03 -3.79813428e-04
      -1.36148762e-02 -9.33477841e-03 1.50841579e-03 -2.20856536e-03
      -6.27021305e-03 4.43208730e-04 -1.64241018e-03 -5.35607251e-05
      -2.85325316e-03 -7.99812190e-03 -6.41279970e-04 2.83292984e-03
      1.70211971e-03 -2.21581990e-03 6.90844329e-03 2.96609011e-03
      7.95282982e-03 -5.11185359e-03 -5.85178519e-03 2.01004231e-03
      -1.45976129e-03 5.15378965e-03 6.28868444e-03 -8.75378435e-04
      4.01772838e-03 9.27034486e-03 4.83108946e-04 -1.11297173e-02
      6.22184161e-05 7.44346762e-03 6.39017532e-03 -5.23302180e-04
      1.70901971e-04 1.53401203e-03 4.38689860e-03 -4.84808953e-03
      -4.61043790e-03 9.72242001e-03 7.98086263e-03 1.04229348e-02
      7.30265165e-03 -7.17986142e-03 2.75960565e-03 6.30655140e-03
      -2.73552095e-03 -4.59058385e-04 3.61400307e-03 1.39768748e-03
      -2.91470042e-03 1.92426506e-03 -7.05541624e-03 -4.55773639e-04
      5.89695247e-03 2.37080455e-03 2.07129007e-04 2.41302210e-03
      -6.87522441e-03 -3.24822176e-04 -4.41148784e-03 1.44703931e-03
      -1.80070475e-03 2.25480879e-03 2.49659596e-03 3.15274415e-03
      3.28355539e-03 5.69705991e-03 -9.74361610e-04 8.59358988e-04
      5.21667476e-04 4.76053078e-03 1.99954771e-03 8.35767202e-03
      -2.87808129e-03 4.95638372e-03 -7.69736851e-03 1.69409241e-03
      1.24912697e-03 3.97065654e-03 -2.53475955e-05 1.27064879e-03
      4.57744673e-03 -5.38607826e-03 -3.52478749e-03 -8.70684255e-03
      2.06325133e-03 8.51569045e-03 9.22505092e-03 -1.54279856e-04
      1.20364630e-03 7.20773218e-03 -3.45397298e-03 -4.29162383e-03
      -9.34359524e-03 1.04286550e-02 1.06679667e-02 1.81449228e-03
      -6.83856336e-03 5.87740168e-03 2.90011801e-03 -5.12615778e-03
      6.15610601e-03 1.40552165e-03 -2.54701287e-03 3.09843966e-03
      3.84378503e-03 -2.67703831e-03 1.26573187e-03 -8.06376524e-03
      -4.72424552e-03 5.81661472e-04 2.32943357e-03 7.97853898e-03
      3.54410522e-03 1.71794242e-03 -2.35972507e-03 5.50711295e-03
      5.10364771e-03 2.71953642e-03 -6.46418007e-03 -1.35804424e-02
      7.60837598e-03 4.57087206e-03 4.08807350e-03 -4.50218702e-03
      6.52342103e-03 -3.02327774e-03 9.22720530e-04 1.74520875e-03
      -2.26740679e-03 5.57299983e-03 1.00519881e-02 4.86433459e-03
      -4.10867156e-03 4.38643806e-03 -7.25262100e-03 -3.58453998e-03
      -2.39991467e-03 -4.54762159e-03 4.52363770e-03 3.64848622e-03
      2.29454320e-03 -4.24625631e-03 4.66462970e-03 -6.80891518e-03
      3.10566253e-03 2.03820970e-03 1.75862294e-03 2.24508950e-03
      1.30986618e-02 8.08257610e-03 -6.08418090e-03 6.68187765e-03
      -4.93596680e-03 -3.99458251e-04 5.01217972e-03 1.33054005e-03
      -1.77223585e-03 3.12322075e-03 -5.53658558e-03 -9.12008248e-03
      -2.82666297e-03 2.08628667e-03 9.12882970e-04 7.26098288e-03
      4.98719513e-04 -2.96456693e-03 6.18154090e-03 4.06314526e-03
      -2.35525123e-03 3.31105455e-03 -1.05523951e-02 5.03551355e-03
      3.42234364e-03 7.55612913e-04 -6.26274559e-04 6.11774391e-03
      -2.87159905e-03 -4.64584073e-03 -7.76164467e-03 1.67562743e-03
      1.67414127e-03 3.71896219e-03 -1.33346370e-03 -4.26127715e-03
      4.73486306e-03 -5.80677530e-04 -1.27706595e-03 -6.61357492e-03
      1.79481308e-03 1.05493920e-04 -1.32087339e-03 -5.73206553e-03
      4.49714134e-04 -3.85272340e-03 1.12137175e-04 -1.54127262e-03
      -1.79380411e-03 -2.91831279e-03 2.00908631e-03 -3.14639445e-04
      4.94051538e-03 -8.82622087e-04 1.92240637e-03 3.69422021e-03
      3.14402184e-03 -2.21962249e-03 4.12543863e-03 -1.85911835e-03
      -2.86595500e-03 -1.15806877e-03 -2.05483241e-03 -2.50854716e-03
      -2.52689375e-03 3.53607931e-03 -3.83531046e-03 -2.21047856e-04
      -2.21799966e-03 -4.05060966e-03 3.49572627e-03 4.89709293e-03
      6.45081652e-03 2.29189638e-03 4.02043853e-03 1.50819262e-03
      -4.17738222e-03 -1.89348205e-03 -3.28905066e-04 6.57295948e-03
      -1.78647193e-03 9.65043623e-03 5.68556460e-03 7.77701288e-03
      -2.38699722e-03 8.60600441e-04 9.72880889e-03 5.27163642e-03
      6.40913425e-03 -6.08858233e-03 1.73692766e-03 -7.62236351e-03
      -3.91636742e-03 -2.61420477e-03 -3.99427256e-03 -5.16218599e-03
      -5.02367038e-03 5.59903099e-04 1.88395934e-04 6.63311873e-03
      2.40203156e-03 3.99155339e-04 -3.63785401e-03 1.72397157e-03
      5.24022710e-03 -4.27379925e-03 1.64569158e-03 -7.71008618e-03
      4.08390211e-03 -2.12388975e-03 -8.14795215e-03 -5.07048517e-03
      -6.53891126e-03 -5.45689557e-03 2.69103423e-03 -6.86016027e-03
      2.84289301e-04 2.35370174e-03 9.71399434e-03 -4.47734632e-03
      2.09387532e-03 2.15207203e-03 -1.02114945e-03 3.25189414e-03
      -6.48834230e-03 -7.15709932e-04 -4.35681548e-03 6.56822522e-04
      -9.30074137e-03 8.10770877e-03 2.57885666e-04 2.62314710e-03
      -3.84209468e-03 -1.25810038e-02 1.53698586e-03 -1.36077148e-03
      3.65974236e-04 3.26868868e-03 7.11509027e-03 3.50869563e-03
      4.15718229e-03 -3.55029665e-03 -7.50430627e-03 3.20678606e-04
      -2.19672569e-03 -1.14890770e-03 -7.19900196e-03 1.28187041e-03
      1.05225958e-03 -1.06720114e-03 -4.56099398e-03 -1.79354835e-03
      -2.73099751e-03 -2.06587254e-03 -4.03050845e-03 -1.13497088e-02
      2.03498802e-03 1.47947879e-03 -2.15921458e-03 6.06952672e-05
      -6.12919498e-03 6.37323223e-03 -5.58621669e-03 -1.15713768e-03
      -6.74046203e-03 3.15546151e-03 4.57681296e-03 -9.76753072e-04
      -4.70366888e-03 -1.61449169e-03 4.19220794e-03 2.69192853e-03
      1.86241674e-03 -1.11536505e-02 -4.62178886e-03 3.95412836e-03
      2.84209236e-04 2.28490331e-03 -7.51281390e-03 6.87520066e-03
      4.33891267e-03 2.00348743e-03 -3.49208759e-03 5.21017285e-03
      1.12371764e-03 -7.33172521e-04 2.77741393e-03 6.17493456e-03
      -2.24704063e-03 3.99733847e-03 4.92447894e-03 5.54900756e-03
      5.81199815e-03 1.30643381e-03 -3.06419469e-03 1.12517504e-03
      -4.82474919e-03 -7.64613925e-03 1.93139422e-03 5.62277716e-03
      -4.99897578e-04 -2.63295067e-03 4.31578560e-03 5.62866509e-04
      5.09964628e-03 1.48401596e-04 3.80294456e-04 5.65078668e-03
      5.07948222e-03 5.20363636e-03 7.31496047e-03 7.20897689e-03
      -3.04985512e-03 5.42428112e-03 -3.10401176e-03 1.34216365e-03
      -3.77832912e-03 4.63544065e-03 -5.42738335e-03 1.73364370e-03
      3.65834916e-03 -1.58005429e-03 1.93331926e-03 -1.92483456e-03
      -6.62132679e-03 -5.12800319e-03 1.02753681e-03 -8.84320936e-04
      -3.17599252e-03 -2.43213354e-03 -4.18073963e-03 5.49020944e-03
      6.50593592e-03 -4.07376174e-05 3.48308682e-03 2.80571845e-03
      1.29984692e-03 7.23791355e-03 5.68864122e-03 -4.70114592e-03
      4.40566242e-03 -1.53791858e-03 -2.83116032e-03 -2.93901237e-03
      -2.70732725e-03 -9.27790999e-03 7.49436615e-04 -1.22439477e-03
      -4.32304246e-03 -2.53063114e-03 3.35927447e-03 -3.40120611e-03
      3.31772887e-03 5.72685758e-03 -5.08937659e-03 3.54640710e-04
      -1.09755411e-03 -1.07341520e-02 -3.20126349e-03 2.37994292e-03
      2.53770454e-03 -1.00763398e-03 1.57091650e-03 6.08243048e-03
      8.88415333e-03 -5.97740477e-03 -1.10669741e-02 -9.29192919e-03
      -2.53020087e-03 2.60537048e-03 -3.75211029e-03 7.39282137e-03
      6.53140247e-03 6.19764905e-03 2.28414289e-03 -9.19101760e-03
      -8.24088976e-03 2.37428513e-03 -2.09092279e-03 -2.52840621e-03
      4.19910578e-03 -1.30682849e-04 7.68944481e-03 -6.52809814e-03
      -5.39597217e-03 -1.51065411e-03 -3.81723256e-03 4.97977575e-03
      -2.97482102e-03 4.67245979e-03 5.10114944e-03 -2.32844613e-03
      -5.38471574e-03 -7.77704315e-03 -3.90771683e-03 -3.70614836e-03
      -2.62851897e-03 -4.04913444e-03 5.28692780e-03 5.72749088e-03
      8.76763952e-05 -7.04436214e-04 -6.89733867e-03 3.12972721e-03
      -3.99048120e-04 -1.73169514e-03 -4.54870192e-03 1.03043523e-02
      2.36998382e-03 -5.26396604e-03 -2.32458534e-03 -5.16170170e-03
      3.11554084e-03 5.42873330e-03 6.47017313e-03 1.25350396e-03
      3.98337329e-03 8.19891598e-03 1.15125360e-04 -2.52547557e-03
      -4.32331162e-03 1.67253194e-03 3.75510915e-03 9.32121277e-03
      -1.17358298e-03 1.18647553e-02 3.05491593e-03 -6.46575529e-04
      1.73079828e-03 -6.24157721e-03 1.07898819e-03 -1.95298868e-03
      -4.69281746e-04 -4.47841128e-03 1.73393299e-03 2.85413186e-03
      1.73780357e-03 -1.47717504e-03 -4.74230014e-03 -1.62293867e-03
      -4.00529895e-03 9.77798644e-03 -2.63368478e-03 -5.21372119e-03
      3.58701963e-03 5.66624291e-03 4.43885848e-03 1.88450306e-03
      5.93475625e-03 1.83361501e-03 9.27014451e-04 1.95118587e-03
      1.05522517e-02 6.18773699e-03 4.08040872e-03 -1.20610581e-04
      -1.14021148e-03 1.74283527e-03 -4.69699083e-03 9.48772486e-03
      -2.32380955e-03 -9.52775590e-05 3.11750639e-03 2.37173837e-04
      9.27451905e-03 -1.13142375e-03 -8.54891259e-03 2.99006875e-04
      1.22605674e-02 7.24651269e-04 3.05099483e-03 7.02158548e-03
      1.12565402e-02 5.58810169e-03 -8.27460643e-03 -7.76039902e-03
      7.05989427e-04 3.62578733e-03 -3.56669328e-03 -6.59831194e-03
      2.24461081e-03 5.43604931e-03 5.09141618e-03 -4.98120580e-03
      -1.77232933e-03 1.22885418e-03 6.52733818e-03 -4.13545035e-03
      -1.20854937e-03 4.93401196e-03 3.42674297e-03 -1.09832978e-03
      -7.86037184e-03 -2.90083955e-03 -3.61369899e-03 1.49479788e-03
      -7.99991377e-03 -2.64026877e-03 -4.94792941e-04 -4.60903253e-03
      7.65368110e-03 -7.30025303e-03 -2.13896530e-03 -1.69648614e-03
      6.23866078e-03 -1.36875431e-03 -8.62867571e-03 2.44758488e-03
      5.42841572e-03 5.49218012e-03 -1.75094884e-03 6.16671331e-03
      2.40793661e-03 1.16812335e-02 2.96098972e-03 -9.03388427e-04
      4.93121799e-03 5.15024969e-03 3.75454198e-03 -4.89924848e-03
      -1.93925272e-03 1.83942798e-03 -7.08304928e-04 -8.26532766e-03
      6.73396804e-04 -2.10086908e-03 -4.58718603e-03 7.04795914e-03
      -4.74540284e-04 -1.74530840e-04 1.20501360e-03 -5.64321352e-04
      -1.41535373e-03 3.66370566e-03 -8.00012494e-04 7.46626174e-05
      2.54446571e-03 -5.94805460e-03 -3.43822502e-03 -5.25062857e-03
      3.18556931e-03 -1.48119184e-03 2.46201106e-03 1.70268724e-03
      2.40419852e-03 1.23496186e-02 -2.12768721e-03 -2.86760827e-04
      6.19485683e-04 6.99253101e-03 -3.10235145e-03 4.97744710e-04
      -4.51082550e-03 2.02397234e-03 -2.37344136e-03 -6.74181199e-03
      -5.38398745e-03 -3.15478677e-03 3.69508431e-04 3.74248624e-03
      7.50034861e-03 -1.47157395e-03 -2.42455630e-03 -2.94781919e-03
      -2.53934693e-03 -2.30658706e-03 2.95309373e-03 8.00170656e-03
      3.46042239e-03 3.05860100e-04 -5.23793418e-03 6.59576617e-03
      8.11664294e-03 8.83987756e-04 4.62757424e-04 8.51672888e-03
      6.19287253e-04 3.43365571e-03 3.15403170e-03 -1.91694440e-03
      2.71450938e-03 -2.04906869e-03 9.81487450e-04 7.57688843e-03
      8.33154563e-03 -6.33015705e-04 4.27032402e-03 5.64813334e-03
      6.53750636e-03 1.54432387e-03 5.22472383e-03 4.92029241e-04
      -2.85862642e-03 4.30240436e-03 1.21491204e-03 1.09589985e-03
      -7.47858721e-04 -8.44813790e-03 7.50631618e-04 1.45539269e-03
      2.23260396e-03 -1.29530288e-03 -2.83418223e-03 6.15755329e-04
      -2.10693758e-03 -1.69457553e-03 -3.14887566e-03 3.50273680e-04
      -6.59247255e-03 -2.79768516e-04 7.02256011e-03 -7.38595729e-04
      5.84182446e-04 5.58661949e-03 5.89070003e-03 -8.93904420e-04
      1.20190518e-04 -5.09659003e-04 1.15492661e-03 7.68478913e-03
      1.38224824e-03 1.51496718e-03 8.57151952e-03 5.13172476e-03
      -6.39853673e-03 7.92665232e-04 2.37087533e-03 3.23632220e-03
      8.79840646e-03 -4.45734710e-03 1.14867662e-03 -5.63134393e-03
      2.06179800e-03 -3.06361984e-03 1.87731488e-03 4.24863258e-03
      -7.91262428e-04 1.01057151e-02 1.06018018e-02 -4.72288160e-03
      1.24744745e-03 1.11943635e-03 2.55437801e-04 7.22349912e-04
      -4.18505119e-03 -1.22826907e-03 -1.65229279e-03 -6.03527413e-04
      -2.15157424e-03 2.88292230e-03 7.62720010e-04 -6.64278073e-03
      -4.69545508e-03 6.35001343e-03 3.33228637e-03 4.56736004e-03
      -4.77027008e-03 -1.75714830e-03 6.20986684e-04 -5.52973291e-03
      -3.04155867e-03 -3.36746080e-03 1.64842862e-03 -5.38133504e-03
      2.56317272e-03 4.95682703e-03 -2.50110897e-04 -5.32938400e-03
